50
1
2.397224865853786469e-02
8.451032638549804688e-02
-2.526893280446529388e-02
-1.322970056207850575e-04
2.709802053868770599e-02
1.102159842848777771e-01
1.173474043607711792e-01
-9.264015592634677887e-03
1.183682084083557129e-01
-6.230630911886692047e-03
3.419470041990280151e-02
2.047943882644176483e-02
4.741067066788673401e-02
-4.487179219722747803e-03
-9.395677596330642700e-03
4.415053501725196838e-02
-1.001114398241043091e-01
1.275806427001953125e-01
-2.979546412825584412e-02
1.334578730165958405e-02
6.818955391645431519e-02
5.260960757732391357e-02
6.161560490727424622e-02
2.054960280656814575e-02
-2.064486034214496613e-02
5.102416127920150757e-02
1.334175616502761841e-01
-1.874429144663736224e-04
1.345008909702301025e-01
9.630717337131500244e-02
-1.789994165301322937e-02
9.245327115058898926e-02
-4.055496305227279663e-02
3.394430037587881088e-03
5.852728337049484253e-02
2.176144905388355255e-02
7.867126166820526123e-02
1.370374113321304321e-01
1.314617842435836792e-01
6.455518305301666260e-02
-2.302767010405659676e-03
1.110284999012947083e-01
3.038404136896133423e-02
1.298138592392206192e-02
-1.743780449032783508e-02
-1.319996081292629242e-02
-3.880828444380313158e-04
9.641562402248382568e-02
2.301681041717529297e-01
-6.100912392139434814e-02
