50
1
5.160663276910781860e-03
-2.471137419342994690e-02
1.155265979468822479e-02
-2.887033857405185699e-02
-5.080936849117279053e-02
-3.060554619878530502e-03
2.640191465616226196e-02
-3.665337499114684761e-05
-1.546503789722919464e-02
7.754062116146087646e-02
1.438627541065216064e-01
9.928166866302490234e-02
1.006953865289688110e-01
3.930428996682167053e-02
-2.028057351708412170e-02
3.671317547559738159e-02
-3.474308643490076065e-03
-7.930855266749858856e-03
6.334879994392395020e-02
-1.115013874368742108e-04
1.819936744868755341e-02
7.410261314362287521e-04
-3.134489804506301880e-02
1.390721462666988373e-02
2.423572354018688202e-02
-2.261071858811192214e-05
-3.295531496405601501e-02
6.884586066007614136e-02
6.953524053096771240e-02
-6.457679439336061478e-03
7.046619802713394165e-02
7.866176962852478027e-02
1.514526922255754471e-02
9.314366430044174194e-02
1.723465323448181152e-02
-1.101640332490205765e-02
2.827328629791736603e-02
3.324150340631604195e-03
2.021978981792926788e-02
-9.930101037025451660e-02
8.404386788606643677e-02
8.875758200883865356e-02
2.075850032269954681e-03
-1.521122734993696213e-02
6.311403959989547729e-02
7.053216686472296715e-04
-3.031153976917266846e-02
-2.956680394709110260e-02
9.740931540727615356e-02
1.303707361221313477e-01
