50
1
4.186824336647987366e-02
-9.122873842716217041e-02
-1.005924344062805176e-01
-3.402703627943992615e-02
-8.267777413129806519e-02
4.228381067514419556e-02
1.076018884778022766e-01
-7.381825894117355347e-02
-7.002910226583480835e-02
-5.920783802866935730e-02
5.529412627220153809e-02
7.997781038284301758e-02
-2.168521471321582794e-02
1.633321195840835571e-01
-8.603075891733169556e-02
-1.379569470882415771e-01
-1.298881620168685913e-01
-1.566137187182903290e-02
1.703794859349727631e-02
4.636651370674371719e-03
1.110062971711158752e-01
6.819083821028470993e-03
-2.761185914278030396e-02
5.116128548979759216e-02
-6.282800436019897461e-02
7.787182927131652832e-02
-5.845946818590164185e-02
4.425331205129623413e-02
1.917723193764686584e-02
-7.356194406747817993e-02
-7.445320487022399902e-02
-1.187060251832008362e-01
3.130874410271644592e-02
1.816752403974533081e-01
-4.416011739522218704e-03
3.256955742835998535e-02
-2.007963210344314575e-01
4.205435514450073242e-02
-1.434951871633529663e-01
-1.069734059274196625e-02
1.610879786312580109e-02
-1.201600302010774612e-02
3.607220202684402466e-02
-1.524197310209274292e-01
-1.000057160854339600e-01
1.035251095890998840e-01
-1.086090430617332458e-01
1.738522760570049286e-02
-2.097641862928867340e-02
-1.449982449412345886e-02
