50
1
-3.924955800175666809e-02
3.037009015679359436e-02
-1.754054240882396698e-02
1.793995313346385956e-02
1.152096595615148544e-02
-2.986737526953220367e-02
3.102000802755355835e-02
-4.990372806787490845e-02
4.726238548755645752e-02
2.373944735154509544e-03
7.711343467235565186e-02
3.877656534314155579e-02
7.075084000825881958e-02
-2.126189917325973511e-01
1.067754719406366348e-02
7.779405266046524048e-02
8.285162970423698425e-03
1.745424233376979828e-02
3.442274779081344604e-02
-2.287755161523818970e-02
3.164587914943695068e-02
-2.843866124749183655e-02
6.096184998750686646e-02
-5.844547972083091736e-02
-4.986749961972236633e-02
-1.877962029539048672e-03
-2.288472279906272888e-02
-1.596440933644771576e-02
-1.738554239273071289e-02
-1.481677056290209293e-03
-3.246752917766571045e-02
2.400838583707809448e-02
-1.815981417894363403e-02
4.555308818817138672e-02
1.130963861942291260e-02
-4.336608573794364929e-02
-4.519569128751754761e-02
5.813210085034370422e-02
4.296004399657249451e-02
2.416650950908660889e-02
5.459530279040336609e-02
-5.377048999071121216e-02
-2.555111423134803772e-02
3.573912009596824646e-02
-6.000355631113052368e-02
1.103251501917839050e-01
4.366029426455497742e-02
-1.054268330335617065e-01
-1.169150881469249725e-02
8.324173837900161743e-02
