50
1
-3.433568403124809265e-02
5.778105184435844421e-02
-3.516392083838582039e-03
3.889816999435424805e-02
4.187655076384544373e-02
1.148732006549835205e-02
-4.310565441846847534e-02
-6.241594627499580383e-02
-4.797083791345357895e-03
3.255635499954223633e-02
-1.150520890951156616e-02
1.129730045795440674e-02
2.104356512427330017e-02
-1.030854210257530212e-01
3.272212296724319458e-02
4.885592497885227203e-04
-7.676436216570436954e-04
-1.988673210144042969e-02
-1.296571269631385803e-02
9.914033114910125732e-03
5.220005288720130920e-03
-2.231984212994575500e-02
1.921798288822174072e-02
2.766470611095428467e-02
4.977167397737503052e-02
-4.381777718663215637e-03
2.478842437267303467e-02
-2.165479212999343872e-02
1.779446937143802643e-02
6.097891554236412048e-02
-6.124262697994709015e-03
5.933319404721260071e-02
7.661462761461734772e-03
-1.689840294420719147e-02
2.982067875564098358e-02
-4.941069521009922028e-03
1.508863177150487900e-02
-7.268501073122024536e-02
3.881005197763442993e-02
2.394296694546937943e-03
1.702285744249820709e-02
-6.463764701038599014e-03
-7.353829685598611832e-03
-6.026381626725196838e-02
5.307631567120552063e-02
2.874371223151683807e-02
2.489300817251205444e-02
5.300475284457206726e-02
2.060776017606258392e-02
3.942663222551345825e-02
