50
1
-3.179325163364410400e-02
2.248850092291831970e-02
1.973110735416412354e-01
4.813911393284797668e-02
-1.160294637084007263e-01
5.977804586291313171e-02
3.049805946648120880e-02
1.280435025691986084e-01
-8.716179989278316498e-03
-1.399965863674879074e-02
-6.245385482907295227e-02
6.069127470254898071e-02
8.682581037282943726e-02
7.551246136426925659e-02
3.649426996707916260e-02
-7.487449049949645996e-02
3.617578372359275818e-02
-2.354952320456504822e-02
1.313168406486511230e-01
-6.434335839003324509e-03
1.689386665821075439e-01
4.723135754466056824e-02
5.859283357858657837e-02
9.775238484144210815e-02
1.372019052505493164e-01
-1.115589663386344910e-01
-6.822084542363882065e-03
-3.548558568581938744e-03
2.825453504920005798e-02
6.677323020994663239e-03
-1.270695030689239502e-01
1.103552579879760742e-01
1.302396357059478760e-01
5.061182752251625061e-02
8.154580369591712952e-03
-2.716610580682754517e-02
-2.517820801585912704e-03
7.160587608814239502e-02
-2.181488089263439178e-02
6.116464361548423767e-02
-4.668067395687103271e-02
-1.929029263556003571e-02
-3.487323597073554993e-02
1.115684732794761658e-01
-2.425906248390674591e-02
2.176380902528762817e-02
-1.509394729509949684e-03
-4.941250383853912354e-02
2.196150133386254311e-03
1.180345714092254639e-01
