50
1
6.717635691165924072e-02
5.767677351832389832e-02
-3.399453684687614441e-02
-4.629606008529663086e-02
4.340907931327819824e-01
-1.201710291206836700e-02
2.629172056913375854e-02
6.668486446142196655e-02
-7.071880996227264404e-02
-3.904474154114723206e-02
9.837006032466888428e-02
7.228503469377756119e-03
1.402757316827774048e-01
-6.494551151990890503e-02
-4.630092903971672058e-02
-1.816023886203765869e-01
-3.617075681686401367e-01
1.713268831372261047e-02
-2.844091504812240601e-02
-3.829158842563629150e-03
-3.133467398583889008e-03
1.540918275713920593e-02
-1.923870593309402466e-01
7.901658862829208374e-02
1.726067811250686646e-02
5.036409478634595871e-03
8.622653782367706299e-02
3.890368342399597168e-02
1.607371680438518524e-02
9.946005046367645264e-02
-1.106409542262554169e-02
-1.209930256009101868e-01
7.576815783977508545e-02
-2.127230912446975708e-01
-1.110862493515014648e-01
2.181043177843093872e-01
1.325015425682067871e-01
-5.075446888804435730e-02
4.901821166276931763e-02
2.245906889438629150e-01
-2.946286275982856750e-02
-1.135380789637565613e-01
1.438125818967819214e-01
-2.378523163497447968e-02
-1.076625776477158070e-03
-2.205455452203750610e-01
-1.385947763919830322e-01
-4.822769388556480408e-02
6.187915802001953125e-02
-1.142154633998870850e-01
