50
1
-6.485363841056823730e-02
6.446649320423603058e-03
-7.216443121433258057e-02
-1.800600811839103699e-02
2.709927968680858612e-03
-4.868944734334945679e-02
1.839402019977569580e-01
5.642551183700561523e-02
-3.361660987138748169e-02
5.661767348647117615e-02
-8.526891469955444336e-02
-3.956152126193046570e-02
1.582185737788677216e-02
-6.573755294084548950e-02
-7.281225640326738358e-03
-8.623493835330009460e-03
4.523643851280212402e-02
-6.622400879859924316e-02
2.422389225102961063e-04
-9.827017039060592651e-02
4.904559347778558731e-03
7.443769276142120361e-02
-6.404995452612638474e-03
-2.264425344765186310e-02
-8.843706920742988586e-03
-4.813994280993938446e-03
-1.019482091069221497e-01
-6.478492170572280884e-02
-1.921953409910202026e-01
3.101090155541896820e-02
3.382647037506103516e-02
-9.757025539875030518e-02
-7.043791469186544418e-03
-3.006958216428756714e-02
3.181369975209236145e-02
6.534066051244735718e-02
2.710748463869094849e-02
7.464892417192459106e-02
-1.340665221214294434e-01
-3.636590763926506042e-02
2.409379743039608002e-02
6.888879835605621338e-02
-9.781749546527862549e-02
-1.470151823014020920e-02
-2.058018557727336884e-02
6.847628951072692871e-02
-9.876802563667297363e-03
3.766218945384025574e-02
8.757755160331726074e-02
2.589389309287071228e-02
