50
50
-2.203386425971984863e-01 -1.160155087709426880e-01 -1.388984769582748413e-01 -1.345286667346954346e-01 1.831300407648086548e-01 5.752253904938697815e-02 -5.488076061010360718e-02 -1.601113677024841309e-01 8.210463821887969971e-02 1.132891848683357239e-01 4.792381543666124344e-03 -3.684836253523826599e-02 -1.304512470960617065e-01 2.298663258552551270e-01 2.772009968757629395e-01 -7.368499040603637695e-02 1.921982467174530029e-01 -4.632169008255004883e-02 2.210933417081832886e-01 -1.863626241683959961e-01 1.610629260540008545e-01 2.100756391882896423e-02 1.206924840807914734e-01 -7.721909880638122559e-02 2.300321757793426514e-01 2.421683967113494873e-01 1.072320863604545593e-01 -2.425087690353393555e-01 -3.124302029609680176e-01 3.880096375942230225e-01 -1.693293154239654541e-01 1.374530494213104248e-01 -9.466540999710559845e-03 -2.046412378549575806e-01 2.142252475023269653e-01 -2.133770287036895752e-01 7.093387842178344727e-02 -1.398635953664779663e-01 3.159596621990203857e-01 2.599323391914367676e-01 9.226703643798828125e-02 -8.600331842899322510e-02 1.044582054018974304e-01 1.830485761165618896e-01 5.874903500080108643e-02 9.583745151758193970e-02 -1.564271301031112671e-01 -5.952700227499008179e-02 3.416371643543243408e-01 -1.162318587303161621e-01
-1.346279680728912354e-01 -1.051699891686439514e-01 -2.357563674449920654e-01 -6.057132780551910400e-02 9.324821084737777710e-02 1.183904632925987244e-01 -6.827133893966674805e-02 -1.226729229092597961e-01 1.954916268587112427e-01 2.056517302989959717e-01 1.362264007329940796e-01 1.339009702205657959e-01 -8.482396602630615234e-02 -4.361767694354057312e-02 1.970371007919311523e-01 -8.681707084178924561e-02 -2.435927838087081909e-01 -2.120541222393512726e-02 2.002389878034591675e-01 1.736584454774856567e-01 -1.713651977479457855e-02 1.967750936746597290e-01 -1.968662738800048828e-01 -2.051499783992767334e-01 3.269045054912567139e-02 1.131387520581483841e-02 1.518533825874328613e-01 -1.352300047874450684e-01 -2.410300821065902710e-01 1.961931772530078888e-02 -1.288209706544876099e-01 2.021669596433639526e-02 -4.159016162157058716e-02 -2.369951605796813965e-01 -2.339687943458557129e-01 -1.280000358819961548e-01 -7.131199538707733154e-02 -3.458753228187561035e-02 -7.539658248424530029e-02 1.912372410297393799e-01 -1.356030404567718506e-01 -2.126701176166534424e-01 1.815231293439865112e-01 1.408001631498336792e-01 -9.357617795467376709e-02 -1.365487370640039444e-02 1.945234835147857666e-02 -9.563392400741577148e-02 1.262534409761428833e-02 5.339286476373672485e-02
-2.136209756135940552e-01 2.190541028976440430e-01 -1.196017190814018250e-01 1.598871946334838867e-01 9.968870878219604492e-02 -3.750915452837944031e-02 1.023236885666847229e-01 -9.681933373212814331e-02 1.492747515439987183e-01 -9.580186009407043457e-02 2.073591947555541992e-01 2.153817117214202881e-01 -9.720626287162303925e-03 3.836409747600555420e-02 2.412393689155578613e-01 2.291447222232818604e-01 -1.247295066714286804e-01 1.899028271436691284e-01 -2.222563326358795166e-01 1.095795631408691406e-01 -2.858170270919799805e-01 1.283216476440429688e-01 9.067283570766448975e-02 4.640806093811988831e-02 5.102490261197090149e-02 2.973290681838989258e-01 2.520774900913238525e-01 8.706269413232803345e-02 2.137695997953414917e-01 2.360296249389648438e-01 -1.318926364183425903e-01 8.128858357667922974e-02 -2.273122072219848633e-01 -1.428796648979187012e-01 1.531336307525634766e-01 -4.875780642032623291e-02 1.947358548641204834e-01 -7.437041401863098145e-02 3.198655545711517334e-01 2.785827219486236572e-01 -1.151282638311386108e-01 1.151419207453727722e-01 2.171078324317932129e-01 -2.648639306426048279e-02 2.411814220249652863e-02 8.087178319692611694e-02 -1.455017775297164917e-01 1.549623757600784302e-01 3.892219066619873047e-01 -7.992020249366760254e-02
2.425800561904907227e-01 7.125425618141889572e-03 2.908935025334358215e-02 -4.881220683455467224e-02 3.042936623096466064e-01 -6.014616414904594421e-02 -2.198145389556884766e-01 2.169426083564758301e-01 8.274385333061218262e-02 -1.214236468076705933e-01 2.761218845844268799e-01 -1.033897697925567627e-01 4.286145791411399841e-02 -9.989557415246963501e-02 3.763056546449661255e-02 -1.538493037223815918e-01 8.138404041528701782e-02 2.745900154113769531e-01 1.259372532367706299e-01 -1.426644772291183472e-01 -2.959334291517734528e-02 -5.942657217383384705e-02 -6.638403981924057007e-03 -2.015552073717117310e-01 -1.981877386569976807e-01 -6.043418869376182556e-02 -5.347276851534843445e-02 -6.182770431041717529e-02 -8.437567204236984253e-02 3.783536255359649658e-01 -1.211798051372170448e-03 1.661644726991653442e-01 4.972364380955696106e-02 4.160585254430770874e-02 3.760501146316528320e-01 -1.950578689575195312e-01 -1.300990581512451172e-01 -1.773310750722885132e-01 -3.674033097922801971e-03 5.790127906948328018e-03 7.358663715422153473e-03 2.733137309551239014e-01 3.111411035060882568e-01 -5.265111848711967468e-02 5.753217637538909912e-02 -1.917306035757064819e-01 -1.145145297050476074e-01 5.044085532426834106e-02 2.358030080795288086e-01 1.885520219802856445e-01
-7.899195700883865356e-02 -7.731886953115463257e-02 -4.257699102163314819e-02 -1.115482077002525330e-01 6.461919099092483521e-02 1.860519200563430786e-01 2.575365826487541199e-02 -3.319463133811950684e-02 -6.911356747150421143e-02 -1.146436184644699097e-01 8.036157488822937012e-02 -6.892985664308071136e-03 9.312508255243301392e-02 1.811676919460296631e-01 7.655673474073410034e-02 1.770398467779159546e-01 -6.495114415884017944e-02 -1.605762690305709839e-01 1.411274671554565430e-01 -2.892395853996276855e-02 -6.601507309824228287e-03 -6.226984038949012756e-02 4.635402560234069824e-02 -8.524219691753387451e-02 -1.787795871496200562e-01 1.585763543844223022e-01 1.558857411146163940e-01 1.243291329592466354e-02 -3.196959793567657471e-01 3.876045048236846924e-01 2.606927044689655304e-02 -3.437401950359344482e-01 1.752841919660568237e-01 -2.424578964710235596e-01 1.315198242664337158e-01 -1.080939918756484985e-01 -1.049784943461418152e-01 -2.742987573146820068e-01 -1.427988708019256592e-01 5.593824759125709534e-02 1.175074055790901184e-01 -7.613582164049148560e-02 2.676383852958679199e-01 -8.172699064016342163e-02 1.464322656393051147e-01 -2.686015069484710693e-01 3.912965208292007446e-02 -3.883358836174011230e-01 2.471024990081787109e-01 2.089615911245346069e-01
-2.108082771301269531e-01 -6.117027997970581055e-02 -1.188309490680694580e-01 -3.088509663939476013e-02 -1.617476642131805420e-01 -1.855887174606323242e-01 1.617769002914428711e-01 -3.049146011471748352e-02 -1.548727452754974365e-01 1.841743439435958862e-01 4.604468122124671936e-02 4.999016970396041870e-02 -2.946382388472557068e-02 -2.017841637134552002e-01 1.357693821191787720e-01 -2.406332492828369141e-01 1.048853993415832520e-02 2.638229131698608398e-01 1.343894451856613159e-01 1.131401807069778442e-01 -5.682840943336486816e-02 2.742188870906829834e-01 -1.329695284366607666e-01 -1.877592653036117554e-01 -1.393336057662963867e-01 5.911979451775550842e-02 9.430741518735885620e-02 -1.662056893110275269e-01 2.137444019317626953e-01 2.005712687969207764e-01 1.639807373285293579e-01 2.460511326789855957e-01 -6.511082500219345093e-02 -8.624293655157089233e-02 1.910799145698547363e-01 -3.940855711698532104e-02 -2.183375358581542969e-01 1.903449594974517822e-01 -1.356744617223739624e-01 -6.287047266960144043e-02 1.908903568983078003e-01 -1.426724344491958618e-01 -4.890235140919685364e-03 -1.504849493503570557e-01 1.252172738313674927e-01 -1.063103973865509033e-02 6.544958800077438354e-02 2.413506805896759033e-01 1.327630728483200073e-01 -1.160752773284912109e-01
-1.873787492513656616e-01 1.734076589345932007e-01 2.268955670297145844e-02 5.639507994055747986e-02 3.299403488636016846e-01 4.918281361460685730e-02 9.228686243295669556e-02 1.666003763675689697e-01 -2.571505010128021240e-01 5.956709012389183044e-02 8.214899152517318726e-02 1.813614368438720703e-01 2.025275826454162598e-01 -1.076342687010765076e-01 -9.861299395561218262e-02 -1.200252398848533630e-02 1.301730796694755554e-02 3.379661217331886292e-02 -5.230166018009185791e-02 -7.101113349199295044e-02 4.521829262375831604e-02 2.094009071588516235e-01 5.116581171751022339e-02 2.234049700200557709e-02 4.451121389865875244e-02 -2.333149909973144531e-01 2.724572122097015381e-01 9.752973914146423340e-02 -6.238994747400283813e-02 -2.403864264488220215e-01 6.239167228341102600e-02 2.344985306262969971e-01 -6.762733217328786850e-03 5.073826760053634644e-02 6.536555290222167969e-02 2.808379195630550385e-02 1.292060781270265579e-02 2.891015410423278809e-01 -7.025010138750076294e-02 6.055843085050582886e-02 -1.878827810287475586e-02 4.886313527822494507e-02 -4.974887892603874207e-02 -4.513037577271461487e-02 1.926477402448654175e-01 -2.119037061929702759e-01 -2.083923369646072388e-01 -1.958369091153144836e-02 -1.253927946090698242e-01 -1.172641888260841370e-01
1.534581929445266724e-01 3.877716884016990662e-02 -2.041224241256713867e-01 7.068479806184768677e-02 2.194174099713563919e-03 2.874745428562164307e-01 -1.935154385864734650e-02 -7.912120781838893890e-03 -2.414651587605476379e-02 -1.320974677801132202e-01 4.317488055676221848e-03 1.931476742029190063e-01 7.018432021141052246e-02 1.898352615535259247e-02 6.589477509260177612e-02 -7.928591221570968628e-03 -2.308882474899291992e-01 2.826701998710632324e-01 -1.715167313814163208e-01 8.620658516883850098e-02 1.377092301845550537e-01 4.813282936811447144e-02 -7.659982144832611084e-02 -5.125137045979499817e-02 1.592507213354110718e-01 -1.251829862594604492e-01 -5.033776164054870605e-02 -2.329421229660511017e-02 6.385704129934310913e-02 9.600976109504699707e-02 -1.362558156251907349e-01 1.473440974950790405e-01 1.586748659610748291e-01 -5.263676121830940247e-02 1.772738993167877197e-02 1.676477491855621338e-01 3.067245893180370331e-02 -3.138579800724983215e-02 9.197176247835159302e-02 6.642767786979675293e-02 -2.080266326665878296e-01 -1.036311835050582886e-01 -1.563017964363098145e-01 1.489361524581909180e-01 -4.275655001401901245e-02 2.132085859775543213e-01 -5.582812055945396423e-02 1.991066187620162964e-01 -8.963952213525772095e-02 -6.918887794017791748e-02
2.622898109257221222e-02 2.024953961372375488e-01 6.779367569833993912e-03 8.458546549081802368e-02 -8.588317781686782837e-02 1.442670971155166626e-01 -2.119232863187789917e-01 2.391301989555358887e-01 -1.836043894290924072e-01 2.897534519433975220e-02 -7.327922433614730835e-02 5.842821672558784485e-03 -6.345245987176895142e-02 -2.306906878948211670e-01 2.194645255804061890e-01 -5.383377894759178162e-02 1.821698248386383057e-01 -2.954112365841865540e-02 -9.138270467519760132e-02 -2.305279672145843506e-01 1.850919127464294434e-01 8.473331481218338013e-02 7.367808371782302856e-02 9.982598945498466492e-03 -4.402624070644378662e-02 -1.314927730709314346e-02 -1.521427184343338013e-01 -2.097482979297637939e-01 1.569338589906692505e-01 1.763483583927154541e-01 8.847595006227493286e-02 1.828281134366989136e-01 6.667419523000717163e-02 1.215538382530212402e-01 1.842730045318603516e-01 1.535603702068328857e-01 -1.138230413198471069e-01 2.070403471589088440e-02 8.378055691719055176e-02 -2.956156060099601746e-02 1.315295696258544922e-01 3.146947547793388367e-02 1.358372252434492111e-02 1.766049563884735107e-01 4.841295629739761353e-02 -1.957213878631591797e-01 -1.679266840219497681e-01 -1.156067326664924622e-01 1.209655925631523132e-01 2.137274295091629028e-01
-4.404574166983366013e-03 5.326639860868453979e-02 9.847049415111541748e-02 -9.400133043527603149e-02 -2.070822864770889282e-01 -1.090754270553588867e-01 1.855572462081909180e-01 -2.163972705602645874e-01 2.446322888135910034e-01 1.610570251941680908e-01 -2.507642507553100586e-01 1.782035231590270996e-01 8.223195374011993408e-02 1.009591668844223022e-01 -9.336936287581920624e-03 2.140244990587234497e-01 -1.349591463804244995e-01 -1.697618328034877777e-02 -8.089336752891540527e-02 -1.178000420331954956e-01 8.424733579158782959e-02 -8.263806253671646118e-02 -1.959815770387649536e-01 9.409052878618240356e-02 -4.349318891763687134e-02 -2.335723638534545898e-01 -3.242390230298042297e-02 1.761143803596496582e-01 -1.152759417891502380e-01 -1.615884900093078613e-01 -2.652941942214965820e-01 -2.188115939497947693e-02 2.246980220079421997e-01 1.064545884728431702e-01 -7.823024690151214600e-02 -9.921500831842422485e-02 1.820786297321319580e-01 1.164527460932731628e-01 3.565538674592971802e-02 3.299651667475700378e-02 7.757657766342163086e-02 1.210385747253894806e-02 -2.056043893098831177e-01 -4.575802944600582123e-03 -1.048423722386360168e-01 -1.230416819453239441e-01 1.959539800882339478e-01 5.111880227923393250e-02 -2.800131738185882568e-01 -1.660780757665634155e-01
-1.224298402667045593e-01 2.363221943378448486e-01 2.151291519403457642e-01 1.889363676309585571e-01 -2.811828255653381348e-01 3.810911625623703003e-02 9.060491621494293213e-02 1.005766019225120544e-01 1.582072675228118896e-02 -1.324831843376159668e-01 1.058906093239784241e-01 -3.871414363384246826e-01 1.152472123503684998e-01 -1.551214009523391724e-01 1.096884682774543762e-01 2.388087958097457886e-01 -1.538654416799545288e-01 -2.593755424022674561e-01 2.617105282843112946e-02 3.866557031869888306e-02 1.237792894244194031e-01 -9.553249180316925049e-02 2.127212882041931152e-01 -2.283241450786590576e-01 2.053094208240509033e-01 -1.391977965831756592e-01 -1.809886395931243896e-01 -3.915618732571601868e-02 -2.787784636020660400e-01 -1.150656491518020630e-01 1.954310387372970581e-01 -4.414763301610946655e-02 1.961268633604049683e-01 -2.721590548753738403e-02 2.223676294088363647e-01 1.804657876491546631e-01 1.580002307891845703e-01 5.251541361212730408e-02 -1.123257353901863098e-01 1.322314143180847168e-01 -9.534757584333419800e-02 -6.435000151395797729e-02 -7.644021511077880859e-02 1.478167623281478882e-01 -3.306482732295989990e-01 -3.746422380208969116e-02 9.033556282520294189e-02 -3.247923851013183594e-01 -8.344274945557117462e-03 2.278121262788772583e-01
1.754768341779708862e-01 2.720092833042144775e-01 2.197439819574356079e-01 2.280447483062744141e-01 -2.068443149328231812e-01 -3.232024237513542175e-02 -7.913605868816375732e-02 -1.126425713300704956e-01 -7.460665702819824219e-02 -1.542670130729675293e-01 7.717333734035491943e-02 -3.523413836956024170e-02 -1.861855834722518921e-01 -3.872001916170120239e-02 1.545816510915756226e-01 -7.318504154682159424e-02 -9.710720181465148926e-02 1.895463615655899048e-01 -1.176917776465415955e-01 -1.924265734851360321e-02 1.275534182786941528e-01 -3.137513995170593262e-01 1.140783727169036865e-01 2.364445012062788010e-03 2.217287421226501465e-01 1.067949756979942322e-01 1.164056956768035889e-01 -2.561140246689319611e-02 1.932287514209747314e-01 -3.601338714361190796e-02 -1.803937107324600220e-01 -8.411992341279983521e-02 1.699633747339248657e-01 -2.407815158367156982e-01 -2.383961677551269531e-01 -2.317045480012893677e-01 2.910014986991882324e-01 -1.166376397013664246e-01 2.304390668869018555e-01 -1.977102160453796387e-01 -8.248335123062133789e-02 -1.822010427713394165e-01 -1.450167298316955566e-01 -2.131742537021636963e-01 2.179673314094543457e-02 1.457572132349014282e-01 -3.048394247889518738e-02 -2.938343770802021027e-02 8.240800350904464722e-02 -1.543829143047332764e-01
-1.891112178564071655e-01 2.544610500335693359e-01 4.499398171901702881e-02 -1.195897832512855530e-01 -9.452599287033081055e-02 2.338465489447116852e-02 1.187299638986587524e-01 1.986017227172851562e-01 -1.634136773645877838e-02 1.231769472360610962e-02 1.364566981792449951e-01 -4.821180552244186401e-02 5.071219429373741150e-02 -1.306606680154800415e-01 1.827662885189056396e-01 2.113456279039382935e-01 -1.595161706209182739e-01 -6.001203879714012146e-02 -8.184126764535903931e-02 -6.326276063919067383e-02 2.689064741134643555e-01 -6.281159073114395142e-02 1.674292534589767456e-01 -1.306224614381790161e-01 -2.140776962041854858e-01 1.986001059412956238e-02 -1.545671224594116211e-01 -1.309504359960556030e-01 2.658154070377349854e-01 -3.073713481426239014e-01 -8.015736192464828491e-02 -2.948291599750518799e-02 -5.761463195085525513e-02 -6.973262876272201538e-02 -2.023880928754806519e-01 2.609024755656719208e-02 2.442234754562377930e-01 1.044398769736289978e-01 2.949662208557128906e-01 2.373496741056442261e-01 7.946019619703292847e-02 -6.925790756940841675e-02 -1.780312508344650269e-01 -1.869807243347167969e-01 -2.551387250423431396e-01 3.094759583473205566e-01 -2.454574406147003174e-01 2.457582503557205200e-01 1.173261404037475586e-01 -1.567538976669311523e-01
2.021603435277938843e-01 3.976802527904510498e-02 -6.314852088689804077e-02 1.335641741752624512e-01 1.349626332521438599e-01 7.795720547437667847e-02 -1.496440470218658447e-01 -1.435771286487579346e-01 -4.616532102227210999e-02 2.098153233528137207e-01 2.699626684188842773e-01 -2.433215081691741943e-01 9.619817137718200684e-02 7.051936537027359009e-02 3.396525979042053223e-01 -1.473236083984375000e-01 2.537110447883605957e-01 9.198255091905593872e-02 -1.826841235160827637e-01 -1.563636064529418945e-01 -7.117493450641632080e-02 -1.413598507642745972e-01 -7.448568940162658691e-02 -1.949906907975673676e-02 2.007017433643341064e-01 4.309574887156486511e-02 8.577963709831237793e-02 1.960862129926681519e-01 -2.911970019340515137e-01 -7.208040356636047363e-02 -1.310856938362121582e-01 -2.107190042734146118e-01 -1.032934337854385376e-01 1.339560449123382568e-01 1.071229577064514160e-01 -2.156953513622283936e-01 -4.018917679786682129e-03 -1.490321606397628784e-01 8.121286518871784210e-03 -1.915432512760162354e-01 -1.147212907671928406e-01 -3.437926769256591797e-01 -4.786361008882522583e-02 1.175434887409210205e-02 -1.457518488168716431e-01 -9.925235807895660400e-02 -1.713048517704010010e-01 1.919698715209960938e-02 4.543667733669281006e-01 1.843539066612720490e-02
1.053804829716682434e-01 2.100274860858917236e-01 7.953522354364395142e-02 -2.106862664222717285e-01 -1.520706117153167725e-01 7.060791552066802979e-02 2.570121586322784424e-01 -2.177266329526901245e-01 3.104186654090881348e-01 -1.889546364545822144e-01 1.745660156011581421e-01 -3.303745985031127930e-01 7.124870270490646362e-02 -1.778907179832458496e-01 2.310916036367416382e-01 1.508429944515228271e-01 1.262086778879165649e-01 -1.660461574792861938e-01 -7.549992948770523071e-02 -2.898020320571959019e-04 2.112039029598236084e-01 -1.108945310115814209e-01 -2.929199635982513428e-01 -8.513118326663970947e-02 -2.152997441589832306e-02 6.740155816078186035e-02 9.485508501529693604e-02 -4.893604293465614319e-02 5.052600428462028503e-02 2.673742175102233887e-01 2.021448314189910889e-01 -3.821291327476501465e-01 2.021964639425277710e-01 -2.317942529916763306e-01 1.786880493164062500e-01 -1.436938792467117310e-01 -6.802909821271896362e-02 -3.305644690990447998e-01 -4.811279848217964172e-02 2.181858122348785400e-01 9.486981481313705444e-02 2.665853127837181091e-03 2.057854384183883667e-01 -2.192016988992691040e-01 1.550177671015262604e-02 5.789797008037567139e-02 -3.077252069488167763e-03 -3.067580759525299072e-01 9.031547605991363525e-02 1.624378263950347900e-01
-4.726107791066169739e-02 8.643418550491333008e-02 -2.356186807155609131e-01 1.458224356174468994e-01 -1.722710877656936646e-01 -9.344820678234100342e-02 -1.501573622226715088e-01 -1.965487301349639893e-01 -1.419907659292221069e-01 2.229063659906387329e-01 -1.572510153055191040e-01 9.551684558391571045e-02 9.200110286474227905e-02 -7.378134131431579590e-02 5.750605370849370956e-03 1.804586350917816162e-01 -8.910469710826873779e-02 2.247719913721084595e-01 -9.002789855003356934e-02 5.514409020543098450e-02 1.860162913799285889e-01 6.426733732223510742e-02 1.720794588327407837e-01 -1.756345331668853760e-01 -7.613095641136169434e-02 -3.190018981695175171e-02 9.163744747638702393e-02 -7.265142351388931274e-02 2.476841956377029419e-02 -1.125984936952590942e-01 -2.295723408460617065e-01 2.347944229841232300e-01 3.706436976790428162e-02 1.327153295278549194e-01 2.346555292606353760e-01 1.999033242464065552e-01 -7.092198356986045837e-04 1.895247548818588257e-01 7.696776837110519409e-02 -9.470574557781219482e-02 2.253306806087493896e-01 -2.340221777558326721e-02 -5.801936611533164978e-02 -1.471873819828033447e-01 -6.872959434986114502e-02 1.724093854427337646e-01 1.656474471092224121e-01 -1.454358100891113281e-01 -1.648942083120346069e-01 6.070565059781074524e-02
-1.440382003784179688e-01 1.291485726833343506e-01 -2.306986749172210693e-01 1.390386521816253662e-01 -6.374205648899078369e-02 1.515932381153106689e-01 5.970721691846847534e-02 -2.103813551366329193e-02 1.111763343214988708e-01 -5.062442738562822342e-03 -3.824144899845123291e-01 -1.260572969913482666e-01 2.294327132403850555e-02 -7.520975545048713684e-03 -1.838826686143875122e-01 -1.746906340122222900e-01 1.042176503688097000e-02 -5.530817806720733643e-02 -2.846144735813140869e-01 8.034686744213104248e-02 -1.412091553211212158e-01 9.824223816394805908e-02 2.431347407400608063e-02 1.250556260347366333e-01 2.511747181415557861e-01 1.308222562074661255e-01 -1.480355709791183472e-01 -5.991637706756591797e-02 -3.968741372227668762e-02 -1.167287826538085938e-01 -6.983006000518798828e-02 2.301086783409118652e-01 -1.540816873311996460e-01 2.449961453676223755e-01 -1.942386031150817871e-01 1.337752938270568848e-01 -1.072050184011459351e-01 2.033866941928863525e-01 -1.406099498271942139e-01 4.606854915618896484e-02 8.753081411123275757e-02 2.539675235748291016e-01 -2.972767688333988190e-02 -2.412441372871398926e-01 -1.816525012254714966e-01 2.586257159709930420e-01 9.662847220897674561e-02 -8.459995687007904053e-02 2.384305000305175781e-03 -1.823842525482177734e-01
2.391913682222366333e-01 1.962300986051559448e-01 2.026373706758022308e-02 5.178443714976310730e-02 3.347792103886604309e-02 -2.247706502676010132e-01 1.900412738323211670e-01 -1.513989418745040894e-01 -1.456740498542785645e-01 -1.766803264617919922e-01 3.376557026058435440e-03 9.332697093486785889e-02 1.275395750999450684e-01 1.501133292913436890e-01 -9.569591283798217773e-02 1.300463080406188965e-01 3.816940635442733765e-02 -1.849138587713241577e-01 2.278476804494857788e-01 1.822437196969985962e-01 1.573268175125122070e-01 1.966194808483123779e-01 1.214891448616981506e-01 -1.472738236188888550e-01 1.496462523937225342e-01 1.221298500895500183e-01 1.999312788248062134e-01 -1.626006215810775757e-01 -9.052265435457229614e-02 2.174845039844512939e-01 1.373385936021804810e-01 2.063160836696624756e-01 1.178395748138427734e-01 -1.706985086202621460e-01 2.331039011478424072e-01 -1.314270198345184326e-01 -2.318847924470901489e-01 1.986536085605621338e-01 -8.128242939710617065e-02 -2.205476909875869751e-01 6.763746589422225952e-02 1.672670394182205200e-01 -1.466230601072311401e-01 7.333610951900482178e-02 -9.602106176316738129e-03 -1.297086626291275024e-01 2.070210576057434082e-01 7.287880778312683105e-02 -1.126380637288093567e-01 -3.892945870757102966e-02
9.309011697769165039e-02 3.992243856191635132e-02 1.724526435136795044e-01 -1.567048728466033936e-01 4.019649624824523926e-01 7.845789939165115356e-02 2.161777168512344360e-01 -4.117895662784576416e-02 -9.594073891639709473e-02 -7.883181422948837280e-02 -2.598782181739807129e-01 2.276964336633682251e-01 -1.237426698207855225e-01 -1.918568909168243408e-01 -2.449477910995483398e-01 6.507781147956848145e-02 -2.180054932832717896e-01 2.515878677368164062e-01 2.090726643800735474e-01 1.095432862639427185e-01 1.899651885032653809e-01 4.634359776973724365e-01 2.154289484024047852e-01 -1.082749143242835999e-01 -5.940948054194450378e-02 1.657628566026687622e-01 -1.476734429597854614e-01 2.796879038214683533e-02 1.454037129878997803e-01 3.211629688739776611e-01 3.554365932941436768e-01 3.721661865711212158e-01 5.548100173473358154e-02 -1.366900950670242310e-01 9.953349828720092773e-02 -9.950800240039825439e-02 1.417640149593353271e-01 1.971076428890228271e-01 -1.600025147199630737e-01 8.955695480108261108e-02 -1.759231239557266235e-01 2.363390922546386719e-01 -2.062193751335144043e-01 3.430720418691635132e-02 3.720065355300903320e-01 1.717065423727035522e-01 6.032918766140937805e-02 6.585837900638580322e-02 -3.350391089916229248e-01 -2.647838592529296875e-01
-1.939965188503265381e-01 -2.295417189598083496e-01 -1.938363164663314819e-01 -1.439972817897796631e-01 -1.916509866714477539e-01 -1.824756711721420288e-01 3.079765737056732178e-01 -4.135474562644958496e-02 -8.952082693576812744e-02 -1.035523265600204468e-01 -1.310002207756042480e-01 -1.187183260917663574e-01 2.383738309144973755e-01 -1.642852723598480225e-01 3.867040202021598816e-02 2.938039302825927734e-01 5.654477979987859726e-03 1.116077303886413574e-01 2.705766558647155762e-01 -1.774916611611843109e-02 -2.121583521366119385e-01 -2.611598968505859375e-01 9.080067276954650879e-02 1.185226291418075562e-01 2.200397551059722900e-01 6.745888292789459229e-02 -2.987186014652252197e-01 5.501573160290718079e-02 -6.376146525144577026e-02 -9.816926717758178711e-02 -2.719191908836364746e-01 9.874480217695236206e-02 1.004882901906967163e-01 -1.366494297981262207e-01 4.279486835002899170e-02 1.559178531169891357e-01 6.779402494430541992e-02 -7.745948433876037598e-02 2.924647927284240723e-02 1.735173910856246948e-01 2.611950039863586426e-02 -1.289082020521163940e-01 -1.542108952999114990e-01 -1.447909325361251831e-01 1.473567634820938110e-01 2.780949771404266357e-01 -1.491710543632507324e-01 -3.415234014391899109e-02 -4.057622253894805908e-01 1.446217745542526245e-01
1.511363685131072998e-01 -3.948634862899780273e-02 -7.093527168035507202e-02 1.826628148555755615e-01 1.469240933656692505e-01 1.925211101770401001e-01 4.168375954031944275e-02 1.979823410511016846e-01 2.690601162612438202e-02 -2.383820712566375732e-03 9.155170619487762451e-02 2.551096677780151367e-01 -3.600082173943519592e-02 -1.315641254186630249e-01 -8.457384072244167328e-03 -2.218378037214279175e-01 8.914096653461456299e-02 -4.655658081173896790e-02 3.042671978473663330e-01 1.987752467393875122e-01 -2.422791421413421631e-01 2.279076576232910156e-01 2.763926684856414795e-01 1.443007439374923706e-01 2.731307037174701691e-02 5.295046046376228333e-02 2.654751539230346680e-01 2.135921418666839600e-01 -4.584891349077224731e-02 -2.479284554719924927e-01 1.419664770364761353e-01 9.839842468500137329e-02 -2.416471987962722778e-01 -1.911786198616027832e-01 9.943604469299316406e-02 1.686277687549591064e-01 2.877752296626567841e-02 1.733824461698532104e-01 -6.325019896030426025e-02 -2.297336161136627197e-01 -1.083851903676986694e-01 1.762573271989822388e-01 1.808336973190307617e-01 -1.330641955137252808e-01 2.726073861122131348e-01 -1.239517107605934143e-01 1.885776966810226440e-01 2.408050298690795898e-01 -1.742297261953353882e-01 -7.518203556537628174e-02
-3.900665789842605591e-02 -3.724771365523338318e-02 2.590567804872989655e-02 -1.600854247808456421e-01 -2.124079167842864990e-01 -2.868803739547729492e-01 1.489606797695159912e-01 1.182298883795738220e-01 7.761276513338088989e-02 4.528966546058654785e-02 -1.376947015523910522e-02 3.094640970230102539e-01 1.108608022332191467e-01 -2.385160923004150391e-01 1.047532260417938232e-01 4.367136955261230469e-02 1.095711961388587952e-01 1.076644584536552429e-01 -7.054599374532699585e-02 2.345592677593231201e-01 -3.041662573814392090e-01 -2.855283617973327637e-01 2.118213027715682983e-01 3.287129104137420654e-02 -1.307041794061660767e-01 -9.017835557460784912e-02 -2.919418513774871826e-01 1.875277310609817505e-01 -2.692080736160278320e-01 1.852532029151916504e-01 -3.557623550295829773e-02 -2.605227530002593994e-01 -1.027107089757919312e-01 2.197825349867343903e-02 2.162610888481140137e-01 -9.442806243896484375e-02 2.059976905584335327e-01 1.592561602592468262e-01 2.036196291446685791e-01 -2.686804533004760742e-01 -2.033628374338150024e-01 6.877057254314422607e-02 2.168902009725570679e-01 1.249396130442619324e-01 3.203310370445251465e-01 -1.661813817918300629e-02 -1.828478127717971802e-01 -1.604521125555038452e-01 -1.733026094734668732e-02 -1.793145760893821716e-02
1.758570224046707153e-01 -2.072740644216537476e-01 -1.078148037195205688e-01 -1.808462888002395630e-01 -9.359580278396606445e-02 -1.004805322736501694e-02 3.454847931861877441e-01 -1.820196025073528290e-02 2.473621219396591187e-01 3.559284657239913940e-02 2.850837074220180511e-02 -1.902161240577697754e-01 -8.941704034805297852e-02 -2.647470310330390930e-02 1.807214915752410889e-01 3.581725060939788818e-01 1.676416546106338501e-01 -1.095198988914489746e-01 2.793018817901611328e-01 -1.458432897925376892e-02 -1.268287748098373413e-01 -2.564657926559448242e-01 2.434696853160858154e-01 8.789518475532531738e-02 2.769399583339691162e-01 -1.111069694161415100e-01 -3.305523097515106201e-01 1.440868377685546875e-01 1.765256375074386597e-01 1.417729705572128296e-01 -8.219355344772338867e-02 -1.636050641536712646e-02 -1.878024041652679443e-01 -2.200117260217666626e-01 -2.617786265909671783e-02 2.159101366996765137e-01 2.136523425579071045e-01 1.352708339691162109e-01 1.495843678712844849e-01 -1.999693065881729126e-01 -1.047812029719352722e-02 -1.173248663544654846e-01 -1.321719139814376831e-01 1.316906958818435669e-01 -1.228287443518638611e-01 1.316707134246826172e-01 -2.052997425198554993e-02 1.137827485799789429e-01 -2.666004598140716553e-01 -1.355872750282287598e-01
-1.280074566602706909e-01 3.983712494373321533e-01 -1.338002830743789673e-02 2.834815764799714088e-03 -6.779989600181579590e-02 1.868370920419692993e-01 2.716197669506072998e-01 -1.293341666460037231e-01 5.016509443521499634e-02 -1.166497766971588135e-01 -3.587418794631958008e-02 -1.892070919275283813e-01 -9.254312515258789062e-02 -2.197646498680114746e-01 -8.044400066137313843e-02 -9.747546166181564331e-03 -2.225399166345596313e-01 -1.228052601218223572e-01 -2.484621256589889526e-01 -2.584505677223205566e-01 3.231352269649505615e-01 2.318241447210311890e-01 3.376102447509765625e-01 9.727260470390319824e-02 -2.144553661346435547e-01 5.031225085258483887e-02 1.438679248094558716e-01 -1.077521443367004395e-01 8.882139623165130615e-02 -3.967435657978057861e-01 7.560881972312927246e-02 7.366629689931869507e-02 -6.820522248744964600e-02 2.071563750505447388e-01 -2.536340355873107910e-01 -1.326083987951278687e-01 2.056040912866592407e-01 1.447449326515197754e-01 1.938133835792541504e-01 1.544996630400419235e-02 -2.341367751359939575e-01 1.277876049280166626e-01 1.576290428638458252e-01 -1.747161149978637695e-01 -3.864463865756988525e-01 1.772008650004863739e-02 1.589566320180892944e-01 -6.859157234430313110e-02 -3.113947212696075439e-01 1.715880185365676880e-01
1.207546293735504150e-01 -7.793961465358734131e-02 1.969554126262664795e-01 -2.172702550888061523e-01 3.553580939769744873e-01 -8.916102349758148193e-02 -2.802590131759643555e-01 2.153052687644958496e-01 9.450851939618587494e-03 -1.402843296527862549e-01 -1.858369112014770508e-01 -9.500522911548614502e-02 -1.627628654241561890e-01 -1.899369806051254272e-01 -2.027902454137802124e-01 -2.439349591732025146e-01 1.326117366552352905e-01 -6.040300056338310242e-02 1.073834076523780823e-01 1.111528351902961731e-01 6.120540201663970947e-02 3.054216206073760986e-01 2.074564993381500244e-01 5.437246710062026978e-02 3.518480807542800903e-02 -1.285141855478286743e-01 1.753997951745986938e-01 1.005495786666870117e-01 1.100270375609397888e-01 -1.163342688232660294e-02 8.779441565275192261e-02 3.494878411293029785e-01 -1.207373291254043579e-02 -1.216452419757843018e-01 -1.151487827301025391e-01 -5.610994249582290649e-02 -1.718911230564117432e-01 1.162327080965042114e-01 -1.904560029506683350e-01 1.318890452384948730e-01 8.249592036008834839e-02 -1.740700900554656982e-01 -1.817632317543029785e-01 -1.922047883272171021e-01 3.049563169479370117e-01 -2.097140848636627197e-01 6.763681024312973022e-02 -2.071626186370849609e-01 -9.821779280900955200e-02 6.754572689533233643e-02
2.139784842729568481e-01 -1.719255149364471436e-01 -9.595032781362533569e-02 2.108112573623657227e-01 1.933595985174179077e-01 1.748748719692230225e-01 9.919214993715286255e-02 -2.049388885498046875e-01 -2.160757482051849365e-01 -1.827357560396194458e-01 -5.341604351997375488e-01 1.511620432138442993e-01 2.965215146541595459e-01 9.261062741279602051e-02 -2.551757097244262695e-01 -1.630078554153442383e-01 2.470628619194030762e-01 2.809450030326843262e-02 -1.012393180280923843e-02 1.531483680009841919e-01 -5.379477888345718384e-02 2.509594261646270752e-01 -1.483266651630401611e-01 1.159657761454582214e-01 1.390072405338287354e-01 1.497279852628707886e-01 -1.435079723596572876e-01 2.284084856510162354e-01 2.213596552610397339e-01 1.407886296510696411e-01 7.651238236576318741e-03 3.003016710281372070e-01 9.593985229730606079e-02 5.344001948833465576e-02 2.752664387226104736e-01 -1.657429337501525879e-02 -1.706697642803192139e-01 5.897143483161926270e-02 -1.162635684013366699e-01 1.045657098293304443e-01 -3.642120212316513062e-02 1.548509150743484497e-01 1.688836514949798584e-01 -9.281907975673675537e-02 2.756154835224151611e-01 -1.662556529045104980e-01 -2.189790755510330200e-01 8.109947293996810913e-02 -1.692136079072952271e-01 1.044896245002746582e-01
1.202573329210281372e-01 -6.228118762373924255e-02 1.392103284597396851e-01 1.907006204128265381e-01 2.439762353897094727e-01 5.945251509547233582e-02 7.147032883949577808e-04 -8.333832025527954102e-02 -9.933532029390335083e-02 7.610668241977691650e-02 -1.645010411739349365e-01 1.871446371078491211e-01 -1.432713866233825684e-01 -1.709913015365600586e-01 1.400670558214187622e-01 1.615731976926326752e-02 -2.184389829635620117e-01 -2.371706515550613403e-01 -1.769201904535293579e-01 -3.522269800305366516e-02 1.801569312810897827e-01 -2.414706051349639893e-01 1.749601215124130249e-01 2.159412354230880737e-01 1.746787130832672119e-01 2.009689435362815857e-02 4.983559995889663696e-02 2.083205133676528931e-01 1.762976944446563721e-01 -2.233152389526367188e-01 -1.714115738868713379e-01 2.130435258150100708e-01 2.353825122117996216e-01 6.312011182308197021e-02 -2.426612079143524170e-01 7.117766141891479492e-02 8.574452251195907593e-03 5.641973391175270081e-02 1.386055797338485718e-01 -1.192703247070312500e-01 -2.354945987462997437e-01 -3.185068443417549133e-02 -4.329331219196319580e-02 -9.838113933801651001e-02 -2.101855278015136719e-01 -2.030203044414520264e-01 4.657420888543128967e-02 -2.226718515157699585e-01 3.304636105895042419e-02 1.548092812299728394e-01
1.415038406848907471e-01 -1.784811317920684814e-01 -2.088898271322250366e-01 -2.078371047973632812e-01 -1.386182755231857300e-02 1.466225385665893555e-01 -1.124664992094039917e-01 2.434840947389602661e-01 -1.313855350017547607e-01 9.544391930103302002e-02 1.285796463489532471e-01 -1.909621357917785645e-01 -2.314788103103637695e-01 1.344979158602654934e-03 1.070543155074119568e-01 5.776857584714889526e-02 -2.097270935773849487e-01 6.560769677162170410e-02 1.404041945934295654e-01 1.204586476087570190e-01 -7.993878424167633057e-02 1.587202548980712891e-01 -6.726213544607162476e-02 3.583648055791854858e-02 9.536407887935638428e-02 1.352977473288774490e-02 -2.678336948156356812e-02 1.306328326463699341e-01 -1.577039957046508789e-01 1.058163642883300781e-01 -2.954203449189662933e-02 1.322631686925888062e-01 1.474876552820205688e-01 1.977460980415344238e-01 2.810670435428619385e-02 -1.181825846433639526e-01 -8.374354243278503418e-02 8.244071155786514282e-02 1.665808558464050293e-01 1.991184949874877930e-01 -3.127246350049972534e-02 1.063683629035949707e-01 -1.566329598426818848e-02 -3.320282092317938805e-03 7.580539584159851074e-02 3.658109111711382866e-03 2.368064075708389282e-01 -2.277516573667526245e-01 -5.371879041194915771e-02 9.895621240139007568e-02
2.624208331108093262e-01 1.160952374339103699e-01 -2.507441341876983643e-01 2.907211147248744965e-02 9.902234375476837158e-02 8.145494759082794189e-02 -1.099113896489143372e-01 -1.627045720815658569e-01 2.933469116687774658e-01 -5.554450303316116333e-02 6.059347651898860931e-03 1.386362165212631226e-01 1.144860982894897461e-01 -1.690042614936828613e-01 -1.824984550476074219e-01 6.839554011821746826e-02 4.500992130488157272e-03 -1.888598352670669556e-01 2.581440210342407227e-01 -2.402989119291305542e-01 1.833460181951522827e-01 -4.779222235083580017e-02 -2.365361452102661133e-01 8.434843271970748901e-02 -4.214759916067123413e-03 -1.443651169538497925e-01 1.214190945029258728e-01 -2.409200817346572876e-01 5.523357540369033813e-02 1.193673610687255859e-01 5.794727243483066559e-03 -5.966504663228988647e-02 -1.129620298743247986e-01 -1.214675158262252808e-01 -7.787656038999557495e-02 -7.478999346494674683e-02 -2.296445146203041077e-02 4.538535140454769135e-03 2.192511260509490967e-01 3.052650988101959229e-01 -5.095070227980613708e-02 6.493989378213882446e-02 -8.968957513570785522e-02 4.097077623009681702e-02 -2.625603079795837402e-01 5.047066137194633484e-03 -8.467163145542144775e-02 -1.869109570980072021e-01 4.115612432360649109e-02 3.689523786306381226e-02
3.529874980449676514e-02 3.043688833713531494e-01 -2.239610999822616577e-01 7.310256361961364746e-02 -2.270084768533706665e-01 -9.503763169050216675e-02 -1.503964364528656006e-01 -7.259271573275327682e-03 6.511992216110229492e-02 -5.792236328125000000e-02 -6.028715893626213074e-02 1.957296133041381836e-01 1.640876233577728271e-01 2.387582659721374512e-01 -2.967904806137084961e-01 3.604974132031202316e-03 1.686207652091979980e-01 1.933793574571609497e-01 -1.670235693454742432e-01 1.946083009243011475e-01 1.127045452594757080e-01 1.802889704704284668e-01 2.357078790664672852e-01 9.878302365541458130e-02 -7.768599689006805420e-02 1.085124313831329346e-01 2.269205152988433838e-01 -3.225363045930862427e-02 1.759522110223770142e-01 -5.768390744924545288e-02 6.564913690090179443e-02 2.778695337474346161e-02 -8.253844827413558960e-02 -1.348955743014812469e-02 1.841833442449569702e-01 2.276321202516555786e-01 1.123689189553260803e-01 -2.285058349370956421e-01 1.412142962217330933e-01 1.845516562461853027e-01 1.219172626733779907e-01 2.827098667621612549e-01 6.630367040634155273e-02 1.030621156096458435e-01 -2.848598659038543701e-01 6.673047691583633423e-02 -1.720207277685403824e-03 1.968483477830886841e-01 -1.271312534809112549e-01 -1.121902018785476685e-01
2.033477127552032471e-01 -1.867844909429550171e-01 -1.314282268285751343e-01 -1.721269786357879639e-01 5.345440283417701721e-02 -2.190115600824356079e-01 -1.592567563056945801e-02 -2.138201892375946045e-02 3.161724656820297241e-02 -6.288377195596694946e-02 3.780115544795989990e-01 -2.009944021701812744e-01 -7.759718596935272217e-02 2.170261442661285400e-01 3.684366941452026367e-01 3.211040496826171875e-01 -8.281376212835311890e-02 -1.081135272979736328e-01 1.839246302843093872e-01 -2.481105178594589233e-01 -1.446204632520675659e-01 -2.211377024650573730e-01 2.369068264961242676e-01 -2.346062660217285156e-01 -1.461124271154403687e-01 1.834219098091125488e-01 -2.876246906816959381e-02 -1.586756706237792969e-01 -1.240760311484336853e-01 3.722785785794258118e-02 -2.655216865241527557e-02 4.104981198906898499e-03 -2.399217486381530762e-01 -3.428957611322402954e-02 2.068680822849273682e-01 8.327192068099975586e-02 1.533403098583221436e-01 -2.700471282005310059e-01 2.468775361776351929e-01 -1.369334906339645386e-01 -6.497183442115783691e-02 -1.710478365421295166e-01 2.112387120723724365e-01 1.948378086090087891e-01 -2.504897117614746094e-01 7.952977716922760010e-02 2.440904825925827026e-01 -7.018388062715530396e-02 6.353994458913803101e-02 2.135587632656097412e-01
6.757156550884246826e-02 1.269941329956054688e-01 -1.316834241151809692e-01 -2.057465612888336182e-01 -1.444690376520156860e-01 1.999761313199996948e-01 -3.736640885472297668e-02 3.198749572038650513e-02 -6.638190150260925293e-02 -1.381733715534210205e-01 2.024197131395339966e-01 -2.250315248966217041e-01 2.379742264747619629e-01 -1.674731671810150146e-01 1.961299926042556763e-01 -1.566041558980941772e-01 1.420573294162750244e-01 -2.640834450721740723e-01 1.767024099826812744e-01 -9.070078283548355103e-02 -1.593125760555267334e-01 6.133102998137474060e-02 -1.750008761882781982e-02 1.360013186931610107e-01 1.110994219779968262e-01 -7.625857740640640259e-02 2.472467720508575439e-01 -5.183928087353706360e-02 -2.820107340812683105e-01 -2.113039977848529816e-02 6.886712461709976196e-02 -2.326790094375610352e-01 1.336766034364700317e-01 -2.852505818009376526e-02 1.551671978086233139e-02 -6.627095490694046021e-02 -2.034791857004165649e-01 -2.043063342571258545e-01 1.020525693893432617e-01 -3.296977654099464417e-02 2.455543726682662964e-01 5.461537465453147888e-02 1.260180622339248657e-01 -5.255395919084548950e-02 -3.367823064327239990e-01 -2.654858827590942383e-01 5.770807340741157532e-02 -9.360735304653644562e-03 3.836861848831176758e-01 1.833830028772354126e-01
-2.158179581165313721e-01 -1.775146573781967163e-01 1.740775536745786667e-03 9.141278266906738281e-02 2.129348218441009521e-01 -9.965494275093078613e-02 1.777417808771133423e-01 -2.243659049272537231e-01 2.043999135494232178e-01 1.833345890045166016e-01 5.630911141633987427e-02 2.926249206066131592e-01 1.950628161430358887e-01 -6.252668052911758423e-02 4.469835013151168823e-02 -3.199714794754981995e-02 -1.570514440536499023e-01 2.726436853408813477e-01 -2.975827157497406006e-01 1.260649710893630981e-01 1.893655508756637573e-01 3.775775134563446045e-01 4.790525883436203003e-02 -1.445091217756271362e-01 2.325971052050590515e-02 -1.869000345468521118e-01 1.145496964454650879e-01 -3.752710670232772827e-02 2.766819298267364502e-01 -6.627917289733886719e-02 -1.853409036993980408e-02 3.049495816230773926e-01 -2.161084860563278198e-01 1.829116195440292358e-01 1.488377451896667480e-01 -1.080167666077613831e-02 -1.754235178232192993e-01 1.191824451088905334e-01 -7.080627977848052979e-02 3.855990013107657433e-03 -7.154481858015060425e-02 3.305771648883819580e-01 -3.067716769874095917e-02 -9.917707648128271103e-04 1.575459241867065430e-01 -1.258251667022705078e-01 1.243412047624588013e-01 3.878478333353996277e-02 -3.031649887561798096e-01 -1.363177038729190826e-02
-1.319012194871902466e-01 5.075181648135185242e-02 2.464939281344413757e-02 -4.856619611382484436e-02 2.338689565658569336e-01 4.862675443291664124e-02 -2.024815380573272705e-01 -2.330448627471923828e-01 -1.729977726936340332e-01 -1.051080822944641113e-01 -8.748888224363327026e-02 -2.595348656177520752e-02 1.172047927975654602e-01 -1.092953830957412720e-01 -8.460566401481628418e-02 3.227138891816139221e-02 2.190556675195693970e-01 2.065785080194473267e-01 -1.476708948612213135e-01 5.934169515967369080e-02 2.110667675733566284e-01 3.447864949703216553e-01 1.172856613993644714e-01 -1.105002015829086304e-01 -2.250202000141143799e-01 6.751452386379241943e-02 9.020394645631313324e-03 -1.197542771697044373e-01 1.582572013139724731e-01 -1.906195133924484253e-01 4.118228331208229065e-02 -8.515568077564239502e-02 -1.118018552660942078e-01 1.941466331481933594e-02 -1.158896088600158691e-01 3.683804348111152649e-02 1.738481968641281128e-01 5.002683401107788086e-02 1.739528775215148926e-02 1.591247022151947021e-01 -7.860165834426879883e-02 3.578623831272125244e-01 -1.999756991863250732e-01 -1.728666424751281738e-01 2.728571929037570953e-02 3.552071750164031982e-02 6.295067816972732544e-02 1.113159880042076111e-01 -2.180355489253997803e-01 -1.877688467502593994e-01
2.288046032190322876e-01 -1.862504482269287109e-01 1.443636417388916016e-01 -3.795977681875228882e-02 8.106435090303421021e-02 1.351138353347778320e-01 1.339681893587112427e-01 1.257288549095392227e-02 7.251672446727752686e-03 1.855699531733989716e-02 -2.547545731067657471e-01 8.936836570501327515e-02 -5.341484025120735168e-02 -1.255821734666824341e-01 1.351810619235038757e-02 -1.638026684522628784e-01 3.229013085365295410e-02 -2.383742481470108032e-01 -9.217879921197891235e-02 -1.440711617469787598e-01 -1.328470278531312943e-02 -3.267556801438331604e-02 1.233373805880546570e-01 3.904552385210990906e-02 -2.213215231895446777e-01 -3.239315003156661987e-02 -7.742481678724288940e-02 -1.892396658658981323e-01 -1.880369186401367188e-01 5.131223797798156738e-02 -1.738998107612133026e-02 -1.913255304098129272e-01 2.016663402318954468e-01 -1.004134118556976318e-01 1.019407957792282104e-01 -9.433104097843170166e-02 -2.311097085475921631e-01 -5.300895497202873230e-02 1.845846325159072876e-01 8.458369225263595581e-02 2.805681899189949036e-02 -1.258537988178431988e-03 4.100398160517215729e-03 -1.448777616024017334e-01 -2.282964289188385010e-01 -2.012839168310165405e-01 -1.056118234992027283e-01 1.510345004498958588e-02 2.089342661201953888e-02 5.388593673706054688e-02
-1.626566350460052490e-01 8.192575722932815552e-02 -2.017221450805664062e-01 2.419188022613525391e-01 -4.378726705908775330e-02 1.788402646780014038e-01 -2.182639837265014648e-01 -1.863586157560348511e-01 -1.766518354415893555e-01 1.645957380533218384e-01 2.091808468103408813e-01 -5.520050972700119019e-02 -1.904900521039962769e-01 -1.091134920716285706e-01 3.361468017101287842e-01 2.002430856227874756e-01 1.607800722122192383e-01 -2.099276334047317505e-01 9.010156989097595215e-02 1.391937285661697388e-01 -1.422430425882339478e-01 -4.194639623165130615e-01 -5.218805745244026184e-02 2.081131488084793091e-01 -1.434581577777862549e-01 -9.740570187568664551e-02 -1.486418098211288452e-01 1.260597258806228638e-01 -2.393501549959182739e-01 -1.202444806694984436e-01 1.366619169712066650e-01 1.209957376122474670e-01 -2.252321988344192505e-01 2.083032876253128052e-01 -3.040283918380737305e-01 -1.021193191409111023e-01 2.123722583055496216e-01 8.455228805541992188e-02 2.409657537937164307e-01 -2.200870662927627563e-01 -8.564846217632293701e-02 -1.592013239860534668e-01 1.741791516542434692e-01 2.202536910772323608e-01 7.597108930349349976e-02 -2.685606181621551514e-01 -8.659657090902328491e-02 -1.252093017101287842e-01 2.092439830303192139e-01 2.456277161836624146e-01
5.347907915711402893e-02 -1.438206061720848083e-02 -8.318093419075012207e-02 -8.821316808462142944e-02 1.659278757870197296e-02 -3.328852355480194092e-02 -7.012550532817840576e-02 2.343264967203140259e-01 -1.255810111761093140e-01 -4.590183123946189880e-02 2.199816107749938965e-01 5.046161264181137085e-02 -2.357721477746963501e-01 -2.343999296426773071e-01 8.406451344490051270e-02 -2.198397368192672729e-01 7.284579426050186157e-02 -2.371572889387607574e-02 1.498593091964721680e-01 1.788081973791122437e-01 1.431623548269271851e-01 1.637288369238376617e-03 3.661282360553741455e-02 1.305987536907196045e-01 6.297005712985992432e-02 -1.507861763238906860e-01 -7.049842178821563721e-02 1.812053471803665161e-01 1.389405969530344009e-02 -1.118024811148643494e-01 8.430277556180953979e-02 2.029591649770736694e-01 -2.431891560554504395e-01 -3.792317956686019897e-02 -1.926856786012649536e-01 1.086555421352386475e-03 -2.361726760864257812e-02 1.673888601362705231e-02 -1.681483234278857708e-03 -6.333457678556442261e-02 -4.212544299662113190e-03 -2.185050547122955322e-01 3.488806262612342834e-02 -1.754279732704162598e-01 9.393514692783355713e-02 -9.264367073774337769e-02 -9.130929410457611084e-02 -3.936314210295677185e-02 1.962533593177795410e-01 2.358653992414474487e-01
-1.630066633224487305e-01 1.956466883420944214e-01 -1.552609801292419434e-01 -1.535105891525745392e-02 8.034106343984603882e-02 7.297437172383069992e-03 6.143464520573616028e-02 1.878002285957336426e-01 3.244935721158981323e-02 1.729075908660888672e-01 2.193241864442825317e-01 2.568227946758270264e-01 1.833958327770233154e-01 1.427076607942581177e-01 -7.646355777978897095e-02 3.564614802598953247e-02 9.805005975067615509e-03 1.929030865430831909e-01 1.639325320720672607e-01 -2.516767010092735291e-02 -1.868810355663299561e-01 5.320840328931808472e-02 -1.406624019145965576e-01 4.363123327493667603e-02 -1.606822609901428223e-01 -2.413282543420791626e-01 -2.519790828227996826e-01 9.458623081445693970e-02 8.442473411560058594e-02 -1.459261924028396606e-01 -2.324664294719696045e-01 2.828159928321838379e-01 -5.752146244049072266e-02 8.201664686203002930e-02 -1.302051395177841187e-01 7.931829243898391724e-02 3.177054598927497864e-02 -8.285260945558547974e-02 2.361881434917449951e-01 1.878556311130523682e-01 -1.692276746034622192e-01 -1.797295212745666504e-01 -1.464336961507797241e-01 -8.981311321258544922e-02 -2.373608946800231934e-02 -2.177804894745349884e-02 9.925539791584014893e-02 1.111600771546363831e-01 -2.041049599647521973e-01 -1.635373011231422424e-02
-1.925780624151229858e-01 -1.103546470403671265e-01 1.852994710206985474e-01 -2.412188351154327393e-01 7.092816382646560669e-02 -7.307040691375732422e-02 2.011970877647399902e-01 -6.470815837383270264e-02 3.575635254383087158e-01 2.171377092599868774e-01 1.699847280979156494e-01 1.369554102420806885e-01 2.698970139026641846e-01 1.708579808473587036e-01 7.308743149042129517e-02 1.865735948085784912e-01 4.959720373153686523e-02 -1.947657763957977295e-01 2.783085405826568604e-01 -1.752473227679729462e-02 1.430006176233291626e-01 4.651259630918502808e-02 1.759060472249984741e-01 -1.250368803739547729e-01 5.633169785141944885e-02 3.279817849397659302e-02 8.224056661128997803e-02 1.497614979743957520e-01 1.500274837017059326e-01 -9.338165819644927979e-02 1.136131137609481812e-01 -3.311252892017364502e-01 -1.219007745385169983e-01 2.079202681779861450e-01 2.573181092739105225e-01 2.491735853254795074e-02 -2.849579155445098877e-01 4.910095036029815674e-02 -1.945637017488479614e-01 1.825779080390930176e-01 -2.187876962125301361e-02 -2.193667590618133545e-01 1.737942993640899658e-01 -1.097444966435432434e-01 -6.552707403898239136e-02 2.668524980545043945e-01 -4.600092396140098572e-02 1.850583404302597046e-02 -3.174955546855926514e-01 1.159956082701683044e-01
-2.353109866380691528e-01 3.634731750935316086e-03 -2.444265782833099365e-02 -1.337278485298156738e-01 -6.386021524667739868e-02 2.984540760517120361e-01 2.602822333574295044e-02 9.558410197496414185e-02 3.196671232581138611e-02 -1.101948693394660950e-01 2.779171168804168701e-01 1.188209429383277893e-01 3.017945885658264160e-01 -2.115595191717147827e-01 7.714083790779113770e-02 -1.982951611280441284e-01 2.352192252874374390e-02 -2.341992035508155823e-02 -2.105723321437835693e-01 -2.731091082096099854e-01 -2.220856994390487671e-01 1.302940696477890015e-01 -3.414421975612640381e-01 -4.950335621833801270e-02 2.538417838513851166e-02 1.149850152432918549e-02 3.363574743270874023e-01 -1.764173358678817749e-01 1.627073884010314941e-01 1.178506761789321899e-01 -2.053133100271224976e-01 -1.539354622364044189e-01 -5.127772316336631775e-02 -6.604889780282974243e-02 3.558921813964843750e-01 1.860745698213577271e-01 -2.691187858581542969e-01 -7.676632702350616455e-02 1.724486202001571655e-01 2.777110934257507324e-01 2.425761073827743530e-01 2.531719207763671875e-01 1.540036648511886597e-01 -1.266197562217712402e-01 -1.678462922573089600e-01 -1.825086176395416260e-01 -2.319544702768325806e-01 -3.921620547771453857e-02 1.842233538627624512e-01 -1.654662787914276123e-01
2.207469493150711060e-01 -9.965080022811889648e-02 -2.093302905559539795e-01 -8.471378125250339508e-03 2.384109646081924438e-01 1.815495491027832031e-01 -1.680169552564620972e-01 -1.696002632379531860e-01 -9.324219822883605957e-02 -4.487800970673561096e-02 2.020855545997619629e-01 -2.387248277664184570e-01 -2.144219586625695229e-03 -2.017754316329956055e-01 -2.381572276353836060e-01 -1.954133994877338409e-02 -3.406865894794464111e-02 -1.900461316108703613e-01 -3.877226030454039574e-03 3.858911246061325073e-02 -4.300533607602119446e-02 2.252239137887954712e-01 -1.855885982513427734e-01 1.526308357715606689e-01 -1.553190946578979492e-01 -2.402796298265457153e-01 9.310561418533325195e-02 -1.549418717622756958e-01 -2.108230628073215485e-02 -1.156081557273864746e-01 -1.529705673456192017e-01 -1.862208694219589233e-01 -1.446238756179809570e-01 1.004340797662734985e-01 2.256235480308532715e-01 2.694880589842796326e-02 8.094199001789093018e-02 1.942054331302642822e-01 -1.155802458524703979e-01 2.952882647514343262e-02 -1.928790062665939331e-01 -4.484079405665397644e-02 1.168953776359558105e-01 3.205234557390213013e-02 8.828199654817581177e-02 -2.202459871768951416e-01 -1.524509340524673462e-01 1.394187808036804199e-01 2.510783635079860687e-02 2.391848713159561157e-01
2.249196767807006836e-01 1.627841144800186157e-01 3.752686828374862671e-02 1.955203860998153687e-01 4.628987237811088562e-02 9.580131620168685913e-02 1.104766279458999634e-01 -1.973884850740432739e-01 -8.124894648790359497e-02 -1.187133416533470154e-01 -1.281505823135375977e-01 -4.093733802437782288e-02 -1.065659224987030029e-01 -1.274626553058624268e-01 -1.470215171575546265e-01 7.341462373733520508e-02 1.372936964035034180e-01 -4.356941953301429749e-02 -8.754070103168487549e-02 2.385472953319549561e-01 1.640674620866775513e-01 -1.472298502922058105e-01 4.293709993362426758e-02 1.625338047742843628e-01 -1.862147301435470581e-01 3.211238235235214233e-02 -1.019555553793907166e-01 1.933266222476959229e-01 -1.855559051036834717e-01 -2.360545694828033447e-01 -1.057156920433044434e-01 -6.641461700201034546e-02 1.172960698604583740e-01 -1.114900708198547363e-01 1.295367032289505005e-01 2.280862480401992798e-01 -1.014047339558601379e-01 -1.444586068391799927e-01 -5.971616879105567932e-02 -8.903799206018447876e-02 -1.538909077644348145e-01 1.925723999738693237e-01 1.446965485811233521e-01 -2.065193057060241699e-01 -1.350940018892288208e-01 -1.069104224443435669e-01 -2.347120642662048340e-01 1.187898889183998108e-01 -1.256231777369976044e-02 -5.889340862631797791e-02
9.923589229583740234e-02 -2.172077447175979614e-01 -1.383495032787322998e-01 -4.324412718415260315e-02 -3.102229535579681396e-01 -2.016908824443817139e-01 1.645779609680175781e-01 -5.124599859118461609e-02 -9.807150065898895264e-02 -1.955090314149856567e-01 3.853278756141662598e-01 -3.596137166023254395e-01 -6.289679557085037231e-02 3.420504182577133179e-02 3.263890445232391357e-01 -9.907501935958862305e-02 1.713102608919143677e-01 -7.949884235858917236e-02 1.289938688278198242e-01 1.988121420145034790e-01 -5.699238274246454239e-03 -1.968452781438827515e-01 -2.544747591018676758e-01 2.879576385021209717e-02 1.844346225261688232e-01 -4.133354499936103821e-02 3.312306106090545654e-02 7.745742797851562500e-02 -1.274746060371398926e-01 -1.285699605941772461e-01 -2.116472423076629639e-01 5.615773424506187439e-02 1.699981838464736938e-01 1.419484913349151611e-01 1.894106268882751465e-01 -1.006747633218765259e-01 -7.836165837943553925e-03 -5.328781902790069580e-02 -1.301138252019882202e-01 8.866668492555618286e-02 2.009104043245315552e-01 1.040601879358291626e-01 -9.786120802164077759e-02 2.010971903800964355e-01 -2.523019909858703613e-01 -4.695412144064903259e-02 -1.159719843417406082e-02 -1.123087555170059204e-01 5.228469893336296082e-02 -6.226245313882827759e-02
2.323933094739913940e-01 -2.825207710266113281e-01 1.309499293565750122e-01 -1.675576716661453247e-02 3.539369106292724609e-01 -5.896987393498420715e-02 -2.076472043991088867e-01 -1.611844450235366821e-01 -1.907275319099426270e-01 -8.863037824630737305e-02 -2.491514086723327637e-01 -1.414538174867630005e-01 -2.763593755662441254e-02 1.075228527188301086e-01 -1.257373839616775513e-01 -1.149834468960762024e-01 -2.028200328350067139e-01 -8.009979873895645142e-02 2.306644767522811890e-01 1.074900031089782715e-01 2.245808541774749756e-01 -1.419143378734588623e-01 -5.027555674314498901e-02 -1.946087479591369629e-01 -3.585240244865417480e-02 7.452457677572965622e-03 -1.350979506969451904e-01 -2.025298215448856354e-02 -2.850012779235839844e-01 -2.418432570993900299e-02 -2.058558911085128784e-01 -7.057324051856994629e-02 -4.686640202999114990e-02 3.902754560112953186e-02 -4.921691119670867920e-02 1.949790418148040771e-01 3.660276159644126892e-02 1.153329610824584961e-01 1.190989688038825989e-01 -1.004570052027702332e-01 3.643341362476348877e-02 2.883205115795135498e-01 1.999524086713790894e-01 -1.714507937431335449e-01 1.439814567565917969e-01 -1.654009222984313965e-01 -1.033999174833297729e-01 6.519762799143791199e-03 -2.031501531600952148e-01 5.593484267592430115e-03
3.999488055706024170e-02 2.049020528793334961e-01 -1.363953053951263428e-01 -1.545726805925369263e-01 -1.031051948666572571e-01 -3.025180287659168243e-02 1.786672025918960571e-01 2.038827985525131226e-01 -9.632793813943862915e-02 1.679162234067916870e-01 -2.325224690139293671e-02 1.835677586495876312e-02 2.618945017457008362e-02 -2.048087418079376221e-01 -1.140225119888782501e-02 2.065300494432449341e-01 5.770936235785484314e-02 -1.232920913025736809e-03 1.174714192748069763e-01 -2.302043139934539795e-01 -7.864004373550415039e-02 -6.206845864653587341e-03 -3.616225346922874451e-02 9.163835644721984863e-02 -1.053325310349464417e-01 1.801684349775314331e-01 -2.334231287240982056e-01 2.668979577720165253e-02 9.092820435762405396e-02 -1.907500997185707092e-02 9.164619259536266327e-04 6.617476791143417358e-02 -9.807676076889038086e-03 3.240594640374183655e-02 1.770049780607223511e-01 -7.407362014055252075e-02 2.184435427188873291e-01 -1.206059590913355350e-03 9.203729778528213501e-02 8.032470941543579102e-03 -1.990371048450469971e-01 -1.853195279836654663e-01 -2.231858223676681519e-01 1.313120722770690918e-01 -5.288850516080856323e-02 -1.888208091259002686e-01 1.903631538152694702e-01 -5.601008236408233643e-02 -2.346188127994537354e-01 1.029912009835243225e-01
-2.027714252471923828e-01 -1.001780480146408081e-01 2.838288247585296631e-02 1.394966095685958862e-01 -3.058752976357936859e-02 -1.696032732725143433e-01 -5.926178395748138428e-02 3.228044137358665466e-02 7.395235449075698853e-02 -1.993425339460372925e-01 2.441208958625793457e-01 -2.330164462327957153e-01 1.011791229248046875e-01 2.064056694507598877e-02 1.800349056720733643e-01 8.252643048763275146e-02 -1.723416522145271301e-02 -2.179299108684062958e-02 -5.133546143770217896e-02 1.741639971733093262e-01 8.121712505817413330e-02 -8.466641604900360107e-02 1.796753029339015484e-03 -6.443101912736892700e-02 -1.662753820419311523e-01 -2.030986733734607697e-02 -1.320639438927173615e-02 1.348697543144226074e-01 1.686658114194869995e-01 1.507558077573776245e-01 -1.199018955230712891e-02 -3.430273756384849548e-02 1.562099456787109375e-01 -1.046088933944702148e-01 -1.542517989873886108e-01 3.668970661237835884e-03 -8.402614295482635498e-02 2.141026407480239868e-02 -1.822648793458938599e-01 -1.607009321451187134e-01 -1.866567432880401611e-01 -1.284450441598892212e-01 -2.185885161161422729e-01 -1.825392097234725952e-01 -1.283055543899536133e-01 -1.510767638683319092e-01 -1.089864522218704224e-01 1.549637615680694580e-01 -7.407787442207336426e-02 1.651517152786254883e-01
-1.033904775977134705e-01 -7.815652340650558472e-02 -3.598511219024658203e-03 1.957725286483764648e-01 1.314190626144409180e-01 -9.977006167173385620e-02 -2.552411286160349846e-03 -1.769428253173828125e-01 -1.114735752344131470e-01 1.058583036065101624e-01 -1.388745158910751343e-01 -1.351856440305709839e-01 1.093060001730918884e-01 2.061489671468734741e-01 1.748049557209014893e-01 8.369560539722442627e-02 -2.040473967790603638e-01 -1.892647445201873779e-01 6.445815414190292358e-02 2.132618241012096405e-02 1.522090137004852295e-01 -7.647413015365600586e-02 2.484794892370700836e-02 3.299310058355331421e-02 1.847084462642669678e-01 -1.789000779390335083e-01 1.537970006465911865e-01 9.520706534385681152e-02 1.162492781877517700e-01 -1.795623004436492920e-01 -6.209420412778854370e-02 1.223183572292327881e-01 5.886174365878105164e-02 -1.262464523315429688e-01 -2.151899188756942749e-01 2.915526181459426880e-02 -2.033674567937850952e-01 1.094750910997390747e-01 -1.810143589973449707e-01 3.847424685955047607e-02 -5.155333876609802246e-02 2.502521127462387085e-02 -5.001187697052955627e-02 3.255283087491989136e-02 -5.197621509432792664e-02 -2.448401600122451782e-01 -1.280681341886520386e-01 4.452214762568473816e-02 -1.755676418542861938e-01 2.417188733816146851e-01
1.429140865802764893e-01 1.740408837795257568e-01 1.637695729732513428e-01 2.438776046037673950e-01 -1.589021086692810059e-02 -1.436124444007873535e-01 -2.135447412729263306e-01 3.189033828675746918e-03 -1.911322772502899170e-02 -2.196227312088012695e-01 -1.755584180355072021e-01 -2.441870272159576416e-01 -2.194413989782333374e-01 1.524724066257476807e-01 2.322769165039062500e-01 1.388967186212539673e-01 -1.103383079171180725e-01 1.195772737264633179e-02 1.686250567436218262e-01 1.791159510612487793e-01 -1.552861630916595459e-01 -2.296120077371597290e-01 -1.443950235843658447e-01 1.954751312732696533e-01 4.255452752113342285e-02 2.024573236703872681e-01 2.442430704832077026e-01 1.999322772026062012e-01 -6.189182773232460022e-02 -1.447246223688125610e-01 -2.407568693161010742e-01 -2.971828542649745941e-02 -2.010197192430496216e-01 9.604059159755706787e-02 4.696998000144958496e-02 -4.725908488035202026e-02 -2.128661572933197021e-01 -6.987735629081726074e-02 1.788409352302551270e-01 2.199961096048355103e-01 -2.050186842679977417e-01 1.506911218166351318e-01 1.475363969802856445e-01 -2.110439352691173553e-02 2.916154637932777405e-02 -1.704347580671310425e-01 6.725662946701049805e-02 1.226086392998695374e-01 -8.954341709613800049e-02 2.259554564952850342e-01
-1.984087675809860229e-01 -1.465656012296676636e-01 1.599862575531005859e-01 5.607346445322036743e-02 2.334093749523162842e-01 -4.226814582943916321e-02 -2.419107705354690552e-01 -1.962942630052566528e-01 8.938742429018020630e-02 -1.850751042366027832e-01 -2.374794632196426392e-01 1.796373873949050903e-01 -1.162129342555999756e-01 2.164771407842636108e-01 -2.494514137506484985e-01 -6.214401870965957642e-02 4.364065825939178467e-03 -2.903243154287338257e-02 -2.257251739501953125e-02 8.455070108175277710e-02 -2.152705788612365723e-01 1.137560531497001648e-01 -5.986369028687477112e-02 -2.534919232130050659e-02 -1.605120301246643066e-01 -1.724402457475662231e-01 -1.944458782672882080e-01 1.398227512836456299e-01 1.052994877099990845e-01 9.035716205835342407e-02 -9.287065267562866211e-02 -2.013449221849441528e-01 1.200299784541130066e-01 -1.193359196186065674e-01 -1.580177992582321167e-01 -1.799667179584503174e-01 -1.817547380924224854e-01 1.481194347143173218e-01 -2.631436288356781006e-02 5.797114688903093338e-03 -2.429652214050292969e-01 1.999747157096862793e-01 2.143653035163879395e-01 -1.256557852029800415e-01 -3.869272768497467041e-02 9.736026823520660400e-02 2.233418673276901245e-01 1.602994650602340698e-01 -1.058192923665046692e-01 -7.717397809028625488e-02
1.224519610404968262e-01 -3.723089769482612610e-02 -1.458206772804260254e-01 -1.769196242094039917e-01 1.627239137887954712e-01 -1.770340949296951294e-01 5.319636315107345581e-02 -4.666565358638763428e-02 -1.535478234291076660e-01 2.356688827276229858e-01 1.262953579425811768e-01 3.215062320232391357e-01 5.464309081435203552e-02 -9.360350668430328369e-02 1.124047338962554932e-01 8.731285342946648598e-04 1.672204434871673584e-01 3.645803034305572510e-01 1.182815283536911011e-01 -8.643715083599090576e-02 1.403125077486038208e-01 2.208970338106155396e-01 2.719870805740356445e-01 -2.017710357904434204e-01 -1.950678080320358276e-01 2.003130763769149780e-01 3.820313885807991028e-02 6.933215539902448654e-03 -8.168874680995941162e-02 1.562733650207519531e-01 2.373330891132354736e-01 2.092924267053604126e-01 1.850354522466659546e-01 2.087935358285903931e-01 -1.504727900028228760e-01 -4.668684303760528564e-02 -3.106049261987209320e-02 1.964849829673767090e-01 -1.131773591041564941e-01 2.078758031129837036e-01 -4.861431568861007690e-02 3.291696608066558838e-01 3.559989109635353088e-02 -2.320703566074371338e-01 3.089121282100677490e-01 -1.581947207450866699e-01 1.376859247684478760e-01 -5.949980020523071289e-02 1.929832547903060913e-01 2.119666337966918945e-01
