50
5
-1.711556129157543182e-02 2.889551222324371338e-01 -2.276322692632675171e-01 4.532363638281822205e-02 -2.541334927082061768e-01
6.602782756090164185e-02 -4.848079383373260498e-01 9.456977248191833496e-02 -1.065717637538909912e-01 1.768732219934463501e-01
-1.813076734542846680e-01 3.093410432338714600e-01 5.895251780748367310e-02 -4.054007306694984436e-02 -1.472042351961135864e-01
-1.221028640866279602e-01 1.403213739395141602e-01 -1.175511628389358521e-01 -1.537700742483139038e-01 5.093153119087219238e-01
-2.521161735057830811e-02 -8.739382959902286530e-03 -1.004165560007095337e-01 -3.458223044872283936e-01 3.733787834644317627e-01
-2.877545356750488281e-02 -1.010073125362396240e-01 9.062228351831436157e-02 -1.533974260091781616e-01 2.231656163930892944e-01
-5.765434727072715759e-02 -1.767933815717697144e-01 2.641751766204833984e-01 7.537461817264556885e-02 1.754346191883087158e-01
1.375252380967140198e-03 9.260469675064086914e-02 8.882936835289001465e-02 8.498563617467880249e-02 2.117815427482128143e-02
-7.703578472137451172e-02 1.564280092716217041e-01 1.074070632457733154e-01 1.800806820392608643e-01 6.093991920351982117e-02
9.342967271804809570e-01 -3.744341731071472168e-01 3.270246833562850952e-02 -3.838684558868408203e-01 -4.123487472534179688e-01
5.879327654838562012e-01 -1.871126890182495117e-01 -5.399468541145324707e-02 4.882897436618804932e-01 -4.599154591560363770e-01
4.922638237476348877e-01 -2.029656767845153809e-01 -1.633999943733215332e-01 4.568893015384674072e-01 -8.248285204172134399e-02
8.000241518020629883e-01 -1.173110529780387878e-01 -1.346384882926940918e-01 -3.436356782913208008e-01 -6.109738349914550781e-01
3.969623148441314697e-01 -1.244871243834495544e-01 2.426771670579910278e-01 -4.120355099439620972e-02 -2.900956571102142334e-01
-2.562703788280487061e-01 1.764991134405136108e-01 -1.840899735689163208e-01 2.350503057241439819e-01 1.022390276193618774e-01
1.771850585937500000e-01 -2.993167340755462646e-01 -5.121762752532958984e-01 2.391237765550613403e-01 -1.032995134592056274e-01
-2.188195884227752686e-01 -2.658456265926361084e-01 -1.866168528795242310e-02 -1.924430578947067261e-02 3.131296038627624512e-01
-9.302695095539093018e-02 3.018756210803985596e-01 3.176031410694122314e-01 1.356776654720306396e-01 2.813012599945068359e-01
-5.786631703376770020e-01 -2.734095156192779541e-01 4.718134105205535889e-01 3.991578891873359680e-02 -8.875614404678344727e-02
-3.109534680843353271e-01 -9.357605129480361938e-02 -1.022336930036544800e-01 -5.460246279835700989e-02 1.038874462246894836e-01
-5.377922654151916504e-01 -4.078283905982971191e-01 -1.510913968086242676e-01 -1.855665445327758789e-01 3.524429202079772949e-01
-7.106099724769592285e-01 -8.347650617361068726e-02 5.239510536193847656e-01 -2.580919489264488220e-02 -1.218869313597679138e-01
3.084016405045986176e-02 -3.335412442684173584e-01 7.934896275401115417e-03 1.212767809629440308e-01 -3.406600281596183777e-02
-5.007027462124824524e-02 -2.185630351305007935e-01 -3.315067589282989502e-01 -1.475784331560134888e-01 1.432024687528610229e-01
3.556658029556274414e-01 7.339229434728622437e-02 -7.958560250699520111e-03 1.147396117448806763e-02 1.105647832155227661e-01
1.522196382284164429e-01 2.170893996953964233e-01 3.256392478942871094e-01 2.253556549549102783e-01 1.144494190812110901e-01
-2.146908342838287354e-01 2.138646990060806274e-01 -1.015549376606941223e-01 5.485518835484981537e-03 1.225898787379264832e-01
-2.209434658288955688e-01 2.355560362339019775e-01 1.727286577224731445e-01 4.174130260944366455e-01 -1.750491112470626831e-01
1.773286014795303345e-01 -1.207099333405494690e-01 -8.745612204074859619e-02 4.854195713996887207e-01 -1.885707825422286987e-01
-2.838556654751300812e-02 -6.051449570804834366e-03 1.338200718164443970e-01 -3.249917179346084595e-02 1.923953890800476074e-01
3.399240374565124512e-01 -1.568198651075363159e-01 3.010385334491729736e-01 -2.657456994056701660e-01 3.961382508277893066e-01
-3.147866576910018921e-02 5.223369002342224121e-01 -4.044165909290313721e-01 7.165629416704177856e-02 -5.195127129554748535e-01
-2.860415279865264893e-01 2.716379165649414062e-01 9.846302121877670288e-02 2.731778025627136230e-01 7.819426059722900391e-02
-7.110891938209533691e-01 2.101140022277832031e-01 6.426279544830322266e-01 1.887684166431427002e-01 -3.880715668201446533e-01
3.109681606292724609e-02 -1.079442203044891357e-01 -1.806111186742782593e-01 9.824343770742416382e-02 3.486234843730926514e-01
1.225386932492256165e-01 -1.735224425792694092e-01 7.833773642778396606e-02 1.903798133134841919e-01 -5.914394557476043701e-02
2.747290134429931641e-01 -5.070980787277221680e-01 2.819318473339080811e-01 -3.388384282588958740e-01 8.705591410398483276e-02
-3.292073905467987061e-01 -1.803562790155410767e-01 -2.940158545970916748e-01 7.951359450817108154e-02 -1.914936006069183350e-01
1.846521720290184021e-02 7.084783911705017090e-01 -5.139545798301696777e-01 -3.989034593105316162e-01 3.804702758789062500e-01
-1.462361216545104980e-01 -2.185818403959274292e-01 -4.454382359981536865e-01 -9.995060041546821594e-03 4.811012446880340576e-01
-4.373369514942169189e-01 2.235787808895111084e-01 -4.056074321269989014e-01 2.630245685577392578e-01 3.454535901546478271e-01
2.760729789733886719e-01 2.633172273635864258e-01 3.684848845005035400e-01 -3.160798847675323486e-01 -5.931959748268127441e-01
-9.441390633583068848e-02 -3.194158375263214111e-01 8.661762624979019165e-02 1.070435494184494019e-01 4.278464242815971375e-02
-4.360066950321197510e-01 -1.547190397977828979e-01 2.913262248039245605e-01 -4.321459829807281494e-01 3.349464535713195801e-01
5.333225056529045105e-02 4.099086523056030273e-01 -1.371763795614242554e-01 -1.754959523677825928e-01 1.434601098299026489e-01
-5.914883017539978027e-01 -2.375545650720596313e-01 3.836198151111602783e-01 1.632840931415557861e-01 2.579141557216644287e-01
-2.524313330650329590e-01 -5.220395326614379883e-01 -3.760575056076049805e-01 -4.064563512802124023e-01 7.725096344947814941e-01
-5.015522614121437073e-02 4.098786506801843643e-03 1.404855400323867798e-01 -1.279340237379074097e-01 -2.960211336612701416e-01
2.409230470657348633e-01 8.168151378631591797e-01 -4.818320572376251221e-01 -1.936095356941223145e-01 -2.819946110248565674e-01
8.615049123764038086e-01 -1.695680618286132812e-01 -5.602778792381286621e-01 -2.926253676414489746e-01 2.179621309041976929e-01
