187
50
-1.989932507276535034e-01 1.029327809810638428e-01 5.031024105846881866e-03 4.219231009483337402e-01 -1.238305941224098206e-01 -8.673338592052459717e-02 -3.640631735324859619e-01 1.295798122882843018e-01 -4.626974463462829590e-02 3.472152948379516602e-01 2.034195959568023682e-01 -2.248369390144944191e-03 4.268441498279571533e-01 4.377549886703491211e-01 -1.696828007698059082e-01 -3.199479877948760986e-01 -4.081927835941314697e-01 1.889977604150772095e-01 2.263022959232330322e-01 -9.923711419105529785e-02 4.061998724937438965e-01 -2.285671420395374298e-03 3.315305709838867188e-01 7.798028588294982910e-01 5.340776965022087097e-02 2.153628021478652954e-01 -1.850587278604507446e-01 1.820720136165618896e-01 -2.003410011529922485e-01 -3.676371276378631592e-01 -4.543957486748695374e-02 2.942900061607360840e-01 -5.487390235066413879e-02 -1.601709276437759399e-01 -3.173624575138092041e-01 2.845042645931243896e-01 -7.931070029735565186e-02 4.152748361229896545e-02 2.152453362941741943e-01 -4.430701956152915955e-02 -2.398896962404251099e-01 -9.613733738660812378e-02 2.389219850301742554e-01 2.120084017515182495e-01 2.935666441917419434e-01 1.674543470144271851e-01 5.966643616557121277e-02 1.547013521194458008e-01 1.645011082291603088e-02 -8.526194840669631958e-02
4.016631543636322021e-01 1.665616482496261597e-01 -1.205035448074340820e-01 -6.853771209716796875e-02 -5.823493376374244690e-02 7.167851179838180542e-02 2.945822291076183319e-02 2.412070482969284058e-01 -9.706258773803710938e-02 1.638312190771102905e-01 2.271081805229187012e-01 -7.009031623601913452e-02 -3.702270612120628357e-02 2.708061933517456055e-01 -1.126573681831359863e-01 2.013285458087921143e-01 2.972501516342163086e-01 -2.035390734672546387e-01 -1.775787919759750366e-01 -3.291941061615943909e-02 -3.668907657265663147e-02 -5.919930338859558105e-02 1.819794625043869019e-01 2.136047780513763428e-01 -3.903324902057647705e-02 1.235426291823387146e-01 -2.525957822799682617e-01 3.850725246593356133e-03 -1.815794110298156738e-01 7.997027784585952759e-02 1.469402015209197998e-01 -9.169190376996994019e-02 -1.819131821393966675e-01 -1.169841177761554718e-02 1.701869219541549683e-01 2.231744527816772461e-01 -2.191250026226043701e-01 5.462648114189505577e-04 -2.287671267986297607e-01 1.119772419333457947e-01 7.042006403207778931e-02 2.224943935871124268e-01 -1.965551078319549561e-01 5.205316469073295593e-02 4.230051338672637939e-01 -1.033831294625997543e-02 2.310113161802291870e-01 1.433191299438476562e-01 9.510596096515655518e-02 7.923503965139389038e-02
-1.105930134654045105e-01 -1.796913892030715942e-02 8.883778005838394165e-02 9.037912823259830475e-03 -2.604996263980865479e-01 -1.083082929253578186e-01 2.089419513940811157e-01 -2.876636683940887451e-01 -1.878895014524459839e-01 -7.550657540559768677e-02 -1.116140633821487427e-01 4.403289407491683960e-02 -3.618482965975999832e-03 -8.023971319198608398e-02 4.768897965550422668e-02 -2.566525936126708984e-01 2.481742054224014282e-01 1.338505297899246216e-01 -1.423444449901580811e-01 -2.968482077121734619e-01 -2.659151554107666016e-01 -1.369901895523071289e-01 -9.228934347629547119e-02 -5.211349725723266602e-01 1.532751470804214478e-01 -8.535154908895492554e-02 9.631649404764175415e-02 -2.102265655994415283e-01 -1.108435317873954773e-01 3.079387843608856201e-01 2.122003585100173950e-01 -1.742789521813392639e-02 3.139639198780059814e-01 3.780958056449890137e-01 1.969116479158401489e-01 3.338511288166046143e-01 2.213820256292819977e-02 1.535914093255996704e-02 -8.984737843275070190e-02 1.474728994071483612e-02 1.387734860181808472e-01 3.661215305328369141e-01 3.983009159564971924e-01 3.689608275890350342e-01 1.030622944235801697e-01 -2.597134187817573547e-02 -1.542825698852539062e-01 -4.964222013950347900e-02 1.728417426347732544e-01 5.227168202400207520e-01
-1.747638434171676636e-01 3.058425150811672211e-02 -8.779478818178176880e-02 4.788886755704879761e-02 1.242261677980422974e-01 -2.871066331863403320e-02 -1.122882217168807983e-01 -3.665972650051116943e-01 1.565852761268615723e-02 8.112747967243194580e-02 7.290972024202346802e-02 -1.057773455977439880e-01 8.265595138072967529e-02 -1.662221997976303101e-01 -9.343059360980987549e-02 -3.399024009704589844e-01 -1.224330812692642212e-01 3.452290892601013184e-01 -2.191296368837356567e-01 9.489901131018996239e-04 9.042245894670486450e-02 -1.199324131011962891e-01 -1.447628587484359741e-01 -6.532615423202514648e-01 1.186720728874206543e-01 -1.454725209623575211e-02 2.767152190208435059e-01 7.739534601569175720e-03 8.031363785266876221e-02 -1.059447824954986572e-01 1.561697944998741150e-02 2.466742843389511108e-01 3.467752337455749512e-01 1.606755256652832031e-01 -1.068176142871379852e-02 1.974538862705230713e-01 -1.441414058208465576e-01 1.969919353723526001e-01 2.076054364442825317e-01 -3.041151463985443115e-01 2.732233703136444092e-01 3.993597626686096191e-01 6.507670879364013672e-01 1.901997327804565430e-01 1.908565461635589600e-01 -3.091714903712272644e-02 -6.957153230905532837e-02 4.670911654829978943e-02 -2.044533342123031616e-01 9.543820470571517944e-02
-1.892027258872985840e-01 -7.239972800016403198e-02 9.765581041574478149e-02 2.541877627372741699e-01 -3.424635827541351318e-01 -3.399512544274330139e-02 -6.866540014743804932e-02 -4.140749201178550720e-02 -6.602691859006881714e-02 6.317313015460968018e-02 -2.036902159452438354e-01 1.007841825485229492e-01 -1.928645819425582886e-01 9.401154518127441406e-02 -7.198849692940711975e-03 -1.926992982625961304e-01 3.017036616802215576e-02 2.561126053333282471e-01 -2.904650522395968437e-03 -1.204977184534072876e-01 2.840999960899353027e-01 8.510191738605499268e-02 4.881181195378303528e-02 -1.099563017487525940e-02 -7.175117731094360352e-03 5.366494134068489075e-02 -1.125385798513889313e-02 1.367841511964797974e-01 8.278476074337959290e-03 -2.052816599607467651e-01 -3.748894110321998596e-02 3.391675949096679688e-01 -2.515360713005065918e-01 4.550091922283172607e-02 6.732647866010665894e-02 -1.569129228591918945e-01 -5.855825543403625488e-02 3.474006056785583496e-02 -7.065537385642528534e-03 -3.897377550601959229e-01 1.348220556974411011e-02 2.345852553844451904e-01 1.155037134885787964e-01 9.778168052434921265e-02 -4.300606995820999146e-02 1.042179092764854431e-01 1.180483549833297729e-01 -8.449223637580871582e-02 -4.031971991062164307e-01 -3.406088799238204956e-02
-2.920719981193542480e-01 -5.986205860972404480e-02 4.115182533860206604e-02 2.459565401077270508e-01 -2.810620963573455811e-01 -9.090287983417510986e-02 -1.601320877671241760e-02 -5.884701386094093323e-03 4.527372866868972778e-02 6.907663494348526001e-02 -1.186915785074234009e-01 2.025221288204193115e-02 -9.063481539487838745e-02 9.170723706483840942e-02 -1.619821339845657349e-01 -2.751981019973754883e-01 2.546399533748626709e-01 1.435570269823074341e-01 -1.579347103834152222e-01 8.371732197701931000e-03 2.467557936906814575e-01 1.625583879649639130e-02 2.497371844947338104e-02 1.238602399826049805e-01 -4.942013323307037354e-02 -1.181663349270820618e-01 2.934293746948242188e-01 1.816309243440628052e-01 -1.968250609934329987e-02 -1.854499280452728271e-01 1.721500456333160400e-01 1.804933547973632812e-01 -8.773230016231536865e-02 2.692263722419738770e-01 2.969671487808227539e-01 -4.146652296185493469e-02 -1.263670176267623901e-01 2.000350803136825562e-01 1.572735458612442017e-01 -6.395065039396286011e-02 1.070685163140296936e-01 2.294409126043319702e-01 9.721474349498748779e-02 -2.050477862358093262e-01 -2.642709314823150635e-01 1.145013347268104553e-01 -7.719649374485015869e-02 -8.823535405099391937e-03 -1.410622894763946533e-01 -9.471946209669113159e-02
-2.726702094078063965e-01 -1.622443199157714844e-01 1.064561381936073303e-01 5.957391113042831421e-02 -1.754577159881591797e-01 -8.245071023702621460e-02 6.981980055570602417e-02 2.518537342548370361e-01 9.757301211357116699e-02 -1.063880175352096558e-01 -1.105328649282455444e-01 1.933949589729309082e-01 1.021859943866729736e-01 -6.316538155078887939e-02 2.813571877777576447e-02 -2.578742206096649170e-01 1.759171336889266968e-01 4.346823096275329590e-01 -1.163784265518188477e-01 -1.093703657388687134e-01 1.976867765188217163e-02 -7.091195881366729736e-02 -8.685251325368881226e-02 -2.691661380231380463e-02 -1.173708774149417877e-02 9.942886978387832642e-02 1.358816325664520264e-01 6.319919228553771973e-02 -1.923996955156326294e-01 -2.000297605991363525e-01 2.139438241720199585e-01 3.844195231795310974e-02 1.494630519300699234e-02 2.493058890104293823e-01 1.107141282409429550e-02 1.347393244504928589e-01 -5.202220380306243896e-02 1.515667438507080078e-01 3.081932067871093750e-01 1.033464595675468445e-01 9.560472518205642700e-02 1.764688789844512939e-01 -1.168567463755607605e-01 6.792430579662322998e-02 -2.132344692945480347e-01 8.065682649612426758e-02 -2.889675647020339966e-02 -1.107012256979942322e-01 -3.134088590741157532e-03 1.151009276509284973e-01
-1.009505763649940491e-01 2.722212346270680428e-03 1.517666131258010864e-01 -1.228921860456466675e-01 -3.457572162151336670e-01 -5.697520077228546143e-02 2.099555730819702148e-01 2.831322513520717621e-02 -1.802478730678558350e-01 -1.906205117702484131e-01 6.338626146316528320e-02 6.386871635913848877e-02 -5.212490633130073547e-02 -6.336264312267303467e-02 9.084256738424301147e-02 1.197632215917110443e-02 2.289777994155883789e-01 2.308851778507232666e-01 -9.610317647457122803e-02 -2.995021827518939972e-02 6.616874784231185913e-02 -1.007365137338638306e-01 2.132931053638458252e-01 -9.994180500507354736e-02 1.444856636226177216e-02 -1.119220331311225891e-01 1.372099667787551880e-01 7.376156747341156006e-02 -3.061160147190093994e-01 -1.711490154266357422e-01 4.062325879931449890e-02 -4.352378845214843750e-02 1.613621562719345093e-01 3.403183221817016602e-01 1.539329588413238525e-01 1.399424821138381958e-01 -1.601074337959289551e-01 1.836491823196411133e-01 1.792289465665817261e-01 3.747119754552841187e-02 -1.773001439869403839e-02 1.371683627367019653e-01 9.701249003410339355e-02 2.536791004240512848e-02 3.752797096967697144e-02 -1.464789360761642456e-01 -1.728382259607315063e-01 -8.059225231409072876e-02 -1.109757795929908752e-01 1.202489063143730164e-01
1.852273344993591309e-01 -1.557412445545196533e-01 -9.875050187110900879e-02 -2.639181315898895264e-01 -1.359170377254486084e-01 6.934270262718200684e-02 1.358280777931213379e-01 1.824541985988616943e-01 -4.314167425036430359e-02 -1.987156122922897339e-01 -1.820183359086513519e-02 1.956738531589508057e-02 1.170616783201694489e-02 -1.413427889347076416e-01 6.406848877668380737e-02 3.231572918593883514e-04 -2.119728364050388336e-02 1.558319777250289917e-01 -2.126726508140563965e-01 4.822733998298645020e-02 -7.525694370269775391e-02 -1.137462793849408627e-03 8.520257472991943359e-02 -1.333325505256652832e-01 -6.489221472293138504e-03 7.542456686496734619e-02 1.063356399536132812e-01 3.223688574507832527e-03 -2.829061150550842285e-01 -1.378122270107269287e-01 -6.918390840291976929e-02 3.643666161224246025e-03 -4.342358186841011047e-02 2.033074647188186646e-01 -8.346222341060638428e-02 3.668606281280517578e-01 -4.898895323276519775e-02 2.005205750465393066e-01 1.831045150756835938e-01 2.442786842584609985e-01 1.056606415659189224e-02 1.719949543476104736e-01 -1.521611362695693970e-01 1.566721126437187195e-02 -1.792945414781570435e-01 5.611695721745491028e-02 2.289993315935134888e-02 1.136312484741210938e-01 1.520912200212478638e-01 1.581655070185661316e-02
1.470199376344680786e-01 -1.583390124142169952e-02 5.037155374884605408e-02 -2.522450387477874756e-01 -1.718446612358093262e-01 -1.157198920845985413e-01 1.021778583526611328e-01 2.312732487916946411e-01 -2.242638468742370605e-01 -2.093443572521209717e-01 7.407449930906295776e-02 6.275164335966110229e-02 -1.506439000368118286e-01 5.764249339699745178e-02 -1.041816994547843933e-01 -8.110396564006805420e-02 1.474911421537399292e-01 -4.247597977519035339e-02 -2.592053730040788651e-03 1.730011850595474243e-01 -9.912341088056564331e-02 -4.429946467280387878e-02 -6.591729819774627686e-02 -1.477538049221038818e-01 -2.621358819305896759e-02 1.408367305994033813e-01 1.328652203083038330e-01 1.181679964065551758e-01 -2.839434146881103516e-01 -2.234148606657981873e-02 1.721177101135253906e-01 3.353136777877807617e-02 1.290336549282073975e-01 2.551575899124145508e-01 1.240056976675987244e-01 3.157120048999786377e-01 -6.560280174016952515e-02 -2.342786081135272980e-02 -2.498035728931427002e-01 8.512239158153533936e-02 7.708623260259628296e-02 -2.582317404448986053e-02 -9.854315221309661865e-02 -1.263120472431182861e-01 -1.828210353851318359e-01 3.170091286301612854e-02 -7.528652250766754150e-02 -1.717362552881240845e-01 9.607563912868499756e-02 -3.141290694475173950e-02
4.389118403196334839e-02 1.325831562280654907e-01 -6.319829821586608887e-02 4.635984543710947037e-03 1.995776034891605377e-02 2.308800444006919861e-02 1.742381453514099121e-01 1.380835771560668945e-01 -1.962855756282806396e-01 -1.595461219549179077e-01 6.393825262784957886e-02 3.195581957697868347e-02 -1.350358277559280396e-01 1.324437372386455536e-02 -1.674210429191589355e-01 -1.498826444149017334e-01 9.831725619733333588e-03 9.447040036320686340e-03 9.749595075845718384e-02 9.390954673290252686e-02 2.199410833418369293e-02 -9.436239302158355713e-02 -4.382609948515892029e-02 -1.012551411986351013e-01 -5.325515195727348328e-02 -1.036468669772148132e-01 -2.087496668100357056e-01 -4.429226368665695190e-02 -5.013679862022399902e-01 -1.100029144436120987e-02 3.877061232924461365e-02 -1.003603115677833557e-01 1.270782500505447388e-01 2.729123830795288086e-01 6.195185240358114243e-03 1.450225561857223511e-01 7.041976600885391235e-02 -5.888019874691963196e-02 -1.189464926719665527e-01 1.695862412452697754e-01 -1.195982024073600769e-01 -2.378161698579788208e-01 -5.274175480008125305e-02 -1.816373020410537720e-01 -1.560007184743881226e-01 -5.909727513790130615e-02 -1.341520249843597412e-01 -1.283067315816879272e-01 1.303327977657318115e-01 -2.486893832683563232e-01
8.665367215871810913e-02 -8.824416249990463257e-02 -2.504694275557994843e-03 -8.057699352502822876e-02 -4.522627219557762146e-02 -2.507550455629825592e-02 1.909181326627731323e-01 1.890946775674819946e-01 -1.378994435071945190e-01 8.058662712574005127e-02 2.898108959197998047e-02 -1.408479809761047363e-01 9.677892923355102539e-02 9.569893777370452881e-02 -1.972851715981960297e-02 1.172993425279855728e-02 5.945299565792083740e-02 -7.034603506326675415e-03 -1.193519756197929382e-01 -3.480740264058113098e-02 -1.357747465372085571e-01 -1.361732631921768188e-01 5.714080855250358582e-02 1.036121770739555359e-01 -1.459990888833999634e-01 -2.176006697118282318e-02 8.904508501291275024e-02 -7.053444627672433853e-03 -3.879144489765167236e-01 6.075007840991020203e-02 6.575930118560791016e-02 4.544802010059356689e-02 -2.007707506418228149e-01 -9.989444166421890259e-03 -1.454841047525405884e-01 2.651225402951240540e-02 -3.251197189092636108e-02 5.060444027185440063e-02 -1.112328320741653442e-01 1.228990331292152405e-01 7.333037257194519043e-02 -1.254411190748214722e-01 -2.398632764816284180e-01 -3.179030120372772217e-02 -9.614086709916591644e-03 7.990217208862304688e-02 -1.703476756811141968e-01 -1.069804280996322632e-01 -1.705807298421859741e-01 -4.927458986639976501e-02
-1.237275172024965286e-02 8.439871668815612793e-02 3.926704451441764832e-02 -9.598389267921447754e-02 1.986968368291854858e-01 1.112049445509910583e-01 2.078394293785095215e-01 -9.679275751113891602e-02 -2.149675935506820679e-01 -4.292954131960868835e-02 7.985258102416992188e-02 -1.114824563264846802e-01 -1.346523612737655640e-01 1.931445905938744545e-03 5.945179983973503113e-02 1.788549274206161499e-01 7.947935909032821655e-02 -1.420710086822509766e-01 -1.282214373350143433e-01 7.351753115653991699e-02 -1.440414786338806152e-01 2.658422850072383881e-02 -1.649140268564224243e-01 1.005165129899978638e-01 -1.312465071678161621e-01 -1.001699641346931458e-01 -1.434377282857894897e-01 2.329743281006813049e-02 -1.100391894578933716e-02 1.149460226297378540e-01 1.943589448928833008e-01 -1.660871058702468872e-01 5.334410443902015686e-02 8.170197159051895142e-02 1.545813307166099548e-02 1.422708779573440552e-01 -3.288410231471061707e-02 3.245582059025764465e-02 3.278188779950141907e-02 2.253639400005340576e-01 6.048728525638580322e-02 -1.106451675295829773e-01 -2.055512070655822754e-01 -5.605719238519668579e-02 5.584418028593063354e-02 -8.867655694484710693e-02 9.542549401521682739e-02 -2.528524212539196014e-02 -1.211100071668624878e-01 -1.994627565145492554e-01
1.756479442119598389e-01 2.153222858905792236e-01 1.747279018163681030e-01 -1.615788787603378296e-01 1.446020007133483887e-01 6.132254377007484436e-03 1.620109528303146362e-01 -7.402645796537399292e-02 -1.528848707675933838e-01 -8.907710760831832886e-02 -1.198445037007331848e-01 8.963616192340850830e-02 -3.154252190142869949e-03 -2.966549806296825409e-02 -7.024725526571273804e-02 3.420413732528686523e-01 9.276957064867019653e-02 9.788251481950283051e-04 4.899734631180763245e-02 1.225382536649703979e-01 2.071292139589786530e-02 -1.051360145211219788e-01 -7.383071631193161011e-02 -7.015819102525711060e-02 -1.095036044716835022e-01 -9.850456565618515015e-02 6.730613112449645996e-02 1.099939197301864624e-01 -4.077816754579544067e-02 3.646549209952354431e-02 9.608656167984008789e-02 -5.981006845831871033e-02 -1.824423819780349731e-01 4.547559469938278198e-02 8.820578805170953274e-04 1.266581267118453979e-01 -5.587777867913246155e-02 -1.220741197466850281e-01 -1.666168719530105591e-01 8.110024034976959229e-02 7.307264953851699829e-02 -2.099640667438507080e-01 -5.417380481958389282e-02 3.513155505061149597e-02 -1.654655933380126953e-01 -1.425999701023101807e-01 2.940725721418857574e-02 1.351768970489501953e-01 -9.782376885414123535e-02 -2.229263186454772949e-01
7.614954560995101929e-02 7.307981699705123901e-02 9.541273862123489380e-02 -2.748595178127288818e-02 -4.702655225992202759e-02 -1.398684084415435791e-01 -5.542995641008019447e-04 8.381333202123641968e-02 -1.843185424804687500e-01 6.065490841865539551e-02 7.395249791443347931e-03 1.291965693235397339e-01 6.994015723466873169e-02 -1.571473851799964905e-02 -7.965874671936035156e-02 2.857337594032287598e-01 -7.269477844238281250e-02 -2.276778370141983032e-01 3.255083784461021423e-02 -1.509306132793426514e-01 -1.397718191146850586e-01 -6.463385373353958130e-02 -4.403123259544372559e-02 7.909723371267318726e-02 -7.010740786790847778e-02 -8.350308984518051147e-02 1.178195774555206299e-01 1.078447550535202026e-01 2.417110465466976166e-02 -1.186104565858840942e-01 6.739132106304168701e-03 -1.758557260036468506e-01 -2.209575623273849487e-01 6.245824322104454041e-02 5.510045448318123817e-04 1.027984078973531723e-02 8.179440163075923920e-03 8.101350627839565277e-03 4.376741126179695129e-02 -7.305990904569625854e-02 -1.282475516200065613e-02 -6.584133952856063843e-02 -7.537584751844406128e-02 -5.825757607817649841e-02 4.423885792493820190e-02 4.032782092690467834e-02 1.443927586078643799e-01 8.971478790044784546e-02 -1.095863729715347290e-01 -6.875484436750411987e-02
1.107950210571289062e-01 -2.701162174344062805e-02 -7.516596466302871704e-02 -3.744094399735331535e-03 1.621830314397811890e-01 1.768976822495460510e-02 1.722170114517211914e-01 5.721849948167800903e-02 3.711076080799102783e-02 -6.667082756757736206e-02 -5.759571492671966553e-02 -9.683673083782196045e-02 -9.915223717689514160e-02 -6.336814165115356445e-02 -7.928048819303512573e-02 1.250381618738174438e-01 -2.338730730116367340e-02 -2.877173721790313721e-01 5.324685946106910706e-02 -7.467736955732107162e-03 -6.386152654886245728e-02 -5.763284862041473389e-02 -1.254900842905044556e-01 -1.946467906236648560e-02 -3.900675475597381592e-02 5.532705038785934448e-02 4.517786577343940735e-02 4.395598173141479492e-02 7.049756497144699097e-02 -1.556753832846879959e-02 1.146873682737350464e-01 8.065571635961532593e-02 -5.038592498749494553e-03 6.550738215446472168e-02 -1.073481589555740356e-01 3.914177045226097107e-02 2.190349847078323364e-01 1.226859241724014282e-01 -1.778404265642166138e-01 -5.410262197256088257e-02 -1.180724427103996277e-01 -1.101950928568840027e-01 -2.018585428595542908e-02 7.557612657546997070e-02 -1.216668561100959778e-01 1.049507707357406616e-01 2.393691800534725189e-02 -7.560656219720840454e-02 -5.459626019001007080e-02 -2.530273497104644775e-01
1.271377354860305786e-01 2.041062712669372559e-01 -4.012541472911834717e-02 1.174106970429420471e-01 2.015535980463027954e-01 1.224856376647949219e-01 6.083001499064266682e-04 -2.634432539343833923e-02 -2.522924840450286865e-01 -3.148575499653816223e-02 -1.545181125402450562e-02 -2.164451032876968384e-02 9.463459998369216919e-02 -1.482944488525390625e-01 -4.250194411724805832e-03 1.935470104217529297e-01 -1.352280825376510620e-01 -2.040215432643890381e-01 3.461741656064987183e-02 -9.228333830833435059e-03 -6.595437973737716675e-02 -1.427601277828216553e-01 -1.312990188598632812e-01 -5.858970806002616882e-02 -1.615540832281112671e-01 -4.234400019049644470e-02 4.623751714825630188e-02 2.571459487080574036e-02 3.751882538199424744e-02 -9.569867700338363647e-02 8.606215566396713257e-02 9.313311893492937088e-04 7.270752452313899994e-03 -1.531637907028198242e-01 -1.497169286012649536e-01 -5.666298791766166687e-02 1.719030737876892090e-01 8.861125260591506958e-02 -1.139362752437591553e-01 -1.214137002825737000e-01 -4.365457966923713684e-02 -2.869886159896850586e-01 -4.802286624908447266e-02 2.396553382277488708e-02 -1.221764311194419861e-01 1.060708239674568176e-01 -4.607504233717918396e-02 -1.003793030977249146e-01 -4.906499013304710388e-02 -7.737290859222412109e-02
-8.365890383720397949e-02 1.568002998828887939e-01 -1.069646775722503662e-01 1.093439832329750061e-01 1.282095909118652344e-01 -4.154427722096443176e-02 -8.362443745136260986e-02 1.427016556262969971e-01 6.605884525924921036e-03 -5.503388494253158569e-02 -9.106092154979705811e-02 -2.276949584484100342e-02 2.174392715096473694e-02 -1.940214335918426514e-01 -1.496509313583374023e-01 2.892213165760040283e-01 -6.080779712647199631e-03 -2.149379104375839233e-01 1.956404559314250946e-02 2.105567045509815216e-02 2.900734543800354004e-02 -6.396595388650894165e-02 6.496707350015640259e-02 -2.813184075057506561e-02 -8.472766727209091187e-02 -1.070647016167640686e-01 5.659726634621620178e-02 -6.966221332550048828e-02 3.332706689834594727e-01 9.436810016632080078e-02 2.979537658393383026e-02 -2.244415581226348877e-01 -1.955022662878036499e-01 3.693295270204544067e-02 -6.220580264925956726e-02 -8.049942553043365479e-02 7.372611016035079956e-02 2.905619330704212189e-02 2.240276485681533813e-01 -9.697436541318893433e-02 -1.279295980930328369e-01 -1.150669082999229431e-01 -1.132236793637275696e-02 -1.501935422420501709e-01 -2.469385713338851929e-01 -7.810042053461074829e-02 5.113083496689796448e-02 1.393663585186004639e-01 2.200212888419628143e-02 -1.378919780254364014e-01
-3.885192796587944031e-02 2.564893849194049835e-02 -1.336371600627899170e-01 -4.131882637739181519e-02 5.958829447627067566e-02 -3.558678925037384033e-02 -7.743458449840545654e-02 -8.082097768783569336e-02 -2.357347160577774048e-01 -7.033245265483856201e-02 6.497763842344284058e-02 -1.546291261911392212e-01 9.664388746023178101e-02 -4.563216865062713623e-02 1.125066280364990234e-01 4.691525176167488098e-02 -8.711110800504684448e-02 -6.601741909980773926e-02 -6.937208771705627441e-02 -1.342395395040512085e-01 1.062407717108726501e-01 1.255419701337814331e-01 -1.720619350671768188e-01 -9.864393621683120728e-02 1.201776489615440369e-01 -1.019396632909774780e-02 -1.063969433307647705e-01 1.007348820567131042e-01 2.038190066814422607e-01 -2.002294212579727173e-01 1.464210357517004013e-02 7.728128880262374878e-02 -1.770684868097305298e-01 -1.195058152079582214e-01 -7.533869938924908638e-04 -1.025044471025466919e-01 1.662980169057846069e-01 1.062598675489425659e-01 1.373159885406494141e-01 -8.565561473369598389e-02 -9.296148270368576050e-02 -6.913998723030090332e-02 -1.729030907154083252e-02 -7.611393462866544724e-03 -3.422590345144271851e-02 8.672610670328140259e-02 1.460122913122177124e-01 -6.520947068929672241e-02 -6.100859120488166809e-02 3.333294764161109924e-02
-6.526683270931243896e-02 1.375131960958242416e-02 1.941934786736965179e-02 1.711125820875167847e-01 1.329480111598968506e-01 -9.025301784276962280e-02 1.213649064302444458e-01 2.841494418680667877e-02 -7.474804297089576721e-03 1.754696131683886051e-03 1.236547157168388367e-01 -9.081648290157318115e-02 2.091126739978790283e-01 -2.361620962619781494e-02 -1.063646003603935242e-01 3.592488169670104980e-02 -3.251470997929573059e-02 -1.391059160232543945e-01 -1.495269984006881714e-01 -4.819001629948616028e-02 1.876332610845565796e-02 8.090395480394363403e-02 7.310784608125686646e-02 7.615876197814941406e-02 -3.345322608947753906e-02 -1.347102969884872437e-01 9.897223114967346191e-02 -2.087298966944217682e-02 1.943713873624801636e-01 2.803574129939079285e-02 -1.224895045161247253e-01 -1.308449357748031616e-01 -1.653777509927749634e-01 6.909661740064620972e-02 -8.962165564298629761e-02 6.889657676219940186e-02 1.768544912338256836e-01 -1.082589179277420044e-01 -5.853156093508005142e-03 -1.347641088068485260e-02 6.026318762451410294e-03 -1.283917278051376343e-01 -9.456191211938858032e-02 6.373611837625503540e-02 -1.579059511423110962e-01 -1.417866051197052002e-01 1.247727796435356140e-01 1.412512660026550293e-01 -1.351914405822753906e-01 -1.630236208438873291e-01
7.402153313159942627e-02 9.458722919225692749e-02 7.258382439613342285e-02 1.114023402333259583e-01 2.257671579718589783e-02 7.465746253728866577e-02 4.498578608036041260e-02 4.915708303451538086e-02 -1.609979271888732910e-01 2.065216153860092163e-01 -1.546545326709747314e-01 -1.629194244742393494e-02 7.518328726291656494e-02 1.365866418927907944e-02 9.875658899545669556e-02 8.847471326589584351e-02 1.271356921643018723e-02 -1.265382915735244751e-01 1.249015703797340393e-01 -5.820260569453239441e-02 3.878830699250102043e-03 -5.529844760894775391e-02 -1.436559949070215225e-02 1.623758375644683838e-01 6.048113107681274414e-02 -6.672051548957824707e-02 1.934470087289810181e-01 -1.813089475035667419e-02 2.151875197887420654e-02 -1.070850864052772522e-01 2.136769331991672516e-02 9.454992413520812988e-02 -3.306386992335319519e-02 1.336070299148559570e-01 -1.176985129714012146e-01 -8.258841186761856079e-02 8.753477782011032104e-02 -1.740904599428176880e-01 2.273992747068405151e-01 9.673756361007690430e-02 1.521236449480056763e-01 -1.993807405233383179e-01 1.586128957569599152e-02 -1.192635148763656616e-01 -1.930675506591796875e-01 1.075107976794242859e-01 1.460572984069585800e-02 -7.746717333793640137e-02 -2.914029359817504883e-02 -9.428557753562927246e-02
2.435183711349964142e-02 1.129534021019935608e-01 -5.096862558275461197e-03 -6.204057112336158752e-02 -7.054136693477630615e-02 1.221968159079551697e-01 1.568127125501632690e-01 -2.007462549954652786e-03 5.844760313630104065e-02 1.387671828269958496e-01 -8.070961385965347290e-02 -1.086238920688629150e-01 1.802563294768333435e-02 8.011789619922637939e-02 -1.691284328699111938e-01 1.622483283281326294e-01 -6.246128305792808533e-02 -1.541989445686340332e-01 4.648266732692718506e-02 6.764481216669082642e-02 5.897659808397293091e-02 -1.428700536489486694e-01 -4.471097141504287720e-02 1.757137849926948547e-02 -1.442617923021316528e-01 3.335509821772575378e-02 -2.700752206146717072e-02 -1.833792477846145630e-01 1.619544029235839844e-01 9.036649763584136963e-02 -3.084117546677589417e-02 2.965482696890830994e-02 -3.139493986964225769e-02 -3.381995484232902527e-02 -7.129743695259094238e-02 -1.369565725326538086e-01 4.320953413844108582e-02 6.502957548946142197e-03 -7.366418093442916870e-02 1.263678669929504395e-01 -1.454042643308639526e-01 -1.497000008821487427e-01 -3.867359086871147156e-02 -1.899560242891311646e-01 -1.233155503869056702e-01 -1.545276790857315063e-01 1.337683945894241333e-01 1.958182640373706818e-02 -1.909797787666320801e-01 -7.523895800113677979e-02
-1.189064756035804749e-01 9.086682647466659546e-02 -3.119711577892303467e-02 8.064085990190505981e-02 1.378584653139114380e-01 4.946117475628852844e-02 1.529753208160400391e-01 3.848988562822341919e-02 -7.556002587080001831e-02 -1.457375241443514824e-03 -3.222937509417533875e-02 -1.211542561650276184e-01 2.297881059348583221e-02 -1.073195487260818481e-01 -1.214733719825744629e-02 2.483361586928367615e-02 -2.596664056181907654e-02 -2.482255101203918457e-01 -5.253399536013603210e-02 8.878149092197418213e-02 1.006209198385477066e-02 1.349195390939712524e-01 8.949694782495498657e-02 1.935302466154098511e-01 5.297821760177612305e-02 5.363444983959197998e-02 -4.697425290942192078e-02 -1.732333749532699585e-02 8.300637826323509216e-03 -1.307944506406784058e-01 5.192163214087486267e-02 5.530253052711486816e-02 -1.782684028148651123e-02 1.424777805805206299e-01 -7.181205600500106812e-02 -1.362846195697784424e-01 7.653872668743133545e-02 -1.234660744667053223e-01 1.239709630608558655e-01 1.155742332339286804e-01 -9.535731375217437744e-02 -2.193099260330200195e-01 -1.142937690019607544e-01 -2.369298189878463745e-01 -6.396304070949554443e-02 -5.848969891667366028e-02 6.575430929660797119e-02 -3.805644437670707703e-02 1.165019050240516663e-01 1.165142655372619629e-01
2.347788400948047638e-02 -4.872936755418777466e-03 1.819065958261489868e-01 1.941761672496795654e-01 1.357567459344863892e-01 3.326395153999328613e-02 9.142410010099411011e-02 -1.179839372634887695e-01 7.056928705424070358e-03 9.456961601972579956e-02 -1.598809286952018738e-02 1.665700227022171021e-01 -1.269969046115875244e-01 -2.268044091761112213e-02 1.186352446675300598e-01 1.327158808708190918e-01 -1.866094395518302917e-02 -1.516475230455398560e-01 -5.351645406335592270e-03 -8.442531526088714600e-02 2.000572234392166138e-01 -1.801293343305587769e-02 7.713139802217483521e-02 2.320726402103900909e-02 1.043257936835289001e-01 -1.363195106387138367e-02 -8.180315047502517700e-02 -9.803400933742523193e-02 1.449519246816635132e-01 9.148615598678588867e-02 -1.160299777984619141e-01 -1.180529873818159103e-02 -1.620658189058303833e-01 5.400436371564865112e-02 -3.994417935609817505e-02 -1.558436751365661621e-01 4.014144092798233032e-02 -1.903860867023468018e-01 2.021192610263824463e-01 8.904238045215606689e-02 3.858299180865287781e-02 -1.768302917480468750e-01 5.928405746817588806e-02 -1.454667095094919205e-02 7.271249312907457352e-03 -1.749440580606460571e-01 1.150395348668098450e-01 9.053746610879898071e-02 7.347279228270053864e-03 -8.703518658876419067e-02
6.254304200410842896e-02 -9.520398080348968506e-02 -5.774323642253875732e-02 7.302817702293395996e-02 9.631268680095672607e-02 -1.977798528969287872e-02 1.952835470438003540e-01 -1.635730862617492676e-01 -4.315506294369697571e-02 1.275670081377029419e-01 -1.035610213875770569e-01 1.516326963901519775e-01 1.581859141588211060e-01 8.158096671104431152e-02 -1.560012400150299072e-01 -1.877137422561645508e-01 -2.037616521120071411e-01 -1.649989783763885498e-01 -9.574577212333679199e-02 1.130477339029312134e-01 9.547191113233566284e-02 1.282190084457397461e-01 -2.489845827221870422e-02 2.456656098365783691e-01 1.201115548610687256e-01 -5.282631143927574158e-02 3.625744581222534180e-02 -5.837198719382286072e-02 7.022614032030105591e-02 1.329230070114135742e-01 -5.180072039365768433e-02 8.851020783185958862e-02 -9.339744225144386292e-03 4.973386228084564209e-02 -7.932580262422561646e-02 9.635157138109207153e-02 1.513250619173049927e-01 -5.522560328245162964e-02 1.562145948410034180e-01 1.020358055830001831e-01 1.449535489082336426e-01 7.462295703589916229e-03 -2.983635663986206055e-02 -1.434419006109237671e-01 -1.249430701136589050e-01 4.167004674673080444e-02 7.296874374151229858e-02 -8.214661478996276855e-02 -9.941647201776504517e-02 9.717584587633609772e-03
2.486275136470794678e-02 4.286922886967658997e-02 7.192244380712509155e-02 3.339423984289169312e-02 1.008514612913131714e-01 7.594854384660720825e-02 2.240350842475891113e-01 1.097155213356018066e-01 -2.030528150498867035e-02 -8.702052384614944458e-02 3.561652079224586487e-02 6.268324702978134155e-02 -1.106099486351013184e-01 7.887824624776840210e-02 3.059865161776542664e-02 -5.793639272451400757e-02 -2.232592254877090454e-01 -1.391653865575790405e-01 1.883021146059036255e-01 1.266109347343444824e-01 1.100453138351440430e-01 -1.279885768890380859e-01 1.113933250308036804e-01 1.308464556932449341e-01 1.183738783001899719e-01 1.131008863449096680e-01 5.820135772228240967e-02 1.370662152767181396e-01 -2.752202935516834259e-02 5.837018415331840515e-02 -1.555113792419433594e-01 1.254830695688724518e-02 2.341809496283531189e-02 1.226781308650970459e-01 -7.203670591115951538e-02 -1.262005120515823364e-01 7.211175560951232910e-02 -9.525379538536071777e-02 -1.035647541284561157e-01 7.089509069919586182e-02 1.061640605330467224e-01 -2.960765361785888672e-02 -7.030633091926574707e-02 -4.623863846063613892e-02 -1.379339843988418579e-01 -5.857738852500915527e-02 -1.834257543087005615e-01 -6.352362781763076782e-02 5.994029343128204346e-02 6.666591018438339233e-02
2.243241369724273682e-01 -1.579235941171646118e-01 -3.022635541856288910e-02 -1.607910171151161194e-02 1.104627475142478943e-01 -1.118221059441566467e-01 1.778310686349868774e-01 -2.083829194307327271e-01 2.290043085813522339e-01 1.085042301565408707e-02 4.814698174595832825e-02 1.406593620777130127e-01 -1.406432688236236572e-01 -1.338172703981399536e-01 -2.921380288898944855e-02 4.083739966154098511e-02 -2.758027911186218262e-01 -2.062934786081314087e-01 1.290305852890014648e-01 6.818673759698867798e-02 -1.282518636435270309e-02 -1.864032703451812267e-03 1.136838048696517944e-01 1.522471010684967041e-01 -1.310883015394210815e-01 5.509087350219488144e-03 6.757983006536960602e-03 -4.048402979969978333e-02 2.526158094406127930e-02 2.829737216234207153e-02 -1.503072530031204224e-01 2.440374046564102173e-01 1.368627697229385376e-01 6.284550298005342484e-03 4.445801675319671631e-02 -2.967686019837856293e-02 6.275312602519989014e-02 1.620345376431941986e-02 -1.358729600906372070e-01 1.341793984174728394e-01 2.079208940267562866e-02 -1.638011336326599121e-01 6.085118651390075684e-02 -7.501590996980667114e-02 6.740615516901016235e-02 4.998795688152313232e-02 4.830354452133178711e-02 -1.127276755869388580e-02 -1.361382007598876953e-01 1.681679487228393555e-02
3.921973705291748047e-02 -1.590824574232101440e-01 1.437293440103530884e-01 -1.062455922365188599e-01 1.256724148988723755e-01 -3.542727604508399963e-02 2.038137912750244141e-01 9.774216450750827789e-03 2.951616980135440826e-02 1.856945268809795380e-02 -2.008782699704170227e-02 -8.130045980215072632e-02 7.205522060394287109e-02 -1.398911029100418091e-01 -4.575689882040023804e-02 -1.397038400173187256e-01 -2.517203986644744873e-01 -2.141520828008651733e-01 1.621306836605072021e-01 1.115535572171211243e-02 -1.107942461967468262e-01 4.073232784867286682e-02 -5.208924040198326111e-02 3.577814623713493347e-02 -9.961814433336257935e-02 -4.367510229349136353e-02 1.436661649495363235e-02 1.065315157175064087e-01 1.220579519867897034e-01 1.842308491468429565e-01 3.508738428354263306e-02 2.330316752195358276e-01 1.114048585295677185e-01 -7.545323669910430908e-02 8.665537834167480469e-02 1.015564799308776855e-01 -1.274121105670928955e-01 -2.753400802612304688e-02 6.102064624428749084e-02 8.235634118318557739e-02 1.090600737370550632e-03 -1.627270877361297607e-01 -2.075932025909423828e-01 -7.702614367008209229e-02 -2.076766826212406158e-02 3.641624376177787781e-02 -2.432497683912515640e-03 -1.200420111417770386e-01 -4.584925249218940735e-02 1.722197085618972778e-01
1.092948019504547119e-01 -1.351472735404968262e-01 1.423435807228088379e-01 6.739193946123123169e-02 -4.674980044364929199e-02 -5.020762234926223755e-02 2.937555685639381409e-02 -1.532511860132217407e-01 7.002460956573486328e-02 2.285978570580482483e-02 -5.619056522846221924e-02 -5.042053386569023132e-02 -8.443997800350189209e-02 -1.590433865785598755e-01 -4.809407517313957214e-02 -1.314069479703903198e-01 -2.755070626735687256e-01 -2.382524684071540833e-02 -8.821087889373302460e-03 -7.460245490074157715e-02 -1.171607971191406250e-01 -4.045199137181043625e-03 -1.895335130393505096e-02 -4.713631048798561096e-02 4.880559071898460388e-02 4.391610622406005859e-02 -1.657947152853012085e-01 9.726548939943313599e-02 4.283894598484039307e-02 1.118153110146522522e-01 -1.176900640130043030e-01 -1.146026048809289932e-02 4.613175615668296814e-02 1.558836996555328369e-01 1.141291111707687378e-01 -1.280030608177185059e-01 -2.436822745949029922e-03 -1.152048557996749878e-01 8.704669028520584106e-02 1.807408183813095093e-01 1.258470863103866577e-01 -1.810885220766067505e-01 -1.636273711919784546e-01 -6.823064386844635010e-02 -7.516497746109962463e-03 -1.478975713253021240e-01 -1.766044795513153076e-01 -1.462816298007965088e-01 -9.611098468303680420e-02 -1.065071597695350647e-01
-2.866597846150398254e-03 -4.382374230772256851e-03 -1.262840181589126587e-01 1.549941897392272949e-01 6.238438934087753296e-02 -1.065179631114006042e-01 1.819574385881423950e-01 1.103638205677270889e-02 1.835898309946060181e-01 2.983142435550689697e-02 -2.143331468105316162e-01 9.580549597740173340e-02 1.991993747651576996e-02 3.278078138828277588e-02 3.882017731666564941e-02 -1.597798615694046021e-01 -2.238135784864425659e-01 1.939935982227325439e-02 -1.243006587028503418e-01 -1.602213978767395020e-01 1.067110523581504822e-01 4.879250004887580872e-02 4.554014652967453003e-02 9.425156563520431519e-02 -4.221577569842338562e-02 6.137789413332939148e-02 -2.717530587688088417e-03 -2.549204044044017792e-02 -1.572440564632415771e-01 1.871993094682693481e-01 5.227828398346900940e-03 -9.640030562877655029e-02 -5.766788497567176819e-02 -3.596971556544303894e-02 4.926256835460662842e-02 -6.363750249147415161e-02 -1.120941992849111557e-02 2.880196832120418549e-02 -4.603838920593261719e-02 5.324986996129155159e-04 9.424749016761779785e-02 -6.355472654104232788e-02 -6.713685393333435059e-02 -3.041783161461353302e-02 6.404300034046173096e-02 1.221682578325271606e-01 4.288495704531669617e-02 -3.814005851745605469e-02 3.057219088077545166e-02 -5.882783606648445129e-02
1.089500188827514648e-01 -1.107715144753456116e-01 3.928588330745697021e-02 -4.833906143903732300e-02 4.091234877705574036e-02 -1.336543560028076172e-01 9.725017100572586060e-02 1.740256883203983307e-02 5.836620554327964783e-02 -6.045496091246604919e-02 9.007864445447921753e-02 -1.024299040436744690e-01 -1.842597573995590210e-01 -9.021880477666854858e-02 -1.090417057275772095e-01 1.303672194480895996e-01 -6.790512055158615112e-02 -1.702166795730590820e-01 1.455223858356475830e-01 -5.276089906692504883e-02 5.696481838822364807e-02 -1.439361125230789185e-01 1.213961169123649597e-01 -1.852473914623260498e-01 8.687966316938400269e-02 1.305078156292438507e-02 -3.890246152877807617e-02 -7.073997706174850464e-02 -1.292053610086441040e-01 5.202466994524002075e-02 -7.420244626700878143e-03 -9.316812455654144287e-02 1.565567962825298309e-02 3.743378445506095886e-02 7.172337174415588379e-02 -1.015951856970787048e-01 -1.156602650880813599e-01 -1.794852614402770996e-01 -3.087745048105716705e-02 2.243682146072387695e-01 1.368892192840576172e-01 4.806343093514442444e-02 -1.941420510411262512e-02 1.971626188606023788e-03 -1.785457320511341095e-02 5.418477952480316162e-02 2.066464629024267197e-03 1.505713257938623428e-02 4.177398234605789185e-02 9.471219778060913086e-02
7.859662175178527832e-02 -9.244913607835769653e-02 7.568626105785369873e-02 5.625794082880020142e-02 2.769025415182113647e-02 -1.140843480825424194e-01 9.084292501211166382e-02 4.779444262385368347e-02 2.027294635772705078e-01 2.073643356561660767e-02 -3.578500822186470032e-02 1.420340985059738159e-01 -1.912052333354949951e-01 -1.703253984451293945e-01 8.176947385072708130e-02 8.185977488756179810e-02 -2.626806795597076416e-01 6.228922307491302490e-02 6.152833998203277588e-02 6.751597672700881958e-02 -1.113070845603942871e-01 -8.501637727022171021e-02 1.572093814611434937e-01 -1.173658296465873718e-01 -3.082974627614021301e-02 7.234741002321243286e-02 8.971122652292251587e-02 6.883453577756881714e-02 -6.727106124162673950e-02 -2.293136715888977051e-02 -8.998580276966094971e-02 1.473163813352584839e-01 1.498401463031768799e-01 1.398888826370239258e-01 1.101482659578323364e-01 -1.319922506809234619e-01 -6.228228658437728882e-02 -1.192215904593467712e-01 -1.805522590875625610e-01 5.964053422212600708e-02 5.744599923491477966e-02 8.490936830639839172e-03 1.813417375087738037e-01 -3.512386232614517212e-03 1.384991407394409180e-01 -1.113335508853197098e-02 -7.452489808201789856e-03 2.693725749850273132e-02 -7.039579004049301147e-02 1.205000728368759155e-01
-5.441699549555778503e-02 1.646570563316345215e-01 -1.137049794197082520e-01 -1.527760475873947144e-01 -4.327558353543281555e-02 2.349013835191726685e-02 1.027404963970184326e-01 1.106900721788406372e-01 -6.587315350770950317e-02 -1.494338810443878174e-01 -8.458209782838821411e-02 8.434808999300003052e-02 -9.592950344085693359e-02 3.186417371034622192e-02 7.854428887367248535e-02 1.628358960151672363e-01 5.692360922694206238e-02 -3.274504467844963074e-02 1.246125921607017517e-01 1.144842207431793213e-01 -1.463545262813568115e-01 -1.563074290752410889e-01 9.251905977725982666e-02 -1.009348705410957336e-01 6.894715130329132080e-02 -5.503679066896438599e-02 -1.560061126947402954e-01 1.712597906589508057e-01 1.400083601474761963e-01 8.441553264856338501e-02 3.103428706526756287e-02 1.367223709821701050e-01 2.492462694644927979e-01 -7.632162421941757202e-02 3.478400036692619324e-02 9.470923244953155518e-02 -1.682711392641067505e-01 -1.536924540996551514e-01 -2.548394724726676941e-03 4.415457695722579956e-02 3.012316115200519562e-02 8.865499496459960938e-02 -6.482120603322982788e-02 1.020755246281623840e-01 1.162668615579605103e-01 -8.103638887405395508e-02 1.604573801159858704e-02 -5.124213546514511108e-02 1.333231329917907715e-01 5.175505205988883972e-02
5.903893336653709412e-02 2.413380332291126251e-02 -1.446039080619812012e-01 -1.719102263450622559e-02 -8.092907816171646118e-02 1.269292384386062622e-01 -1.019683033227920532e-01 1.839009672403335571e-01 1.449581086635589600e-01 -2.709759958088397980e-02 -1.997481659054756165e-02 3.998162597417831421e-02 -1.597321182489395142e-01 -3.609867393970489502e-02 3.343606740236282349e-02 -5.470995791256427765e-03 -1.651753932237625122e-01 -1.864584684371948242e-01 -6.202217191457748413e-02 -7.203331682831048965e-03 -1.716389358043670654e-01 6.468044966459274292e-02 3.046742640435695648e-02 -9.112311154603958130e-02 1.240770742297172546e-01 -1.100043952465057373e-01 -1.489732563495635986e-01 -9.736718982458114624e-02 1.470436751842498779e-01 -9.951512515544891357e-02 -1.165419965982437134e-01 -4.404442012310028076e-02 2.357217073440551758e-01 2.464018762111663818e-02 -6.354139745235443115e-02 6.150059401988983154e-02 -2.488787658512592316e-02 -5.220461264252662659e-02 3.241822496056556702e-02 2.777681313455104828e-02 -7.591352611780166626e-02 -5.573949217796325684e-02 -1.080358326435089111e-01 -5.572819337248802185e-02 1.360035836696624756e-01 1.240747720003128052e-01 -1.453970670700073242e-01 7.863339968025684357e-03 -1.335026919841766357e-01 2.118984162807464600e-01
4.770537838339805603e-02 1.633592247962951660e-01 -1.382754892110824585e-01 -1.818880438804626465e-02 -5.029931198805570602e-03 -1.342125385999679565e-01 1.421162113547325134e-02 1.560651212930679321e-01 -1.752766966819763184e-01 1.392381787300109863e-01 -1.241883337497711182e-01 1.266038417816162109e-01 8.359825611114501953e-02 -2.953954972326755524e-02 -1.009597405791282654e-01 1.890850067138671875e-01 1.780281774699687958e-02 -1.746987849473953247e-01 -1.610635221004486084e-01 -1.443098783493041992e-01 -1.527920663356781006e-01 -2.305060066282749176e-02 -6.546010822057723999e-02 -1.840823143720626831e-01 5.982278659939765930e-02 -9.147781878709793091e-02 -1.447197496891021729e-01 1.044712867587804794e-02 1.597399115562438965e-01 -9.504532814025878906e-02 -1.452292948961257935e-01 7.804316282272338867e-02 2.947615683078765869e-01 -1.882287561893463135e-01 8.837226778268814087e-02 -9.507303684949874878e-02 -4.798013344407081604e-02 -2.311910688877105713e-02 8.742246031761169434e-02 1.738716661930084229e-01 9.590333700180053711e-02 -8.711563050746917725e-02 -4.173565655946731567e-02 -6.099462136626243591e-02 -4.591805860400199890e-02 -1.318257451057434082e-01 -5.925016850233078003e-02 -1.007058769464492798e-01 1.273065507411956787e-01 1.574543863534927368e-01
1.635670214891433716e-01 -1.803649403154850006e-02 7.338685542345046997e-02 -7.474064826965332031e-02 -1.551288068294525146e-01 -7.652880251407623291e-02 -1.578113883733749390e-01 2.319232225418090820e-01 -4.663571342825889587e-02 6.693016737699508667e-02 5.074467509984970093e-03 1.879371330142021179e-02 -3.407465294003486633e-03 1.420799922198057175e-02 -7.837460935115814209e-02 2.197096645832061768e-01 2.924798429012298584e-02 -1.639947891235351562e-01 1.071307435631752014e-01 -2.051757872104644775e-01 -1.802380234003067017e-01 5.182474385946989059e-03 -1.252615638077259064e-02 -2.875761389732360840e-01 1.564887166023254395e-01 -1.137829050421714783e-01 -6.018218770623207092e-02 -5.332461744546890259e-02 1.603656858205795288e-01 4.343814402818679810e-02 1.275603771209716797e-01 -8.429399132728576660e-02 1.938615441322326660e-01 -1.168098002672195435e-01 2.059353888034820557e-01 -2.297716438770294189e-01 1.024842262268066406e-01 8.087744936347007751e-03 1.037392690777778625e-01 2.165128439664840698e-01 5.676916241645812988e-02 -1.049206778407096863e-01 -7.102728635072708130e-02 1.027494743466377258e-01 5.782154202461242676e-02 -1.004872173070907593e-01 -6.723762303590774536e-02 8.903175592422485352e-02 6.604599207639694214e-02 2.000137418508529663e-01
1.486142128705978394e-01 1.459902375936508179e-01 -6.254206597805023193e-02 -1.137900799512863159e-01 5.353206768631935120e-02 4.866428673267364502e-02 -9.882753342390060425e-02 2.016611397266387939e-01 -1.022430062294006348e-01 -1.261910349130630493e-01 -9.223464876413345337e-02 -1.046482995152473450e-01 1.026633568108081818e-02 -1.242381930351257324e-01 -1.234890297055244446e-01 1.932528018951416016e-01 1.534999534487724304e-02 -1.018910780549049377e-01 1.955482177436351776e-02 -1.671152114868164062e-01 7.002766430377960205e-02 -6.204385310411453247e-02 -1.049281507730484009e-01 -3.637677729129791260e-01 -1.505433470010757446e-01 -5.533904954791069031e-02 -5.307095870375633240e-02 1.307606846094131470e-01 2.563640475273132324e-01 -4.096526652574539185e-02 1.402973681688308716e-01 3.570598317310214043e-03 7.709943503141403198e-02 -1.777041256427764893e-01 2.351457774639129639e-01 -1.713749468326568604e-01 -8.417799323797225952e-02 5.365071818232536316e-02 1.750151515007019043e-01 -7.406461238861083984e-02 -2.289609797298908234e-02 -8.452582359313964844e-02 7.931126654148101807e-02 -6.789244711399078369e-02 8.526890724897384644e-02 1.424186676740646362e-01 1.455316543579101562e-01 -9.088203310966491699e-02 1.936686784029006958e-02 9.522695839405059814e-02
9.790811687707901001e-03 5.280343815684318542e-02 1.916649192571640015e-02 -1.090550944209098816e-01 -1.230383738875389099e-01 -4.923805221915245056e-02 1.328733116388320923e-01 -3.875273466110229492e-02 -6.323698908090591431e-02 -1.060975193977355957e-01 -2.114445120096206665e-01 -1.450730562210083008e-01 -9.672456979751586914e-02 1.648451089859008789e-01 -1.428367048501968384e-01 1.520558744668960571e-01 -8.086714148521423340e-02 3.975044935941696167e-02 -6.593872606754302979e-02 -1.575110852718353271e-01 1.055591031908988953e-01 9.362188167870044708e-03 -3.527944535017013550e-02 -6.278304755687713623e-02 -1.771980524063110352e-02 1.119371037930250168e-02 1.001234054565429688e-01 1.800018399953842163e-01 1.933004111051559448e-01 -7.318311184644699097e-02 2.359191477298736572e-01 1.458231955766677856e-01 2.076963633298873901e-01 -2.765069715678691864e-02 4.482153803110122681e-03 -1.851569414138793945e-01 -1.137839034199714661e-01 -5.370336771011352539e-02 1.437799483537673950e-01 3.736183792352676392e-02 2.178830653429031372e-01 -1.756678707897663116e-02 9.423363208770751953e-02 -4.769806191325187683e-02 -1.676129400730133057e-01 -1.214069500565528870e-01 -3.278595209121704102e-02 -1.439346224069595337e-01 -4.081034660339355469e-02 2.873415648937225342e-01
5.871533881872892380e-03 -1.186279505491256714e-01 -2.632778696715831757e-02 -7.007285952568054199e-02 -9.170407056808471680e-02 1.350033432245254517e-01 7.704821974039077759e-02 1.856098175048828125e-01 -1.338435709476470947e-01 2.051539905369281769e-02 4.618313163518905640e-02 1.331135537475347519e-02 -3.624397516250610352e-02 1.769573688507080078e-01 -1.458920389413833618e-01 1.230401843786239624e-01 8.259475231170654297e-02 -2.061012759804725647e-02 -1.120662391185760498e-01 1.307516992092132568e-01 1.278630644083023071e-01 5.511155724525451660e-02 2.137863077223300934e-02 -1.218368299305438995e-02 -7.070907950401306152e-02 5.096851289272308350e-02 3.791829943656921387e-02 6.564886868000030518e-02 3.152615427970886230e-01 -3.326202183961868286e-02 2.075780481100082397e-01 -7.519383728504180908e-02 1.010150462388992310e-01 -3.771315515041351318e-02 8.199048787355422974e-02 1.228785980492830276e-02 -3.584041073918342590e-02 4.709406197071075439e-02 -7.803019136190414429e-02 1.302034687250852585e-02 1.568941622972488403e-01 -3.603028506040573120e-02 -6.857323646545410156e-02 2.486573718488216400e-02 8.702012896537780762e-02 1.153632551431655884e-01 5.538125336170196533e-02 -1.441063582897186279e-01 -1.255435869097709656e-02 1.016733124852180481e-01
-1.181186586618423462e-01 2.282581059262156487e-03 1.162105053663253784e-01 1.527478545904159546e-01 -1.952446103096008301e-01 9.927089512348175049e-02 -9.907681494951248169e-02 -9.710446745157241821e-02 -7.796256989240646362e-02 -1.052032411098480225e-01 -1.485708504915237427e-01 6.248600780963897705e-02 -7.779065519571304321e-02 4.523775726556777954e-02 1.564636677503585815e-01 1.018946915864944458e-01 1.616854816675186157e-01 7.400324195623397827e-02 6.030727922916412354e-02 -9.035202860832214355e-02 1.546485871076583862e-01 -8.990398608148097992e-03 -7.146343588829040527e-02 -6.476131081581115723e-02 -1.632309854030609131e-01 5.213397741317749023e-02 1.682958751916885376e-02 1.087350919842720032e-01 2.093539088964462280e-01 1.885689422488212585e-02 2.545467577874660492e-02 2.990069333463907242e-03 -9.621775150299072266e-02 8.874307572841644287e-02 7.841401547193527222e-02 -2.247634828090667725e-01 -1.036192923784255981e-01 4.956350848078727722e-02 6.180064752697944641e-02 -7.045587897300720215e-02 5.653610453009605408e-03 1.054750680923461914e-01 -1.542877554893493652e-01 3.620290383696556091e-02 3.187227249145507812e-02 1.852597445249557495e-01 3.632695227861404419e-02 -7.946327328681945801e-02 -4.172264412045478821e-02 5.094504449516534805e-03
1.186858192086219788e-01 -2.127010188996791840e-02 -7.374843955039978027e-02 -2.168540097773075104e-02 -2.276051938533782959e-01 -3.946202248334884644e-02 9.780175052583217621e-03 -3.512987866997718811e-02 -2.604232542216777802e-02 7.385792583227157593e-02 -1.130488514900207520e-01 1.219010725617408752e-01 3.674910962581634521e-02 -2.660898491740226746e-02 -1.145070865750312805e-01 9.349902719259262085e-02 -1.950481347739696503e-02 4.465584456920623779e-02 9.186437726020812988e-02 -1.074777022004127502e-01 4.941501095890998840e-02 -9.809394180774688721e-02 2.595199272036552429e-02 1.492984294891357422e-01 3.039016760885715485e-02 -1.011471375823020935e-01 1.067422479391098022e-01 -7.911667227745056152e-02 4.763322323560714722e-02 -1.633701026439666748e-01 1.128726825118064880e-01 1.768902093172073364e-01 1.409922689199447632e-01 -4.520135000348091125e-02 -7.141870912164449692e-03 -1.337671875953674316e-01 6.738915294408798218e-02 1.388013511896133423e-01 5.373439192771911621e-02 1.325901448726654053e-01 6.803080439567565918e-03 -5.244815349578857422e-02 -3.524710237979888916e-02 1.781686693429946899e-01 -1.624926924705505371e-01 -5.467259511351585388e-02 -3.026366699486970901e-03 6.978765130043029785e-02 9.623610973358154297e-02 6.875642389059066772e-02
-4.517008364200592041e-02 -1.895063072443008423e-01 1.062393486499786377e-01 1.161773204803466797e-01 -1.597900539636611938e-01 -1.387572735548019409e-01 -8.259895443916320801e-02 -1.166653111577033997e-01 -9.251370280981063843e-02 -7.089197635650634766e-02 -2.796670421957969666e-02 2.940472029149532318e-02 6.875900924205780029e-02 1.065536141395568848e-01 -7.457230240106582642e-02 -1.946902275085449219e-01 3.043319098651409149e-02 6.808264553546905518e-02 -7.756600528955459595e-02 -1.033984124660491943e-02 1.528902202844619751e-01 1.387887746095657349e-01 -6.741248071193695068e-02 1.113840788602828979e-01 -9.306316077709197998e-02 -6.079919263720512390e-02 1.881108731031417847e-01 5.153380706906318665e-02 2.494424432516098022e-01 5.495266988873481750e-02 6.913376599550247192e-02 -9.287700802087783813e-02 1.482343673706054688e-01 3.913292661309242249e-02 9.840422868728637695e-02 -1.734502911567687988e-01 1.173829957842826843e-01 1.143155097961425781e-01 2.126671224832534790e-01 1.053472831845283508e-01 -7.677076011896133423e-02 8.651101589202880859e-02 -1.488618403673171997e-01 8.983987569808959961e-02 -1.874369084835052490e-01 3.274962306022644043e-02 -2.214650437235832214e-02 -5.918479338288307190e-02 1.359720230102539062e-01 4.047344624996185303e-02
-8.401083946228027344e-02 -1.009470000863075256e-01 -1.221941635012626648e-01 1.722137928009033203e-01 -2.171067893505096436e-01 -1.042123511433601379e-01 4.874628037214279175e-02 -1.448663324117660522e-01 -2.222207486629486084e-01 1.004640683531761169e-01 1.328198611736297607e-01 -5.049926415085792542e-02 -1.420653164386749268e-01 1.068637520074844360e-01 1.097000092267990112e-01 -1.757359206676483154e-01 -2.907687984406948090e-02 1.017331704497337341e-02 -4.828349128365516663e-02 -7.647921890020370483e-02 1.409315913915634155e-01 1.253713518381118774e-01 5.210043862462043762e-02 7.192866504192352295e-02 -1.555615812540054321e-01 -4.104754887521266937e-03 -1.057478226721286774e-02 -9.200144559144973755e-04 2.230037450790405273e-01 1.682194620370864868e-01 2.227243632078170776e-01 5.167635157704353333e-02 7.394003868103027344e-02 -1.196905821561813354e-01 1.115921437740325928e-01 -1.017020419239997864e-01 -1.519650518894195557e-01 -8.883408457040786743e-02 -5.122247338294982910e-02 -2.639916958287358284e-03 3.355323895812034607e-02 2.812727540731430054e-02 -5.518900603055953979e-02 1.521453410387039185e-01 4.843719303607940674e-02 -7.039988785982131958e-02 -3.346596285700798035e-02 7.387348450720310211e-03 1.242029219865798950e-01 2.193387895822525024e-01
-5.448420345783233643e-02 -1.018115729093551636e-01 -3.803763538599014282e-02 4.343720898032188416e-02 -2.372316084802150726e-02 5.627596005797386169e-02 1.393458545207977295e-01 -1.186733171343803406e-01 -1.005046293139457703e-01 4.828531295061111450e-03 6.777894496917724609e-02 8.179314434528350830e-02 2.231485024094581604e-02 9.785123914480209351e-02 5.548197403550148010e-02 -1.266763061285018921e-01 6.424229592084884644e-02 1.605043374001979828e-02 7.873156107962131500e-03 -1.698304153978824615e-02 2.323878705501556396e-01 1.113378331065177917e-01 -8.376687020063400269e-02 2.137042731046676636e-01 5.081820487976074219e-02 -8.198916912078857422e-02 1.013476997613906860e-01 9.369146078824996948e-03 1.118338257074356079e-01 -6.425792817026376724e-03 1.629683226346969604e-01 -4.454867169260978699e-02 -8.814094960689544678e-02 -9.426163136959075928e-02 -2.829059585928916931e-02 -3.949625417590141296e-02 -8.034776896238327026e-02 -7.711483538150787354e-02 1.628934592008590698e-01 -2.964857593178749084e-02 -1.816864870488643646e-02 5.560155212879180908e-02 1.021181568503379822e-01 1.526210308074951172e-01 -7.507744431495666504e-02 -4.281484521925449371e-03 5.554902553558349609e-02 2.751240879297256470e-02 -1.215849518775939941e-01 5.854408070445060730e-02
6.979937851428985596e-02 -1.135532930493354797e-01 1.248908340930938721e-01 9.723490476608276367e-02 -8.831680752336978912e-03 3.264973312616348267e-02 1.025581359863281250e-01 -3.652900084853172302e-02 -6.142770871520042419e-04 -1.300326548516750336e-02 9.978005290031433105e-02 3.163111209869384766e-02 -1.345282047986984253e-01 6.761037558317184448e-02 4.439727589488029480e-02 -2.025837600231170654e-01 1.291736662387847900e-01 -5.712737515568733215e-02 -1.350066065788269043e-01 1.626462191343307495e-01 5.108793824911117554e-02 -8.111311495304107666e-02 -8.958616852760314941e-02 4.795236140489578247e-02 -9.040230512619018555e-02 -1.130480617284774780e-01 2.360404431819915771e-01 -1.158517450094223022e-01 1.033747121691703796e-01 3.738294914364814758e-02 9.955620765686035156e-02 -1.773187518119812012e-01 1.256702095270156860e-01 -5.394072830677032471e-02 1.234381645917892456e-02 2.127875946462154388e-02 1.544867902994155884e-01 4.191830754280090332e-02 1.707071363925933838e-01 1.629160642623901367e-01 5.505100637674331665e-02 -8.295493572950363159e-02 1.004034187644720078e-02 -1.193176954984664917e-01 7.526776194572448730e-02 1.062045395374298096e-01 -1.302249580621719360e-01 -1.261551380157470703e-01 2.509418129920959473e-02 4.712818562984466553e-02
1.668232530355453491e-01 -1.205918267369270325e-01 1.495522912591695786e-02 1.790117621421813965e-01 2.095179259777069092e-02 -3.667931631207466125e-02 -1.300267130136489868e-01 1.007947623729705811e-01 -1.886958628892898560e-01 -3.006815537810325623e-02 1.073291152715682983e-01 -1.635342687368392944e-01 1.572650521993637085e-01 -1.511620283126831055e-01 -1.389023214578628540e-01 -1.463002413511276245e-01 -1.690586097538471222e-02 -4.217508807778358459e-02 1.287975758314132690e-01 -1.052814945578575134e-01 9.400277398526668549e-03 1.325502246618270874e-01 4.275404848158359528e-03 8.755022287368774414e-02 -1.268824003636837006e-02 1.431285589933395386e-01 3.030706383287906647e-02 1.254273205995559692e-01 2.889550523832440376e-03 1.744967848062515259e-01 1.258633881807327271e-01 -6.554033607244491577e-02 -1.243681237101554871e-01 -1.265109889209270477e-02 -5.803556740283966064e-02 -1.596265435218811035e-01 7.774943858385086060e-02 -1.271859407424926758e-01 -1.222134847193956375e-02 1.312914341688156128e-01 1.300977319478988647e-01 2.373485080897808075e-02 3.952198848128318787e-02 5.642220750451087952e-02 3.947310149669647217e-02 -4.733142256736755371e-02 -1.341756731271743774e-01 -7.484327256679534912e-02 8.105571568012237549e-02 1.417379677295684814e-01
1.373563408851623535e-01 3.997017815709114075e-02 3.475951775908470154e-02 2.039721757173538208e-01 -4.284241050481796265e-02 -1.015773564577102661e-01 1.512695401906967163e-01 -1.935964822769165039e-01 6.839415431022644043e-02 -1.034831404685974121e-01 -1.013953760266304016e-01 1.211133822798728943e-01 1.541086584329605103e-01 5.338891595602035522e-02 -9.219672530889511108e-02 -6.799914687871932983e-02 -2.026197966188192368e-03 -2.952221781015396118e-02 4.157589375972747803e-02 1.776897907257080078e-02 1.077241227030754089e-01 -1.010263785719871521e-01 -8.380129188299179077e-02 2.260170131921768188e-01 9.106807410717010498e-02 4.564768075942993164e-02 1.976339071989059448e-01 1.273831129074096680e-01 -8.698321133852005005e-02 -1.673304103314876556e-02 -6.811112165451049805e-02 -3.872472792863845825e-02 6.474089622497558594e-02 7.527522277086973190e-03 -7.935428619384765625e-02 -4.466547630727291107e-03 -3.708088397979736328e-02 1.320207864046096802e-01 1.911833509802818298e-02 8.631865680217742920e-02 1.731389164924621582e-01 -4.640649631619453430e-02 4.171020351350307465e-03 -5.451152846217155457e-02 1.254409402608871460e-01 -2.388129476457834244e-03 -9.165354818105697632e-02 5.463719367980957031e-02 -1.234788745641708374e-01 -3.298822417855262756e-02
2.855680324137210846e-02 -1.851655393838882446e-01 6.288819015026092529e-02 -2.817449346184730530e-02 -1.971767283976078033e-02 -2.048357017338275909e-02 2.091080881655216217e-03 -6.388392299413681030e-02 -1.316097527742385864e-01 7.535351067781448364e-02 1.842104084789752960e-02 -5.876110866665840149e-02 2.895052358508110046e-02 -1.265856325626373291e-01 8.835168927907943726e-02 -1.029866561293601990e-01 1.318227052688598633e-01 1.415438055992126465e-01 1.767767965793609619e-01 2.933226153254508972e-02 -1.141110062599182129e-01 -1.383873671293258667e-01 2.655466459691524506e-02 1.824555099010467529e-01 8.068963885307312012e-02 2.275157254189252853e-03 9.635485708713531494e-02 1.023604720830917358e-01 8.544309437274932861e-02 1.527708619832992554e-01 3.944154828786849976e-02 -1.213998943567276001e-01 -4.252176359295845032e-02 -2.242678776383399963e-03 8.362345397472381592e-02 -7.417936623096466064e-02 8.137863874435424805e-02 9.531368315219879150e-02 1.016686111688613892e-01 1.701533943414688110e-01 -5.987880378961563110e-02 6.973015516996383667e-02 7.335547357797622681e-02 -1.191042587161064148e-01 1.435616016387939453e-01 -9.416801482439041138e-02 -1.863443404436111450e-01 1.376149356365203857e-01 7.980312407016754150e-02 7.404580712318420410e-02
4.444459918886423111e-03 -4.568597674369812012e-02 -1.420756131410598755e-01 2.037525922060012817e-01 3.894538059830665588e-02 -9.345249831676483154e-02 -8.078191429376602173e-02 -8.697867393493652344e-02 -1.285387277603149414e-01 2.759310416877269745e-02 -4.567871987819671631e-02 -1.498793512582778931e-01 9.243228286504745483e-02 -1.890387535095214844e-01 -1.140174791216850281e-01 -1.337575465440750122e-01 -6.109697744250297546e-02 -1.148036420345306396e-01 1.673671454191207886e-01 -1.617690771818161011e-01 -1.532847136259078979e-01 3.178974613547325134e-02 9.238146990537643433e-02 -1.005651727318763733e-01 -6.297094747424125671e-03 -3.213027492165565491e-02 1.403102278709411621e-01 1.062387451529502869e-01 -6.790538132190704346e-02 -7.107009738683700562e-02 -8.728267997503280640e-02 -5.700324103236198425e-02 2.741458080708980560e-02 -1.373441368341445923e-01 1.674585342407226562e-01 -9.553755074739456177e-02 -1.227258071303367615e-01 1.394274681806564331e-01 -1.581218540668487549e-01 3.569088503718376160e-02 1.539396941661834717e-01 1.842017099261283875e-02 5.965575948357582092e-02 -1.484140902757644653e-01 1.243311166763305664e-01 -2.926336787641048431e-02 -2.151684314012527466e-01 -8.805086463689804077e-02 1.405985653400421143e-01 -2.373122423887252808e-02
4.393040388822555542e-02 -1.722464337944984436e-02 1.424114704132080078e-01 -4.011014848947525024e-02 1.925241574645042419e-02 -1.011985987424850464e-01 8.726389706134796143e-02 -1.091863363981246948e-01 -1.612814217805862427e-01 3.495649620890617371e-02 4.656972829252481461e-03 5.658394470810890198e-02 1.894771456718444824e-01 2.495742030441761017e-02 -7.363025099039077759e-02 -1.676405221223831177e-01 -1.378901898860931396e-01 1.712969839572906494e-01 -1.027260199189186096e-01 -6.507232040166854858e-02 1.491966396570205688e-01 3.361313790082931519e-02 -5.330308154225349426e-02 1.273399889469146729e-01 3.102975338697433472e-02 -5.695070326328277588e-02 -6.680459715425968170e-03 1.293361932039260864e-01 3.445583209395408630e-02 2.223618328571319580e-02 6.897903233766555786e-02 -2.059308886528015137e-01 -1.489899903535842896e-01 1.079282164573669434e-01 3.644652292132377625e-02 4.387011751532554626e-03 6.954516470432281494e-02 -1.666752845048904419e-01 1.173835098743438721e-01 -3.449651226401329041e-02 -1.032390445470809937e-01 3.575028851628303528e-02 -9.569267742335796356e-03 9.683441370725631714e-02 -5.790075287222862244e-02 -2.945690415799617767e-02 -1.772104948759078979e-01 1.160471886396408081e-01 -1.234392821788787842e-01 7.383184134960174561e-02
-7.629979401826858521e-02 8.564116805791854858e-02 9.441614896059036255e-02 1.041662618517875671e-01 -8.008438162505626678e-03 -1.064396053552627563e-01 1.151582971215248108e-01 1.407879590988159180e-01 -1.684443801641464233e-01 6.906365603208541870e-02 -6.010559946298599243e-02 4.017713665962219238e-02 1.749586910009384155e-01 -1.239441037178039551e-01 -2.914218045771121979e-02 -1.334971338510513306e-01 1.297785528004169464e-02 -7.920342683792114258e-02 6.099495291709899902e-02 1.187982112169265747e-01 5.311261489987373352e-02 -5.343323945999145508e-02 -1.032029464840888977e-01 -3.014247864484786987e-02 -7.133090496063232422e-02 -1.673359274864196777e-01 6.917907297611236572e-02 -3.983245231211185455e-03 -9.102289378643035889e-02 1.856363862752914429e-01 8.616867661476135254e-02 -2.592676877975463867e-01 2.296928130090236664e-02 -1.224668622016906738e-01 -7.451824098825454712e-02 9.766053408384323120e-02 9.835554286837577820e-03 -3.060633689165115356e-02 -5.129862204194068909e-02 3.564588725566864014e-02 -6.146342307329177856e-02 -3.877212107181549072e-02 1.882310509681701660e-01 -9.874544292688369751e-02 -4.220791533589363098e-02 -2.079523354768753052e-01 -2.293286770582199097e-01 7.195512950420379639e-02 1.168822050094604492e-01 -2.075634598731994629e-01
-8.915932476520538330e-02 -8.366366475820541382e-02 -1.173899844288825989e-01 1.365947723388671875e-01 -9.574636816978454590e-02 9.432075172662734985e-02 -1.181236505508422852e-01 3.603188088163733482e-03 8.990304172039031982e-02 9.923028945922851562e-02 7.696034759283065796e-02 3.432523831725120544e-02 -3.052008897066116333e-02 3.479315340518951416e-02 -9.533888101577758789e-02 5.133799463510513306e-02 2.151906490325927734e-01 1.524797677993774414e-01 -1.241703331470489502e-01 -1.391164958477020264e-01 6.518254429101943970e-02 -4.581728205084800720e-02 -2.058641761541366577e-01 -4.834863170981407166e-02 -1.541314274072647095e-01 -1.828272268176078796e-02 -6.015393882989883423e-02 -7.362666726112365723e-02 2.771393582224845886e-02 7.430175784975290298e-03 -1.249213367700576782e-01 -1.988037675619125366e-01 -2.018183916807174683e-01 6.233686115592718124e-03 -8.539261668920516968e-02 -1.129354313015937805e-01 -8.862680196762084961e-02 -2.884082868695259094e-02 -1.044356673955917358e-01 -5.340426787734031677e-02 -4.007437452673912048e-02 1.802611909806728363e-02 -3.867147490382194519e-02 -3.387808054685592651e-02 3.818759322166442871e-02 -1.716882139444351196e-01 -9.359667450189590454e-02 -1.590561419725418091e-01 -5.283653363585472107e-02 8.088321238756179810e-02
2.419273555278778076e-02 3.394101560115814209e-02 -6.167655065655708313e-02 3.581011435016989708e-03 -3.586361557245254517e-02 -1.058406680822372437e-01 1.187792271375656128e-01 9.818570315837860107e-02 7.796861976385116577e-02 4.462633654475212097e-02 -1.135438494384288788e-02 -1.500850822776556015e-02 -6.452817469835281372e-02 7.432619482278823853e-02 -2.874884381890296936e-02 1.069770902395248413e-01 2.122858762741088867e-01 -6.241633743047714233e-02 -1.004844084382057190e-01 -1.354407817125320435e-01 5.700298026204109192e-02 8.845996856689453125e-02 -2.175239473581314087e-01 8.203995227813720703e-02 -1.372921913862228394e-01 9.162756800651550293e-02 -1.339285075664520264e-02 -3.964412957429885864e-03 -1.127699092030525208e-01 -7.030847668647766113e-02 2.247508615255355835e-02 -2.489079535007476807e-01 -4.409933462738990784e-02 -2.649088576436042786e-02 -1.082058530300855637e-02 -7.548503112047910690e-03 -6.886520981788635254e-02 -1.207948476076126099e-01 -1.088819950819015503e-01 -3.427498787641525269e-02 -3.243944421410560608e-02 -1.282100081443786621e-01 1.774748265743255615e-01 -8.684594184160232544e-03 1.715930700302124023e-01 8.326094597578048706e-03 -6.020288169384002686e-02 -1.338254064321517944e-01 7.416181266307830811e-02 -1.775314956903457642e-01
-6.546430289745330811e-02 2.487001754343509674e-02 -5.061310948804020882e-04 4.517150297760963440e-02 1.542437374591827393e-01 8.682247996330261230e-02 -1.521975100040435791e-01 -5.339136719703674316e-02 -1.503542661666870117e-01 -3.124880604445934296e-02 9.475015103816986084e-03 -1.165885776281356812e-01 8.381196856498718262e-02 3.614645823836326599e-02 -1.580808758735656738e-01 8.568272739648818970e-02 2.070311903953552246e-01 -3.617931902408599854e-02 2.777410671114921570e-02 5.771278217434883118e-02 -1.675613373517990112e-01 -9.601103514432907104e-02 2.384211309254169464e-02 -6.064620986580848694e-02 4.660519305616617203e-03 1.364206224679946899e-01 6.031817942857742310e-02 -4.262514412403106689e-02 -4.193693026900291443e-02 1.154830306768417358e-01 -8.678854256868362427e-02 -1.600631475448608398e-01 5.937318503856658936e-02 -8.787725865840911865e-02 1.423414647579193115e-01 -1.749870032072067261e-01 -6.203393451869487762e-03 2.802194841206073761e-02 -1.021458674222230911e-02 -4.815653373952955008e-04 -1.301955524832010269e-02 -1.074597686529159546e-01 8.466708660125732422e-02 -4.290313273668289185e-02 -6.709846638841554523e-05 2.238683868199586868e-03 1.079945862293243408e-01 -1.401364952325820923e-01 1.114832013845443726e-01 1.004820410162210464e-02
1.280691772699356079e-01 -1.966133862733840942e-01 5.457191169261932373e-02 4.500343278050422668e-02 2.829922921955585480e-02 4.917028546333312988e-02 -2.180602103471755981e-01 9.503061883151531219e-03 -1.649336367845535278e-01 6.504438817501068115e-02 -1.455920636653900146e-01 -1.716598309576511383e-02 8.104857057332992554e-02 3.073202259838581085e-02 6.567633897066116333e-02 1.863601990044116974e-02 1.434883475303649902e-01 1.324518471956253052e-01 -6.293924897909164429e-02 5.523583665490150452e-02 -7.113263756036758423e-02 -9.758207201957702637e-02 -2.315820455551147461e-01 1.682646758854389191e-02 1.448281556367874146e-01 8.590202033519744873e-02 -1.948420554399490356e-01 1.685251742601394653e-01 1.138373389840126038e-01 1.193934213370084763e-02 8.846584707498550415e-02 -2.274918258190155029e-01 4.823732748627662659e-02 -9.991029649972915649e-02 -5.207568034529685974e-02 5.614219233393669128e-02 6.380414217710494995e-02 5.925840511918067932e-02 5.580335482954978943e-02 1.057987958192825317e-01 -4.492778703570365906e-02 4.286573454737663269e-02 9.326050430536270142e-02 1.576678901910781860e-01 -1.678269170224666595e-02 1.415209323167800903e-01 1.925989836454391479e-01 1.411374360322952271e-01 9.401236660778522491e-03 -1.928906440734863281e-01
1.015354394912719727e-01 6.231707986444234848e-03 -1.554307490587234497e-01 -4.075304418802261353e-02 -1.118451729416847229e-02 -1.526827458292245865e-02 -1.278435252606868744e-02 -3.402587398886680603e-02 -2.913935668766498566e-02 -2.080547064542770386e-02 2.272657118737697601e-03 4.044274240732192993e-02 1.259588450193405151e-01 7.889921218156814575e-02 1.084613054990768433e-01 -1.117233932018280029e-01 1.776715815067291260e-01 1.990607939660549164e-02 4.744466021656990051e-02 5.759188160300254822e-02 7.784359157085418701e-02 -4.127938300371170044e-02 -2.244705855846405029e-01 -9.770333766937255859e-02 1.586698442697525024e-01 -1.040359586477279663e-01 5.892865359783172607e-03 -9.334909170866012573e-02 -1.023880243301391602e-01 1.656739264726638794e-01 -1.385266184806823730e-01 -1.562821418046951294e-01 1.299982666969299316e-01 -1.451298594474792480e-01 1.635383516550064087e-01 -4.493114724755287170e-02 1.642422080039978027e-01 -1.140127331018447876e-01 -6.691351532936096191e-02 8.108177036046981812e-02 5.111996456980705261e-02 -1.234832108020782471e-01 1.604395061731338501e-01 3.099548444151878357e-02 -7.893368601799011230e-02 2.053119838237762451e-01 1.444704681634902954e-01 1.142944991588592529e-01 3.374758735299110413e-02 1.863311231136322021e-02
-5.404299125075340271e-02 7.183220982551574707e-02 3.673904761672019958e-02 -2.484907209873199463e-02 1.287536472082138062e-01 -4.021177068352699280e-02 -1.707500666379928589e-01 1.846406981348991394e-02 -2.341252937912940979e-02 -1.275707930326461792e-01 -1.332231163978576660e-01 -8.937799185514450073e-02 -9.861470013856887817e-02 1.388248056173324585e-01 -1.563527286052703857e-01 1.169953867793083191e-01 1.292124092578887939e-01 1.284214481711387634e-02 -3.271985799074172974e-02 -1.046750396490097046e-01 -1.207211911678314209e-01 -8.770415931940078735e-02 -6.885480880737304688e-02 -1.157225742936134338e-01 1.157241687178611755e-01 -3.105891868472099304e-02 -5.020875111222267151e-02 9.827965497970581055e-02 -2.266358211636543274e-02 9.750097244977951050e-02 -1.169037669897079468e-01 2.014981396496295929e-02 7.151187211275100708e-02 -1.059248745441436768e-01 -8.289567381143569946e-02 3.775498270988464355e-02 -6.053801253437995911e-02 7.364190649241209030e-03 8.656494319438934326e-02 -7.535426318645477295e-02 -6.513953953981399536e-02 -1.147339865565299988e-01 4.729106649756431580e-02 9.577125310897827148e-02 -8.738952875137329102e-02 1.593813747167587280e-01 1.492467373609542847e-01 4.011923447251319885e-02 1.413072645664215088e-01 3.771036863327026367e-02
-5.982887744903564453e-02 -2.816168405115604401e-02 -1.236864849925041199e-01 -5.512043833732604980e-02 -9.508406370878219604e-02 -3.130273520946502686e-02 -1.439660638570785522e-01 -4.905049130320549011e-02 1.376464515924453735e-01 1.485565304756164551e-01 -1.923312544822692871e-01 -4.037319496273994446e-02 -1.057350635528564453e-01 9.727966971695423126e-03 4.066805914044380188e-02 -8.179926872253417969e-02 -1.233550161123275757e-01 -7.849179953336715698e-02 7.985676825046539307e-02 4.762535542249679565e-02 3.867267444729804993e-02 -1.004378497600555420e-01 -2.198680043220520020e-01 -2.964548766613006592e-03 9.514389932155609131e-02 3.395812213420867920e-02 -8.022667467594146729e-02 -2.510482259094715118e-02 -5.168672278523445129e-02 1.099789515137672424e-01 -1.823274195194244385e-01 8.085080236196517944e-02 1.375661790370941162e-01 1.119517628103494644e-02 1.975590549409389496e-02 -9.096135944128036499e-02 1.066524907946586609e-01 9.577378630638122559e-03 -1.057134866714477539e-01 -1.092264056205749512e-01 2.996821887791156769e-03 9.273911267518997192e-02 -1.070041880011558533e-01 1.514967978000640869e-01 -9.609129279851913452e-02 2.048660218715667725e-01 1.613133102655410767e-01 -1.245708242058753967e-01 -9.740670770406723022e-02 2.999587915837764740e-02
8.457526564598083496e-02 -1.394802331924438477e-01 -2.604525163769721985e-02 6.785492599010467529e-02 1.219390630722045898e-01 4.125985503196716309e-02 -1.498047541826963425e-02 -1.237443163990974426e-01 -1.418274734169244766e-02 1.078468337655067444e-01 -4.563683271408081055e-02 7.513043284416198730e-02 9.732947498559951782e-02 5.041501671075820923e-02 -1.024928838014602661e-01 9.548532217741012573e-02 -1.057438105344772339e-01 7.479931414127349854e-02 -4.220850020647048950e-02 1.205565333366394043e-01 7.388098537921905518e-02 -1.307440400123596191e-01 -6.288298219442367554e-02 1.211088374257087708e-01 -5.795408040285110474e-02 -4.939953330904245377e-03 -2.774690091609954834e-02 8.450838923454284668e-02 -4.629755392670631409e-02 1.610482856631278992e-02 -4.960742592811584473e-02 3.042104840278625488e-01 3.387315943837165833e-02 -3.749679028987884521e-02 2.039968967437744141e-02 1.443581581115722656e-01 1.809856742620468140e-01 8.571209013462066650e-02 -1.465749740600585938e-01 -1.073393821716308594e-01 -3.865619748830795288e-02 3.747939364984631538e-03 6.013745069503784180e-02 -1.109706088900566101e-01 5.588477849960327148e-02 -5.812305584549903870e-02 1.363859623670578003e-01 -1.767130941152572632e-01 1.526038646697998047e-01 -4.339210316538810730e-02
-7.613797485828399658e-02 3.924805670976638794e-02 -6.837535649538040161e-02 2.710310369729995728e-02 9.322544932365417480e-02 1.549774408340454102e-01 -2.780950814485549927e-02 -1.934619694948196411e-01 8.626142144203186035e-02 7.304205093532800674e-03 8.632998913526535034e-02 -1.209384351968765259e-01 1.939604803919792175e-02 2.404337562620639801e-02 9.117771871387958527e-03 -1.772274672985076904e-01 -1.218888387084007263e-01 7.426172494888305664e-02 6.083595007658004761e-02 1.545950621366500854e-01 -1.432832628488540649e-01 -1.023598611354827881e-01 -2.238454995676875114e-03 -5.672673135995864868e-02 -1.762875765562057495e-01 -1.539097130298614502e-01 1.367660760879516602e-01 2.022549510002136230e-02 -6.827533245086669922e-02 1.742856390774250031e-02 -2.043905481696128845e-02 2.103968262672424316e-01 -2.182161435484886169e-02 1.844802498817443848e-01 1.256070584058761597e-01 8.774420619010925293e-02 9.907808154821395874e-02 -1.469499319791793823e-01 -7.449376583099365234e-02 1.005939543247222900e-01 8.434558985754847527e-04 -1.653814166784286499e-01 -3.114752098917961121e-02 -7.532509416341781616e-02 3.286110982298851013e-02 -8.753274381160736084e-02 1.290040314197540283e-01 3.175761550664901733e-02 1.922572851181030273e-01 8.500415086746215820e-02
-1.042403131723403931e-01 -5.885073542594909668e-02 3.178994730114936829e-02 6.551625579595565796e-02 1.815989799797534943e-02 -2.765031345188617706e-02 -1.085954383015632629e-01 7.315705064684152603e-03 -2.380559220910072327e-03 -1.275221556425094604e-01 -1.007778644561767578e-01 -9.279402345418930054e-02 7.071258872747421265e-02 1.134296059608459473e-01 5.450307857245206833e-03 -9.304822981357574463e-02 -8.011281490325927734e-02 8.205421268939971924e-02 -1.254553198814392090e-01 1.594959497451782227e-01 -1.340041160583496094e-01 1.665769144892692566e-02 1.319003403186798096e-01 -2.293288707733154297e-02 -1.645847707986831665e-01 -1.702947318553924561e-01 -3.514828626066446304e-03 1.600925624370574951e-02 -3.252141550183296204e-02 1.661259084939956665e-01 -9.068907797336578369e-02 2.176638245582580566e-01 -7.203936576843261719e-02 -4.379503056406974792e-02 8.280350267887115479e-02 7.878236472606658936e-02 1.388717293739318848e-01 6.948512792587280273e-02 -1.870801895856857300e-01 1.534955501556396484e-01 -1.038238629698753357e-01 9.470607340335845947e-02 1.342910230159759521e-01 1.728809177875518799e-01 -3.074937686324119568e-02 -1.003580987453460693e-01 4.235864430665969849e-02 -1.582405269145965576e-01 1.336880177259445190e-01 2.724389359354972839e-02
-9.406441450119018555e-02 1.291526257991790771e-01 -7.021204382181167603e-02 -5.254462361335754395e-02 -8.055809140205383301e-02 -5.011740699410438538e-02 1.178192198276519775e-01 -1.479505300521850586e-01 1.420950591564178467e-01 1.128236278891563416e-01 -1.874919980764389038e-01 1.606040298938751221e-01 1.056805253028869629e-01 -1.072039082646369934e-01 -1.285789459943771362e-01 4.531298205256462097e-02 8.276218920946121216e-02 9.586767107248306274e-02 -1.619037240743637085e-01 2.117675542831420898e-01 -1.576428711414337158e-01 -3.700841683894395828e-03 -9.250694513320922852e-02 -6.330467760562896729e-02 -4.525955766439437866e-02 -1.435841768980026245e-01 -6.133493408560752869e-02 7.682976871728897095e-02 -7.861473597586154938e-03 1.522495597600936890e-01 1.113534271717071533e-01 1.516437977552413940e-01 -1.644027531147003174e-01 1.560966372489929199e-01 1.451663970947265625e-01 1.592595316469669342e-02 2.909438684582710266e-03 -8.727197349071502686e-02 2.264179661870002747e-02 -7.268831878900527954e-02 -9.721805900335311890e-02 9.796452522277832031e-02 5.399808287620544434e-02 8.302111923694610596e-02 -7.568640261888504028e-02 -1.299555152654647827e-01 -1.271705236285924911e-02 1.925502568483352661e-01 -3.529588226228952408e-03 8.531915396451950073e-02
-4.696974903345108032e-02 6.476151756942272186e-03 -1.119814813137054443e-01 8.123077452182769775e-02 1.046118512749671936e-01 -1.479231715202331543e-01 4.231747612357139587e-02 -1.069426983594894409e-01 7.265569269657135010e-02 9.377422928810119629e-02 9.526350349187850952e-02 8.253759145736694336e-02 8.674694597721099854e-02 -7.588411867618560791e-02 5.418885033577680588e-03 -4.872610792517662048e-02 1.122958660125732422e-01 8.505222201347351074e-02 -2.825983241200447083e-02 7.774215191602706909e-03 -1.914676874876022339e-01 5.241139233112335205e-02 -1.337400674819946289e-01 -8.022157102823257446e-02 1.113141253590583801e-01 3.373965620994567871e-02 9.872994571924209595e-02 -4.520069807767868042e-02 -4.474683664739131927e-03 7.693005725741386414e-03 -3.659953922033309937e-02 -2.970048924908041954e-03 9.939242154359817505e-03 -7.943245768547058105e-02 1.418332606554031372e-01 -8.405458182096481323e-02 -8.167041093111038208e-02 1.187080610543489456e-02 -2.007680013775825500e-02 -6.486394256353378296e-02 -6.288056820631027222e-02 8.510523289442062378e-02 1.194146052002906799e-01 -6.114138662815093994e-02 2.928158827126026154e-02 3.928775712847709656e-02 9.714572876691818237e-02 1.539779901504516602e-01 1.092684864997863770e-01 1.138748899102210999e-01
-1.544241607189178467e-01 3.476690873503684998e-02 6.132813915610313416e-02 -1.130033209919929504e-01 -5.416266992688179016e-02 2.574390359222888947e-02 5.471265316009521484e-02 -3.656598553061485291e-02 4.433973517734557390e-04 -1.184248253703117371e-01 -1.404983699321746826e-01 1.000444069504737854e-01 -1.158290207386016846e-01 1.559160947799682617e-01 1.139354705810546875e-01 -3.397484123706817627e-02 1.713122427463531494e-01 6.174378842115402222e-02 -1.935455650091171265e-01 1.014589294791221619e-01 -1.267294865101575851e-03 1.654115319252014160e-01 6.923881918191909790e-02 -8.413215726613998413e-02 7.859265059232711792e-02 6.097488105297088623e-02 -1.217220257967710495e-02 -9.547016583383083344e-03 -8.747038245201110840e-02 -1.435580700635910034e-01 -1.709871590137481689e-01 -3.867224603891372681e-02 -1.225508973002433777e-01 4.497072845697402954e-02 -1.286643184721469879e-02 4.212393425405025482e-03 -1.103319600224494934e-01 1.031297296285629272e-01 1.380704641342163086e-01 1.383640319108963013e-01 3.447582200169563293e-02 -1.174770593643188477e-01 1.566807627677917480e-01 3.595573827624320984e-02 1.063699647784233093e-01 -8.474161475896835327e-02 1.261821985244750977e-01 3.425101935863494873e-02 1.651472747325897217e-01 -1.601994931697845459e-01
1.287473440170288086e-01 1.008529961109161377e-01 -5.697020888328552246e-02 -5.856123194098472595e-02 7.033316045999526978e-02 -1.059379056096076965e-02 8.508828468620777130e-03 3.007534518837928772e-02 -1.008258387446403503e-02 3.001376241445541382e-02 -7.033576816320419312e-02 1.611025631427764893e-01 9.848932921886444092e-02 7.044317573308944702e-02 -7.877498120069503784e-02 -1.190322041511535645e-01 1.834041029214859009e-01 2.614789642393589020e-02 -5.664627999067306519e-02 1.754318028688430786e-01 6.104703620076179504e-02 1.120086610317230225e-01 -7.027486711740493774e-02 8.340930938720703125e-02 1.719164848327636719e-01 -1.097273156046867371e-01 -6.337936222553253174e-02 -6.548348814249038696e-02 -1.973844617605209351e-01 -6.769538670778274536e-02 -1.969140172004699707e-01 -1.822991073131561279e-01 7.453877478837966919e-02 1.781930401921272278e-02 5.025492608547210693e-02 1.127877980470657349e-01 -5.334975570440292358e-02 -1.445291936397552490e-01 -1.957087405025959015e-02 6.339777261018753052e-02 8.762484043836593628e-02 6.899697706103324890e-03 -4.939681291580200195e-02 1.000385358929634094e-01 -6.680563092231750488e-02 -6.965650618076324463e-02 1.365159600973129272e-01 8.854429237544536591e-03 2.389751188457012177e-02 -1.426510810852050781e-01
5.481366813182830811e-02 -1.691177934408187866e-01 -8.729121834039688110e-02 9.657542407512664795e-02 -4.801275581121444702e-02 2.883076854050159454e-02 -8.520454168319702148e-02 -4.148289561271667480e-02 2.390591800212860107e-02 1.429143710993230343e-03 6.887945532798767090e-02 -7.006368041038513184e-02 1.812049597501754761e-01 -9.919337183237075806e-02 -8.446878194808959961e-02 -1.075446326285600662e-02 1.778681725263595581e-01 1.782887727022171021e-01 -5.233493447303771973e-02 1.999651193618774414e-01 2.192321605980396271e-02 -5.770222097635269165e-02 -9.964864701032638550e-02 -8.809118717908859253e-02 6.577143073081970215e-02 6.701157242059707642e-02 8.556863665580749512e-02 -1.362166740000247955e-02 -7.687957584857940674e-02 8.353254944086074829e-02 -1.396012902259826660e-01 8.823110163211822510e-02 -1.285021305084228516e-01 -1.260571926832199097e-01 -5.586483329534530640e-02 -2.694601006805896759e-02 5.916235223412513733e-02 -3.448692709207534790e-02 1.927666366100311279e-01 7.472088932991027832e-02 -3.782327473163604736e-02 1.873045563697814941e-01 1.420552283525466919e-01 1.830980926752090454e-01 1.706561595201492310e-01 5.942189693450927734e-02 -1.027199998497962952e-01 1.774525046348571777e-01 9.585652500391006470e-02 -1.838245093822479248e-01
-6.144421175122261047e-02 9.653535485267639160e-02 -4.749868810176849365e-02 -6.634953618049621582e-02 -1.823638826608657837e-01 -6.220633536577224731e-02 -1.371311098337173462e-01 -9.346828609704971313e-02 -6.063214316964149475e-02 -2.110007777810096741e-02 1.251610368490219116e-01 -7.695072889328002930e-02 -2.196029201149940491e-02 -6.568944454193115234e-02 1.194184720516204834e-01 1.301202476024627686e-01 2.552698254585266113e-01 2.502726912498474121e-01 1.117236353456974030e-02 7.863577455282211304e-02 -1.440726369619369507e-01 -7.252476364374160767e-02 -1.491666678339242935e-02 1.605209708213806152e-01 1.559050083160400391e-01 -6.592070311307907104e-02 -1.520797377452254295e-03 7.874834537506103516e-02 -5.680294334888458252e-02 7.937453687191009521e-02 -5.984962731599807739e-02 -1.570060104131698608e-01 -1.429993957281112671e-01 4.806941002607345581e-02 1.471585780382156372e-01 -1.724465191364288330e-01 -9.009304642677307129e-02 -2.923342026770114899e-02 -3.282825276255607605e-02 -1.410508006811141968e-01 6.314907968044281006e-02 2.465731650590896606e-02 1.160261407494544983e-01 2.319714725017547607e-01 9.000035934150218964e-03 -4.663551691919565201e-03 1.615482717752456665e-01 -5.910307168960571289e-02 8.793205767869949341e-02 6.653696298599243164e-03
-1.462141424417495728e-01 -8.742411434650421143e-02 -3.637724742293357849e-02 4.655615985393524170e-02 7.158780843019485474e-02 -1.477689146995544434e-01 -4.365838691592216492e-02 -4.681294783949851990e-03 1.513685882091522217e-01 9.525988996028900146e-02 4.981677606701850891e-02 8.485218882560729980e-02 8.668351918458938599e-02 2.013183534145355225e-01 5.404886975884437561e-02 -1.002934798598289490e-01 5.396310240030288696e-03 -5.729616805911064148e-02 9.998085349798202515e-02 1.715109869837760925e-02 3.605058416724205017e-02 2.770799584686756134e-02 -1.780385226011276245e-01 7.927208393812179565e-02 9.980101138353347778e-02 -1.509257555007934570e-01 1.600618707016110420e-03 1.030372157692909241e-01 -1.791628003120422363e-01 2.607090771198272705e-02 -7.664249092340469360e-02 1.317624747753143311e-02 2.175187878310680389e-02 1.057001873850822449e-01 1.049028262495994568e-01 3.763189911842346191e-02 -1.261035054922103882e-01 2.136519365012645721e-02 -7.244266569614410400e-02 -1.460209637880325317e-01 -7.394082099199295044e-02 2.299827523529529572e-02 -1.185295656323432922e-01 1.805329918861389160e-01 1.325989663600921631e-01 3.656634129583835602e-03 1.951126754283905029e-01 1.716912239789962769e-01 1.196506693959236145e-01 5.597421154379844666e-02
-1.287416368722915649e-01 1.590412855148315430e-01 -1.485331654548645020e-01 1.949556320905685425e-01 -3.393643721938133240e-02 1.391996294260025024e-01 -1.960380077362060547e-01 7.106065750122070312e-02 1.425117552280426025e-01 6.773494929075241089e-02 1.434777528047561646e-01 -1.743391156196594238e-01 -4.647219926118850708e-02 -5.210957303643226624e-02 7.340487837791442871e-02 -2.476647868752479553e-02 1.949045956134796143e-01 4.270831868052482605e-02 -1.060000807046890259e-01 2.052854299545288086e-01 -5.530192703008651733e-02 1.173523887991905212e-01 -7.502252608537673950e-02 8.913831412792205811e-02 -9.155557490885257721e-03 -1.274542510509490967e-01 1.326311975717544556e-01 1.100313887000083923e-01 -1.690337620675563812e-02 5.863986536860466003e-02 2.886273711919784546e-02 -1.618399471044540405e-01 -1.683827787637710571e-01 -3.013512864708900452e-02 1.351010352373123169e-01 6.263892352581024170e-02 7.957688719034194946e-02 6.224145740270614624e-02 1.463250815868377686e-01 -1.937969177961349487e-01 5.417162925004959106e-02 1.614319905638694763e-02 1.026006266474723816e-01 1.860979050397872925e-01 -8.206992596387863159e-02 -1.284243464469909668e-01 -1.622404903173446655e-02 1.332666277885437012e-01 1.132734492421150208e-01 -8.070573955774307251e-02
-1.162731461226940155e-02 5.433408543467521667e-02 -2.920861542224884033e-02 1.033297255635261536e-01 -1.478064525872468948e-02 -5.694297701120376587e-02 3.856116160750389099e-02 -1.001680940389633179e-01 -2.103524282574653625e-02 1.136005967855453491e-01 -1.342428773641586304e-01 5.850064009428024292e-02 1.607020497322082520e-01 5.147700011730194092e-02 2.066382765769958496e-02 1.648340523242950439e-01 1.836897879838943481e-01 -1.163805499672889709e-01 7.010892033576965332e-02 9.134024381637573242e-02 1.251581124961376190e-02 -1.748993061482906342e-02 -5.905442312359809875e-02 -1.392770260572433472e-01 -4.915484413504600525e-02 -3.828861191868782043e-02 -9.347955696284770966e-03 1.261129230260848999e-01 -2.308189719915390015e-01 8.431108295917510986e-02 -2.228515297174453735e-01 8.680253475904464722e-02 7.842901162803173065e-03 -1.376078426837921143e-01 -3.360939025878906250e-02 2.177240513265132904e-02 3.894131863489747047e-03 -3.509333764668554068e-04 -6.382749229669570923e-02 -6.286547333002090454e-02 -4.955775290727615356e-02 2.502878606319427490e-01 -2.059204271063208580e-03 -1.217353716492652893e-02 1.308682560920715332e-01 -1.717868298292160034e-01 6.007572636008262634e-02 -6.834584288299083710e-03 -1.210002452135086060e-01 1.022504642605781555e-01
7.604251801967620850e-02 -2.103835716843605042e-02 -1.490470319986343384e-01 1.197491586208343506e-01 9.110322594642639160e-02 1.051010284572839737e-02 -1.468072086572647095e-01 -6.984587758779525757e-02 -3.983706608414649963e-02 -7.705015689134597778e-02 1.242478564381599426e-02 -1.676680147647857666e-01 -9.023293107748031616e-02 9.496365487575531006e-02 -7.307311147451400757e-02 -2.248123474419116974e-02 -2.109451778233051300e-02 -8.989796042442321777e-02 1.541498154401779175e-01 1.222097128629684448e-01 9.809772670269012451e-02 -6.617220491170883179e-02 7.310837041586637497e-03 3.416407108306884766e-02 -9.123823791742324829e-02 -4.964766278862953186e-02 2.981800213456153870e-02 2.099716290831565857e-02 -1.276008337736129761e-01 -7.904723286628723145e-02 -6.511418521404266357e-02 -2.429991215467453003e-02 -2.200114727020263672e-02 1.077336668968200684e-01 -1.589189097285270691e-02 -1.179171577095985413e-01 1.273900717496871948e-01 -1.537048965692520142e-01 4.465239122509956360e-02 -2.560991346836090088e-01 -1.791815832257270813e-02 1.636537909507751465e-02 -4.048519209027290344e-02 7.891499996185302734e-02 7.867905311286449432e-03 -1.189332678914070129e-01 1.752175539731979370e-01 -7.235176116228103638e-02 1.103861536830663681e-02 -1.718527227640151978e-01
-5.815317109227180481e-02 1.302095651626586914e-01 -1.155827939510345459e-01 9.800931811332702637e-02 -1.469721496105194092e-01 -1.127803549170494080e-01 -1.082328557968139648e-01 8.487831801176071167e-02 -3.826308622956275940e-02 -5.670337378978729248e-02 -5.777465179562568665e-02 -6.842715293169021606e-02 6.054139137268066406e-02 -1.632207818329334259e-02 -1.236809715628623962e-01 1.110506206750869751e-01 1.801288723945617676e-01 -7.864935696125030518e-02 9.430427104234695435e-02 5.123424157500267029e-02 -1.138117462396621704e-01 -1.082438006997108459e-01 -1.124605536460876465e-01 8.281221613287925720e-03 -2.786730974912643433e-02 -1.692629605531692505e-01 -4.766936972737312317e-02 3.392753750085830688e-02 2.634691074490547180e-02 1.252420991659164429e-01 5.561110377311706543e-02 2.658070996403694153e-02 -1.680041998624801636e-01 1.203516945242881775e-01 1.306335926055908203e-01 -1.319015324115753174e-01 1.715753786265850067e-02 7.957040518522262573e-02 5.394803360104560852e-03 -2.662984728813171387e-01 -6.021631136536598206e-02 3.645364195108413696e-02 -8.996533602476119995e-02 2.123360633850097656e-01 6.304847076535224915e-03 1.073521468788385391e-02 5.510975420475006104e-02 -1.207529455423355103e-01 -2.700836211442947388e-02 1.192860975861549377e-01
-7.785506546497344971e-02 -4.900573566555976868e-02 1.177583560347557068e-01 1.220886334776878357e-01 4.244032874703407288e-02 -7.626374065876007080e-02 2.619968727231025696e-02 -1.823696345090866089e-01 5.947137624025344849e-02 3.476839885115623474e-02 -1.583091616630554199e-01 -1.517335623502731323e-01 -1.227020546793937683e-01 7.917471975088119507e-02 1.319851428270339966e-01 -7.678707689046859741e-02 5.809268355369567871e-02 -1.111740320920944214e-01 1.093361675739288330e-01 6.954883784055709839e-02 5.178037285804748535e-02 -3.447869047522544861e-02 1.784150004386901855e-01 5.850125849246978760e-02 -5.354403331875801086e-02 -1.164005845785140991e-01 1.925100535154342651e-01 -1.524092257022857666e-01 1.091256290674209595e-01 -5.249104928225278854e-03 -8.489368855953216553e-02 -1.321293562650680542e-01 -8.335172384977340698e-02 1.291491240262985229e-01 -1.054251492023468018e-01 4.646770656108856201e-02 4.136506095528602600e-02 9.257189929485321045e-02 1.181148588657379150e-01 -1.430757790803909302e-01 -6.615750491619110107e-02 2.265982180833816528e-01 -9.625823795795440674e-02 -5.413224920630455017e-02 -6.455659866333007812e-02 -1.658869683742523193e-01 2.428061701357364655e-02 -1.357498615980148315e-01 5.757333338260650635e-02 -5.918072909116744995e-02
1.838568225502967834e-02 1.223658025264739990e-01 -7.129963487386703491e-02 2.218583039939403534e-02 2.614645846188068390e-02 -1.492404639720916748e-01 7.371385395526885986e-02 8.110421895980834961e-02 -9.992431849241256714e-02 1.148266121745109558e-01 -9.731911122798919678e-02 -1.033279150724411011e-01 8.799980580806732178e-02 -1.324265450239181519e-01 1.083282306790351868e-01 6.495622918009757996e-03 1.348471641540527344e-01 4.072289913892745972e-02 5.778416618704795837e-02 1.175780147314071655e-01 2.892891876399517059e-03 6.004172191023826599e-02 2.182174474000930786e-01 -1.247880458831787109e-01 -7.349037379026412964e-02 4.460808262228965759e-02 1.121166199445724487e-01 6.868061423301696777e-02 -5.871881172060966492e-02 5.712313577532768250e-02 -1.198425963521003723e-01 -7.628026604652404785e-02 2.958988025784492493e-02 -1.184199675917625427e-01 1.451645344495773315e-01 6.746939616277813911e-04 6.917414069175720215e-02 -7.564280927181243896e-02 -1.195303350687026978e-01 -1.452896296977996826e-01 9.656885266304016113e-02 9.718482941389083862e-02 -9.059422463178634644e-02 -1.133005507290363312e-02 1.514010578393936157e-01 -1.097694411873817444e-02 1.374153643846511841e-01 -1.587565243244171143e-01 3.942351043224334717e-02 -9.240957349538803101e-02
-4.839409142732620239e-03 2.847917005419731140e-02 8.307915180921554565e-02 -2.664902247488498688e-02 8.777985721826553345e-02 1.085451766848564148e-01 -9.754202514886856079e-02 -1.395786274224519730e-02 1.873067766427993774e-02 -1.548059433698654175e-01 -8.498641848564147949e-02 9.031344950199127197e-02 -3.782097622752189636e-02 6.624791771173477173e-02 6.409544497728347778e-02 7.016806863248348236e-03 -1.166006475687026978e-01 -4.221204295754432678e-02 2.287248373031616211e-01 -2.625246532261371613e-02 1.021803468465805054e-01 -1.120257657021284103e-02 1.976744234561920166e-01 9.871751815080642700e-02 -1.808190345764160156e-01 -1.413548439741134644e-01 1.991990655660629272e-01 -6.232000887393951416e-02 -6.669054180383682251e-02 -9.052659384906291962e-03 1.206905096769332886e-01 8.595306426286697388e-02 6.940716877579689026e-03 1.854326575994491577e-02 1.577596925199031830e-02 1.166123002767562866e-01 1.298325359821319580e-01 5.245112627744674683e-02 -1.556586772203445435e-01 -2.254144400358200073e-01 7.133466750383377075e-02 2.297235131263732910e-01 4.914874676614999771e-03 -6.322786211967468262e-02 1.350854039192199707e-01 1.515271365642547607e-01 9.442770481109619141e-02 -8.104629069566726685e-02 1.667713047936558723e-03 -7.831104099750518799e-02
-1.114790737628936768e-01 -5.930882692337036133e-02 1.165945008397102356e-01 -1.782487779855728149e-01 1.046590059995651245e-01 3.946836665272712708e-02 -1.894447356462478638e-01 1.185255274176597595e-01 2.393169701099395752e-02 -8.117230981588363647e-02 6.101891770958900452e-02 1.470371186733245850e-01 -8.357882499694824219e-02 3.613773267716169357e-03 2.890290319919586182e-02 1.062188073992729187e-01 1.506848931312561035e-01 -1.031087934970855713e-01 2.065567970275878906e-01 5.010409280657768250e-02 -8.650881797075271606e-02 -1.157752573490142822e-01 2.980978190898895264e-01 -1.505710035562515259e-01 -1.203464791178703308e-01 -1.663411408662796021e-01 -6.175260990858078003e-02 -5.048843100666999817e-02 -3.511020913720130920e-02 7.533043622970581055e-02 8.278890699148178101e-02 -5.240896716713905334e-02 1.744670607149600983e-02 1.773531362414360046e-02 -7.921044528484344482e-02 -9.671257436275482178e-02 3.323471173644065857e-03 -1.269679814577102661e-01 6.234550103545188904e-02 -1.471852213144302368e-01 -7.209050655364990234e-02 8.100109547376632690e-02 -2.794737182557582855e-02 -9.734223037958145142e-02 -1.782726049423217773e-01 -5.274481698870658875e-02 8.558873832225799561e-02 6.105918064713478088e-02 1.254860758781433105e-01 6.368696689605712891e-02
-1.257451921701431274e-01 -4.927188530564308167e-02 -1.170551180839538574e-01 -1.320653855800628662e-01 1.151910498738288879e-01 6.950468569993972778e-02 1.481543667614459991e-02 8.487524837255477905e-02 7.493378128856420517e-03 -7.374437898397445679e-02 -8.442336320877075195e-02 -1.519372761249542236e-01 -1.650462448596954346e-01 -1.666201949119567871e-01 1.073830425739288330e-01 -1.698469072580337524e-01 -1.562726497650146484e-01 -1.120377779006958008e-01 9.068724513053894043e-02 1.033842563629150391e-01 -1.020291075110435486e-02 -8.792262524366378784e-03 3.013713844120502472e-02 -8.471755683422088623e-02 -1.478998363018035889e-01 -1.530298739671707153e-01 -4.246433451771736145e-02 -2.224117070436477661e-01 -6.254845857620239258e-02 -1.286655962467193604e-01 -1.273006498813629150e-01 7.712769508361816406e-02 -1.152627021074295044e-01 1.280131340026855469e-01 9.282611310482025146e-02 -7.390920817852020264e-02 1.027616322971880436e-03 1.039057224988937378e-01 -7.507079094648361206e-02 -1.723573654890060425e-01 4.971185326576232910e-02 6.889592856168746948e-02 1.201140731573104858e-01 2.311721630394458771e-02 1.280805561691522598e-02 2.813684344291687012e-01 5.142736062407493591e-02 3.048252314329147339e-02 1.088515222072601318e-01 -6.544236093759536743e-02
2.236225269734859467e-02 -8.573480695486068726e-02 -3.907992690801620483e-02 8.064103126525878906e-02 -3.570039197802543640e-02 2.853769436478614807e-02 5.283298343420028687e-02 -9.579174965620040894e-02 1.563547998666763306e-01 1.205378770828247070e-01 4.590475186705589294e-02 -5.346402898430824280e-02 4.231537133455276489e-02 3.048834949731826782e-02 1.306399852037429810e-01 4.376927018165588379e-02 5.822118744254112244e-02 -3.245586762204766273e-03 -1.047701761126518250e-01 -8.716740459203720093e-02 8.950614184141159058e-02 -8.012799173593521118e-02 1.979183554649353027e-01 5.008619278669357300e-02 -5.481621995568275452e-02 -7.474786043167114258e-02 -5.836189957335591316e-04 -1.991560012102127075e-01 -9.567721933126449585e-02 -1.134097650647163391e-01 -1.157262325286865234e-01 -1.897820234298706055e-01 7.396459579467773438e-02 -4.910977929830551147e-02 9.531924501061439514e-03 -1.192638278007507324e-01 5.056455731391906738e-02 -1.018642187118530273e-01 -2.926860749721527100e-02 -2.508333027362823486e-01 -6.619007885456085205e-02 4.473525658249855042e-02 -1.383827775716781616e-01 2.444565109908580780e-02 5.685834214091300964e-02 8.346721529960632324e-02 -2.164157107472419739e-02 1.295692324638366699e-01 1.452135890722274780e-01 1.049735099077224731e-01
