50
50
6.907721608877182007e-02 -7.102826982736587524e-02 -1.535248160362243652e-01 1.752170324325561523e-01 2.629564106464385986e-01 -1.653954833745956421e-01 1.592222005128860474e-01 -6.794792413711547852e-02 -2.182890288531780243e-02 -2.335581183433532715e-02 2.021214663982391357e-01 -1.746739745140075684e-01 3.593136742711067200e-02 1.464498490095138550e-01 -1.625660248100757599e-02 -1.748041957616806030e-01 2.629951536655426025e-01 1.535935252904891968e-01 -9.841769933700561523e-02 -2.238769233226776123e-01 -2.202374637126922607e-01 2.394817918539047241e-01 -1.735353916883468628e-01 1.015279218554496765e-01 -2.670415341854095459e-01 -1.068113669753074646e-01 4.087020084261894226e-02 -1.260495632886886597e-01 -6.124455109238624573e-02 7.109054177999496460e-02 -8.468222618103027344e-02 1.989556849002838135e-01 5.468092486262321472e-02 -2.199058830738067627e-01 4.713992401957511902e-02 -9.447370469570159912e-02 9.700625203549861908e-03 -9.992028027772903442e-02 -2.190621495246887207e-01 -1.753436923027038574e-01 3.147261589765548706e-02 4.854815080761909485e-02 -2.670873999595642090e-01 2.171335667371749878e-01 2.142952531576156616e-01 -1.347690671682357788e-01 -6.986841559410095215e-02 -1.840987801551818848e-01 6.130814179778099060e-02 1.545314341783523560e-01
9.185729175806045532e-02 -1.225778535008430481e-01 -9.295132011175155640e-02 -2.131613790988922119e-01 -1.800102889537811279e-01 -1.285370290279388428e-01 1.592040993273258209e-02 -3.735154867172241211e-02 -1.573771536350250244e-01 -4.283279180526733398e-02 3.491893410682678223e-02 2.170892357826232910e-01 -1.131919324398040771e-01 -8.241917192935943604e-02 -6.556659936904907227e-02 -2.433460950851440430e-02 -1.982916891574859619e-01 3.047751076519489288e-02 -7.526958733797073364e-02 -1.943629533052444458e-01 -4.823353514075279236e-02 -4.247816745191812515e-03 -1.262309402227401733e-01 1.839404702186584473e-01 1.764585375785827637e-01 -1.133708655834197998e-01 9.264852851629257202e-02 -9.720131754875183105e-02 1.538433581590652466e-01 -1.667237430810928345e-01 -9.455549716949462891e-02 1.681248694658279419e-01 -2.649812698364257812e-01 1.449462473392486572e-01 -1.790331900119781494e-01 -1.666509211063385010e-01 1.580169349908828735e-01 -2.493820339441299438e-01 1.807454228401184082e-02 2.715229243040084839e-02 1.617753505706787109e-01 1.346185356378555298e-01 2.898149192333221436e-01 -2.166977822780609131e-01 -2.166253179311752319e-01 1.535654366016387939e-01 -1.018402948975563049e-01 -1.049800962209701538e-01 2.949838042259216309e-01 -3.830321598798036575e-03
-4.366180393844842911e-03 3.975454717874526978e-02 -2.347002029418945312e-01 -2.193499803543090820e-01 1.503765285015106201e-01 9.842347353696823120e-02 -2.162872999906539917e-01 -1.209687292575836182e-01 -1.628427058458328247e-01 1.473259627819061279e-01 -9.675994515419006348e-03 1.500599831342697144e-01 -6.708075106143951416e-02 1.503797173500061035e-01 9.749279171228408813e-02 8.054813742637634277e-02 -2.036079019308090210e-01 -8.709593862295150757e-02 -1.752901226282119751e-01 -1.423588097095489502e-01 -6.420111656188964844e-02 -5.789972841739654541e-02 -1.856964975595474243e-01 -1.368790119886398315e-01 -2.511184513568878174e-01 -1.920719295740127563e-01 1.101699993014335632e-01 -2.381257712841033936e-01 -2.663436159491539001e-02 -4.569719545543193817e-03 1.689888834953308105e-01 -1.149511411786079407e-01 -1.439495682716369629e-01 -4.476309567689895630e-02 -6.014205515384674072e-02 -2.007126659154891968e-01 -2.424731105566024780e-01 -8.235733956098556519e-02 1.575797945261001587e-01 1.457441449165344238e-01 -2.518775463104248047e-01 -2.173610925674438477e-01 2.720573842525482178e-01 -2.692078053951263428e-02 -5.635891482234001160e-02 2.170079015195369720e-02 -1.695496141910552979e-01 -9.279317408800125122e-02 1.570589244365692139e-01 -2.198548316955566406e-01
-3.313896432518959045e-02 2.099105119705200195e-01 9.203024208545684814e-02 2.359085083007812500e-01 -1.851758360862731934e-01 1.710889339447021484e-01 2.610721290111541748e-01 -1.768412739038467407e-01 -2.501594834029674530e-02 -1.252703368663787842e-01 3.152086436748504639e-01 -2.764784097671508789e-01 -1.578377783298492432e-01 2.992414496839046478e-02 -7.736878842115402222e-02 1.168111860752105713e-01 -4.060965478420257568e-01 2.178429067134857178e-01 -7.787521928548812866e-02 7.430178672075271606e-02 -7.960627228021621704e-02 -2.192311286926269531e-01 -2.749558091163635254e-01 1.114123761653900146e-01 9.234764426946640015e-02 -8.731033653020858765e-02 -2.077108919620513916e-01 -1.827148646116256714e-01 -1.306867748498916626e-01 8.369021862745285034e-02 -2.044240981340408325e-01 -2.231670022010803223e-01 -2.040486335754394531e-01 -3.273225426673889160e-01 2.235710471868515015e-01 1.103985533118247986e-01 5.057276040315628052e-02 -1.981822997331619263e-01 1.163978129625320435e-01 1.876589506864547729e-01 1.464294791221618652e-01 -1.419989019632339478e-01 3.646298125386238098e-02 1.256141364574432373e-01 -7.328435778617858887e-02 -2.710869908332824707e-01 -9.576879441738128662e-02 1.146579906344413757e-01 -3.892126493155956268e-03 -2.479259371757507324e-01
2.131578326225280762e-01 9.892253577709197998e-02 -1.311074793338775635e-01 -1.092547923326492310e-01 -2.926835604012012482e-02 -1.510229706764221191e-01 8.745376020669937134e-02 1.821691691875457764e-01 -1.019622683525085449e-01 -1.637983769178390503e-01 2.538008093833923340e-01 1.014797575771808624e-02 -2.211540788412094116e-01 -7.841432094573974609e-02 -4.116305336356163025e-02 2.066882997751235962e-01 -2.428703904151916504e-01 -2.357332408428192139e-01 -7.255527377128601074e-02 1.805731356143951416e-01 -1.911441236734390259e-01 -1.499417573213577271e-01 2.689461410045623779e-01 -1.870406046509742737e-02 7.556422054767608643e-02 -1.268470585346221924e-01 1.357796788215637207e-01 2.357678413391113281e-01 1.594884395599365234e-01 5.297476798295974731e-02 3.134877979755401611e-02 -1.102750003337860107e-01 1.557743991725146770e-03 1.193495541810989380e-01 8.281236141920089722e-02 -9.082732349634170532e-02 1.800385862588882446e-01 -2.717811465263366699e-01 -6.765534728765487671e-02 1.998527050018310547e-01 -3.133644536137580872e-02 -8.346190303564071655e-02 1.026550978422164917e-01 1.542891561985015869e-01 -1.000016778707504272e-01 -1.745580136775970459e-02 -2.675782740116119385e-01 8.009312301874160767e-02 -1.691143959760665894e-01 -2.379992902278900146e-01
-2.655880749225616455e-01 2.837601900100708008e-01 1.239523217082023621e-01 2.908396720886230469e-01 -1.876700073480606079e-01 1.846531629562377930e-01 2.864409089088439941e-01 -6.736608594655990601e-02 -5.172599479556083679e-02 6.109046563506126404e-02 1.829607486724853516e-01 -1.976340562105178833e-01 -6.529970467090606689e-02 7.467384636402130127e-02 1.428204476833343506e-01 1.260815858840942383e-01 -2.790397405624389648e-01 2.958022356033325195e-01 -7.822596281766891479e-02 -9.467311203479766846e-02 4.257108643651008606e-02 -8.720324933528900146e-02 -1.292082201689481735e-02 1.437232941389083862e-01 8.789299428462982178e-02 1.251272670924663544e-02 2.455827742815017700e-01 4.117819666862487793e-02 2.062458246946334839e-01 -5.956197157502174377e-02 -1.628111749887466431e-01 -1.252466291189193726e-01 -9.636995196342468262e-02 -2.812636792659759521e-01 3.868855303153395653e-03 2.512937411665916443e-02 1.132212951779365540e-01 -2.704971283674240112e-02 1.871617883443832397e-01 -1.169351935386657715e-01 1.419755518436431885e-01 5.650656670331954956e-02 1.248932257294654846e-02 2.544268369674682617e-01 -1.193785518407821655e-01 3.737691789865493774e-02 3.015926778316497803e-01 4.585284739732742310e-02 -2.141335755586624146e-01 -2.775176167488098145e-01
1.349872201681137085e-01 -2.795125246047973633e-01 -2.040657848119735718e-01 -4.306713044643402100e-01 4.866557419300079346e-01 3.205347657203674316e-01 1.484165489673614502e-01 -2.283193357288837433e-02 -2.855621464550495148e-02 1.197796873748302460e-02 8.970955759286880493e-02 -2.075743488967418671e-02 2.716829180717468262e-01 3.888422623276710510e-02 1.320900171995162964e-01 1.423059105873107910e-01 8.713669143617153168e-03 6.389911472797393799e-02 -2.031660377979278564e-01 -2.004392594099044800e-01 -9.299332648515701294e-02 -1.097256317734718323e-01 -2.198244631290435791e-02 -2.526092827320098877e-01 8.860167115926742554e-02 -1.217307448387145996e-01 2.002527005970478058e-02 -3.555063903331756592e-01 2.827407121658325195e-01 2.019699513912200928e-01 1.453821659088134766e-01 -1.532922834157943726e-01 -6.139263510704040527e-02 -2.821149230003356934e-01 -2.699235677719116211e-01 -6.845498830080032349e-02 1.113400049507617950e-02 3.598529100418090820e-02 -2.039407491683959961e-01 5.523828417062759399e-02 -2.914430201053619385e-01 -2.438793033361434937e-01 -1.264013051986694336e-01 -1.171397641301155090e-01 -1.019566729664802551e-01 1.873416900634765625e-01 -7.002928107976913452e-02 3.121739625930786133e-01 -6.127486005425453186e-02 3.831744790077209473e-01
3.180494010448455811e-01 -5.069275200366973877e-02 -1.830104738473892212e-01 2.214792519807815552e-01 2.730759978294372559e-02 -1.499338820576667786e-02 2.084345221519470215e-01 -2.240460515022277832e-01 -8.488432317972183228e-02 1.385622173547744751e-01 1.655759960412979126e-01 -5.393229424953460693e-02 1.595496833324432373e-01 -1.065739020705223083e-01 -4.912423714995384216e-02 -2.177494317293167114e-01 2.299602627754211426e-01 3.492820262908935547e-02 1.416146904230117798e-01 -1.305914968252182007e-01 1.602538628503680229e-03 -8.862020820379257202e-02 -1.301817893981933594e-01 1.232160106301307678e-01 -9.393048472702503204e-03 2.396337538957595825e-01 1.186735555529594421e-01 -2.309450954198837280e-01 2.065577358007431030e-01 2.044717222452163696e-01 -2.301946878433227539e-01 2.128977328538894653e-01 -3.468383476138114929e-02 2.647654116153717041e-01 -1.248930692672729492e-01 -1.407530605792999268e-01 6.899042520672082901e-03 1.980779767036437988e-01 4.322206974029541016e-02 1.291549652814865112e-01 -1.677363514900207520e-01 -1.107791885733604431e-01 3.289257287979125977e-01 -4.663589410483837128e-03 -4.511083662509918213e-02 1.181142330169677734e-01 2.444632500410079956e-01 -2.278531789779663086e-01 -1.273802369832992554e-01 -1.109681427478790283e-01
-1.139186397194862366e-01 1.423154324293136597e-01 -1.521133184432983398e-01 7.382448762655258179e-03 -1.686412543058395386e-01 7.792732864618301392e-02 -1.998186111450195312e-01 -2.832807600498199463e-02 2.982152625918388367e-02 -1.708029359579086304e-01 -1.238626688718795776e-01 3.908037766814231873e-02 1.626030504703521729e-01 1.047743484377861023e-01 1.214500442147254944e-01 -3.761132061481475830e-02 -2.255409955978393555e-01 -2.469286136329174042e-02 7.173743844032287598e-02 1.988825798034667969e-01 1.141246780753135681e-01 2.098156213760375977e-01 -2.152756452560424805e-01 -2.194005846977233887e-01 1.686432659626007080e-01 -2.417950183153152466e-01 2.301971167325973511e-01 -2.294629067182540894e-01 -1.047543510794639587e-01 -6.479980796575546265e-02 -8.556645363569259644e-02 3.291364386677742004e-02 -1.494926959276199341e-01 2.197814285755157471e-01 -2.991644106805324554e-02 4.584675654768943787e-02 1.016315296292304993e-01 -1.890033185482025146e-01 2.057401388883590698e-01 -1.247020363807678223e-01 1.971927136182785034e-01 2.335905879735946655e-01 4.834966361522674561e-02 4.598687961697578430e-02 -1.242113485932350159e-01 -7.620707154273986816e-02 -5.387303605675697327e-02 2.513584494590759277e-01 -1.365756541490554810e-01 1.514442265033721924e-01
2.782699167728424072e-01 -2.180459797382354736e-01 3.363497555255889893e-02 -8.975253999233245850e-02 2.275298684835433960e-01 -1.115687787532806396e-01 1.315900236368179321e-01 -2.306436002254486084e-01 1.658702082931995392e-02 -2.896603643894195557e-01 -2.322185784578323364e-01 2.664238214492797852e-02 6.770551204681396484e-03 1.434663236141204834e-01 2.549251019954681396e-01 -8.859244734048843384e-02 2.809531092643737793e-01 -1.229018196463584900e-01 1.841291338205337524e-01 -1.347564160823822021e-01 -9.115122258663177490e-02 6.199075281620025635e-02 -9.906981885433197021e-02 -2.419087588787078857e-01 7.414712011814117432e-02 -5.482867732644081116e-02 -1.124449819326400757e-02 -1.813879758119583130e-01 2.689019441604614258e-01 5.110936611890792847e-02 3.554599285125732422e-01 -1.701905131340026855e-01 -1.239459440112113953e-01 -2.310033887624740601e-01 1.280792355537414551e-01 -4.424273222684860229e-02 2.018569707870483398e-01 2.332479059696197510e-01 -9.007445722818374634e-02 2.918954491615295410e-01 1.866352856159210205e-01 -1.612653881311416626e-01 -6.252974737435579300e-03 -1.726781874895095825e-01 -1.671855300664901733e-01 5.486033624038100243e-04 -1.420923769474029541e-01 1.483227461576461792e-01 1.301898807287216187e-01 -2.859729342162609100e-02
-3.479156177490949631e-03 1.285771727561950684e-01 -1.655264198780059814e-02 1.660043597221374512e-01 -2.800700366497039795e-01 -9.597702324390411377e-02 1.526369601488113403e-01 -5.578802525997161865e-02 -1.569197475910186768e-01 1.380246430635452271e-01 -1.782590895891189575e-01 -6.608703732490539551e-02 1.956062577664852142e-02 -2.795454859733581543e-01 -7.947658188641071320e-03 1.862142384052276611e-01 -1.512374430894851685e-01 1.616214662790298462e-01 -1.690361350774765015e-01 1.636272072792053223e-01 2.401074171066284180e-01 1.478752344846725464e-01 -3.047201037406921387e-01 1.196927390992641449e-02 7.504832744598388672e-02 1.292371749877929688e-01 -1.553711891174316406e-01 -2.608059719204902649e-02 1.403062641620635986e-01 1.005370244383811951e-01 -1.997996494174003601e-02 -7.904843986034393311e-02 -1.209966689348220825e-01 9.375239163637161255e-02 -2.120816111564636230e-01 7.107014209032058716e-02 -6.682439893484115601e-02 -4.865789413452148438e-02 -7.999480515718460083e-02 2.314621359109878540e-01 -1.503910571336746216e-01 5.112336948513984680e-02 3.711498677730560303e-01 -2.278636209666728973e-03 -1.068836171180009842e-02 -1.467222720384597778e-01 1.426630467176437378e-01 -2.102808207273483276e-01 2.222078591585159302e-01 -1.606931537389755249e-01
1.276534348726272583e-01 2.949779927730560303e-01 -2.526922225952148438e-01 1.832465231418609619e-01 2.725403904914855957e-01 -7.565765082836151123e-02 1.339860707521438599e-01 -1.361474841833114624e-01 -1.065124990418553352e-03 -9.027209132909774780e-02 -1.731020659208297729e-01 -1.706491708755493164e-01 -2.284441292285919189e-01 -1.092629730701446533e-01 1.197611168026924133e-01 3.364454954862594604e-02 8.261893689632415771e-02 -1.577448658645153046e-02 2.850949764251708984e-01 1.918820887804031372e-01 -1.941148005425930023e-02 6.382448971271514893e-02 -2.406062483787536621e-01 2.680781185626983643e-01 -1.012723967432975769e-01 2.934160828590393066e-02 3.919570520520210266e-02 2.088390886783599854e-01 2.647309601306915283e-01 -1.636104285717010498e-01 -2.199379354715347290e-01 7.902118377387523651e-03 9.034873545169830322e-02 1.617027670145034790e-01 2.028568387031555176e-01 1.603018045425415039e-01 2.500416040420532227e-01 1.041138172149658203e-01 -1.847541481256484985e-01 2.993472851812839508e-02 2.080577909946441650e-01 8.275231719017028809e-02 -1.706966906785964966e-01 -1.464779675006866455e-01 -1.054234504699707031e-01 1.021576896309852600e-01 -1.583652943372726440e-01 -2.230338007211685181e-01 1.673598587512969971e-01 -7.417578995227813721e-02
-2.019050121307373047e-01 -2.440250515937805176e-01 -3.753097355365753174e-02 -2.106134444475173950e-01 1.848455052822828293e-03 8.578151464462280273e-02 -1.644444912672042847e-01 6.095587089657783508e-02 2.067097276449203491e-01 -5.454776808619499207e-02 -2.405437082052230835e-02 -1.093423343263566494e-03 2.049606740474700928e-01 2.591210305690765381e-01 1.519738584756851196e-01 6.170887127518653870e-02 2.236504256725311279e-01 -3.948177099227905273e-01 1.814893931150436401e-01 -2.191551029682159424e-01 -1.242254227399826050e-01 -3.022663593292236328e-01 3.278746083378791809e-02 -3.677998483180999756e-02 9.731379896402359009e-02 -1.041699349880218506e-01 -3.221958177164196968e-03 -5.825676396489143372e-02 -1.536522358655929565e-01 2.053611129522323608e-01 2.469929605722427368e-01 -1.463606208562850952e-01 4.709207266569137573e-02 9.077223017811775208e-03 1.237681061029434204e-01 -1.019497588276863098e-01 7.061392068862915039e-02 6.280274689197540283e-02 -3.798230364918708801e-02 1.289826259016990662e-02 2.009754478931427002e-01 2.796424031257629395e-01 1.436943188309669495e-02 -1.890341341495513916e-01 -1.496174782514572144e-01 -7.049048691987991333e-02 -1.212801337242126465e-01 -1.997993439435958862e-01 -6.222337856888771057e-02 5.260608717799186707e-02
-7.613637484610080719e-03 1.519578099250793457e-01 -1.511600166559219360e-01 -2.914001001045107841e-03 -5.615625157952308655e-02 9.238865971565246582e-02 3.302015364170074463e-01 6.349693238735198975e-02 -1.494473069906234741e-01 2.100641727447509766e-01 1.058136671781539917e-01 -1.300850361585617065e-01 -1.047317460179328918e-01 -2.979626655578613281e-01 1.657233536243438721e-01 6.777810305356979370e-02 1.759653687477111816e-01 -1.185083165764808655e-01 1.674182564020156860e-01 1.869450062513351440e-01 -1.155587360262870789e-01 -1.438033431768417358e-01 7.670515030622482300e-02 -4.921742901206016541e-02 2.209064811468124390e-01 -1.222938522696495056e-01 -6.771252304315567017e-02 -1.680779755115509033e-01 -3.029141426086425781e-01 -1.983806043863296509e-01 -1.140298992395401001e-01 -2.947600185871124268e-01 -3.940175846219062805e-02 9.125933796167373657e-02 2.101824432611465454e-01 2.003365904092788696e-01 -7.144337147474288940e-02 -8.994492143392562866e-02 -1.356777250766754150e-01 1.836513751186430454e-03 2.878884226083755493e-02 -1.226999387145042419e-01 1.376651376485824585e-01 1.221531331539154053e-01 1.685863137245178223e-01 2.994604110717773438e-01 -1.675085574388504028e-01 -2.234055101871490479e-01 7.888839393854141235e-02 -1.903294026851654053e-01
1.641772687435150146e-01 3.716580569744110107e-02 -2.316952645778656006e-01 -7.613888382911682129e-02 -6.549056619405746460e-02 -2.545446753501892090e-01 -1.935059279203414917e-01 2.128766179084777832e-01 2.321891188621520996e-01 1.383957732468843460e-02 -2.548939287662506104e-01 1.455849856138229370e-01 2.817085087299346924e-01 -1.147778853774070740e-01 5.595128610730171204e-02 2.787435948848724365e-01 1.604891568422317505e-02 -2.139675319194793701e-01 3.039712905883789062e-01 7.686673104763031006e-02 1.307450383901596069e-01 -2.549353241920471191e-01 -1.102905496954917908e-01 4.895462840795516968e-02 1.176133379340171814e-01 -1.712161898612976074e-01 1.580985337495803833e-01 8.654201775789260864e-02 4.740654826164245605e-01 2.011045962572097778e-01 -7.254143804311752319e-02 -1.066729202866554260e-01 1.950562149286270142e-01 1.462139636278152466e-01 -1.153508350253105164e-01 1.714015156030654907e-01 -8.441762626171112061e-02 -1.848432794213294983e-02 -3.240640461444854736e-02 1.409148126840591431e-01 1.194874867796897888e-01 2.694868445396423340e-01 1.559378653764724731e-01 -1.758364140987396240e-01 2.204402722418308258e-02 -2.597747929394245148e-02 1.485932767391204834e-01 -7.244563102722167969e-02 -1.216527000069618225e-01 1.987711787223815918e-01
6.488937884569168091e-02 1.991430371999740601e-01 -2.040953142568469048e-03 -6.761965900659561157e-02 -1.093280762434005737e-01 -1.442811489105224609e-01 -1.264358907938003540e-01 -2.624265849590301514e-01 1.954008638858795166e-01 -1.791470646858215332e-01 -1.633887141942977905e-01 3.620773181319236755e-02 2.352665662765502930e-01 -1.379195898771286011e-01 -1.810463070869445801e-01 2.040420472621917725e-01 -4.238138720393180847e-02 -1.291343271732330322e-01 1.558436602354049683e-01 -1.605927944183349609e-01 2.829120308160781860e-02 5.463164672255516052e-02 -1.037565767765045166e-01 1.809878051280975342e-01 2.653707563877105713e-01 8.113294094800949097e-02 -3.028678894042968750e-02 5.493259057402610779e-02 2.722590267658233643e-01 5.240155756473541260e-02 -7.108119875192642212e-02 1.500949263572692871e-01 2.427257448434829712e-01 -5.536568537354469299e-02 -2.557656168937683105e-01 -1.557691842317581177e-01 -1.935363262891769409e-01 1.653422415256500244e-02 1.764288097620010376e-01 -1.524646580219268799e-01 2.609230577945709229e-02 2.247766554355621338e-01 3.116598725318908691e-01 6.786368787288665771e-03 -1.150971874594688416e-01 1.251498907804489136e-01 -1.517689824104309082e-01 8.883822709321975708e-02 -1.819530129432678223e-01 2.191696166992187500e-01
4.708009772002696991e-03 -2.349463850259780884e-02 7.277087122201919556e-02 -8.699016273021697998e-02 -2.185990363359451294e-01 2.674668729305267334e-01 -2.709991931915283203e-01 -1.908919364213943481e-01 -9.161348640918731689e-02 -3.139278292655944824e-02 6.741010397672653198e-02 -6.763686984777450562e-02 1.830854117870330811e-01 2.148706614971160889e-01 -2.678795531392097473e-02 -1.164491996169090271e-01 -1.033186465501785278e-01 2.193869799375534058e-01 -4.543131962418556213e-02 -8.895029127597808838e-02 -1.888182945549488068e-02 1.465719342231750488e-01 -4.698267579078674316e-02 -2.563302516937255859e-01 3.242033347487449646e-02 1.826777607202529907e-01 -4.380165413022041321e-02 1.271111518144607544e-01 -7.261721044778823853e-02 9.904224425554275513e-03 5.030727013945579529e-02 2.050303667783737183e-01 -1.280135824345052242e-03 -1.595892906188964844e-01 9.041205793619155884e-02 -1.631338000297546387e-01 6.157263740897178650e-02 -3.059261739253997803e-01 1.596305966377258301e-01 3.278105333447456360e-02 2.074326574802398682e-01 -1.220713034272193909e-01 8.414327166974544525e-03 -1.579699069261550903e-01 -1.943006217479705811e-01 -2.186932563781738281e-01 -1.083608791232109070e-01 -1.712920702993869781e-02 -1.334132701158523560e-01 9.858284145593643188e-02
-1.133747678250074387e-02 3.703530430793762207e-01 4.702094197273254395e-02 -1.258093416690826416e-01 1.371179223060607910e-01 6.771347671747207642e-02 5.219704657793045044e-02 5.460171401500701904e-02 1.344697922468185425e-01 -3.712098300457000732e-02 2.853538990020751953e-01 -1.314460933208465576e-01 -7.071073353290557861e-02 -7.788483798503875732e-02 -2.463105618953704834e-01 2.796600461006164551e-01 -5.131123960018157959e-02 5.631289631128311157e-02 4.151486977934837341e-02 -3.037230372428894043e-01 -1.405080109834671021e-01 -1.762757152318954468e-01 -2.619453668594360352e-01 2.309392541646957397e-01 -5.947898328304290771e-02 -2.327990829944610596e-01 -1.151741892099380493e-01 5.602142214775085449e-02 1.234791502356529236e-01 -5.530161783099174500e-02 2.484242767095565796e-01 1.076948195695877075e-01 -1.040619462728500366e-01 -2.602487057447433472e-02 2.792013883590698242e-01 -5.828354507684707642e-03 1.231844723224639893e-01 -2.183488607406616211e-01 2.140284627676010132e-01 1.301981955766677856e-01 8.745551109313964844e-02 -7.714602351188659668e-02 1.223164275288581848e-01 3.182473033666610718e-02 -1.303358227014541626e-01 1.876541823148727417e-01 1.475613862276077271e-01 -1.551720947027206421e-01 -1.810406297445297241e-01 -1.128332912921905518e-01
-2.451931834220886230e-01 1.548297703266143799e-01 2.097945213317871094e-01 1.243934258818626404e-01 2.538399994373321533e-01 -1.339548528194427490e-01 -5.796608701348304749e-02 2.611055374145507812e-01 2.593678236007690430e-02 -1.150689199566841125e-01 5.452586337924003601e-02 -1.133473068475723267e-01 1.757991611957550049e-01 -8.756971359252929688e-02 1.829421669244766235e-01 -1.939377337694168091e-01 9.742424637079238892e-02 3.140232264995574951e-01 1.247212663292884827e-01 3.709822595119476318e-01 3.268263489007949829e-02 -2.529630064964294434e-01 1.595768928527832031e-01 1.483232975006103516e-01 1.256661266088485718e-01 2.665515244007110596e-01 1.477693617343902588e-01 6.015223916620016098e-04 -2.957226708531379700e-02 -1.144988536834716797e-01 -8.118834346532821655e-02 -2.893716990947723389e-01 -2.038233131170272827e-01 2.349978089332580566e-01 -3.278438374400138855e-02 -9.390490502119064331e-02 1.420283410698175430e-02 8.583531528711318970e-02 -7.686129957437515259e-02 -1.691226959228515625e-01 6.411226093769073486e-02 -7.126542925834655762e-02 -1.447644084692001343e-01 2.099706232547760010e-01 2.162006497383117676e-01 -2.204608619213104248e-01 1.865466982126235962e-01 -3.843424469232559204e-02 -1.898574978113174438e-01 1.146560255438089371e-02
3.367216587066650391e-01 -3.121552988886833191e-02 -1.524877995252609253e-01 2.270550429821014404e-01 -2.603658735752105713e-01 2.098283916711807251e-01 6.262154132127761841e-02 -2.589463889598846436e-01 1.186704915016889572e-02 1.363595128059387207e-01 -7.668349146842956543e-02 1.193845365196466446e-02 -7.644224911928176880e-02 -1.903249695897102356e-02 4.127644374966621399e-02 4.506200924515724182e-02 -1.970096677541732788e-02 -6.429456174373626709e-02 2.075949460268020630e-01 -2.166290432214736938e-01 -1.197510864585638046e-02 1.359497159719467163e-01 -2.493765056133270264e-01 -8.374848961830139160e-02 -3.764103353023529053e-02 -1.582056283950805664e-01 -5.951581150293350220e-02 1.541676223278045654e-01 9.752890467643737793e-02 1.410052031278610229e-01 -1.035901233553886414e-01 -1.036730334162712097e-01 1.109817922115325928e-01 -2.449600696563720703e-01 2.219018489122390747e-01 1.057241228409111500e-03 1.412699371576309204e-01 -3.609252860769629478e-03 -1.334216743707656860e-01 -1.406360268592834473e-01 1.826780736446380615e-01 -2.292813211679458618e-01 -5.244582146406173706e-02 1.338096112012863159e-01 -2.815771996974945068e-01 -6.263547390699386597e-02 6.260323524475097656e-02 1.672160476446151733e-01 1.963225305080413818e-01 -1.122606918215751648e-01
5.854065343737602234e-02 -2.207684144377708435e-02 -1.362644433975219727e-01 -1.614219397306442261e-01 7.592739164829254150e-02 -1.710569299757480621e-02 2.754721343517303467e-01 -1.530789583921432495e-01 1.340504139661788940e-01 1.333056390285491943e-01 -6.122448295354843140e-02 7.922068983316421509e-02 1.120642423629760742e-01 -3.879547864198684692e-02 9.365275502204895020e-02 -1.020497456192970276e-01 -1.089530661702156067e-01 -2.870128452777862549e-01 1.967699825763702393e-01 -5.457823723554611206e-02 -4.600332584232091904e-03 -1.347952429205179214e-02 2.490835487842559814e-01 -5.457634571939706802e-03 -1.321929991245269775e-01 3.663698211312294006e-02 1.151793971657752991e-01 7.892429828643798828e-02 -2.967189848423004150e-01 -2.813030183315277100e-01 -2.250811830163002014e-02 -2.047635018825531006e-01 -1.473634988069534302e-01 1.028544083237648010e-01 2.159541249275207520e-01 1.274513453245162964e-02 2.621868550777435303e-01 -2.211376577615737915e-01 -6.453166157007217407e-02 2.120936661958694458e-01 8.333142101764678955e-02 -1.089294478297233582e-01 4.719460010528564453e-02 1.836074516177177429e-02 -2.272013574838638306e-01 -9.393730014562606812e-02 2.259732782840728760e-01 4.284607991576194763e-02 -5.558705702424049377e-02 -2.179826945066452026e-01
-3.344788253307342529e-01 -8.023401349782943726e-02 1.929068267345428467e-01 8.366601169109344482e-02 1.497546732425689697e-01 8.055704087018966675e-02 -5.015078559517860413e-02 2.076297253370285034e-01 1.702437698841094971e-01 -1.741724014282226562e-01 -5.625934153795242310e-02 -1.185703128576278687e-01 2.246214449405670166e-01 2.019907087087631226e-01 -4.557863809168338776e-03 1.865292787551879883e-01 -6.545631587505340576e-02 -1.554457396268844604e-01 -2.231878936290740967e-01 2.840542197227478027e-01 -1.867558807134628296e-01 2.455865293741226196e-01 1.425344794988632202e-01 2.475332319736480713e-01 -9.408457577228546143e-02 -2.513900101184844971e-01 -1.225578412413597107e-01 -2.660390436649322510e-01 1.853881031274795532e-01 7.004231959581375122e-02 -3.932559490203857422e-02 -2.464660108089447021e-01 1.026194989681243896e-01 2.311593592166900635e-01 -2.142366394400596619e-02 1.855915933847427368e-01 -2.698777616024017334e-01 1.095161736011505127e-01 -2.611059844493865967e-01 2.290889471769332886e-01 -2.246210277080535889e-01 -1.812844164669513702e-02 7.469260692596435547e-02 2.400933802127838135e-01 -4.267513751983642578e-02 1.537091583013534546e-01 -2.401562780141830444e-01 -8.536580204963684082e-02 -1.575890630483627319e-01 -2.059362828731536865e-01
8.557975292205810547e-02 -2.142617255449295044e-01 -1.776607036590576172e-01 2.080512791872024536e-01 -1.049092318862676620e-02 -2.347739934921264648e-01 1.159242913126945496e-01 1.399822235107421875e-01 -1.868224591016769409e-01 -1.964555978775024414e-01 1.804947406053543091e-01 1.046672537922859192e-01 -1.570245325565338135e-01 9.717319160699844360e-02 -1.197587400674819946e-01 4.828562960028648376e-02 -1.047606915235519409e-01 7.226632535457611084e-02 -2.341130673885345459e-01 1.934310793876647949e-01 -1.700903028249740601e-01 2.050468772649765015e-01 -1.404642164707183838e-01 1.204497646540403366e-02 -6.381472945213317871e-02 7.831089943647384644e-02 1.294966489076614380e-01 -2.163617014884948730e-01 3.674886748194694519e-02 -1.707777380943298340e-01 8.823689073324203491e-02 1.498549282550811768e-01 1.280375719070434570e-01 1.571298241615295410e-01 1.198814213275909424e-01 1.057014912366867065e-01 5.744692683219909668e-02 -5.172752216458320618e-02 -1.396202594041824341e-01 4.125185310840606689e-02 9.242273122072219849e-02 -2.495229244232177734e-01 -8.158656954765319824e-02 -1.919405460357666016e-01 -6.706556677818298340e-02 -6.265182793140411377e-02 -7.866343110799789429e-02 2.198704779148101807e-01 1.968230456113815308e-01 6.352093070745468140e-02
8.203317224979400635e-02 -2.550192363560199738e-02 2.632263004779815674e-01 -3.389905393123626709e-02 2.953450083732604980e-01 2.039095014333724976e-01 1.281951069831848145e-01 -2.903901040554046631e-01 1.923809945583343506e-01 -1.751637756824493408e-01 -6.654831022024154663e-02 -9.946992248296737671e-02 -2.133460342884063721e-01 -1.361764967441558838e-01 1.634792238473892212e-01 2.162357792258262634e-02 2.328571081161499023e-01 -9.574368596076965332e-03 -8.122678846120834351e-02 -8.196695148944854736e-02 -7.026959955692291260e-02 1.307656764984130859e-01 -2.276033908128738403e-01 1.705699563026428223e-01 -5.245475843548774719e-02 -1.730668097734451294e-01 1.061964258551597595e-01 1.413230299949645996e-01 -8.300687372684478760e-02 2.162735722959041595e-02 2.680508792400360107e-02 -8.058909326791763306e-02 1.642594039440155029e-01 1.435170620679855347e-01 2.567483298480510712e-02 -2.106050848960876465e-01 -7.736212760210037231e-02 3.056604266166687012e-01 7.310572266578674316e-02 -2.222651690244674683e-01 1.820779442787170410e-01 -2.129646949470043182e-02 -8.365773409605026245e-02 -1.539845466613769531e-01 -8.393391221761703491e-02 1.279861927032470703e-01 3.188314288854598999e-02 -1.788454949855804443e-01 -1.357178539037704468e-01 -2.053144425153732300e-01
3.693555295467376709e-01 -1.503812074661254883e-01 9.744782000780105591e-02 -2.314652651548385620e-01 -1.745120137929916382e-01 2.916915416717529297e-01 -1.158318668603897095e-01 -1.114402338862419128e-01 -2.581731975078582764e-01 -8.007338643074035645e-02 -3.268304467201232910e-02 -5.460380390286445618e-02 -2.786680497229099274e-02 3.155839443206787109e-01 9.296025335788726807e-02 -2.343569099903106689e-01 1.242848411202430725e-01 -3.016710579395294189e-01 -5.004063248634338379e-02 -5.679774284362792969e-02 -1.385900825262069702e-01 -2.184278070926666260e-01 1.894328594207763672e-01 -9.275116026401519775e-02 -4.712551832199096680e-02 -1.479915827512741089e-01 -1.289579868316650391e-01 2.462834119796752930e-01 -3.673320412635803223e-01 1.707117259502410889e-01 1.908130384981632233e-02 2.639847397804260254e-01 -2.774308323860168457e-01 -8.825476467609405518e-02 2.123162001371383667e-01 1.517156511545181274e-01 6.765161454677581787e-02 -1.783970892429351807e-01 1.090124323964118958e-01 1.017366722226142883e-01 -6.527591496706008911e-02 -1.569571346044540405e-02 -2.194606959819793701e-01 2.374547719955444336e-01 1.473112106323242188e-01 -6.367367506027221680e-02 1.877604424953460693e-01 -1.475863158702850342e-01 2.018035054206848145e-01 1.646249145269393921e-01
2.185634151101112366e-02 2.690198123455047607e-01 3.497940488159656525e-03 -2.393830716609954834e-01 4.882813990116119385e-02 -2.125388979911804199e-01 -1.224739700555801392e-01 -1.600054651498794556e-01 4.675991088151931763e-02 7.099136710166931152e-02 4.358682781457901001e-02 1.398017816245555878e-02 2.211340069770812988e-01 1.317421048879623413e-01 -1.007034257054328918e-01 5.365747585892677307e-02 -1.765169650316238403e-01 -2.063818424940109253e-01 -2.390758991241455078e-01 1.898574233055114746e-01 1.803540438413619995e-01 2.653156779706478119e-02 4.064518027007579803e-03 -5.211530369706451893e-04 -2.225381582975387573e-01 1.748624742031097412e-01 -2.480570785701274872e-02 7.573590613901615143e-03 -2.702805399894714355e-01 2.072818577289581299e-01 -7.170268148183822632e-02 2.416612356901168823e-01 8.978018164634704590e-02 -2.546990215778350830e-01 1.293117403984069824e-01 1.457311213016510010e-01 -1.041136384010314941e-01 1.399246901273727417e-01 -1.696066409349441528e-01 1.081241890788078308e-01 -1.484870016574859619e-01 -1.680876761674880981e-01 4.109649360179901123e-02 8.423046022653579712e-02 -2.044946700334548950e-01 5.929925292730331421e-02 -5.287491530179977417e-02 2.326863110065460205e-01 4.012909904122352600e-02 1.337202936410903931e-01
-2.389550507068634033e-01 -2.469314932823181152e-01 1.975041627883911133e-01 -1.344269067049026489e-01 -2.245489507913589478e-01 -2.343696802854537964e-01 -1.456959098577499390e-01 1.275196522474288940e-01 -8.319196850061416626e-02 -2.784977853298187256e-01 2.442867495119571686e-02 -4.139681160449981689e-02 -6.111381947994232178e-02 9.908275306224822998e-02 1.437843292951583862e-01 7.281892001628875732e-02 -7.611524313688278198e-02 -1.727608442306518555e-01 1.080285087227821350e-01 3.442991897463798523e-02 3.597611933946609497e-02 2.956263422966003418e-01 1.948476210236549377e-02 2.871481478214263916e-01 -2.631843276321887970e-02 8.313525468111038208e-02 -2.693571336567401886e-02 1.214671060442924500e-01 -4.025457054376602173e-02 -1.289121359586715698e-01 -9.364640712738037109e-02 2.973767369985580444e-02 -1.737901121377944946e-01 -5.270684510469436646e-02 3.168343007564544678e-01 -6.975378096103668213e-02 7.967176288366317749e-02 -1.915847212076187134e-01 5.758945271372795105e-02 6.730834394693374634e-02 3.395409882068634033e-01 -1.104737073183059692e-01 -1.738426387310028076e-01 -1.496968418359756470e-01 2.484550625085830688e-01 2.341606467962265015e-02 1.609105616807937622e-01 -1.533161401748657227e-01 1.963695883750915527e-01 1.120278462767601013e-01
-6.655861437320709229e-02 -3.211053013801574707e-01 9.612692147493362427e-02 2.665436081588268280e-02 1.575968861579895020e-01 -3.044677078723907471e-01 2.386266738176345825e-01 2.025889754295349121e-01 4.064802825450897217e-02 -1.299232244491577148e-02 -2.949790656566619873e-01 -1.994297504425048828e-01 2.045326083898544312e-01 -1.870329529047012329e-01 -5.173049494624137878e-02 1.851857006549835205e-01 2.781292200088500977e-01 -5.193554610013961792e-02 6.283609569072723389e-02 4.607640951871871948e-02 -5.625101272016763687e-03 2.207335978746414185e-01 2.051670700311660767e-01 -1.658444702625274658e-01 -2.168743908405303955e-01 -1.088456530123949051e-02 -3.015861287713050842e-02 -2.424921244382858276e-01 4.211807623505592346e-02 1.627050340175628662e-01 1.859472543001174927e-01 -2.164279520511627197e-01 7.149154692888259888e-02 -2.101253420114517212e-01 1.910610049962997437e-01 -2.883139811456203461e-02 6.359944818541407585e-04 5.348335951566696167e-02 -3.135149776935577393e-01 -1.361299306154251099e-01 -1.842893511056900024e-01 2.525517940521240234e-01 -3.840093016624450684e-01 3.710456937551498413e-02 2.653469704091548920e-02 -2.639996707439422607e-01 -4.503011330962181091e-02 5.935712531208992004e-02 2.487255930900573730e-01 1.410246267914772034e-02
-3.185771703720092773e-01 3.970906138420104980e-02 3.802349790930747986e-02 1.262739002704620361e-01 -4.386157989501953125e-01 -7.526043802499771118e-02 1.020857095718383789e-01 -4.538955539464950562e-02 3.808676078915596008e-02 1.125111952424049377e-01 2.106207460165023804e-01 -4.514943435788154602e-02 -9.275786578655242920e-02 2.586293816566467285e-01 -7.853998243808746338e-02 -4.185624793171882629e-02 -2.415909320116043091e-01 2.975752949714660645e-01 1.560411453247070312e-01 -1.164376586675643921e-01 -1.998546570539474487e-01 3.297904133796691895e-01 1.596451550722122192e-01 8.623810112476348877e-02 1.400908529758453369e-01 -1.308404654264450073e-01 -1.906663626432418823e-01 -2.815679013729095459e-01 -1.143134105950593948e-02 -1.439392566680908203e-01 1.026729047298431396e-01 -1.073850914835929871e-01 -1.877488642930984497e-01 -4.637624323368072510e-02 3.707779571413993835e-02 1.317904889583587646e-02 -2.190148644149303436e-02 -8.521222323179244995e-02 -1.745744049549102783e-01 4.807056486606597900e-02 -1.827844679355621338e-01 -2.257029414176940918e-01 1.516644209623336792e-01 -2.572207450866699219e-01 -2.830086052417755127e-01 1.644693017005920410e-01 -1.427164226770401001e-01 2.586654424667358398e-01 2.143983989953994751e-01 7.964468002319335938e-02
9.391003102064132690e-02 1.167885363101959229e-01 -6.549606472253799438e-02 2.558469474315643311e-01 -2.354662269353866577e-01 -6.649415194988250732e-02 1.938157901167869568e-02 2.935979329049587250e-02 1.547388583421707153e-01 4.331392422318458557e-02 8.285440504550933838e-02 -3.914876654744148254e-02 -4.847611114382743835e-02 2.402289807796478271e-01 2.363007962703704834e-01 1.833745688199996948e-01 6.268188357353210449e-02 -2.100365608930587769e-01 2.346626967191696167e-01 -2.307321131229400635e-01 7.707820832729339600e-02 -1.004045307636260986e-01 -1.601767688989639282e-01 1.442296057939529419e-01 8.578804135322570801e-02 1.848461478948593140e-02 1.010255739092826843e-01 -4.485054686665534973e-02 2.071842178702354431e-02 8.993646502494812012e-02 -3.070128336548805237e-02 1.591220945119857788e-01 -1.210242435336112976e-01 -4.885309562087059021e-02 1.455153822898864746e-01 -1.056301966309547424e-02 3.774628415703773499e-02 -2.641084194183349609e-01 -7.461805827915668488e-03 4.368323087692260742e-02 2.858552932739257812e-01 5.125405639410018921e-02 1.329157352447509766e-01 3.812859579920768738e-02 -5.152550991624593735e-03 -1.204314902424812317e-01 9.921260923147201538e-02 9.777726978063583374e-02 -2.303993999958038330e-01 2.109470963478088379e-01
6.106798723340034485e-02 4.188640415668487549e-02 1.002212911844253540e-01 -7.614662498235702515e-02 -3.433243930339813232e-01 1.311532855033874512e-01 -5.455527827143669128e-02 1.616345494985580444e-01 -3.380572423338890076e-02 -1.201588213443756104e-01 2.110493332147598267e-01 -1.494317054748535156e-01 1.575128436088562012e-01 2.076071351766586304e-01 -1.456714868545532227e-01 2.387016862630844116e-01 1.110283285379409790e-01 -8.508267253637313843e-02 -9.950411319732666016e-02 -1.490746438503265381e-02 1.779982745647430420e-01 1.420973101630806923e-03 -1.612664572894573212e-02 1.985332816839218140e-01 -1.400236189365386963e-01 1.475035846233367920e-01 -8.688523620367050171e-02 3.608172293752431870e-03 9.994143247604370117e-02 -1.346028596162796021e-01 3.768356516957283020e-02 1.327308416366577148e-01 -2.591201364994049072e-01 1.391125619411468506e-01 9.518576785922050476e-03 -2.707054913043975830e-01 1.221630871295928955e-01 -3.690335154533386230e-02 1.625583618879318237e-01 4.973090812563896179e-02 4.267600178718566895e-02 -1.455008685588836670e-01 -2.064091861248016357e-01 -2.154169827699661255e-01 -1.212937757372856140e-01 -1.870324909687042236e-01 7.494027167558670044e-02 -1.702291816473007202e-01 3.642600402235984802e-02 -1.714240908622741699e-01
1.932824701070785522e-01 -7.778883725404739380e-02 -1.269529759883880615e-01 -6.292425841093063354e-02 1.762693822383880615e-01 -5.406972765922546387e-02 -3.052268028259277344e-01 -2.027280777692794800e-01 -1.269481331110000610e-01 1.438248455524444580e-01 1.665163785219192505e-01 -2.321237474679946899e-01 -2.176759392023086548e-01 1.435346156358718872e-01 -5.067625548690557480e-03 2.207537293434143066e-01 6.367661803960800171e-02 -4.428783804178237915e-02 1.133593916893005371e-01 -1.279924903064966202e-02 1.352044045925140381e-01 -3.016093559563159943e-02 -2.468149065971374512e-01 -1.708290129899978638e-01 1.631419062614440918e-01 -2.395609021186828613e-01 7.223462313413619995e-02 4.168316721916198730e-02 1.000657156109809875e-01 2.897732704877853394e-02 2.355123460292816162e-01 2.916648983955383301e-01 -1.710947304964065552e-01 -1.490856856107711792e-01 -1.810767501592636108e-01 1.309224218130111694e-01 -1.258247494697570801e-01 -1.951258182525634766e-01 1.500334292650222778e-01 2.052049934864044189e-01 -2.285453826189041138e-01 -8.234212547540664673e-02 -1.549075841903686523e-01 -4.018573090434074402e-02 -1.566772162914276123e-01 -1.021386235952377319e-01 5.368610844016075134e-02 -1.439859569072723389e-01 -2.190594375133514404e-01 -2.125948667526245117e-02
-1.426900774240493774e-01 -2.383539527654647827e-01 -3.419036567211151123e-01 1.105604041367769241e-02 -3.151320517063140869e-01 8.976580202579498291e-02 -2.020133733749389648e-01 4.654601588845252991e-02 9.161937981843948364e-02 -7.181823253631591797e-02 2.270039916038513184e-01 -8.291334658861160278e-02 8.332619816064834595e-02 -2.532108724117279053e-01 -1.574017405509948730e-01 1.370342224836349487e-01 1.914389431476593018e-01 -1.884239614009857178e-01 2.388421446084976196e-02 3.201698139309883118e-02 2.177225351333618164e-01 -1.857976168394088745e-01 -9.774057567119598389e-02 -1.112558022141456604e-01 -1.003460660576820374e-01 1.583565324544906616e-01 -2.584714293479919434e-01 1.789289563894271851e-01 2.082278281450271606e-01 -3.034266270697116852e-02 -5.448580533266067505e-02 -2.346903979778289795e-01 1.101019307971000671e-01 1.813481003046035767e-01 -1.776736378669738770e-01 1.798198074102401733e-01 1.953928470611572266e-01 -7.333180308341979980e-02 -1.144527830183506012e-02 7.741185277700424194e-02 -2.790821492671966553e-01 -2.280041128396987915e-01 -2.077106684446334839e-01 2.269566655158996582e-01 -2.095902115106582642e-01 2.437618970870971680e-01 -1.723521053791046143e-01 1.642931699752807617e-01 2.022413164377212524e-01 -1.435249447822570801e-01
-1.693574637174606323e-01 8.222053200006484985e-02 5.590112507343292236e-02 -1.900015473365783691e-01 -1.888220906257629395e-01 5.610482301563024521e-03 2.262078523635864258e-01 7.739102095365524292e-02 1.758736819028854370e-01 2.241367399692535400e-01 8.695633150637149811e-03 1.500748991966247559e-01 2.852005325257778168e-02 -2.659995555877685547e-01 -1.272760331630706787e-01 -2.298830896615982056e-01 3.123930096626281738e-01 -3.127239942550659180e-01 -2.344651333987712860e-02 -5.261994153261184692e-02 -1.391310244798660278e-02 -2.238882333040237427e-02 -1.227593645453453064e-01 2.182860523462295532e-01 2.555661499500274658e-01 1.834716796875000000e-01 6.208815798163414001e-02 1.750323548913002014e-02 -3.649675548076629639e-01 1.074758917093276978e-01 1.112961694598197937e-01 -1.286600530147552490e-01 1.231946200132369995e-01 -2.656343393027782440e-02 -3.897344227880239487e-03 1.628565043210983276e-01 8.602905273437500000e-02 2.738482058048248291e-01 -2.265621572732925415e-01 -8.447464555501937866e-02 -1.890861392021179199e-01 1.620808392763137817e-01 -4.566751047968864441e-02 2.488734317012131214e-04 -3.860718011856079102e-02 1.740052402019500732e-01 1.493309587240219116e-01 2.260551154613494873e-01 -2.788783311843872070e-01 -6.699001789093017578e-02
2.133003026247024536e-01 2.058678865432739258e-01 -1.768731474876403809e-01 -1.032083109021186829e-01 1.127922087907791138e-01 2.135017216205596924e-01 1.166767179965972900e-01 -8.034227788448333740e-02 1.240186840295791626e-01 1.689663715660572052e-02 2.831470072269439697e-01 1.381845921277999878e-01 2.189570367336273193e-01 -1.708566993474960327e-01 9.396369010210037231e-02 -1.909872144460678101e-01 6.932027637958526611e-02 1.106384322047233582e-01 1.403313577175140381e-01 -4.522882401943206787e-02 -6.827260553836822510e-02 2.138007879257202148e-01 -2.591181695461273193e-01 1.910073161125183105e-01 -1.698517426848411560e-02 7.238171249628067017e-02 -2.516469061374664307e-01 1.645056158304214478e-01 1.027077808976173401e-01 1.338943541049957275e-01 1.031659916043281555e-01 2.367516607046127319e-01 -1.596006602048873901e-01 -1.895583234727382660e-02 6.728241592645645142e-02 -2.171962559223175049e-01 2.566528022289276123e-01 -1.722232997417449951e-01 -3.279559314250946045e-02 -1.192031577229499817e-01 9.693645685911178589e-02 -1.437102109193801880e-01 1.678794324398040771e-01 9.641695767641067505e-02 1.063501238822937012e-01 2.573145031929016113e-01 2.007546722888946533e-01 -9.854934364557266235e-02 1.395670175552368164e-01 -3.040003404021263123e-02
-2.421533912420272827e-01 -8.185568451881408691e-02 3.136010169982910156e-01 4.451492801308631897e-02 -7.461736351251602173e-02 -1.108701825141906738e-01 7.506196945905685425e-02 1.305214762687683105e-01 9.176715463399887085e-02 2.640044689178466797e-01 -1.683225035667419434e-01 -7.383029907941818237e-02 2.015216052532196045e-01 -6.098473072052001953e-02 -2.556327730417251587e-02 1.792005747556686401e-01 -2.690334618091583252e-02 6.728745251893997192e-02 1.043304204940795898e-01 -7.059457898139953613e-02 -1.537859439849853516e-02 2.295350581407546997e-01 -9.000360034406185150e-03 2.624906599521636963e-01 1.438895761966705322e-01 1.592281460762023926e-01 -2.247588187456130981e-01 4.597734287381172180e-02 -8.919562399387359619e-02 1.863443851470947266e-01 1.851841062307357788e-01 -7.348708808422088623e-02 2.396489381790161133e-01 6.037888303399085999e-02 -2.834725975990295410e-01 4.852755740284919739e-02 -1.796089410781860352e-01 -1.407414525747299194e-01 -9.019920974969863892e-02 6.653874367475509644e-02 1.774292998015880585e-02 -2.078510634601116180e-02 2.419401109218597412e-01 -1.879125088453292847e-01 5.523555725812911987e-02 1.974487602710723877e-01 7.229042798280715942e-02 3.220597864128649235e-04 -3.060146570205688477e-01 7.662200927734375000e-02
1.927857287228107452e-02 -6.801883131265640259e-02 6.736573576927185059e-02 1.631840318441390991e-01 -2.102090418338775635e-01 -1.732532382011413574e-01 5.928940372541546822e-04 -2.869934439659118652e-01 1.588881760835647583e-01 -1.908162683248519897e-01 -3.241076692938804626e-02 -1.952935159206390381e-01 1.111399605870246887e-01 2.838620543479919434e-02 9.025509655475616455e-02 -1.075323149561882019e-01 -8.789096772670745850e-02 5.159540176391601562e-01 2.525483071804046631e-01 -1.003242507576942444e-01 7.464414089918136597e-02 2.601637840270996094e-01 1.211312636733055115e-01 -1.844412237405776978e-01 7.947766035795211792e-02 1.998496204614639282e-01 9.839482605457305908e-02 9.276986122131347656e-02 2.500986158847808838e-01 1.904401034116744995e-01 9.742423892021179199e-02 -5.034555867314338684e-02 1.847891062498092651e-01 -9.182089567184448242e-02 1.468650996685028076e-01 -1.539513319730758667e-01 -6.524453312158584595e-02 -2.385918200016021729e-01 1.995517313480377197e-01 5.202538892626762390e-02 2.237742990255355835e-01 -1.164036095142364502e-01 3.028762936592102051e-01 3.837385028600692749e-02 -1.331442594528198242e-01 1.640363335609436035e-01 -2.172223478555679321e-01 -1.524243950843811035e-01 2.638895213603973389e-01 6.450253725051879883e-02
-2.091147899627685547e-01 -7.127200812101364136e-02 4.353092517703771591e-03 -6.754385679960250854e-02 3.084541261196136475e-01 2.767681144177913666e-02 3.712554574012756348e-01 2.429852336645126343e-01 3.888147324323654175e-02 1.600120514631271362e-01 -2.536947727203369141e-01 -1.189666464924812317e-01 1.413680016994476318e-01 2.276165038347244263e-01 3.230699896812438965e-01 1.934643834829330444e-01 -1.131270974874496460e-01 -1.582830846309661865e-01 7.296165823936462402e-02 -1.652372032403945923e-01 1.233745068311691284e-01 -5.281324312090873718e-02 -2.268446832895278931e-01 1.662934012711048126e-02 2.243633568286895752e-01 -1.346954703330993652e-01 1.498873233795166016e-01 1.460617873817682266e-02 5.135666579008102417e-02 1.595361381769180298e-01 1.843936592340469360e-01 -2.278089523315429688e-03 2.579725086688995361e-01 6.334719946607947350e-04 1.247394531965255737e-01 1.755804121494293213e-01 -1.510557234287261963e-01 2.612526416778564453e-01 -9.672699123620986938e-02 2.589823864400386810e-02 2.559640705585479736e-01 -1.176673248410224915e-01 2.906740307807922363e-01 3.417189419269561768e-02 -8.818252384662628174e-02 -1.817976534366607666e-01 1.974878832697868347e-02 -2.030371427536010742e-01 -2.064800262451171875e-01 1.663972288370132446e-01
-1.981393843889236450e-01 -2.524775452911853790e-02 1.193279251456260681e-01 3.087208867073059082e-01 1.490294337272644043e-01 -2.614111006259918213e-01 -1.749183684587478638e-01 -3.104590475559234619e-01 -4.645189270377159119e-02 -1.900456994771957397e-01 -1.880463510751724243e-01 -2.039209306240081787e-01 -1.895106881856918335e-01 3.494404628872871399e-02 2.383202165365219116e-01 9.621280431747436523e-02 -3.079933524131774902e-01 2.190258540213108063e-02 1.896933466196060181e-01 3.249891400337219238e-01 -1.710133552551269531e-01 9.371725469827651978e-02 -5.753254517912864685e-02 -7.504147291183471680e-02 2.344664633274078369e-01 6.348352879285812378e-02 2.140387296676635742e-01 -7.745396345853805542e-02 -2.593817114830017090e-01 -2.024584114551544189e-01 6.050092726945877075e-02 9.610572457313537598e-02 -8.376125246286392212e-02 2.494318038225173950e-01 -2.611494958400726318e-01 -5.187562853097915649e-02 -2.383736521005630493e-01 1.798577010631561279e-01 5.381825938820838928e-02 1.433985382318496704e-01 3.039528429508209229e-01 -2.400057166814804077e-01 6.439262628555297852e-02 -1.450358033180236816e-01 -2.774127423763275146e-01 -2.141284942626953125e-01 -1.607854068279266357e-01 1.315251644700765610e-02 1.669815741479396820e-02 -1.488771736621856689e-01
3.194877877831459045e-02 -1.359626650810241699e-01 -1.971107572317123413e-01 1.626886427402496338e-01 -2.021268904209136963e-01 1.517343968152999878e-01 -2.204533666372299194e-01 7.777044177055358887e-02 1.310706734657287598e-01 -1.051781475543975830e-01 -2.810818850994110107e-01 -9.120880626142024994e-03 3.015276975929737091e-02 -1.125552505254745483e-01 -1.906126439571380615e-01 1.343261599540710449e-01 -3.157595917582511902e-02 -1.070719510316848755e-01 -2.259970605373382568e-01 2.577953636646270752e-01 2.275586426258087158e-01 -2.646351158618927002e-01 -2.220680266618728638e-01 -2.709513604640960693e-01 2.921596169471740723e-02 -1.969350427389144897e-01 -2.321816980838775635e-01 8.255144208669662476e-02 5.044515710324048996e-03 -1.233175471425056458e-01 -2.360299676656723022e-01 -2.547667026519775391e-01 -1.889937072992324829e-01 -1.274997591972351074e-01 -1.134209111332893372e-01 -8.016543090343475342e-02 -6.411263346672058105e-02 -2.279847711324691772e-01 1.889194548130035400e-01 -5.671761929988861084e-02 -1.990622580051422119e-01 2.219416350126266479e-01 2.112590968608856201e-01 6.146816536784172058e-02 2.361743599176406860e-01 -1.548370867967605591e-01 -4.469245672225952148e-03 -6.222844868898391724e-02 6.092051789164543152e-02 -2.525166869163513184e-01
-5.628285557031631470e-02 -1.949744485318660736e-02 -3.246202170848846436e-01 2.199422568082809448e-01 -2.798058837652206421e-02 1.022455543279647827e-01 1.359762507490813732e-03 2.564850151538848877e-01 1.925757229328155518e-01 1.012129485607147217e-01 1.563832312822341919e-01 1.508266180753707886e-01 -2.341236025094985962e-01 -2.444171905517578125e-02 -1.835127919912338257e-01 -8.594918251037597656e-02 2.129388898611068726e-01 -1.092132031917572021e-01 -4.240247979760169983e-02 -1.364134699106216431e-01 2.210063487291336060e-01 -1.720392405986785889e-01 -4.925188049674034119e-02 -1.795972287654876709e-01 -2.638755440711975098e-01 -1.651839315891265869e-01 -9.696932882070541382e-02 2.026026993989944458e-01 -2.229662984609603882e-02 -1.021029725670814514e-01 -2.489865720272064209e-01 1.422310154885053635e-02 -4.011589661240577698e-02 7.922957837581634521e-02 1.440231949090957642e-01 -6.041199713945388794e-02 9.300182759761810303e-02 -2.276553809642791748e-01 1.729933321475982666e-01 -2.268181182444095612e-02 1.401902735233306885e-01 4.769999906420707703e-02 1.548413783311843872e-01 6.577315926551818848e-02 -1.108463779091835022e-01 -6.338997185230255127e-02 -1.612981259822845459e-01 7.590132206678390503e-02 1.261680275201797485e-01 -1.069351732730865479e-01
2.563312649726867676e-01 5.092677474021911621e-02 -1.247276440262794495e-01 -1.419510096311569214e-01 -3.340083062648773193e-01 1.744542121887207031e-01 2.255047708749771118e-01 -1.440323740243911743e-01 1.072373241186141968e-01 -2.170875966548919678e-01 1.651929616928100586e-01 -1.413352936506271362e-01 -5.916642397642135620e-02 1.965213865041732788e-01 1.387015134096145630e-01 1.722198575735092163e-01 -1.706711947917938232e-01 -3.613143861293792725e-01 1.058379486203193665e-01 1.054788157343864441e-01 2.247557193040847778e-01 1.130109727382659912e-01 1.389173269271850586e-01 2.589333653450012207e-01 3.107526339590549469e-02 -2.580422759056091309e-01 1.523994058370590210e-01 -7.412458211183547974e-02 -3.111019730567932129e-01 9.618269652128219604e-02 2.415047883987426758e-01 1.487883478403091431e-01 3.656417876482009888e-02 1.043559908866882324e-01 -7.063934206962585449e-02 -2.593400478363037109e-01 -1.915955543518066406e-01 -1.698489487171173096e-02 7.831989228725433350e-02 1.620800495147705078e-01 -2.655712068080902100e-01 -2.554219774901866913e-02 -8.480745553970336914e-02 -2.148549407720565796e-01 1.821598410606384277e-01 -3.161596134305000305e-02 -1.578440219163894653e-01 -1.451681256294250488e-01 2.674242854118347168e-01 -1.102060005068778992e-01
2.605200707912445068e-01 -8.849624544382095337e-02 -1.027458906173706055e-01 2.566691339015960693e-01 -1.152789220213890076e-01 1.276275888085365295e-02 6.254106760025024414e-02 1.554584056138992310e-01 -1.194270104169845581e-01 5.683464184403419495e-02 -1.468112915754318237e-01 2.437777966260910034e-01 3.014689087867736816e-01 -1.458533406257629395e-01 1.284793168306350708e-01 2.890790104866027832e-01 1.882748007774353027e-01 1.174150705337524414e-01 2.298425734043121338e-01 1.717816293239593506e-01 2.036705166101455688e-01 -1.181044150143861771e-03 -2.982129752635955811e-01 1.003675460815429688e-01 8.908697217702865601e-02 -1.647002398967742920e-01 2.153041064739227295e-01 1.190870329737663269e-01 -1.538366824388504028e-01 -9.372242540121078491e-02 2.370109558105468750e-01 -2.385529316961765289e-02 2.623339183628559113e-02 3.454143926501274109e-02 -1.535108536481857300e-01 3.084042295813560486e-02 1.153052225708961487e-01 -1.653702259063720703e-01 -2.089177370071411133e-01 9.006682038307189941e-02 9.152965247631072998e-02 2.772131860256195068e-01 1.873797737061977386e-02 -2.005449086427688599e-01 1.857724934816360474e-01 -3.249106705188751221e-01 -4.738922044634819031e-02 -1.267115473747253418e-01 -1.392226368188858032e-01 1.771199703216552734e-01
-3.016518354415893555e-01 -2.581376433372497559e-01 -1.880178153514862061e-01 1.630664914846420288e-01 1.878888607025146484e-01 2.576502263545989990e-01 -3.768649697303771973e-01 -1.980146858841180801e-03 1.599925309419631958e-01 -8.269604295492172241e-02 1.433805674314498901e-01 -1.785781681537628174e-01 -1.613618284463882446e-01 1.299451589584350586e-01 1.750288158655166626e-01 -1.079539656639099121e-01 -2.516596913337707520e-01 3.838317096233367920e-01 -5.510873347520828247e-02 4.108900949358940125e-02 -5.804857239127159119e-02 -1.850663870573043823e-01 -1.157203018665313721e-01 -1.253728419542312622e-01 -1.897245198488235474e-01 2.705822885036468506e-01 8.661659806966781616e-02 -2.026281692087650299e-02 1.357714980840682983e-01 -4.280038177967071533e-02 -2.323748171329498291e-01 3.361199051141738892e-03 -1.693450659513473511e-01 -1.701686382293701172e-01 -5.174196138978004456e-02 -8.603765070438385010e-02 9.385728836059570312e-02 -2.612212300300598145e-01 -5.686020851135253906e-02 -3.059283196926116943e-01 1.554855704307556152e-01 1.904926151037216187e-01 8.010120689868927002e-02 -1.688195317983627319e-01 2.578024864196777344e-01 9.953223168849945068e-02 1.410807073116302490e-01 1.575440764427185059e-01 -2.139878571033477783e-01 -2.968259751796722412e-01
1.539718359708786011e-01 1.648010462522506714e-01 1.607186645269393921e-01 -2.501250207424163818e-01 -1.222499385476112366e-01 -7.157737761735916138e-02 -1.919389367103576660e-01 -5.338342394679784775e-03 -5.042963474988937378e-02 -2.862700074911117554e-02 1.647498756647109985e-01 8.895826339721679688e-02 5.976392887532711029e-03 -1.464536134153604507e-02 -2.948709763586521149e-02 -1.699112355709075928e-01 1.803133487701416016e-01 -2.650639414787292480e-01 -2.482208907604217529e-01 8.115472644567489624e-02 1.245469450950622559e-01 6.512484513223171234e-03 1.960063874721527100e-01 6.494655460119247437e-02 -6.193029228597879410e-03 2.975806035101413727e-02 -7.142314221709966660e-03 1.153633892536163330e-01 -2.555008232593536377e-01 -9.789989143610000610e-02 2.266691327095031738e-01 -3.835795447230339050e-02 -1.840093135833740234e-01 1.004653573036193848e-01 -1.379430294036865234e-01 -1.405517607927322388e-01 -6.099089980125427246e-02 -1.660701483488082886e-01 2.677931785583496094e-01 -4.656638950109481812e-02 2.174908220767974854e-01 -7.084672898054122925e-02 1.386198848485946655e-01 -5.281173437833786011e-02 1.054762899875640869e-01 -8.443328738212585449e-02 -1.117839291691780090e-01 1.920139342546463013e-01 1.304022073745727539e-01 1.641886383295059204e-01
-1.023770198225975037e-01 1.662610173225402832e-01 9.746000915765762329e-02 -7.528475672006607056e-02 2.964010462164878845e-02 1.388292908668518066e-01 3.027167022228240967e-01 -2.037964761257171631e-01 -4.733448103070259094e-02 8.118251711130142212e-02 3.071329295635223389e-01 -2.540438175201416016e-01 -1.585559695959091187e-01 -1.104635000228881836e-01 -1.129445433616638184e-01 -1.674931794404983521e-01 9.864121675491333008e-02 -2.756363749504089355e-01 2.340601831674575806e-01 -1.850146204233169556e-01 2.126681059598922729e-01 -1.054363325238227844e-01 -2.115359902381896973e-01 7.371510565280914307e-02 7.346639037132263184e-02 -1.696882843971252441e-01 1.662050783634185791e-01 1.365714222192764282e-01 -1.784416586160659790e-01 2.237751036882400513e-01 9.475243836641311646e-02 1.581584662199020386e-01 5.270787701010704041e-02 -1.226737126708030701e-01 1.822375059127807617e-01 -2.589762806892395020e-01 -9.248315356671810150e-03 1.429706513881683350e-01 1.668877601623535156e-01 1.741753071546554565e-01 -5.911158770322799683e-02 4.550824314355850220e-02 -1.374419927597045898e-01 2.192351222038269043e-01 -1.896916180849075317e-01 2.568364739418029785e-01 8.508092164993286133e-02 -1.627665907144546509e-01 1.894824206829071045e-01 2.126887142658233643e-01
1.006720289587974548e-01 1.391802430152893066e-01 1.713085323572158813e-01 7.548262923955917358e-02 -2.473534941673278809e-01 -2.146129608154296875e-01 -2.571031749248504639e-01 -2.654130198061466217e-02 1.111780572682619095e-02 -7.389109581708908081e-02 -9.816737147048115730e-04 -1.819614022970199585e-01 -1.365489512681961060e-01 -9.910064190626144409e-02 9.687947481870651245e-02 -1.462896615266799927e-01 5.221620202064514160e-02 -2.534825801849365234e-01 -8.875266462564468384e-02 -1.350037157535552979e-01 -5.373784899711608887e-02 -1.270900815725326538e-01 -2.490491420030593872e-01 8.300241827964782715e-02 6.657880544662475586e-02 -1.245665922760963440e-01 9.839120507240295410e-02 2.955622598528862000e-02 3.041828423738479614e-02 1.085103973746299744e-01 1.834962517023086548e-01 2.214170806109905243e-02 1.932574808597564697e-01 -1.139053255319595337e-01 -1.415672525763511658e-02 4.403084889054298401e-02 -1.590652912855148315e-01 2.444402314722537994e-02 1.294053345918655396e-01 -1.314426809549331665e-01 -1.223689839243888855e-01 -1.401308923959732056e-01 1.457072049379348755e-01 -2.016580998897552490e-01 -1.181534603238105774e-01 -1.407252103090286255e-01 -3.627836704254150391e-02 -2.381793856620788574e-01 8.759505301713943481e-02 2.274788767099380493e-01
2.494237869977951050e-01 1.459690034389495850e-01 -6.207013130187988281e-02 1.647009402513504028e-01 1.908779740333557129e-01 -8.241714909672737122e-03 -1.601379662752151489e-01 1.195361986756324768e-01 -1.023118793964385986e-01 3.707968071103096008e-02 -1.943519264459609985e-01 2.920495159924030304e-02 -3.645851612091064453e-01 -8.290364593267440796e-02 -2.407579720020294189e-01 -2.805689275264739990e-01 3.518610447645187378e-02 -5.267660133540630341e-03 -5.581466108560562134e-02 7.432541809976100922e-03 -1.980981677770614624e-01 1.998649239540100098e-01 -2.537697181105613708e-02 -1.053258627653121948e-01 1.979728192090988159e-01 1.841774582862854004e-01 -4.639171808958053589e-02 -6.367285549640655518e-02 -2.451448142528533936e-01 -1.277136057615280151e-01 2.642259001731872559e-01 2.240492999553680420e-01 1.506209522485733032e-01 2.095284163951873779e-01 -2.816327214241027832e-01 9.029076993465423584e-02 -1.121900230646133423e-01 7.511602342128753662e-02 1.285219639539718628e-01 1.928162574768066406e-01 1.567906886339187622e-01 3.072420060634613037e-01 -1.837977468967437744e-01 -1.496032904833555222e-02 2.645758390426635742e-01 8.907631784677505493e-02 6.753785908222198486e-02 -4.586083441972732544e-02 -1.889759153127670288e-01 -1.175759285688400269e-01
1.464027315378189087e-01 -1.230534166097640991e-01 9.622846543788909912e-02 1.849105656147003174e-01 -2.497260719537734985e-01 -1.286573410034179688e-01 1.414663642644882202e-01 1.348531246185302734e-01 5.698141455650329590e-02 -1.393429785966873169e-01 1.706613898277282715e-01 -4.729495942592620850e-02 -5.983541905879974365e-02 -1.546161472797393799e-01 -2.491232603788375854e-01 -9.252907335758209229e-02 1.573046594858169556e-01 -2.257411032915115356e-01 2.637614607810974121e-01 2.352915257215499878e-01 3.716733306646347046e-02 2.835337631404399872e-02 -1.730789691209793091e-01 2.712808847427368164e-01 -3.899625502526760101e-03 -2.210501581430435181e-01 2.098113857209682465e-02 1.778817772865295410e-01 -9.461881965398788452e-02 2.349531976506114006e-03 -1.090063899755477905e-01 -1.955274790525436401e-01 -2.049510627985000610e-01 3.714504092931747437e-02 1.928161084651947021e-01 -1.317405402660369873e-01 2.375263124704360962e-01 -9.902188181877136230e-02 1.641339063644409180e-01 2.029718756675720215e-01 1.154843121767044067e-01 1.415433138608932495e-01 -1.799192875623703003e-01 2.371498048305511475e-01 2.003077864646911621e-01 6.702909618616104126e-02 5.992801114916801453e-02 2.156749069690704346e-01 -1.712781637907028198e-01 2.528337538242340088e-01
1.985295861959457397e-01 -3.485769405961036682e-02 2.066399604082107544e-01 1.575239449739456177e-01 -3.539451360702514648e-01 -3.273264169692993164e-01 9.321130067110061646e-02 -1.807672530412673950e-01 1.973595004528760910e-03 4.020860791206359863e-02 -3.278512135148048401e-02 1.165241524577140808e-01 2.637745738029479980e-01 -1.606792360544204712e-01 2.252441346645355225e-01 -1.768231391906738281e-01 6.722398847341537476e-02 -1.695978790521621704e-01 -1.517039388418197632e-01 1.525008380413055420e-01 8.696377277374267578e-02 -2.137824892997741699e-02 1.088095158338546753e-01 1.025155410170555115e-01 2.011427432298660278e-01 2.434841990470886230e-01 1.820713877677917480e-01 1.885389536619186401e-01 2.338475286960601807e-01 2.527798712253570557e-02 -3.934877365827560425e-02 -6.014664098620414734e-02 2.186050117015838623e-01 1.138768624514341354e-03 8.939777314662933350e-02 -9.561690688133239746e-02 2.300744950771331787e-01 2.450584918260574341e-01 -1.423478275537490845e-01 2.295566797256469727e-01 1.795542389154434204e-01 5.136406794190406799e-02 -6.127592921257019043e-02 -1.155695542693138123e-01 1.692734658718109131e-01 7.806685566902160645e-02 -5.579203367233276367e-02 1.794428974390029907e-01 -1.272218078374862671e-01 7.459758967161178589e-02
