50
50
2.045053243637084961e-02 1.422768831253051758e-01 6.945255398750305176e-02 1.990917921066284180e-01 -2.345739454030990601e-01 -1.230929717421531677e-01 3.670693933963775635e-02 1.868627220392227173e-01 2.218772917985916138e-01 -1.099339574575424194e-01 1.322229485958814621e-02 1.145506501197814941e-01 -6.541102379560470581e-02 1.330115795135498047e-01 -2.440819740295410156e-01 1.135157234966754913e-02 -2.030882239341735840e-01 4.077824950218200684e-02 6.023279950022697449e-02 -2.237647324800491333e-01 -1.976872384548187256e-01 -2.148496061563491821e-01 -1.358740963041782379e-02 4.698527231812477112e-02 1.613656133413314819e-01 -1.421893686056137085e-01 1.320520490407943726e-01 -5.975049361586570740e-02 2.432637065649032593e-01 2.346166670322418213e-01 1.674613803625106812e-01 2.425087690353393555e-01 -3.260650113224983215e-02 -8.032869547605514526e-02 9.209436178207397461e-02 -1.315060723572969437e-02 5.019730329513549805e-02 -2.568922564387321472e-02 1.564263254404067993e-01 -8.116146922111511230e-02 1.795474141836166382e-01 6.515617668628692627e-02 -1.278752684593200684e-01 -2.110347151756286621e-01 9.297239780426025391e-02 -7.003510743379592896e-02 -1.186640039086341858e-01 -2.313306331634521484e-01 2.402634471654891968e-01 -2.240007370710372925e-01
-1.103100180625915527e-01 2.331930994987487793e-01 -1.399007886648178101e-01 -2.231156527996063232e-01 -3.935169801115989685e-02 -9.761510044336318970e-02 1.648840904235839844e-01 -6.943915784358978271e-02 1.352453082799911499e-01 -6.683677434921264648e-02 8.509111404418945312e-02 -5.849755182862281799e-02 1.324504762887954712e-01 -4.313356429338455200e-02 9.760145097970962524e-02 2.675374746322631836e-01 1.814711093902587891e-01 2.262637615203857422e-01 1.299168318510055542e-01 1.224931105971336365e-01 3.424202557653188705e-03 2.248152941465377808e-01 -6.176881492137908936e-02 -2.136579342186450958e-02 1.471970081329345703e-01 2.239072173833847046e-01 5.715831741690635681e-02 2.094335407018661499e-01 1.821574419736862183e-01 1.105703115463256836e-01 -1.563139557838439941e-01 2.146320641040802002e-01 -5.571041628718376160e-02 2.819298803806304932e-01 4.555846378207206726e-02 -1.751950979232788086e-01 -5.626187194138765335e-03 -2.076677531003952026e-01 -3.099746704101562500e-01 1.216897070407867432e-01 -2.743710577487945557e-02 2.145120352506637573e-01 -2.389314323663711548e-01 -5.917706526815891266e-03 -9.808700531721115112e-03 1.743829250335693359e-01 -4.149779975414276123e-01 1.602838747203350067e-02 2.357510477304458618e-02 1.891574561595916748e-01
-2.409970611333847046e-01 -2.144287340342998505e-02 -1.624895483255386353e-01 -1.444155424833297729e-01 -2.251365184783935547e-01 -2.795130014419555664e-02 -2.118854224681854248e-01 2.305581569671630859e-01 1.981849549338221550e-03 1.661632955074310303e-01 4.759288951754570007e-02 2.371532469987869263e-01 -2.299935072660446167e-01 -2.406641691923141479e-01 -3.025179728865623474e-02 -1.281913369894027710e-01 -1.100376620888710022e-01 -1.217795759439468384e-01 -2.357607930898666382e-01 1.602300256490707397e-01 -2.255688235163688660e-02 -1.713213026523590088e-01 -1.884565949440002441e-01 -1.724195331335067749e-01 -2.423925548791885376e-01 7.693829387426376343e-02 1.169633492827415466e-01 1.178227588534355164e-01 1.834305375814437866e-01 -1.623838394880294800e-01 -6.209183949977159500e-03 -1.221332512795925140e-02 2.862641029059886932e-02 3.946615383028984070e-02 -7.832343131303787231e-02 2.014673501253128052e-02 -8.726433664560317993e-02 1.177212074398994446e-01 1.180273219943046570e-01 2.166336029767990112e-01 2.367621958255767822e-01 1.546099595725536346e-02 -4.774890840053558350e-02 -1.456366181373596191e-01 -2.359318733215332031e-01 -3.141727764159440994e-03 -6.574269384145736694e-02 -1.489754319190979004e-01 6.728953868150711060e-02 -1.463020686060190201e-02
-9.300865232944488525e-02 -9.711903333663940430e-02 2.446142286062240601e-01 -4.198720306158065796e-02 -1.386875808238983154e-01 -8.401542901992797852e-02 3.060246258974075317e-02 -2.002907693386077881e-01 -5.726831778883934021e-02 -2.094165086746215820e-01 -2.005757838487625122e-01 -7.954870164394378662e-02 -2.172131985425949097e-01 1.549413800239562988e-01 -1.955428272485733032e-01 -1.800400018692016602e-01 -1.723803281784057617e-01 -2.046090513467788696e-01 5.637408420443534851e-02 4.965927824378013611e-02 1.105466783046722412e-01 2.044454067945480347e-01 1.193052977323532104e-01 5.562336370348930359e-02 -7.462280243635177612e-02 1.752684861421585083e-01 -6.203189492225646973e-02 -1.626944243907928467e-01 7.047631591558456421e-02 -2.665321901440620422e-02 1.237617433071136475e-01 1.231675744056701660e-01 -3.634478896856307983e-02 -2.018091380596160889e-01 5.407535284757614136e-02 -3.208829462528228760e-02 -2.373409420251846313e-01 1.387056559324264526e-01 -2.739854715764522552e-02 1.549028046429157257e-02 -1.896885633468627930e-01 1.133905872702598572e-01 -1.182650998234748840e-01 -1.369847357273101807e-01 -1.532669086009263992e-02 -2.868904359638690948e-02 1.099627092480659485e-01 -1.035032719373703003e-01 7.053267210721969604e-03 1.818995475769042969e-01
-2.182491421699523926e-01 -8.737672865390777588e-02 1.296976357698440552e-01 2.848048210144042969e-01 -1.899672746658325195e-01 -4.110333975404500961e-03 1.211718544363975525e-01 -1.527841687202453613e-01 2.158419638872146606e-01 -3.850728869438171387e-01 1.436200737953186035e-01 -3.104262053966522217e-02 -2.506248354911804199e-01 9.496900439262390137e-02 1.294623315334320068e-01 1.296184062957763672e-01 2.817463576793670654e-01 -1.108793839812278748e-01 -3.476740326732397079e-03 -2.241147905588150024e-01 2.698772847652435303e-01 1.448284238576889038e-01 2.167515158653259277e-01 -2.040866762399673462e-01 -1.041802763938903809e-02 2.199634313583374023e-01 -2.453566938638687134e-01 -1.409370005130767822e-01 -1.372334212064743042e-01 4.504617676138877869e-02 -9.008209221065044403e-03 -1.731073707342147827e-01 -1.285694073885679245e-02 2.232580445706844330e-02 1.151038035750389099e-01 -1.342858970165252686e-01 -2.813939154148101807e-01 6.774853169918060303e-02 1.841516941785812378e-01 3.800801336765289307e-01 1.553405374288558960e-01 -2.281201183795928955e-01 1.365004852414131165e-02 1.423850953578948975e-01 2.483318746089935303e-01 4.414056986570358276e-02 3.964357674121856689e-01 -3.388280048966407776e-02 1.306755244731903076e-01 -1.983103156089782715e-01
-7.366966456174850464e-02 1.415923796594142914e-02 -1.065733656287193298e-01 -2.241632938385009766e-01 1.167316213250160217e-01 1.699328655377030373e-03 1.400827318429946899e-01 -4.244629293680191040e-03 1.839957088232040405e-01 5.827703326940536499e-02 -5.540577322244644165e-02 -3.481190279126167297e-02 -2.374247908592224121e-01 1.748693734407424927e-01 7.552857697010040283e-02 3.610570356249809265e-02 -8.332230895757675171e-02 2.417986690998077393e-01 4.157773219048976898e-03 -1.694236248731613159e-01 -2.113720178604125977e-01 1.503996849060058594e-01 -4.890112578868865967e-02 -5.487876385450363159e-02 1.565483212471008301e-01 -2.436140328645706177e-01 1.958887875080108643e-01 -1.516755074262619019e-01 2.280821651220321655e-01 2.011030912399291992e-01 -1.984748840332031250e-01 1.479881852865219116e-01 4.882201179862022400e-02 8.523940294981002808e-02 2.101532071828842163e-01 -1.739592999219894409e-01 -9.860097616910934448e-02 -6.634552031755447388e-02 -1.982217580080032349e-01 -3.211338073015213013e-02 9.633641690015792847e-02 2.273061573505401611e-01 1.432584077119827271e-01 1.356507390737533569e-01 -2.649165689945220947e-02 1.456850767135620117e-01 -3.293725550174713135e-01 1.142872776836156845e-02 1.881801337003707886e-01 -2.475706040859222412e-01
4.373353719711303711e-02 -4.534441977739334106e-02 1.527662575244903564e-01 -2.224028110504150391e-01 -5.298036709427833557e-02 2.209941856563091278e-02 1.580466926097869873e-01 -7.045301795005798340e-02 -9.825366549193859100e-03 2.426244169473648071e-01 1.055484265089035034e-01 -3.159645199775695801e-01 2.274799942970275879e-01 2.110063731670379639e-01 7.212848961353302002e-02 2.279952466487884521e-01 6.208267807960510254e-02 -1.887075453996658325e-01 6.924010068178176880e-02 -2.219059318304061890e-01 2.562001347541809082e-02 1.211671754717826843e-01 8.883158117532730103e-02 -9.654037654399871826e-02 -6.494329776614904404e-03 -2.224935591220855713e-01 2.135560661554336548e-02 8.255434781312942505e-02 4.852554202079772949e-02 1.173711419105529785e-01 1.290189325809478760e-01 4.243682324886322021e-02 -2.336158752441406250e-01 9.246610105037689209e-02 -6.607770454138517380e-03 2.211546152830123901e-01 1.630469560623168945e-01 -9.291766583919525146e-02 3.165666013956069946e-02 -2.204917073249816895e-01 -3.356526046991348267e-02 1.471260040998458862e-01 9.417840093374252319e-02 2.755891382694244385e-01 1.625060290098190308e-01 7.689807564020156860e-02 1.038833614438772202e-02 1.642355918884277344e-01 1.317585557699203491e-01 -1.981921195983886719e-01
6.303516775369644165e-02 -9.073442965745925903e-02 1.218206137418746948e-01 2.291143685579299927e-02 1.188244000077247620e-01 -1.844290345907211304e-01 -5.851783975958824158e-02 1.060561686754226685e-01 -9.900379925966262817e-03 -1.847954392433166504e-01 -4.518815502524375916e-02 1.420801430940628052e-01 -1.448817551136016846e-02 -2.531452104449272156e-02 -1.729273498058319092e-01 2.940155379474163055e-02 4.749615490436553955e-02 1.167142614722251892e-01 9.138891845941543579e-02 -3.511681035161018372e-02 1.224791165441274643e-03 1.244005281478166580e-02 -1.431035548448562622e-01 -1.015588939189910889e-01 6.854043900966644287e-02 -2.044290304183959961e-01 1.973897218704223633e-01 6.706384569406509399e-02 2.004662007093429565e-01 2.205658257007598877e-01 2.014462202787399292e-01 -6.895633041858673096e-02 1.857128292322158813e-01 2.299377024173736572e-01 -6.786782294511795044e-02 -6.292706727981567383e-02 -1.081492099910974503e-02 4.793502390384674072e-02 -4.343005642294883728e-02 -1.094661303795874119e-03 -2.510162591934204102e-01 1.180718764662742615e-01 -1.001262962818145752e-01 -1.518897265195846558e-01 1.407850831747055054e-01 5.969915166497230530e-02 -1.962304413318634033e-01 1.371397525072097778e-01 1.189432814717292786e-01 8.166665211319923401e-03
-6.555192172527313232e-03 -1.466104835271835327e-01 -1.942551732063293457e-01 -9.561587870121002197e-02 -1.185367852449417114e-01 -2.258252948522567749e-01 1.378745138645172119e-01 -4.152803122997283936e-02 -9.799245744943618774e-02 1.159124597907066345e-01 -2.495410665869712830e-02 2.772058360278606415e-02 2.735962271690368652e-01 2.327511310577392578e-01 -2.084816619753837585e-02 4.714878648519515991e-02 1.388543844223022461e-01 -4.647754877805709839e-02 -6.986232101917266846e-02 -1.376124564558267593e-02 -3.908622637391090393e-02 1.383345872163772583e-01 1.833876818418502808e-01 -4.199564084410667419e-02 -1.825764477252960205e-01 4.293619468808174133e-02 2.266868054866790771e-01 1.178267374634742737e-01 1.981571502983570099e-02 1.496901921927928925e-02 7.061706483364105225e-02 1.989520788192749023e-01 1.626425832509994507e-01 1.175965815782546997e-01 9.854071587324142456e-02 4.629274830222129822e-02 4.396079853177070618e-02 -1.164048984646797180e-01 1.447142940014600754e-02 -1.893895864486694336e-01 -2.346492111682891846e-01 3.327901661396026611e-01 -1.621422022581100464e-01 -3.899758309125900269e-02 2.219546735286712646e-01 -6.043933704495429993e-02 -2.885218262672424316e-01 -1.382516920566558838e-01 1.202151924371719360e-01 -1.971296072006225586e-01
-1.037167385220527649e-01 -1.665879599750041962e-02 -1.390388458967208862e-01 -2.181836590170860291e-02 -8.045936003327369690e-03 7.109938561916351318e-02 1.393111348152160645e-01 1.570594757795333862e-01 8.437854051589965820e-02 4.342766851186752319e-02 1.081766262650489807e-01 -1.903805136680603027e-01 -3.732454776763916016e-02 5.498102307319641113e-02 -2.720490097999572754e-02 2.186181247234344482e-01 -5.411097034811973572e-02 -5.539828538894653320e-02 -2.470461279153823853e-02 -1.600354760885238647e-01 -1.902391761541366577e-01 1.380888819694519043e-01 -9.348092973232269287e-02 -1.369203627109527588e-01 -1.124441325664520264e-01 -1.751375496387481689e-01 1.394429802894592285e-01 1.463816165924072266e-01 -1.493538618087768555e-01 2.265960723161697388e-01 1.474909782409667969e-01 1.503095030784606934e-01 2.225423902273178101e-01 7.481858134269714355e-02 -7.651381194591522217e-02 -6.397020537406206131e-03 1.684287786483764648e-01 -4.154589399695396423e-02 -1.392117440700531006e-01 5.220761150121688843e-02 1.492170989513397217e-01 1.969255805015563965e-01 -1.572660505771636963e-01 2.279658243060112000e-02 -1.709596216678619385e-01 -5.380400270223617554e-02 -1.524821221828460693e-01 2.004228234291076660e-01 1.147033572196960449e-01 -1.900991946458816528e-01
-1.332414448261260986e-01 2.226845324039459229e-01 -2.156403362751007080e-01 -1.959736049175262451e-01 -7.132643461227416992e-02 -5.868860334157943726e-02 7.735408842563629150e-02 8.730236440896987915e-02 -4.347452521324157715e-02 2.896559238433837891e-01 2.319149225950241089e-01 2.024426013231277466e-01 3.803899884223937988e-01 -5.061963200569152832e-02 -2.401955723762512207e-01 2.063102275133132935e-01 -1.087123751640319824e-01 -5.999208241701126099e-02 -2.584356665611267090e-01 9.810082614421844482e-02 4.170326143503189087e-02 -3.711533248424530029e-01 -2.190392166376113892e-01 2.450535744428634644e-01 2.518341504037380219e-02 -7.608617842197418213e-02 -3.748716786503791809e-02 7.524979859590530396e-02 1.179179176688194275e-01 6.362169981002807617e-02 -1.336244344711303711e-01 2.082590907812118530e-01 -2.420653849840164185e-01 -2.413893043994903564e-01 9.163422137498855591e-02 -5.073724314570426941e-02 -1.287554949522018433e-01 -1.821279078722000122e-01 -1.055249273777008057e-01 4.073547571897506714e-02 -2.376901507377624512e-01 7.544900476932525635e-02 -1.979576982557773590e-02 5.917779728770256042e-02 2.886383831501007080e-01 -2.644983679056167603e-02 -1.127809844911098480e-02 2.058879844844341278e-02 4.315384328365325928e-01 3.622098267078399658e-01
-8.616323024034500122e-02 -1.782580316066741943e-01 -1.575228571891784668e-02 1.974074244499206543e-01 -7.859826087951660156e-02 -4.438805580139160156e-02 -6.113699637353420258e-04 1.632234156131744385e-01 -5.302793905138969421e-02 -1.318823695182800293e-01 -3.693966269493103027e-01 -1.721491813659667969e-01 -1.851720511913299561e-01 -1.146917715668678284e-01 1.003542989492416382e-01 -3.081343173980712891e-01 1.593171954154968262e-01 -1.142357811331748962e-01 1.028231009840965271e-01 -1.769097149372100830e-01 1.616328656673431396e-01 1.896696686744689941e-01 -8.073344081640243530e-02 -1.291044503450393677e-01 1.899407207965850830e-01 8.135574311017990112e-02 1.613822281360626221e-01 2.322436869144439697e-02 -1.841678023338317871e-01 1.485378593206405640e-01 2.477505505084991455e-01 -2.763676345348358154e-01 -2.243310660123825073e-01 1.950968950986862183e-01 -1.285473853349685669e-01 -2.177026271820068359e-01 9.888241067528724670e-03 -1.772825270891189575e-01 1.283528357744216919e-01 2.527199387550354004e-01 2.407618612051010132e-01 -1.411284506320953369e-01 7.172946631908416748e-02 3.065571784973144531e-01 2.766059525310993195e-02 2.930231392383575439e-01 3.445915579795837402e-01 1.577094942331314087e-01 -1.211521849036216736e-01 -1.157297194004058838e-01
1.998216956853866577e-01 -2.595124840736389160e-01 1.872460395097732544e-01 2.197162359952926636e-01 2.435210794210433960e-01 1.935339421033859253e-01 2.096591591835021973e-01 -1.759142875671386719e-01 -9.754954278469085693e-02 1.652002930641174316e-01 -2.068123817443847656e-01 -3.084993064403533936e-01 1.767235398292541504e-01 -1.562909483909606934e-01 2.061276137828826904e-01 -2.092011868953704834e-01 -4.532770812511444092e-02 -2.434921413660049438e-01 -1.495901942253112793e-01 -2.433517128229141235e-01 1.365968883037567139e-01 4.344286024570465088e-02 -4.875972867012023926e-02 -2.247753366827964783e-02 -1.598394364118576050e-01 -1.310310065746307373e-01 2.401621788740158081e-01 -2.152059525251388550e-01 -1.389498561620712280e-01 -9.003809094429016113e-02 -2.504460513591766357e-01 5.502827838063240051e-02 -5.342679214663803577e-04 1.773840934038162231e-01 -3.626121208071708679e-02 -6.537285447120666504e-02 4.749124497175216675e-02 -5.239094048738479614e-02 -3.294321149587631226e-02 -2.690695524215698242e-01 1.854798048734664917e-01 -6.259933859109878540e-02 -1.338492929935455322e-01 -1.896488815546035767e-01 2.173688709735870361e-01 7.240256667137145996e-02 -2.582683861255645752e-01 3.521619364619255066e-02 5.507830530405044556e-02 -2.409838438034057617e-01
2.349949032068252563e-01 -3.542150557041168213e-02 -9.170130640268325806e-02 2.248411998152732849e-02 -1.107282042503356934e-01 1.215483099222183228e-01 -6.622717529535293579e-02 -9.640607237815856934e-02 -2.338138967752456665e-01 -2.189084887504577637e-01 -2.074692249298095703e-01 -1.444549411535263062e-01 2.293232530355453491e-01 -2.410530596971511841e-01 -1.282590925693511963e-01 -2.350515872240066528e-01 1.136044636368751526e-01 1.810545176267623901e-01 2.288927584886550903e-01 1.561445742845535278e-01 -2.236525416374206543e-01 1.019602343440055847e-01 -2.056998163461685181e-01 8.990380913019180298e-02 -2.368006408214569092e-01 1.425301581621170044e-01 -1.572954058647155762e-01 2.168289422988891602e-01 -3.738508792594075203e-03 8.077138662338256836e-02 -2.006931304931640625e-01 1.672240197658538818e-01 -4.385498911142349243e-02 1.671909987926483154e-01 -2.102780491113662720e-01 1.971483528614044189e-01 -1.616734564304351807e-01 4.783269483596086502e-03 2.397695034742355347e-01 -1.512928307056427002e-01 -5.085844174027442932e-02 -2.123048603534698486e-01 4.860658943653106689e-02 1.644503325223922729e-01 1.123275384306907654e-01 -2.082814574241638184e-01 1.789164543151855469e-01 -8.069583773612976074e-02 -1.416783034801483154e-01 -1.744261384010314941e-01
1.902895122766494751e-01 1.035787537693977356e-01 -1.999741941690444946e-01 -4.337893426418304443e-02 2.989863790571689606e-02 2.265683114528656006e-01 1.814928799867630005e-01 -1.500124782323837280e-01 -2.075710743665695190e-01 3.712754547595977783e-01 2.583121061325073242e-01 2.909889817237854004e-01 1.140387803316116333e-01 1.712814271450042725e-01 -1.543369442224502563e-01 1.663158237934112549e-01 -7.732297759503126144e-03 2.116311639547348022e-01 -1.031196489930152893e-01 -1.135920807719230652e-01 -6.980977952480316162e-02 -3.993056714534759521e-01 -2.192266285419464111e-01 -1.360641270875930786e-01 1.960459649562835693e-01 -1.991909295320510864e-01 1.297639906406402588e-01 -7.619655877351760864e-02 -4.681037738919258118e-02 -2.103589475154876709e-01 2.177015990018844604e-01 7.828019559383392334e-02 -2.225197553634643555e-01 -1.411948166787624359e-02 -1.450383663177490234e-01 -6.600463297218084335e-03 2.063856720924377441e-01 1.151551231741905212e-01 9.649796038866043091e-02 5.127650499343872070e-02 -3.866329789161682129e-02 -1.280762255191802979e-01 -2.348794341087341309e-01 9.797224402427673340e-02 -1.638132482767105103e-01 -2.837586104869842529e-01 -1.133215725421905518e-01 -4.111239686608314514e-02 1.227053701877593994e-01 4.328327178955078125e-01
-1.862975358963012695e-01 2.639236152172088623e-01 4.040125012397766113e-02 9.245100617408752441e-02 2.761892043054103851e-03 2.249944955110549927e-01 -2.470977418124675751e-02 -6.608493160456418991e-03 -7.230419665575027466e-02 3.201938271522521973e-01 -1.387808024883270264e-01 -1.719619035720825195e-01 3.225311338901519775e-01 1.269377470016479492e-01 9.961195290088653564e-02 -2.858641743659973145e-02 -2.084209173917770386e-01 1.601097732782363892e-01 1.385325342416763306e-01 1.116384118795394897e-01 -7.449030131101608276e-02 -5.628278851509094238e-02 1.781957224011421204e-02 2.469401359558105469e-01 -8.070886880159378052e-02 -2.129573971033096313e-01 -2.284432053565979004e-01 1.474657207727432251e-01 1.836123019456863403e-01 -1.066486164927482605e-01 5.077241361141204834e-02 5.910108238458633423e-02 4.918250069022178650e-02 -4.066051542758941650e-02 -1.895157247781753540e-01 1.963634192943572998e-01 1.579846888780593872e-01 -1.357007473707199097e-01 -1.101775020360946655e-01 -2.552708983421325684e-01 -2.255248278379440308e-01 2.066922783851623535e-01 2.378109991550445557e-01 8.262710273265838623e-02 4.197334125638008118e-02 -2.304396331310272217e-01 -2.130972892045974731e-01 -1.287343800067901611e-01 -1.110038757324218750e-01 4.479036107659339905e-02
-2.279157340526580811e-01 2.214139103889465332e-01 1.295150518417358398e-01 -2.079987823963165283e-01 3.935983031988143921e-02 -1.420557796955108643e-01 -8.620006591081619263e-02 5.346446111798286438e-02 1.264208704233169556e-01 -2.354050874710083008e-01 -1.867206068709492683e-03 -7.281967252492904663e-02 -2.615986168384552002e-01 -1.319359540939331055e-01 6.437886506319046021e-02 -2.265802584588527679e-02 -9.385284967720508575e-03 -8.411231637001037598e-02 3.524288907647132874e-02 1.832356154918670654e-01 -4.082170873880386353e-02 9.458538144826889038e-02 2.301919646561145782e-02 -3.183579072356224060e-02 1.580692678689956665e-01 1.453336607664823532e-02 -6.358148157596588135e-02 1.286171972751617432e-01 1.863827556371688843e-01 2.692929282784461975e-02 -8.195137605071067810e-03 1.747563332319259644e-01 1.197886168956756592e-01 -2.181227505207061768e-01 -3.206120338290929794e-03 -2.214993834495544434e-01 -1.416850686073303223e-01 -1.255973875522613525e-01 -8.297687768936157227e-02 -2.161917090415954590e-01 -1.143667399883270264e-01 -6.481548398733139038e-02 -1.878539472818374634e-01 -5.205330997705459595e-02 -1.981331706047058105e-01 -2.424783818423748016e-02 7.355848699808120728e-02 -7.354641333222389221e-03 -2.263324558734893799e-01 -2.726888358592987061e-01
5.326733458787202835e-03 9.669183939695358276e-02 -7.944145798683166504e-02 1.987135857343673706e-01 2.872243821620941162e-01 -6.849300861358642578e-02 -1.973945200443267822e-01 -1.837978065013885498e-01 -5.868708714842796326e-02 2.609666064381599426e-02 -2.948245108127593994e-01 -2.655419409275054932e-01 7.429794222116470337e-02 -6.926149874925613403e-02 -1.129845008254051208e-01 -1.032033339142799377e-01 -8.096741139888763428e-02 -1.250088363885879517e-01 2.675138413906097412e-01 1.056792810559272766e-01 -1.932511292397975922e-02 2.120711952447891235e-01 2.730861864984035492e-02 -2.104946225881576538e-01 5.499319732189178467e-02 3.616809844970703125e-02 -8.094891905784606934e-02 2.207024842500686646e-01 -2.169209867715835571e-01 -2.116468548774719238e-01 -3.390872105956077576e-02 -2.295768111944198608e-01 4.250608384609222412e-02 1.464095562696456909e-01 3.033421188592910767e-02 -2.485507428646087646e-01 2.549450695514678955e-01 -1.859589517116546631e-01 -6.469769775867462158e-02 1.799709200859069824e-01 1.402597427368164062e-01 2.281101644039154053e-01 -1.478679627180099487e-01 3.670729100704193115e-01 2.579120695590972900e-01 1.473105102777481079e-01 1.302197426557540894e-01 1.156627386808395386e-01 -9.003403037786483765e-02 6.991293281316757202e-02
1.358320116996765137e-01 -1.377464532852172852e-01 -4.078883305191993713e-02 4.910183697938919067e-02 -4.945443198084831238e-02 -1.862605512142181396e-01 1.619914174079895020e-01 -1.309277210384607315e-02 1.111117191612720490e-02 3.484647274017333984e-01 7.685435563325881958e-02 1.198556423187255859e-01 3.403459191322326660e-01 1.345385313034057617e-01 -1.827803105115890503e-01 2.907409667968750000e-01 7.753302901983261108e-02 -1.575807183980941772e-01 -3.371800184249877930e-01 -4.672256857156753540e-02 1.062045544385910034e-01 -9.171268343925476074e-02 -1.328848451375961304e-01 2.503856122493743896e-01 2.642266154289245605e-01 1.259797215461730957e-01 -1.080262437462806702e-01 -2.940833568572998047e-01 4.378920048475265503e-02 -2.018254995346069336e-01 -2.989892847836017609e-03 -1.547027230262756348e-01 -1.094841286540031433e-01 -3.590887188911437988e-01 1.943516917526721954e-02 2.290889322757720947e-01 5.094750598073005676e-02 -2.232310920953750610e-01 2.273323535919189453e-01 2.779052853584289551e-01 1.372370421886444092e-01 1.299849897623062134e-01 -2.378248721361160278e-01 -2.117020934820175171e-01 1.428613364696502686e-01 1.880945265293121338e-02 5.298882350325584412e-02 -1.583821922540664673e-01 -2.618819773197174072e-01 2.593495249748229980e-01
7.658734172582626343e-02 1.039026230573654175e-01 1.899109482765197754e-01 -1.862846314907073975e-01 1.784448325634002686e-01 1.028089150786399841e-01 -8.169812709093093872e-02 2.144533246755599976e-01 -8.020314574241638184e-02 -2.729564905166625977e-01 -1.844003498554229736e-01 2.043521218001842499e-02 2.005240507423877716e-02 1.666014045476913452e-01 1.869433820247650146e-01 -3.140633925795555115e-02 1.505113840103149414e-01 -2.077526301145553589e-01 4.681155830621719360e-02 1.603099703788757324e-01 1.897625774145126343e-01 1.693395376205444336e-01 -4.630525782704353333e-02 -7.921081967651844025e-03 -5.213238298892974854e-02 -2.197397351264953613e-01 1.416020244359970093e-01 -4.478267952799797058e-02 6.769225746393203735e-02 -1.650947630405426025e-01 -5.781165510416030884e-02 -1.639052033424377441e-01 4.107221588492393494e-02 1.143402680754661560e-01 2.546331882476806641e-01 -2.227579802274703979e-01 -9.755489230155944824e-02 -2.263659145683050156e-03 2.122285962104797363e-01 -1.405100971460342407e-01 -8.877641707658767700e-02 -2.792683243751525879e-01 -1.648665964603424072e-02 -9.924384206533432007e-02 7.399262487888336182e-02 -1.110633835196495056e-01 1.278508901596069336e-01 2.381216920912265778e-02 -1.548056155443191528e-01 6.242595613002777100e-02
7.386322598904371262e-03 -3.713714331388473511e-02 -1.336522307246923447e-02 -1.812953650951385498e-01 -8.819966018199920654e-02 2.128756046295166016e-01 -9.972097724676132202e-02 1.678200438618659973e-02 -1.458290219306945801e-01 -1.032139658927917480e-01 1.702500283718109131e-01 -1.134217083454132080e-01 4.732956737279891968e-02 2.005656948313117027e-03 -1.591873914003372192e-01 9.448979049921035767e-02 -7.777833379805088043e-03 -1.561675965785980225e-01 -3.424714133143424988e-02 2.260110825300216675e-01 9.301961958408355713e-02 2.146977931261062622e-01 -3.327101469039916992e-02 -9.581443667411804199e-02 -9.096448868513107300e-02 -2.058505415916442871e-01 1.613514721393585205e-01 3.169800043106079102e-01 1.386691778898239136e-01 -9.903986006975173950e-02 -1.211707666516304016e-01 1.281821429729461670e-01 2.543650269508361816e-01 2.831322252750396729e-01 -1.675544828176498413e-01 -8.625040948390960693e-02 -1.523571312427520752e-01 1.039524078369140625e-01 -1.502428203821182251e-02 1.325718760490417480e-01 1.360711902379989624e-01 -1.021011620759963989e-01 -1.279851794242858887e-01 -1.713018864393234253e-01 -1.692163348197937012e-01 -9.674132615327835083e-02 1.365028694272041321e-02 -5.665045976638793945e-02 -1.154131740331649780e-01 -2.951311171054840088e-01
-2.116296589374542236e-01 2.489926107227802277e-02 -2.006034851074218750e-01 -2.854610793292522430e-02 -8.771941065788269043e-02 -1.491965055465698242e-01 -1.968298256397247314e-01 -1.205819696187973022e-01 -1.725244820117950439e-01 -2.756329178810119629e-01 -2.775142490863800049e-01 7.526762783527374268e-02 -4.343767762184143066e-01 -2.598050534725189209e-01 -1.861299015581607819e-02 -2.786996364593505859e-01 2.665807604789733887e-01 2.098649144172668457e-01 1.981502324342727661e-01 -2.081861346960067749e-01 1.174938678741455078e-01 3.211906254291534424e-01 1.975200921297073364e-01 4.945144429802894592e-02 -2.524032294750213623e-01 -4.112791270017623901e-02 1.922765523195266724e-01 3.626955449581146240e-01 1.465350389480590820e-01 2.179357558488845825e-01 -9.986475855112075806e-02 1.936455518007278442e-01 1.499434262514114380e-01 4.346576035022735596e-01 -1.631871908903121948e-01 1.243778970092535019e-02 -5.730849131941795349e-02 -4.455577209591865540e-02 2.309572398662567139e-01 -1.626554690301418304e-02 1.921311020851135254e-01 -2.254096418619155884e-01 -1.228586137294769287e-01 1.294310539960861206e-01 -5.641810595989227295e-02 2.264022827148437500e-02 4.979771375656127930e-02 1.016076281666755676e-01 2.388363778591156006e-01 -3.172510564327239990e-01
1.159322354942560196e-02 1.592073738574981689e-01 -1.933629363775253296e-01 -2.733030021190643311e-01 -1.388061325997114182e-02 -2.186206877231597900e-01 -1.840787082910537720e-01 -4.892104491591453552e-02 1.812134124338626862e-02 1.190721765160560608e-01 1.819319725036621094e-01 2.798973023891448975e-01 1.707271039485931396e-01 -5.007391050457954407e-02 -1.871837526559829712e-01 -8.266483992338180542e-02 -1.132155023515224457e-02 1.579578965902328491e-01 2.050305157899856567e-01 1.830837875604629517e-01 2.940232753753662109e-01 6.769370287656784058e-02 -1.723679341375827789e-02 -1.626734286546707153e-01 8.862940594553947449e-03 -1.382786631584167480e-01 2.236406356096267700e-01 1.766206771135330200e-01 -1.592170074582099915e-02 -1.378629207611083984e-01 3.265102803707122803e-01 -9.123471379280090332e-02 1.058998778462409973e-01 5.549819767475128174e-02 -4.111434891819953918e-02 -1.187750138342380524e-02 2.868409454822540283e-01 1.069549322128295898e-01 -1.644477546215057373e-01 -6.116668134927749634e-02 -4.593289270997047424e-02 -7.620779424905776978e-02 -2.192424535751342773e-01 2.354459166526794434e-01 -7.766046375036239624e-02 1.876201331615447998e-01 2.085288763046264648e-01 1.170341148972511292e-01 -9.792014956474304199e-02 -1.638645976781845093e-01
1.486696302890777588e-01 -4.683302342891693115e-02 3.097561746835708618e-02 -2.321320325136184692e-01 -2.240355461835861206e-01 6.762104481458663940e-02 6.307554990053176880e-02 -9.584023803472518921e-02 -1.205910295248031616e-01 1.510639041662216187e-01 1.319378614425659180e-01 -1.620340049266815186e-01 -4.848194867372512817e-02 -5.837811157107353210e-02 1.463670432567596436e-01 1.486610174179077148e-01 2.302817702293395996e-01 -1.865004897117614746e-01 -5.178058519959449768e-02 -7.194878160953521729e-02 1.552860997617244720e-02 3.977735713124275208e-02 -2.283444702625274658e-01 -8.860384672880172729e-02 -5.827508866786956787e-02 3.341858461499214172e-02 -8.513161912560462952e-03 1.412833333015441895e-01 -8.265586197376251221e-02 1.900116950273513794e-01 2.629283368587493896e-01 -4.547954723238945007e-02 1.120795458555221558e-01 1.861222982406616211e-01 -5.808463692665100098e-02 -1.032339502125978470e-02 -3.266711905598640442e-02 -6.913519650697708130e-02 2.127059735357761383e-02 9.567055851221084595e-02 -2.417063266038894653e-01 4.921001940965652466e-02 1.055702045559883118e-01 -1.920883655548095703e-01 1.032087504863739014e-01 -9.679016657173633575e-03 2.051277160644531250e-01 3.629110381007194519e-02 -3.918672725558280945e-02 1.481709629297256470e-01
-8.107641339302062988e-02 1.813548207283020020e-01 -4.769893363118171692e-03 -1.554618924856185913e-01 1.816048473119735718e-01 -7.643374055624008179e-02 8.854462951421737671e-02 2.264746576547622681e-01 -7.465788628906011581e-03 2.194714546203613281e-01 8.477545529603958130e-02 -1.843748688697814941e-01 -5.992497131228446960e-02 2.720748484134674072e-01 -1.273801624774932861e-01 2.511977553367614746e-01 1.558556705713272095e-01 -9.658504277467727661e-02 -1.005549058318138123e-01 1.095804497599601746e-01 -2.420357763767242432e-01 1.766739599406719208e-02 -2.115753106772899628e-02 -9.467546641826629639e-02 1.445111781358718872e-01 2.298931032419204712e-01 1.050538718700408936e-01 6.600786000490188599e-02 1.274413466453552246e-01 -8.544833213090896606e-02 -1.659991741180419922e-01 -2.057844102382659912e-01 -2.355695143342018127e-02 1.170220449566841125e-01 -1.496778726577758789e-01 3.291556611657142639e-02 -6.600051373243331909e-02 -1.472835540771484375e-01 -1.531827300786972046e-01 2.065708637237548828e-01 -4.556377977132797241e-02 1.084119230508804321e-01 -1.422886252403259277e-01 -1.220431700348854065e-01 -1.990743428468704224e-01 -2.846288084983825684e-01 8.562375605106353760e-02 -9.497070312500000000e-02 -2.553955279290676117e-02 1.915762573480606079e-01
-1.388592869043350220e-01 3.904458135366439819e-02 2.026826590299606323e-01 2.333507537841796875e-01 7.403711229562759399e-02 1.240115463733673096e-01 -1.172294914722442627e-01 8.095484972000122070e-02 -1.278426796197891235e-01 -9.608870459487661719e-05 -1.746305642882362008e-04 1.987421661615371704e-01 2.002920955419540405e-01 2.700234353542327881e-01 2.354531437158584595e-01 -2.001164853572845459e-01 -1.939045935869216919e-01 -2.279312610626220703e-01 1.289288401603698730e-01 1.289494633674621582e-01 1.237588301301002502e-01 2.160337716341018677e-01 6.633969396352767944e-02 -6.677742116153240204e-03 -8.354809880256652832e-02 -2.274398952722549438e-01 1.043573543429374695e-01 -2.513352334499359131e-01 -6.977491080760955811e-02 2.144982665777206421e-01 9.186116605997085571e-02 5.891946330666542053e-02 -2.314989864826202393e-01 1.477511716075241566e-03 1.348024457693099976e-01 6.378692388534545898e-02 -8.949726819992065430e-03 2.449706643819808960e-01 1.550319138914346695e-02 2.289149016141891479e-01 -1.108745485544204712e-01 2.996388673782348633e-01 -1.325745433568954468e-01 -1.118936240673065186e-01 -1.432327926158905029e-01 -1.459939479827880859e-01 2.148124575614929199e-01 1.650531888008117676e-01 1.300858110189437866e-01 4.076025448739528656e-03
-1.378759443759918213e-01 5.404329672455787659e-02 -2.908428758382797241e-02 7.930164039134979248e-02 -1.461157798767089844e-01 -2.171313017606735229e-01 -2.124127000570297241e-01 -9.408956766128540039e-02 9.668336063623428345e-02 -2.226305603981018066e-01 7.330194860696792603e-02 1.349907219409942627e-01 1.921443492174148560e-01 5.501705780625343323e-02 -1.781444698572158813e-01 2.154078185558319092e-01 -7.757411804050207138e-03 -1.351819634437561035e-01 -2.833917271345853806e-03 1.159830391407012939e-01 -1.367988735437393188e-01 -1.771016418933868408e-01 -1.284706145524978638e-01 2.300720214843750000e-01 -2.164617031812667847e-01 -2.410399317741394043e-01 -3.805349767208099365e-02 1.613796502351760864e-01 1.872864365577697754e-01 -2.059680670499801636e-01 -2.618772089481353760e-01 4.399566948413848877e-01 1.445216964930295944e-02 -5.483181029558181763e-02 -2.205822467803955078e-01 6.564365327358245850e-02 -1.904833912849426270e-01 -1.831611245870590210e-02 8.670080453157424927e-02 -5.309771001338958740e-02 2.602579891681671143e-01 6.098904833197593689e-02 -2.394044697284698486e-01 -2.524015009403228760e-01 1.005341038107872009e-01 1.427120622247457504e-02 -1.208212748169898987e-01 5.305673927068710327e-02 1.186569780111312866e-01 -5.798563733696937561e-02
-3.208490833640098572e-02 -1.648167818784713745e-01 -6.611686199903488159e-02 -7.290416210889816284e-02 -2.006847411394119263e-02 -9.258154779672622681e-03 -9.473656117916107178e-02 -2.217785567045211792e-01 -8.711743354797363281e-02 -3.301338851451873779e-02 -9.740000963211059570e-02 -1.045109406113624573e-01 -2.408169656991958618e-01 -2.666832879185676575e-03 -2.256413847208023071e-01 -1.158331558108329773e-01 2.410926669836044312e-02 -1.180837601423263550e-01 -2.054260112345218658e-02 -1.794973760843276978e-01 2.483753710985183716e-01 -1.766885370016098022e-01 7.904579490423202515e-02 1.010447517037391663e-01 -2.485004812479019165e-01 -1.668094098567962646e-01 -1.628102511167526245e-01 8.243438601493835449e-02 -5.715017765760421753e-02 9.431361407041549683e-02 2.116364091634750366e-01 -4.449269175529479980e-02 -3.922685608267784119e-02 -2.324027717113494873e-01 1.514723300933837891e-01 -2.139097638428211212e-02 -5.644502118229866028e-03 1.869179308414459229e-01 -1.827326864004135132e-01 1.307984739542007446e-01 4.317657649517059326e-02 1.809211522340774536e-01 2.424831986427307129e-01 -8.738921582698822021e-02 -1.627341210842132568e-01 4.998193308711051941e-02 3.042598962783813477e-01 -1.200574338436126709e-01 -1.508938819169998169e-01 -2.558116316795349121e-01
1.466198116540908813e-01 5.024716723710298538e-03 -2.496851831674575806e-01 1.885252296924591064e-01 -2.707147300243377686e-01 3.747483715415000916e-02 -1.890632063150405884e-01 4.248428344726562500e-02 6.328096240758895874e-02 1.872937078587710857e-03 -1.717533320188522339e-01 -2.262373417615890503e-01 -6.320858001708984375e-02 -1.849685758352279663e-01 -1.146450638771057129e-01 -2.028507888317108154e-01 3.177977399900555611e-03 6.673129647970199585e-02 3.418291211128234863e-01 -1.212176531553268433e-01 9.180723875761032104e-02 3.666299581527709961e-01 2.245149463415145874e-01 -1.339006274938583374e-01 -1.389669030904769897e-01 -3.886585310101509094e-02 1.136439964175224304e-01 -1.151701137423515320e-01 6.586131453514099121e-02 -3.568783774971961975e-02 -6.360722333192825317e-02 2.120034545660018921e-01 2.502083182334899902e-01 3.616776466369628906e-01 -2.714266767725348473e-03 8.906217664480209351e-02 -2.753269672393798828e-01 1.536398977041244507e-01 -1.029627472162246704e-01 -2.046337425708770752e-01 -1.221943087875843048e-02 2.522405982017517090e-01 -1.146110370755195618e-01 1.746409982442855835e-01 1.934367865324020386e-01 2.725685834884643555e-01 -1.381249129772186279e-01 2.872476726770401001e-02 1.141773015260696411e-01 -3.568820655345916748e-01
2.334277331829071045e-01 1.147897467017173767e-01 1.769887208938598633e-01 2.871232032775878906e-01 3.023203015327453613e-01 -2.340002804994583130e-01 -1.779127866029739380e-01 7.401925325393676758e-02 -1.682389825582504272e-01 2.598948404192924500e-02 2.039938718080520630e-01 -2.131575495004653931e-01 -5.480108410120010376e-02 -2.024059295654296875e-01 -1.871657073497772217e-01 -1.851982325315475464e-01 2.669185400009155273e-01 7.830052822828292847e-02 -2.582688927650451660e-01 -2.016616314649581909e-01 9.714650362730026245e-02 6.223802268505096436e-02 -2.081604748964309692e-01 2.001679092645645142e-01 2.289681136608123779e-01 1.690320223569869995e-01 -2.484582215547561646e-01 -2.621265128254890442e-02 -1.503323167562484741e-01 -1.554563194513320923e-01 -9.923366457223892212e-02 3.440349698066711426e-01 -1.104689240455627441e-01 -2.269831299781799316e-01 -1.233814656734466553e-01 -1.088000163435935974e-01 1.842768043279647827e-01 -3.218705207109451294e-02 4.500908851623535156e-01 3.037853538990020752e-01 8.317068219184875488e-02 -1.301964931190013885e-02 1.494231373071670532e-01 6.922931224107742310e-02 3.118275105953216553e-01 -1.905557960271835327e-01 -8.892823010683059692e-03 -1.839844733476638794e-01 3.386435806751251221e-01 1.990627646446228027e-01
-1.133112311363220215e-01 2.299018502235412598e-01 1.313195824623107910e-01 -9.753661602735519409e-02 9.303968399763107300e-02 2.179147899150848389e-01 2.805254049599170685e-02 8.689455687999725342e-02 -3.232956305146217346e-02 -2.083484642207622528e-02 1.532475352287292480e-01 2.361534237861633301e-01 -2.476300448179244995e-01 1.233876645565032959e-01 1.581282317638397217e-01 2.098609656095504761e-01 2.628875374794006348e-01 1.608005464076995850e-01 1.640114188194274902e-01 -7.266207039356231689e-02 2.701522111892700195e-01 -6.240389496088027954e-02 2.119627445936203003e-01 2.113859355449676514e-01 -2.255043238401412964e-01 -6.449107825756072998e-02 -1.449569314718246460e-01 9.031839668750762939e-02 -2.101568728685379028e-01 -6.574864685535430908e-02 -2.365137636661529541e-02 3.055557422339916229e-02 9.819608181715011597e-02 -1.381444185972213745e-01 1.775324046611785889e-01 1.494869142770767212e-01 -1.096383668482303619e-02 1.586890369653701782e-01 1.157412081956863403e-01 1.528175771236419678e-01 2.547490000724792480e-01 1.647132337093353271e-01 -7.708453387022018433e-02 -1.403138041496276855e-01 6.776496767997741699e-02 2.190996706485748291e-02 2.454615682363510132e-01 -1.033485606312751770e-01 -2.436792477965354919e-02 1.132165342569351196e-01
-1.708647757768630981e-01 -1.910182982683181763e-01 -8.086271584033966064e-02 1.897515654563903809e-01 1.817223578691482544e-01 2.427235543727874756e-01 -1.155083179473876953e-01 1.703376471996307373e-01 -2.886018948629498482e-03 -3.336248993873596191e-01 -6.950495392084121704e-02 -1.805595122277736664e-02 -4.036193490028381348e-01 1.892978847026824951e-01 -1.751702725887298584e-01 5.469749122858047485e-02 1.354811247438192368e-02 -4.445177689194679260e-02 2.651892602443695068e-01 1.362623870372772217e-01 3.145090639591217041e-01 1.784109771251678467e-01 1.767771542072296143e-01 1.167087778449058533e-01 -2.803420424461364746e-01 2.412984520196914673e-02 -2.179363220930099487e-01 3.566334769129753113e-02 3.216718137264251709e-02 1.080541089177131653e-01 -1.795999519526958466e-02 -1.725707501173019409e-01 -4.218109883368015289e-03 1.675193756818771362e-01 1.529927849769592285e-01 -6.764677353203296661e-03 1.688597723841667175e-02 -2.001249343156814575e-01 -1.687708795070648193e-01 -2.861569263041019440e-02 1.843829303979873657e-01 -7.415210455656051636e-02 -2.087862938642501831e-01 4.511452093720436096e-02 1.930785924196243286e-02 2.066745907068252563e-01 3.126251697540283203e-01 -2.339085340499877930e-01 -3.833296298980712891e-01 -8.689297735691070557e-02
-3.257822245359420776e-02 1.125439628958702087e-01 3.626547753810882568e-02 2.245583236217498779e-01 -7.970979809761047363e-02 -1.360903829336166382e-01 7.931396365165710449e-02 1.134336367249488831e-01 -2.171349823474884033e-01 1.696328520774841309e-01 2.309460937976837158e-01 2.166717052459716797e-01 -2.140512466430664062e-01 2.118973433971405029e-01 -2.374985069036483765e-01 -2.043130397796630859e-01 1.182580292224884033e-01 2.157445251941680908e-02 -1.074643060564994812e-01 -6.764020025730133057e-02 -1.729910969734191895e-01 1.133171021938323975e-01 6.525094062089920044e-02 1.067517604678869247e-02 1.354603171348571777e-01 -9.905078262090682983e-02 1.466114912182092667e-02 2.298943251371383667e-01 -4.890940338373184204e-02 1.514670848846435547e-01 1.588690727949142456e-01 -1.490853279829025269e-01 2.264982312917709351e-01 1.399765759706497192e-01 -7.052803784608840942e-02 1.401747856289148331e-02 -2.271911650896072388e-01 -4.914996027946472168e-02 3.385907784104347229e-02 -9.690435975790023804e-02 8.429305255413055420e-02 2.111795842647552490e-01 1.329158395528793335e-01 1.768648624420166016e-01 2.437598071992397308e-03 1.457628458738327026e-01 -4.934559389948844910e-02 -5.877031758427619934e-02 -2.060773372650146484e-01 3.057540766894817352e-02
1.338381022214889526e-01 5.965510755777359009e-02 -4.693767521530389786e-03 1.001594811677932739e-01 -1.674085408449172974e-01 2.222794294357299805e-01 -6.676080822944641113e-02 -1.791159659624099731e-01 2.247186154127120972e-01 2.402533292770385742e-01 -6.103419139981269836e-02 -2.932573854923248291e-02 1.672363430261611938e-01 9.237478673458099365e-02 1.665941774845123291e-01 1.876904666423797607e-01 4.380547255277633667e-02 1.250449568033218384e-01 1.378317475318908691e-01 1.173116117715835571e-01 5.783636868000030518e-02 1.712370812892913818e-01 -2.352339774370193481e-01 5.427767336368560791e-02 5.817725136876106262e-02 9.898661077022552490e-02 -5.488603562116622925e-02 -1.150767207145690918e-01 2.156506478786468506e-01 1.831226199865341187e-01 1.273669600486755371e-01 -3.622588142752647400e-02 -2.894353866577148438e-02 1.697744876146316528e-01 2.076312452554702759e-01 3.644242137670516968e-02 -1.548680663108825684e-01 2.270085550844669342e-02 -1.316666901111602783e-01 2.496520802378654480e-02 -1.180267855525016785e-01 1.850760877132415771e-01 3.860773146152496338e-02 4.097072873264551163e-03 2.314168959856033325e-01 1.155477203428745270e-02 2.065936774015426636e-01 8.574422448873519897e-03 1.742738038301467896e-01 1.297181472182273865e-02
-1.395869255065917969e-01 -2.272720187902450562e-01 -2.277606725692749023e-01 -4.452824220061302185e-02 -7.594475895166397095e-02 -1.194369867444038391e-01 -1.353386491537094116e-01 -1.452425122261047363e-01 1.699076145887374878e-01 1.315108090639114380e-01 -1.739213615655899048e-01 -1.155458837747573853e-01 3.358365967869758606e-02 -8.151625096797943115e-02 7.690982520580291748e-02 1.386747695505619049e-02 -1.235124319791793823e-01 -1.788678616285324097e-01 -9.639583528041839600e-02 5.420117080211639404e-02 -2.353244572877883911e-01 -9.493352263234555721e-05 6.239463575184345245e-03 -9.048443287611007690e-02 1.206533461809158325e-01 -1.581677198410034180e-01 -1.162304431200027466e-01 -5.648949742317199707e-02 -1.868087053298950195e-01 -7.871427386999130249e-02 3.302994742989540100e-02 1.264078617095947266e-01 2.107751220464706421e-01 1.143496669828891754e-02 -6.182480603456497192e-02 -1.748777925968170166e-01 -2.458997070789337158e-01 1.978937238454818726e-01 4.704933762550354004e-01 -4.026230424642562866e-02 5.666425824165344238e-02 -4.571031406521797180e-02 2.795631438493728638e-02 -2.407719939947128296e-02 4.778457432985305786e-02 -2.734771370887756348e-01 8.601278811693191528e-02 -1.828976571559906006e-01 3.387787938117980957e-01 1.562496833503246307e-02
2.130293995141983032e-01 -1.893910914659500122e-01 4.000964760780334473e-02 -3.558418527245521545e-02 -1.790950894355773926e-01 9.486074000597000122e-02 -2.595507353544235229e-02 -2.205401808023452759e-01 -8.967915922403335571e-02 -1.932707726955413818e-01 -2.285706400871276855e-01 -2.015587538480758667e-01 2.351594120264053345e-01 1.874313056468963623e-01 -1.501760035753250122e-01 -1.788227409124374390e-01 1.636469215154647827e-01 6.645778566598892212e-02 -9.105377644300460815e-02 -2.048578560352325439e-01 -4.222926497459411621e-02 1.263143122196197510e-01 3.125499188899993896e-02 -3.436668217182159424e-02 4.381666332483291626e-02 1.859853118658065796e-01 -1.858578249812126160e-02 1.453653573989868164e-01 -2.268243432044982910e-01 5.478024482727050781e-02 1.350843012332916260e-01 -1.547175496816635132e-01 -5.218336731195449829e-02 1.041626036167144775e-01 1.331352591514587402e-01 2.274235785007476807e-01 2.130717486143112183e-01 -1.446974575519561768e-01 -1.156814023852348328e-01 2.132372558116912842e-01 -2.485731542110443115e-01 -2.178947925567626953e-01 -7.849002629518508911e-02 2.210740000009536743e-01 5.170300975441932678e-02 -1.033610552549362183e-01 -1.815318763256072998e-01 7.524751126766204834e-02 -2.316414862871170044e-01 -1.311004441231489182e-02
1.365046203136444092e-01 2.373387366533279419e-01 1.220787465572357178e-01 8.828058838844299316e-02 1.339790374040603638e-01 -1.350941359996795654e-01 -2.242114692926406860e-01 1.825880408287048340e-01 7.628380786627531052e-03 3.056820034980773926e-01 2.550821602344512939e-01 -6.146279047243297100e-04 1.990855932235717773e-01 8.455288410186767578e-02 1.218113973736763000e-01 -4.733188077807426453e-02 -6.237319856882095337e-02 3.708236664533615112e-02 -9.322582930326461792e-02 -1.957220435142517090e-01 2.324858605861663818e-01 -1.167255565524101257e-01 -1.455078870058059692e-01 1.904387474060058594e-01 1.041306555271148682e-01 -4.247743636369705200e-02 -3.363058343529701233e-02 1.031462252140045166e-01 -8.906897902488708496e-02 2.313298583030700684e-01 9.906518273055553436e-03 -2.549488842487335205e-01 1.555964201688766479e-01 -9.571008384227752686e-03 1.775514483451843262e-01 -1.908345371484756470e-01 2.010143250226974487e-01 -4.411178827285766602e-02 -2.973296642303466797e-01 1.757041662931442261e-01 -2.622737288475036621e-01 -3.240888714790344238e-01 -5.228043533861637115e-03 -4.224730655550956726e-02 -2.675414085388183594e-01 2.511050105094909668e-01 -2.531021833419799805e-01 1.457075923681259155e-01 -3.270629048347473145e-01 -2.413960732519626617e-02
2.343458980321884155e-01 2.363252490758895874e-01 -1.153170987963676453e-01 1.865737587213516235e-01 -1.973324120044708252e-01 -1.897468566894531250e-01 -1.627736240625381470e-01 4.230684041976928711e-02 1.778789013624191284e-01 -2.278766185045242310e-01 -2.248034775257110596e-01 1.438384354114532471e-01 -1.520391106605529785e-01 -2.516219913959503174e-01 1.030902415513992310e-01 -3.765560314059257507e-02 1.800181418657302856e-01 -1.907669454813003540e-01 3.326624333858489990e-01 1.022691577672958374e-01 -5.415363609790802002e-02 1.941882967948913574e-01 4.724133387207984924e-02 1.440994888544082642e-01 -1.113312393426895142e-01 1.488699465990066528e-01 -4.780564457178115845e-02 -1.727346628904342651e-01 1.151924058794975281e-01 -9.747720509767532349e-02 -1.735516637563705444e-01 1.469222754240036011e-01 5.693105235695838928e-02 -1.802715845406055450e-02 1.216120366007089615e-02 1.585635393857955933e-01 2.207497209310531616e-01 2.015060931444168091e-01 -1.445130705833435059e-01 2.599124014377593994e-01 1.966085135936737061e-01 -9.887982904911041260e-02 1.877532303333282471e-01 -1.578868776559829712e-01 -7.429011911153793335e-02 1.331159919500350952e-01 2.492421269416809082e-01 8.959296345710754395e-02 -3.335552811622619629e-01 6.230081990361213684e-02
-1.316320896148681641e-01 2.054856717586517334e-01 1.812176406383514404e-01 9.993204474449157715e-02 1.192719936370849609e-01 -4.422566294670104980e-02 -2.185896597802639008e-02 -1.375768184661865234e-01 1.250184923410415649e-01 2.958965301513671875e-01 1.101171225309371948e-01 1.987254768610000610e-01 1.753215491771697998e-01 2.118617445230484009e-01 -2.023363411426544189e-01 2.014498263597488403e-01 -1.995193511247634888e-01 -2.360109984874725342e-01 1.173967793583869934e-01 -8.702566474676132202e-02 1.215924993157386780e-01 1.161970645189285278e-01 -1.258159726858139038e-01 1.273616403341293335e-01 2.362207323312759399e-01 9.472972154617309570e-02 -2.187807112932205200e-01 8.682862669229507446e-02 1.769309788942337036e-01 -6.092283502221107483e-02 2.855772711336612701e-02 -2.041921764612197876e-02 1.481892354786396027e-02 2.115646451711654663e-01 1.395538151264190674e-01 9.890930354595184326e-02 1.978456377983093262e-01 -2.263563126325607300e-01 1.485563516616821289e-01 -2.938902974128723145e-01 4.114839807152748108e-02 2.222858518362045288e-01 2.019469290971755981e-01 5.776551738381385803e-02 -1.682624071836471558e-01 5.132601410150527954e-02 2.560042776167392731e-02 -1.926203072071075439e-01 -1.384162157773971558e-01 3.953876495361328125e-01
-8.335196971893310547e-02 -1.942134648561477661e-01 -3.753636777400970459e-02 -8.995086699724197388e-02 1.928474903106689453e-01 -1.551121175289154053e-01 -6.366789340972900391e-02 -8.045177906751632690e-02 -2.130430489778518677e-01 -1.895953565835952759e-01 2.583889067173004150e-01 3.438190743327140808e-02 7.065699994564056396e-02 2.056427448987960815e-01 1.335176825523376465e-01 2.005878537893295288e-01 -2.371064946055412292e-02 -1.660713851451873779e-01 1.640284657478332520e-01 -2.327761054039001465e-01 -2.347078770399093628e-01 9.861650317907333374e-02 1.162046045064926147e-01 -1.318108290433883667e-02 -1.326444596052169800e-01 -1.640796959400177002e-01 -1.548404246568679810e-01 2.410069853067398071e-01 1.137845367193222046e-01 -7.538027316331863403e-02 1.807134300470352173e-01 1.542586684226989746e-01 2.665407061576843262e-01 1.652749069035053253e-02 -2.382740750908851624e-02 7.674904167652130127e-02 -3.090252541005611420e-02 1.164729744195938110e-01 2.009108364582061768e-01 -1.600521802902221680e-01 -1.359764039516448975e-01 3.092498779296875000e-01 -1.484304815530776978e-01 -6.020356668159365654e-04 1.389829516410827637e-01 1.741070300340652466e-01 -9.389166720211505890e-03 3.296081209555268288e-03 2.236651927232742310e-01 -2.558474242687225342e-01
-4.276864975690841675e-02 3.369808942079544067e-02 -1.252074074000120163e-02 -1.734206080436706543e-01 2.031257301568984985e-01 2.219590395689010620e-01 -6.711092777550220490e-03 2.261704355478286743e-01 2.150306291878223419e-02 -2.231945544481277466e-01 -1.547881513833999634e-01 -8.149804174900054932e-02 1.456889063119888306e-01 -6.519684940576553345e-02 1.927371770143508911e-01 -1.686108410358428955e-01 -1.361501514911651611e-01 -9.254008531570434570e-02 -2.007107809185981750e-02 -2.319872975349426270e-01 6.020578369498252869e-02 6.137591972947120667e-02 1.610825508832931519e-01 -6.476532667875289917e-02 1.742496192455291748e-01 7.540203630924224854e-02 -1.567203551530838013e-01 -1.245617866516113281e-02 -2.966667711734771729e-02 1.910435557365417480e-01 -5.118616297841072083e-02 3.162833303213119507e-02 1.464334279298782349e-01 -6.212021224200725555e-03 -3.894530609250068665e-02 1.596560776233673096e-01 -1.221199780702590942e-01 1.267929077148437500e-01 -1.737695373594760895e-02 -7.831752300262451172e-02 -6.524038314819335938e-02 -1.777565181255340576e-01 2.165701836347579956e-01 -1.426537781953811646e-01 -8.636821806430816650e-02 3.527027368545532227e-02 -1.210880354046821594e-01 -1.116450950503349304e-01 1.367783546447753906e-01 3.243498131632804871e-02
1.287667006254196167e-01 3.848282247781753540e-02 2.750315964221954346e-01 2.596049010753631592e-01 2.568557858467102051e-01 -7.495869416743516922e-03 -4.351616278290748596e-02 -3.513826802372932434e-02 2.076708972454071045e-01 -3.558060526847839355e-01 -3.521902263164520264e-01 1.219332870095968246e-02 -7.181049883365631104e-02 -1.482329219579696655e-01 8.474129438400268555e-02 -2.900022864341735840e-01 -4.590191319584846497e-02 -1.843758225440979004e-01 1.366617232561111450e-01 -1.030355170369148254e-01 1.249366253614425659e-01 -8.211448788642883301e-02 -1.101147085428237915e-01 -2.216992676258087158e-01 3.407023847103118896e-02 -1.833345592021942139e-01 1.670475676655769348e-02 -1.672080606222152710e-01 -1.604378968477249146e-01 -1.585746705532073975e-01 -6.413844227790832520e-02 2.245016396045684814e-01 9.948338381946086884e-03 4.017437398433685303e-01 -6.510962545871734619e-02 1.134593412280082703e-01 1.857457011938095093e-01 1.810656487941741943e-01 3.637202382087707520e-01 -5.361347924917936325e-03 -9.462963789701461792e-02 -1.643137484788894653e-01 9.490694850683212280e-02 2.438725531101226807e-01 1.388604342937469482e-01 2.621231377124786377e-01 1.257003936916589737e-02 2.402729243040084839e-01 1.340605020523071289e-01 3.292645514011383057e-02
-1.348100900650024414e-01 6.880980730056762695e-02 1.104760821908712387e-02 -9.261967986822128296e-02 1.223570406436920166e-01 1.095641925930976868e-01 -1.188525706529617310e-01 6.116214394569396973e-02 -6.750611215829849243e-02 8.100697398185729980e-02 -2.339289337396621704e-02 1.265669316053390503e-01 1.509045958518981934e-01 -2.008875310420989990e-01 -9.849844127893447876e-02 -1.386443078517913818e-01 -1.810254305601119995e-01 -7.616544514894485474e-02 -2.850262224674224854e-01 1.805024594068527222e-01 9.225671738386154175e-02 6.757829803973436356e-03 -2.392440885305404663e-01 -7.887680083513259888e-03 -1.116602569818496704e-01 -1.453436166048049927e-01 4.876976832747459412e-02 -1.661087274551391602e-01 -1.488917022943496704e-01 -2.090745978057384491e-02 1.685214042663574219e-01 -8.452672511339187622e-02 -6.127484142780303955e-02 1.705108433961868286e-01 1.396860331296920776e-01 1.304192990064620972e-01 -2.321633845567703247e-01 2.306733131408691406e-01 3.303957879543304443e-01 1.651818603277206421e-01 1.795355230569839478e-02 2.200638204813003540e-01 -5.924419313669204712e-02 -1.505160331726074219e-01 5.169192329049110413e-02 3.578696027398109436e-02 -1.025224775075912476e-01 -2.448416352272033691e-01 2.579067945480346680e-01 2.963861823081970215e-01
1.943542659282684326e-01 -2.076537907123565674e-01 -1.807086616754531860e-01 1.442285776138305664e-01 -2.007125914096832275e-01 1.192107945680618286e-01 -2.062513530254364014e-01 8.428193628787994385e-02 6.695156544446945190e-02 -2.745325677096843719e-02 -1.085195690393447876e-02 -7.319470494985580444e-02 -1.291681379079818726e-01 2.305250316858291626e-01 -2.308470457792282104e-01 1.339473575353622437e-01 1.474795192480087280e-01 -7.073928415775299072e-02 1.095458641648292542e-01 -3.744170442223548889e-02 1.827137172222137451e-01 -1.062645763158798218e-01 2.221268564462661743e-01 -5.923915281891822815e-02 -2.767296321690082550e-02 1.498836427927017212e-01 -6.831881403923034668e-02 -1.176642533391714096e-02 -2.142813755199313164e-03 -1.798692718148231506e-02 -8.879136294126510620e-02 2.042555510997772217e-01 -4.084705933928489685e-02 -2.155721187591552734e-01 -1.990520358085632324e-01 1.379464864730834961e-01 -1.347971707582473755e-01 -1.312269419431686401e-01 1.230708230286836624e-02 4.816813766956329346e-02 -2.104416191577911377e-01 1.594019979238510132e-01 -6.294064968824386597e-02 -1.473783105611801147e-01 -1.422976553440093994e-01 3.655429929494857788e-02 4.016976058483123779e-02 -1.355053335428237915e-01 1.742751747369766235e-01 1.354017406702041626e-01
5.395014584064483643e-02 -4.192072153091430664e-02 -1.039137318730354309e-01 2.788228094577789307e-01 3.000938594341278076e-01 -4.085462540388107300e-02 -1.737151145935058594e-01 9.280481934547424316e-02 -7.364518940448760986e-02 3.572423011064529419e-02 -1.159990355372428894e-01 -2.621879279613494873e-01 -2.097525745630264282e-01 -2.173851281404495239e-01 -5.010479316115379333e-02 -8.916293084621429443e-02 5.569801107048988342e-02 3.116927295923233032e-02 -1.149644032120704651e-01 7.345153391361236572e-02 3.558624982833862305e-01 -1.129832640290260315e-01 -9.589401632547378540e-02 5.358415096998214722e-02 1.810457408428192139e-01 -8.393166959285736084e-02 1.237961351871490479e-01 -2.421663552522659302e-01 1.486667692661285400e-01 -1.127235814929008484e-01 2.315846383571624756e-01 -1.603229641914367676e-01 -1.025007963180541992e-01 -2.335460633039474487e-01 2.222149819135665894e-01 2.017514407634735107e-01 1.025980617851018906e-02 7.126672565937042236e-02 7.089380919933319092e-02 3.866983354091644287e-01 2.993949353694915771e-01 -2.981608808040618896e-01 2.065874785184860229e-01 1.973815113306045532e-01 2.567614987492561340e-02 2.713489532470703125e-01 5.138840675354003906e-01 1.133786216378211975e-01 -2.082665562629699707e-01 1.883431337773799896e-02
2.481495887041091919e-01 -1.877024620771408081e-01 7.072627544403076172e-02 -1.947932690382003784e-01 8.829584717750549316e-02 -8.511859178543090820e-02 8.396168798208236694e-02 4.849787801504135132e-02 -1.337645053863525391e-01 1.926752179861068726e-01 7.450331747531890869e-02 -2.492214739322662354e-01 7.775686681270599365e-02 1.396293938159942627e-01 -7.823301851749420166e-02 -1.123648881912231445e-02 1.215992569923400879e-01 8.778607845306396484e-02 1.306687742471694946e-01 -5.160067602992057800e-02 -2.336687147617340088e-01 8.077503740787506104e-02 1.085727810859680176e-01 5.418952181935310364e-02 -2.532215043902397156e-02 -1.848633289337158203e-01 -3.526236489415168762e-02 2.586402893066406250e-01 8.243929594755172729e-02 -1.820081472396850586e-01 -1.598414592444896698e-02 -1.618151366710662842e-01 -1.082602590322494507e-01 1.561509221792221069e-01 -1.719943135976791382e-01 -1.683505475521087646e-01 1.697488129138946533e-01 2.163700014352798462e-01 -1.169641092419624329e-01 1.250772178173065186e-01 -2.938236296176910400e-01 2.548146545886993408e-01 -2.864294312894344330e-02 -9.416898339986801147e-02 6.535541266202926636e-02 1.296451538801193237e-01 -1.702065765857696533e-01 2.293290942907333374e-01 -1.881476342678070068e-01 -3.625817298889160156e-01
8.785690367221832275e-02 2.034301757812500000e-01 -9.246296435594558716e-02 -2.540844492614269257e-02 -1.870169304311275482e-02 -1.812176220118999481e-02 -1.402871906757354736e-01 -2.269322872161865234e-01 3.745550289750099182e-02 1.219718232750892639e-01 2.471260353922843933e-02 -2.902043238282203674e-02 1.058233082294464111e-01 -7.849750667810440063e-02 1.717531085014343262e-01 -2.289087176322937012e-01 -3.244841098785400391e-02 2.391124330461025238e-02 -9.052887558937072754e-02 2.156091630458831787e-01 2.029140479862689972e-02 2.035197168588638306e-01 4.263145476579666138e-02 1.208864338696002960e-02 1.839325726032257080e-01 1.418726146221160889e-02 -5.124330893158912659e-02 -1.583088487386703491e-01 -1.477108895778656006e-01 -2.942582033574581146e-02 -1.877690553665161133e-01 1.004371121525764465e-01 -6.927235424518585205e-02 -1.353591829538345337e-01 -1.541148573160171509e-01 2.378056524321436882e-03 -1.588471047580242157e-02 -2.149194329977035522e-01 -9.250798076391220093e-02 -1.130156517028808594e-01 -1.844457238912582397e-01 -1.876677274703979492e-01 -2.297771275043487549e-01 -1.646868139505386353e-01 9.953218698501586914e-02 1.717488318681716919e-01 -1.744039952754974365e-01 1.431348174810409546e-01 1.369563490152359009e-01 -7.349479943513870239e-02
6.642072647809982300e-02 -2.040483951568603516e-01 -2.474688887596130371e-01 6.446073949337005615e-02 -1.512755407020449638e-03 9.248374402523040771e-02 -7.500835508108139038e-02 -7.444671541452407837e-02 1.381875127553939819e-01 -2.401384711265563965e-01 -2.421484440565109253e-01 -1.121756955981254578e-01 -3.125790953636169434e-01 -1.799638122320175171e-01 1.633594185113906860e-01 9.610284864902496338e-02 -1.725533753633499146e-01 -7.261516153812408447e-02 1.091461349278688431e-02 -3.575285524129867554e-02 2.583689987659454346e-01 2.090110927820205688e-01 1.601861864328384399e-01 -1.702552288770675659e-01 8.267695456743240356e-02 -1.239501237869262695e-01 -1.212855353951454163e-01 -2.316747307777404785e-01 1.642298996448516846e-01 -6.316059082746505737e-02 2.540341019630432129e-01 -5.318405851721763611e-02 -7.399585843086242676e-02 2.378955483436584473e-01 -6.590015720576047897e-03 -1.571511179208755493e-01 -1.799857243895530701e-02 -1.924942433834075928e-01 2.669680491089820862e-02 -9.910093247890472412e-02 -1.354673951864242554e-01 2.004163712263107300e-01 -1.904168426990509033e-01 2.922531366348266602e-01 -1.346223503351211548e-01 1.977754682302474976e-01 -3.725897148251533508e-02 -5.246997997164726257e-02 -8.984526991844177246e-02 9.712184220552444458e-02
1.487774103879928589e-01 -1.107548773288726807e-01 3.040506504476070404e-02 1.124408543109893799e-01 -3.680293634533882141e-02 -1.419866234064102173e-01 2.190105915069580078e-01 -1.931442022323608398e-01 1.549767702817916870e-01 3.566537201404571533e-01 1.846983432769775391e-01 3.242014646530151367e-01 4.074395895004272461e-01 -2.802697196602821350e-02 -1.939572580158710480e-02 6.090124323964118958e-02 -2.348510622978210449e-01 -1.093954965472221375e-02 -1.463059037923812866e-01 -1.709276437759399414e-01 -2.483906596899032593e-01 -4.603368341922760010e-01 1.441658288240432739e-01 -2.066223472356796265e-01 3.160235658288002014e-02 1.668154150247573853e-01 -4.368925839662551880e-02 -3.252722024917602539e-01 1.639425158500671387e-01 7.553873211145401001e-02 1.091380566358566284e-01 2.982433438301086426e-01 1.408730819821357727e-02 -4.141248464584350586e-01 2.129328548908233643e-01 -1.154841706156730652e-01 7.259362936019897461e-02 3.101686947047710419e-02 1.552963852882385254e-01 7.836820185184478760e-02 1.829607188701629639e-01 -6.956405192613601685e-02 -4.110642708837985992e-03 -2.349079102277755737e-01 6.564191728830337524e-02 -1.962743699550628662e-01 -1.107947155833244324e-02 1.123131588101387024e-01 1.531504839658737183e-01 3.680233359336853027e-01
1.862659007310867310e-01 7.585084438323974609e-02 8.700985461473464966e-02 2.009308934211730957e-01 1.414451897144317627e-01 2.116743661463260651e-02 -1.362529098987579346e-01 2.377203553915023804e-01 4.959731362760066986e-03 -7.032838463783264160e-02 -6.344207562506198883e-03 -1.779290139675140381e-01 6.483566015958786011e-02 9.255553036928176880e-02 -1.357581317424774170e-01 1.246112398803234100e-02 1.441636383533477783e-01 2.382794320583343506e-01 1.014176458120346069e-01 1.770380139350891113e-01 -1.589597463607788086e-01 1.888076215982437134e-01 -1.429187059402465820e-01 1.195491850376129150e-01 -5.129301920533180237e-02 1.888763904571533203e-02 4.963308572769165039e-02 1.245532110333442688e-01 2.212747186422348022e-01 1.081815883517265320e-01 2.379316389560699463e-01 1.819795668125152588e-01 2.107037045061588287e-02 2.284397780895233154e-01 -4.516430199146270752e-02 -1.692991405725479126e-01 -1.471072882413864136e-01 1.964998394250869751e-01 -2.455623298883438110e-01 1.701654940843582153e-01 -2.022495418787002563e-01 -4.772184044122695923e-02 -9.630935639142990112e-02 1.350905150175094604e-01 2.275120764970779419e-01 -6.063050031661987305e-02 -1.369756013154983521e-01 -1.117023732513189316e-02 -2.118820399045944214e-01 2.136236429214477539e-01
