50
50
-1.912468820810317993e-01 1.734504699707031250e-01 -6.650971621274948120e-02 -2.257249802350997925e-01 3.016849160194396973e-01 -2.243362367153167725e-01 -2.247651815414428711e-01 2.942593209445476532e-02 -1.004302203655242920e-01 1.830087751150131226e-01 1.348635274916887283e-02 2.019512802362442017e-01 3.458312526345252991e-02 1.004489511251449585e-01 -3.231815993785858154e-02 5.820267647504806519e-02 2.031750828027725220e-01 -3.203027322888374329e-02 -2.008726075291633606e-02 6.880805641412734985e-02 9.579189121723175049e-03 3.239726275205612183e-02 2.799130976200103760e-01 -1.007857639342546463e-02 1.183354109525680542e-01 -2.678187191486358643e-01 -1.786646097898483276e-01 -1.849154829978942871e-01 -6.967211514711380005e-02 -1.897579431533813477e-01 -2.170013822615146637e-02 2.698587179183959961e-01 -2.444300055503845215e-01 2.814297191798686981e-02 4.852037131786346436e-02 -2.652974426746368408e-01 2.710541188716888428e-01 -1.031653489917516708e-02 -8.619433641433715820e-02 1.376005560159683228e-01 -1.595862656831741333e-01 -1.192016154527664185e-01 2.905766367912292480e-01 1.286114454269409180e-01 -2.207045406103134155e-01 1.322133541107177734e-01 -4.228845238685607910e-03 -5.795428901910781860e-02 2.863405644893646240e-01 3.082520961761474609e-01
2.928261458873748779e-01 7.066435366868972778e-02 9.429251775145530701e-03 1.669235974550247192e-01 -1.989187747240066528e-01 -1.861721873283386230e-01 -5.139987170696258545e-02 6.744215637445449829e-02 2.678849361836910248e-02 2.050576955080032349e-01 -2.112743258476257324e-01 -1.232095882296562195e-01 9.636510908603668213e-02 -1.164595335721969604e-01 -5.050944164395332336e-02 4.046215489506721497e-02 -3.438682993873953819e-03 2.374751567840576172e-01 9.968437254428863525e-02 8.193756453692913055e-03 -1.918110251426696777e-01 -1.097738593816757202e-01 2.604986168444156647e-02 -1.864456087350845337e-01 1.600885540246963501e-01 -1.359542738646268845e-02 -1.157305017113685608e-01 -5.817468091845512390e-02 -5.170037224888801575e-02 -1.009905338287353516e-02 2.266784608364105225e-01 -3.116461038589477539e-01 1.309908330440521240e-01 -8.643273264169692993e-02 -1.507254689931869507e-01 8.318670839071273804e-02 -2.660664319992065430e-01 -2.086635231971740723e-01 -2.393321841955184937e-01 8.552536368370056152e-02 -1.399231553077697754e-01 2.580515444278717041e-01 3.554235771298408508e-02 -1.104329451918601990e-01 3.544628620147705078e-02 1.692398190498352051e-01 -8.463202416896820068e-02 3.348659574985504150e-01 -1.768341362476348877e-01 -2.856159806251525879e-01
1.293183118104934692e-01 1.747962087392807007e-01 -1.371944248676300049e-01 2.126414030790328979e-01 1.436879634857177734e-01 1.529733538627624512e-01 -2.817736268043518066e-01 -4.711223393678665161e-02 2.064870446920394897e-01 1.475870162248611450e-01 -1.556077897548675537e-01 -8.856520056724548340e-02 -9.861388802528381348e-02 1.913051158189773560e-01 -3.516791015863418579e-02 3.420708701014518738e-02 -1.298761963844299316e-01 -1.582043319940567017e-01 1.794811040163040161e-01 -6.425846368074417114e-02 -1.732175797224044800e-01 -9.370581828989088535e-04 1.432656943798065186e-01 -1.166463363915681839e-02 3.588644787669181824e-02 7.733186334371566772e-02 -2.262933254241943359e-01 -2.351268231868743896e-01 -1.994681954383850098e-01 5.900540202856063843e-02 -1.496509313583374023e-01 5.362407490611076355e-02 1.644108593463897705e-01 -4.759102687239646912e-02 -1.893485337495803833e-01 2.026505470275878906e-01 -1.677207499742507935e-01 -1.695811748504638672e-01 -2.084552496671676636e-01 -2.495524883270263672e-01 1.641998291015625000e-01 1.937579959630966187e-01 -1.752051860094070435e-01 1.195795089006423950e-01 7.095658779144287109e-02 -3.166349828243255615e-01 -2.895510755479335785e-02 -1.538406759500503540e-01 -3.100814521312713623e-01 -1.859467625617980957e-01
1.975053101778030396e-01 -1.155708804726600647e-01 -2.541461288928985596e-01 1.444391459226608276e-01 -3.186777532100677490e-01 -1.077432706952095032e-01 -6.181229278445243835e-02 -9.218389540910720825e-02 6.064129993319511414e-03 2.176234275102615356e-01 -2.058337479829788208e-01 1.214362084865570068e-01 4.524227604269981384e-02 1.670969426631927490e-01 4.494374617934226990e-02 1.903588771820068359e-01 -2.889237403869628906e-01 2.604240775108337402e-01 1.917850375175476074e-01 -1.146411523222923279e-01 2.833444625139236450e-02 -1.131800264120101929e-01 2.219757437705993652e-01 3.683555871248245239e-02 -1.018060222268104553e-01 2.136197984218597412e-01 1.204523295164108276e-01 2.158027701079845428e-02 2.815214991569519043e-01 1.477091312408447266e-01 2.387596964836120605e-01 -2.378827929496765137e-01 8.376124501228332520e-02 -1.747717857360839844e-01 2.579133212566375732e-01 1.478959619998931885e-01 -2.330519258975982666e-01 -2.654602564871311188e-02 -3.260397315025329590e-01 7.210134714841842651e-02 6.479667872190475464e-02 -1.257966607809066772e-01 -8.992979675531387329e-02 1.834801882505416870e-01 4.930136725306510925e-02 9.828335046768188477e-02 -1.991234123706817627e-01 2.616944909095764160e-01 -1.724277250468730927e-02 -9.841517359018325806e-02
1.093117054551839828e-02 1.074923872947692871e-01 2.670255862176418304e-02 1.011431440711021423e-01 2.179381102323532104e-01 3.120468854904174805e-01 3.892328962683677673e-02 -2.188677042722702026e-01 2.085656225681304932e-01 2.999363839626312256e-01 1.184111088514328003e-01 1.645906865596771240e-01 3.208087682723999023e-01 -1.611650288105010986e-01 2.444071024656295776e-01 -5.803559347987174988e-02 6.981749832630157471e-02 -1.594603359699249268e-01 -3.274551331996917725e-01 -2.559027075767517090e-01 1.185011342167854309e-01 2.328537553548812866e-01 -4.036144539713859558e-02 -7.602618634700775146e-02 -1.492178905755281448e-02 -2.990378737449645996e-01 -2.746621668338775635e-01 6.471824645996093750e-02 -2.667537927627563477e-01 -4.027500376105308533e-02 -5.821561068296432495e-02 -4.808735847473144531e-02 -2.635696232318878174e-01 -1.192168984562158585e-02 -3.157638013362884521e-02 2.210078537464141846e-01 -1.849746890366077423e-02 -2.321444004774093628e-01 2.696426510810852051e-01 -2.405430078506469727e-01 1.511285006999969482e-01 -9.490632265806198120e-02 2.430647015571594238e-01 2.059001773595809937e-01 -2.744700312614440918e-01 -2.766290903091430664e-01 2.480286806821823120e-01 -3.938087522983551025e-01 2.961002290248870850e-01 1.693996191024780273e-01
-1.822017133235931396e-01 -1.819312125444412231e-01 -5.034116655588150024e-02 -1.593610942363739014e-01 -1.133102029561996460e-01 1.682422310113906860e-01 1.323868483304977417e-01 1.683231145143508911e-01 -2.536908984184265137e-01 1.033545508980751038e-01 -1.808657944202423096e-01 1.596135646104812622e-01 2.908405959606170654e-01 4.090807735919952393e-01 -2.042837254703044891e-02 -9.138301759958267212e-02 1.844912767410278320e-01 5.914101377129554749e-02 -1.179990991950035095e-01 -1.588133573532104492e-01 8.389213681221008301e-02 -1.266376227140426636e-01 -1.907343864440917969e-01 -2.635572552680969238e-01 8.290617167949676514e-02 -2.705871164798736572e-01 -9.592853486537933350e-02 -6.264123320579528809e-02 -2.234175950288772583e-01 6.519269943237304688e-02 -1.279920488595962524e-01 -2.897104918956756592e-01 -4.564578458666801453e-02 2.395832166075706482e-02 -4.919771477580070496e-02 2.338446229696273804e-01 -1.613753288984298706e-01 -1.794049292802810669e-01 2.386889010667800903e-01 -1.591653674840927124e-01 -1.825529783964157104e-01 -1.250207275152206421e-01 -2.697292864322662354e-01 -1.746803969144821167e-01 -6.566735357046127319e-02 -5.611759610474109650e-03 -1.388236135244369507e-01 6.984309852123260498e-02 1.734205484390258789e-01 7.744827121496200562e-02
5.314583331346511841e-02 6.474024057388305664e-02 -1.130319088697433472e-01 2.272942066192626953e-01 7.456222176551818848e-02 -6.125418841838836670e-02 6.699233502149581909e-02 -2.351534068584442139e-01 -8.384387940168380737e-02 2.096424102783203125e-01 2.047477662563323975e-01 2.815946638584136963e-01 2.727501094341278076e-01 -4.309335723519325256e-02 -1.162541955709457397e-01 -4.399861991405487061e-01 -8.331401646137237549e-02 3.916049003601074219e-01 -3.735885024070739746e-01 -1.126997545361518860e-01 2.633752860128879547e-02 7.056036591529846191e-02 9.708920493721961975e-03 1.189192533493041992e-01 1.835768222808837891e-01 2.644740976393222809e-02 -1.374714225530624390e-01 -2.234781980514526367e-01 -2.667078375816345215e-01 -1.689421534538269043e-01 -1.811345219612121582e-01 -1.101405918598175049e-01 1.289840340614318848e-01 -1.428350061178207397e-01 2.608888745307922363e-01 -6.954837590456008911e-02 -2.788147702813148499e-02 -3.060255646705627441e-01 1.913927346467971802e-01 -1.479560583829879761e-01 -1.786597073078155518e-01 6.720437854528427124e-02 1.045129522681236267e-01 -2.838506996631622314e-01 -2.658932209014892578e-01 -1.149936392903327942e-01 2.488089054822921753e-01 2.082917839288711548e-01 -1.206858903169631958e-01 -4.756510257720947266e-01
-6.882103532552719116e-02 3.279342874884605408e-02 2.229602038860321045e-01 -2.571905031800270081e-02 -2.437489777803421021e-01 -3.554651141166687012e-02 2.566622197628021240e-01 -5.345231667160987854e-02 -5.570346117019653320e-02 1.133829206228256226e-01 -1.075683459639549255e-01 1.759562045335769653e-01 -1.998298317193984985e-01 -3.100689351558685303e-01 -2.713623344898223877e-01 6.326965242624282837e-02 1.846876740455627441e-01 2.155495136976242065e-01 1.845066621899604797e-02 -4.857619106769561768e-02 8.134694397449493408e-02 -1.112336143851280212e-01 -2.706307470798492432e-01 -1.752002686262130737e-01 -1.465639173984527588e-01 -2.607221305370330811e-01 -9.629163891077041626e-03 -7.008233666419982910e-02 -1.921425908803939819e-01 2.495716065168380737e-01 -6.821119040250778198e-02 -1.257531791925430298e-01 2.046484947204589844e-01 1.449340283870697021e-01 1.611918061971664429e-01 1.067982241511344910e-01 1.896626055240631104e-01 1.534715890884399414e-01 -7.514866441488265991e-02 2.699637711048126221e-01 1.029893159866333008e-01 1.272158026695251465e-01 8.699949085712432861e-02 1.984662413597106934e-01 -2.184975296258926392e-01 -3.562149107456207275e-01 1.633668690919876099e-01 -1.521405279636383057e-01 -2.754991501569747925e-02 1.279452592134475708e-01
1.932217031717300415e-01 -1.947218626737594604e-01 -1.091761514544487000e-01 -5.385866761207580566e-02 2.002103626728057861e-02 1.527896970510482788e-01 -3.975057229399681091e-02 -1.982094347476959229e-01 1.290518939495086670e-01 9.690938144922256470e-02 1.388875860720872879e-02 -1.185714602470397949e-01 2.460953742265701294e-01 1.592946946620941162e-01 8.213254809379577637e-02 -8.671281486749649048e-02 -4.464849457144737244e-02 -1.359788328409194946e-01 1.567429155111312866e-01 -1.835058927536010742e-01 -2.046936005353927612e-01 6.946002691984176636e-02 2.265923768281936646e-01 -1.043150573968887329e-01 1.220850646495819092e-02 -1.533692032098770142e-01 1.319930255413055420e-01 9.143870323896408081e-03 -8.540994673967361450e-02 2.329405844211578369e-01 1.216756626963615417e-01 -8.986333385109901428e-03 -1.339052617549896240e-01 -1.189785301685333252e-01 -1.739265024662017822e-01 -6.192817538976669312e-02 -1.494041383266448975e-01 -1.636513918638229370e-01 -7.990707457065582275e-02 2.204636633396148682e-01 -1.387152671813964844e-01 2.054401934146881104e-01 2.980986610054969788e-02 7.445283979177474976e-02 1.987755894660949707e-01 -4.455372691154479980e-02 -1.060577705502510071e-01 4.797616973519325256e-02 8.441038429737091064e-03 4.849760234355926514e-02
-1.947393715381622314e-01 -1.628178358078002930e-01 -2.325774729251861572e-02 2.078857868909835815e-01 -4.384719580411911011e-02 1.919635534286499023e-01 -1.261184811592102051e-01 2.608893066644668579e-02 1.734790354967117310e-01 -4.389103129506111145e-02 1.603263169527053833e-01 1.129523441195487976e-01 2.369766831398010254e-01 -1.370984613895416260e-01 -2.218558639287948608e-01 1.544628590345382690e-01 -1.674088388681411743e-01 6.848910450935363770e-02 6.574098765850067139e-02 1.425095498561859131e-01 -5.049566552042961121e-02 -1.568021029233932495e-01 2.530536949634552002e-01 3.624393045902252197e-02 -5.635687708854675293e-02 4.211944341659545898e-02 1.013881638646125793e-01 -3.092749230563640594e-02 -1.660852879285812378e-01 2.098738253116607666e-01 -3.834727406501770020e-02 -1.213373839855194092e-01 4.643927887082099915e-02 -2.241938561201095581e-02 -1.345775425434112549e-01 -4.164744168519973755e-02 -3.748963028192520142e-02 1.979496031999588013e-01 -2.160954475402832031e-01 -4.321188852190971375e-02 2.225947231054306030e-01 4.188736900687217712e-02 -8.144990541040897369e-03 2.108846157789230347e-01 -1.287377476692199707e-01 1.727190911769866943e-01 1.144963651895523071e-01 2.736609876155853271e-01 -8.567731082439422607e-02 -2.832778990268707275e-01
1.797456741333007812e-01 -1.079147681593894958e-01 8.582902699708938599e-02 5.074115097522735596e-02 1.200793832540512085e-01 -2.198745459318161011e-01 -3.016603589057922363e-01 2.487693279981613159e-01 -2.129193395376205444e-01 -1.445889919996261597e-01 1.707996726036071777e-01 -7.644763588905334473e-02 -2.945471554994583130e-02 2.182484567165374756e-01 9.742033481597900391e-02 1.414493322372436523e-01 -7.141482830047607422e-02 3.375035477802157402e-03 3.525791317224502563e-02 -1.465077102184295654e-01 -3.845240175724029541e-02 1.189447939395904541e-01 -1.756705343723297119e-01 -2.035960108041763306e-01 -7.932799309492111206e-02 -1.345116198062896729e-01 -1.247902633622288704e-03 -7.348824292421340942e-02 1.272353250533342361e-02 1.942037343978881836e-01 -6.048330292105674744e-02 7.155058532953262329e-02 -2.291774302721023560e-01 -2.051099985837936401e-01 -1.743459375575184822e-03 -1.460525542497634888e-01 -5.394037067890167236e-02 6.358074396848678589e-02 -1.720402091741561890e-01 -2.558237016201019287e-01 -1.955237835645675659e-01 -6.517654657363891602e-02 1.772473454475402832e-01 2.080762833356857300e-01 -2.501305639743804932e-01 1.858024150133132935e-01 -1.416393071413040161e-01 2.080041319131851196e-01 9.102195501327514648e-03 -1.962476819753646851e-01
4.627157747745513916e-02 -7.273480761796236038e-03 -2.251080125570297241e-01 -6.077831238508224487e-02 1.388590335845947266e-01 -1.998876184225082397e-01 2.011936008930206299e-01 -1.050035059452056885e-01 -2.423373907804489136e-01 -5.083784461021423340e-02 2.459201961755752563e-01 1.940058916807174683e-01 3.420075867325067520e-03 -2.245849519968032837e-01 -6.279632449150085449e-02 -7.533326745033264160e-03 -1.363259255886077881e-01 1.587136089801788330e-01 -2.033744007349014282e-01 -1.814484000205993652e-01 -2.274221777915954590e-01 1.355464011430740356e-01 6.856343895196914673e-02 1.936366707086563110e-01 -3.938544169068336487e-02 -3.307992964982986450e-02 2.848532795906066895e-01 -2.133765220642089844e-01 6.411603838205337524e-02 1.419092435389757156e-02 1.243935599923133850e-01 -5.870969966053962708e-02 1.374496072530746460e-01 4.608839750289916992e-02 -1.062354631721973419e-02 1.375542879104614258e-01 -6.985256820917129517e-02 5.955151468515396118e-02 9.437738358974456787e-02 -1.395706087350845337e-01 5.247781425714492798e-02 -2.210723422467708588e-02 1.694991588592529297e-01 -1.542875766754150391e-01 -2.109124660491943359e-01 -1.634311527013778687e-01 -1.862508654594421387e-01 1.663803160190582275e-01 2.300904132425785065e-02 -5.220893304795026779e-03
-2.440406680107116699e-01 1.661374717950820923e-01 -2.044922113418579102e-01 -2.360935658216476440e-01 -5.101816263049840927e-03 -1.295270118862390518e-02 1.786034852266311646e-01 7.942067831754684448e-02 9.314090013504028320e-02 -1.889043003320693970e-01 5.448415502905845642e-02 -1.795456558465957642e-02 -2.393545210361480713e-01 -4.169974941760301590e-03 3.026800230145454407e-02 -1.137072369456291199e-01 -4.983282834291458130e-02 -2.383442223072052002e-01 3.654016181826591492e-02 -1.423225253820419312e-01 1.923609822988510132e-01 1.447078287601470947e-01 2.825642228126525879e-01 2.398696988821029663e-01 -2.528117299079895020e-01 1.767958700656890869e-01 1.338742077350616455e-01 -1.928346902132034302e-01 -1.062092259526252747e-01 1.286865025758743286e-01 -1.444322466850280762e-01 -1.100269481539726257e-01 1.492968499660491943e-01 -4.527787119150161743e-02 9.392717480659484863e-02 -1.103573739528656006e-01 -1.766738295555114746e-01 -4.355165362358093262e-02 -6.711395084857940674e-02 -4.477770626544952393e-02 2.572514712810516357e-01 -1.394737064838409424e-01 2.802644371986389160e-01 1.430009752511978149e-01 -2.347761997953057289e-03 9.142059832811355591e-02 -1.590582132339477539e-01 -2.416787594556808472e-01 -1.731410622596740723e-01 1.374195609241724014e-02
-1.740052178502082825e-02 -1.844086945056915283e-01 3.006662242114543915e-03 1.255877912044525146e-01 -1.922299265861511230e-01 4.684463143348693848e-02 1.829614979214966297e-03 1.509234011173248291e-01 -8.256357908248901367e-02 1.478405445814132690e-01 2.024110853672027588e-01 -1.970814913511276245e-01 -2.198000699281692505e-01 3.407561182975769043e-01 9.435386210680007935e-02 3.045131266117095947e-01 1.735829859972000122e-01 4.327913001179695129e-02 -2.550669386982917786e-02 2.262122184038162231e-01 9.433797746896743774e-02 -1.604605913162231445e-01 9.344199672341346741e-03 -2.444115281105041504e-01 1.945827528834342957e-02 -4.438225179910659790e-02 1.625148765742778778e-02 -1.110002025961875916e-01 -1.297987252473831177e-01 -2.032414376735687256e-01 -2.846798598766326904e-01 -2.625103592872619629e-01 4.269396886229515076e-02 1.127345953136682510e-02 -2.085379362106323242e-01 -1.172384768724441528e-01 1.926621943712234497e-01 -6.348867714405059814e-02 2.501954436302185059e-01 -2.178069949150085449e-01 1.887620687484741211e-01 2.328261733055114746e-01 -1.330476403236389160e-01 2.075469940900802612e-01 3.723775967955589294e-02 2.217974327504634857e-02 -2.956172227859497070e-01 -2.215728908777236938e-01 -2.326458096504211426e-01 1.806829720735549927e-01
2.161369770765304565e-01 -7.202493399381637573e-02 1.387369446456432343e-02 -1.342128664255142212e-01 1.096059754490852356e-02 1.493268311023712158e-01 1.428007483482360840e-01 -2.899579405784606934e-01 -1.945030987262725830e-01 4.954082891345024109e-02 2.054962366819381714e-01 -2.718730568885803223e-01 -2.394778095185756683e-02 3.951128125190734863e-01 2.768533527851104736e-01 -4.045830294489860535e-02 -2.224661558866500854e-01 -1.394457966089248657e-01 -2.594924867153167725e-01 7.986954599618911743e-02 2.163421809673309326e-01 -2.339147478342056274e-01 1.130374744534492493e-01 2.130093574523925781e-01 -5.931871011853218079e-02 2.174833714962005615e-01 -1.110898447223007679e-04 3.147457167506217957e-02 1.293462365865707397e-01 -2.554469406604766846e-01 8.452451974153518677e-02 6.521373242139816284e-02 -3.957223519682884216e-02 -2.112863510847091675e-01 2.071796357631683350e-01 3.829796239733695984e-02 -9.677038341760635376e-02 1.403166353702545166e-02 2.091883271932601929e-01 1.566703170537948608e-01 -9.573699533939361572e-02 1.584695428609848022e-01 1.821121722459793091e-01 6.886070477776229382e-04 -3.750934079289436340e-02 -8.225025236606597900e-02 -1.723856627941131592e-01 -3.465671241283416748e-01 -2.847517654299736023e-02 9.298156201839447021e-02
1.547771543264389038e-01 -2.775422036647796631e-01 -1.628433316946029663e-01 1.162298321723937988e-01 -3.907143138349056244e-03 -1.710697859525680542e-01 2.015184462070465088e-01 -1.185709610581398010e-01 -4.076388850808143616e-02 -1.567034721374511719e-01 2.358538508415222168e-01 1.632520109415054321e-01 -2.193092554807662964e-01 1.618756055831909180e-01 1.491220593452453613e-01 -1.606970727443695068e-01 -8.007066696882247925e-02 -2.028088271617889404e-01 2.222366929054260254e-01 1.708982586860656738e-01 6.104415748268365860e-03 2.023486793041229248e-01 6.490682717412710190e-03 1.988970637321472168e-01 7.944674789905548096e-02 -1.470993310213088989e-01 4.960077255964279175e-02 1.702449917793273926e-01 2.032962292432785034e-01 2.328851222991943359e-01 2.001739740371704102e-01 -3.230714052915573120e-02 1.854816377162933350e-01 -5.785926058888435364e-02 1.836597472429275513e-01 2.968975305557250977e-01 1.054410934448242188e-01 -3.735642135143280029e-02 3.459604457020759583e-02 1.767968386411666870e-01 1.700681447982788086e-01 9.173787385225296021e-02 -7.783009111881256104e-02 6.073890998959541321e-02 -1.698566675186157227e-01 6.930328905582427979e-02 -8.920475840568542480e-02 -2.331057339906692505e-01 2.019931972026824951e-01 7.387486100196838379e-02
1.912160217761993408e-01 2.789924144744873047e-01 -3.026736974716186523e-01 -2.299745529890060425e-01 -5.078097060322761536e-02 -2.078741043806076050e-01 2.797579765319824219e-01 6.890952587127685547e-02 1.853884756565093994e-02 -4.091191664338111877e-02 -2.243462251499295235e-03 -4.181105270981788635e-02 -1.353810131549835205e-01 -3.639503717422485352e-01 -1.813318282365798950e-01 -2.337866425514221191e-01 -1.131538078188896179e-01 -1.529098153114318848e-01 4.082257673144340515e-02 -2.216820120811462402e-01 -2.462568581104278564e-01 -1.201853752136230469e-01 8.650383353233337402e-02 -1.605785042047500610e-01 -2.456003278493881226e-01 2.466561496257781982e-01 -1.424421072006225586e-01 2.603856623172760010e-01 -2.422214671969413757e-02 1.708930879831314087e-01 -2.164516411721706390e-02 1.008540689945220947e-01 -1.471023112535476685e-01 1.833132952451705933e-01 2.621495351195335388e-02 9.497818350791931152e-02 -2.266227826476097107e-02 2.907942533493041992e-01 2.697112262248992920e-01 -2.124931961297988892e-01 -4.851138591766357422e-02 -8.183678984642028809e-02 2.360164821147918701e-01 -1.788217574357986450e-01 2.101291716098785400e-01 -4.372847452759742737e-02 1.404391527175903320e-01 -2.109776288270950317e-01 1.793783009052276611e-01 -1.385318487882614136e-01
-4.270666837692260742e-02 -1.287726461887359619e-01 -1.185770854353904724e-01 2.389043867588043213e-01 -1.969658285379409790e-01 8.884029090404510498e-02 4.773029591888189316e-03 1.746894568204879761e-01 -2.607322484254837036e-02 -1.796399354934692383e-01 -2.702836692333221436e-01 1.561431735754013062e-01 9.403514862060546875e-02 1.832672059535980225e-01 3.406536579132080078e-01 3.686496913433074951e-01 -2.731257304549217224e-02 -2.576493024826049805e-01 2.182974666357040405e-01 9.115553647279739380e-02 -8.455833047628402710e-02 -1.672351383604109287e-03 1.463056653738021851e-01 3.250385820865631104e-01 -1.809904128313064575e-01 -1.020817980170249939e-01 -2.320306375622749329e-02 1.606173217296600342e-01 1.471868306398391724e-01 4.805866256356239319e-02 4.549013823270797729e-02 1.516774445772171021e-01 1.195183917880058289e-01 -1.590305715799331665e-01 -2.674322128295898438e-01 -1.768467426300048828e-01 1.246039196848869324e-02 2.055752426385879517e-01 -9.498719871044158936e-02 -2.762964367866516113e-01 1.437487453222274780e-01 -2.987730503082275391e-01 -2.694503068923950195e-01 1.742993295192718506e-01 2.064439952373504639e-01 8.543834090232849121e-02 -1.221771314740180969e-01 -2.460875511169433594e-01 1.851280331611633301e-01 3.725553750991821289e-01
-2.795082516968250275e-02 -1.903413534164428711e-01 -2.599827051162719727e-01 -1.545864194631576538e-01 7.580710574984550476e-03 5.421977862715721130e-02 -1.674539446830749512e-01 2.076895982027053833e-01 -6.497634947299957275e-02 2.347453534603118896e-01 6.244309991598129272e-02 -1.198529824614524841e-01 -2.797084860503673553e-02 -4.286994785070419312e-02 5.730518698692321777e-02 1.758621931076049805e-01 -2.591036856174468994e-01 -8.563471585512161255e-02 2.231381386518478394e-01 -2.083819657564163208e-01 -1.246942058205604553e-01 -1.466857641935348511e-01 -1.344636641442775726e-02 3.666435554623603821e-02 -1.791152060031890869e-01 2.845498323440551758e-01 2.426687628030776978e-01 -1.140767037868499756e-01 1.200416684150695801e-01 -2.720820903778076172e-01 -2.124197334051132202e-01 9.125439077615737915e-02 1.628600209951400757e-01 -2.410529404878616333e-01 -2.116329967975616455e-01 -3.497912734746932983e-02 1.990095227956771851e-01 9.773018211126327515e-02 -8.537190407514572144e-02 7.337402552366256714e-02 5.621989071369171143e-02 -2.568953633308410645e-01 2.323998808860778809e-01 -4.643080011010169983e-02 9.071332216262817383e-02 -2.332295477390289307e-02 -6.989178806543350220e-02 2.110702246427536011e-01 -2.004975229501724243e-01 2.240613102912902832e-01
1.651779711246490479e-01 -2.581463456153869629e-01 1.597023755311965942e-01 -6.962241977453231812e-02 -1.353095173835754395e-01 1.669620573520660400e-01 -1.179897263646125793e-01 5.460844188928604126e-02 6.226344034075737000e-02 -1.872184574604034424e-01 2.256570942699909210e-02 1.508599370718002319e-01 -1.515380889177322388e-01 -2.887652218341827393e-01 -1.838086843490600586e-01 -1.324303448200225830e-01 1.123485043644905090e-01 -1.687390059232711792e-01 1.172128841280937195e-01 1.498708575963973999e-01 4.894202109426259995e-03 -1.361135244369506836e-01 -1.744612902402877808e-01 4.790908470749855042e-02 -2.832012996077537537e-02 1.026235893368721008e-01 -1.131206974387168884e-01 2.674826681613922119e-01 -1.667878590524196625e-02 -1.374165266752243042e-01 -4.142932966351509094e-02 -7.160949707031250000e-02 -1.972043663263320923e-01 -1.011285781860351562e-01 6.968985497951507568e-02 7.075448334217071533e-02 -2.086454480886459351e-01 -1.506859660148620605e-01 -1.514543443918228149e-01 1.018561795353889465e-01 -3.197792470455169678e-01 -6.645593792200088501e-02 -5.227601528167724609e-02 -1.156331449747085571e-01 -1.835898011922836304e-01 -3.478448688983917236e-01 -2.317888438701629639e-01 1.375788003206253052e-01 -2.700272202491760254e-01 -2.383261322975158691e-01
6.936366111040115356e-02 2.318593673408031464e-02 -2.488569766283035278e-01 -2.151148319244384766e-01 -1.746798455715179443e-01 -1.617477536201477051e-01 -1.713587641716003418e-01 2.315600514411926270e-01 1.784449666738510132e-01 -6.350986659526824951e-02 3.438653796911239624e-02 -1.258413046598434448e-01 3.826305270195007324e-02 9.069330990314483643e-02 1.634761132299900055e-02 -1.090142354369163513e-01 5.228142812848091125e-02 -1.322727799415588379e-01 2.126161605119705200e-01 -4.502904042601585388e-02 -1.219011545181274414e-01 -1.961824148893356323e-01 -1.917142868041992188e-01 2.855924665927886963e-01 -2.471696138381958008e-01 -1.911973766982555389e-02 -1.283441036939620972e-01 1.000813916325569153e-01 -3.482218459248542786e-02 -1.296714395284652710e-01 2.416932433843612671e-01 8.664423227310180664e-02 1.614218652248382568e-01 2.016653567552566528e-01 -1.023164913058280945e-01 5.912994965910911560e-02 -1.580773890018463135e-01 -4.584340378642082214e-02 6.063826382160186768e-03 3.596557304263114929e-02 1.707887649536132812e-01 -2.473402470350265503e-01 1.426946967840194702e-01 -9.496507793664932251e-02 -1.344200521707534790e-01 9.600654244422912598e-02 -2.920496836304664612e-02 1.428372561931610107e-01 -8.775983005762100220e-02 2.774620056152343750e-01
1.875667721033096313e-01 -5.543752759695053101e-02 -2.554516792297363281e-01 2.374787628650665283e-01 1.763637810945510864e-01 2.585132718086242676e-01 -2.644265294075012207e-01 1.442358922213315964e-02 -8.674617856740951538e-02 5.782255902886390686e-02 -2.441084086894989014e-01 4.141088947653770447e-02 3.752758027985692024e-03 -2.948954105377197266e-01 6.302710622549057007e-02 2.049584388732910156e-01 -1.737265884876251221e-01 2.548724412918090820e-01 2.376627773046493530e-01 -4.249898716807365417e-02 -2.127207070589065552e-01 1.936621963977813721e-02 8.018724620342254639e-02 1.816412657499313354e-01 2.108966410160064697e-01 7.426223903894424438e-02 -3.755993023514747620e-02 -1.466861814260482788e-01 1.491018235683441162e-01 -7.453101873397827148e-02 -2.209073398262262344e-03 -1.722719073295593262e-01 -1.512833088636398315e-01 1.596377044916152954e-01 3.715110197663307190e-02 -2.477997839450836182e-01 1.549847517162561417e-02 -9.316118061542510986e-02 1.259892433881759644e-01 -1.947043538093566895e-01 1.912100762128829956e-01 -2.180492430925369263e-01 9.623485803604125977e-02 6.320439279079437256e-02 -2.314380854368209839e-01 1.567303836345672607e-01 4.145913571119308472e-02 -7.754859328269958496e-02 -1.035033259540796280e-03 4.506641626358032227e-02
-2.043538689613342285e-01 4.106007516384124756e-02 8.561413735151290894e-02 -1.540552675724029541e-01 -2.150797992944717407e-01 -9.261766076087951660e-02 1.177919283509254456e-02 -4.203314706683158875e-02 -8.951466530561447144e-02 1.355564892292022705e-01 1.759870501700788736e-04 1.626031547784805298e-01 1.521772444248199463e-01 -2.727804481983184814e-01 1.645278781652450562e-01 2.079845368862152100e-01 -2.391942590475082397e-01 2.560606598854064941e-01 -7.022688537836074829e-02 -1.734350770711898804e-01 -5.004673078656196594e-02 2.147155553102493286e-01 -1.253527551889419556e-01 -2.866879403591156006e-01 2.125428020954132080e-01 4.148897528648376465e-02 7.510364055633544922e-02 2.668710947036743164e-01 1.661281287670135498e-01 1.343171596527099609e-01 -2.271090596914291382e-01 -2.566322684288024902e-01 1.694185286760330200e-01 1.967653483152389526e-01 5.316140130162239075e-02 2.124565541744232178e-01 -6.913467496633529663e-02 -2.617478072643280029e-01 2.840135097503662109e-01 -1.504227072000503540e-01 -1.748536676168441772e-01 -1.615112572908401489e-01 1.624194830656051636e-01 2.176580727100372314e-01 -8.717849850654602051e-02 -3.756812214851379395e-01 2.624245584011077881e-01 3.496699780225753784e-02 -1.127858385443687439e-01 -1.567183881998062134e-01
1.981995850801467896e-01 1.019026786088943481e-01 -3.175990656018257141e-02 1.645020842552185059e-01 -1.206377670168876648e-01 -2.487903684377670288e-01 7.219100743532180786e-02 -3.806975111365318298e-02 -9.109026938676834106e-02 -1.624262928962707520e-01 -2.043877393007278442e-01 2.423821091651916504e-01 -2.785293757915496826e-02 -4.663102701306343079e-02 5.439933016896247864e-02 -8.671919815242290497e-03 9.995337575674057007e-03 -1.235863789916038513e-01 2.928866147994995117e-01 1.412421762943267822e-01 -6.780299544334411621e-02 2.340309768915176392e-01 -1.976356953382492065e-01 -1.555873155593872070e-01 -2.430777400732040405e-01 2.430509924888610840e-01 1.144397482275962830e-01 -2.199374288320541382e-01 -1.539194490760564804e-02 1.353643536567687988e-01 2.048828154802322388e-01 4.016268625855445862e-02 1.317091435194015503e-01 -2.099592983722686768e-01 -3.732061386108398438e-02 -1.959793567657470703e-01 -7.464703917503356934e-02 1.225544884800910950e-01 2.045433223247528076e-01 -3.034912943840026855e-01 -9.138744324445724487e-02 -1.389966160058975220e-01 1.868386715650558472e-01 -1.211994215846061707e-01 9.030210226774215698e-02 -1.147870793938636780e-01 -3.683125972747802734e-02 2.600851655006408691e-01 -2.148115485906600952e-01 1.036881208419799805e-01
1.761538684368133545e-01 8.460041135549545288e-02 -9.235510230064392090e-02 -1.394954230636358261e-02 7.074690610170364380e-02 1.412669867277145386e-01 -2.798591852188110352e-01 1.902194619178771973e-01 1.805461347103118896e-01 1.854680129326879978e-03 7.226596027612686157e-02 -7.345932722091674805e-02 1.325470507144927979e-01 9.631283581256866455e-02 9.733327478170394897e-02 -1.084031611680984497e-01 2.119288444519042969e-01 -1.817967742681503296e-01 9.668158367276191711e-03 -3.491906449198722839e-02 1.265253126621246338e-01 -1.916689872741699219e-01 1.478009074926376343e-01 -1.143444143235683441e-02 2.329942397773265839e-02 -3.912222757935523987e-02 -1.768537461757659912e-01 -5.171083286404609680e-02 1.856208592653274536e-01 -2.845158576965332031e-01 1.094485521316528320e-01 1.397677809000015259e-01 8.392689377069473267e-02 -1.512286216020584106e-01 -1.447485238313674927e-01 1.892414875328540802e-02 -1.289447247982025146e-01 -5.513242632150650024e-02 1.172659918665885925e-01 1.942732036113739014e-01 4.599168896675109863e-02 1.760104447603225708e-01 1.119199469685554504e-01 -2.082509920001029968e-03 3.100244700908660889e-02 -1.530786752700805664e-01 1.706515811383724213e-02 1.292036473751068115e-01 1.619244813919067383e-01 1.765101701021194458e-01
2.306173928081989288e-02 1.299975812435150146e-01 -8.016669005155563354e-02 5.117404460906982422e-02 -2.822156548500061035e-01 2.095309197902679443e-01 -1.846354007720947266e-01 8.153850585222244263e-02 -1.579016000032424927e-01 4.481649398803710938e-02 -2.329558879137039185e-01 3.145897388458251953e-02 -2.203870192170143127e-02 4.795990139245986938e-02 -1.646290346980094910e-02 1.490934044122695923e-01 -1.331314593553543091e-01 5.910675972700119019e-02 -2.779422700405120850e-02 1.381539106369018555e-01 -1.793220937252044678e-01 1.806318461894989014e-01 -2.324191480875015259e-02 3.186955749988555908e-01 -2.424880117177963257e-01 2.622671723365783691e-01 -1.618543714284896851e-01 2.128215581178665161e-01 -1.267647445201873779e-01 -1.375236064195632935e-01 -3.334029018878936768e-02 2.279041409492492676e-01 4.923466965556144714e-02 1.660162359476089478e-01 1.980619728565216064e-01 6.856153905391693115e-02 -5.628617107868194580e-02 2.106439173221588135e-01 7.480753958225250244e-02 1.985731124877929688e-01 1.690111756324768066e-01 -1.813738344935700297e-04 7.395983673632144928e-03 2.179631143808364868e-01 3.732978552579879761e-02 -2.276788055896759033e-01 5.957133322954177856e-02 1.680524088442325592e-02 1.505389157682657242e-02 -8.242645859718322754e-02
9.096348658204078674e-03 2.048821896314620972e-01 1.778242364525794983e-02 -8.025427907705307007e-02 1.180644109845161438e-01 7.444341480731964111e-02 -8.520104736089706421e-02 -9.319608658552169800e-02 -1.004881635308265686e-01 -8.057525753974914551e-02 6.337162107229232788e-02 -1.283619105815887451e-01 -2.024723142385482788e-01 1.250101476907730103e-01 7.883604615926742554e-02 -3.102234899997711182e-01 -5.879900604486465454e-02 3.260033577680587769e-02 1.585593819618225098e-01 1.921026259660720825e-01 9.747987985610961914e-02 -3.859200514853000641e-03 -8.119074255228042603e-02 5.194459110498428345e-02 2.043054252862930298e-01 2.635419666767120361e-01 7.754259556531906128e-02 1.877437084913253784e-01 -1.612164825201034546e-02 1.003520414233207703e-01 -8.523777872323989868e-02 1.436167955398559570e-01 8.577166497707366943e-02 -9.480211883783340454e-02 4.432268440723419189e-02 1.058334261178970337e-01 8.455190062522888184e-02 5.125202983617782593e-02 -2.424877882003784180e-01 -1.394217908382415771e-01 2.121723145246505737e-01 2.791347797028720379e-04 2.064294517040252686e-01 -2.336203604936599731e-01 2.680512666702270508e-01 -2.035885155200958252e-01 -1.722149401903152466e-01 -6.179215386509895325e-02 1.242557987570762634e-01 1.047237142920494080e-01
2.806133031845092773e-01 -1.944520771503448486e-01 -6.892827898263931274e-02 -6.224278360605239868e-02 1.726982444524765015e-01 -5.938416346907615662e-02 -6.900463998317718506e-02 -8.363937959074974060e-03 1.437930911779403687e-01 -9.816555678844451904e-02 6.190838664770126343e-02 -1.218710392713546753e-01 -2.768263816833496094e-01 8.903832733631134033e-02 1.524809300899505615e-01 -3.286719694733619690e-02 1.938544213771820068e-01 6.048363074660301208e-02 1.851919144392013550e-01 -1.358223557472229004e-01 6.727678328752517700e-02 2.259194254875183105e-01 -3.667287230491638184e-01 -1.742088347673416138e-01 2.191397398710250854e-01 1.289699375629425049e-01 9.268245846033096313e-02 -3.723413124680519104e-02 2.809551358222961426e-01 1.187809407711029053e-01 1.595669835805892944e-01 2.201015204191207886e-01 6.752087920904159546e-02 -1.006773561239242554e-01 -9.240029752254486084e-02 -8.284525573253631592e-02 1.104361489415168762e-01 1.165528520941734314e-01 -7.664161920547485352e-02 8.183301985263824463e-02 -1.199351921677589417e-01 2.053406983613967896e-01 1.281435638666152954e-01 1.789472848176956177e-01 2.122365683317184448e-01 1.968006789684295654e-01 1.039882078766822815e-01 3.054016828536987305e-01 1.931428611278533936e-01 1.372650116682052612e-01
-1.324967145919799805e-01 2.020326256752014160e-01 -1.764306426048278809e-01 -2.036011517047882080e-01 -1.400781720876693726e-01 -1.341566257178783417e-02 -1.855992227792739868e-01 1.515242904424667358e-01 -2.865566611289978027e-01 -6.326636672019958496e-02 -1.887917816638946533e-01 -9.238068759441375732e-02 1.516889967024326324e-02 2.070151120424270630e-01 -1.816959381103515625e-01 -3.327794671058654785e-01 -2.030386775732040405e-01 -2.035235986113548279e-02 -2.173007726669311523e-01 -5.974588170647621155e-02 -2.297962754964828491e-01 -1.046468541026115417e-01 -3.302191495895385742e-01 3.462043702602386475e-01 3.043697178363800049e-01 1.438987553119659424e-01 -1.267294138669967651e-01 1.044244598597288132e-02 2.113054394721984863e-01 -1.973676234483718872e-01 2.245367467403411865e-01 1.841110438108444214e-01 1.912756711244583130e-01 4.801036790013313293e-02 1.459389328956604004e-01 -7.101920433342456818e-03 -1.861921846866607666e-01 -2.567660510540008545e-01 -2.536838948726654053e-01 1.724086515605449677e-02 1.022124439477920532e-01 2.466355264186859131e-01 -1.455912590026855469e-01 1.618531495332717896e-01 -1.357328146696090698e-01 9.766061604022979736e-02 2.665251195430755615e-01 -1.071475446224212646e-02 -2.325736582279205322e-01 -4.145643115043640137e-01
-9.506029635667800903e-02 -1.943511664867401123e-01 8.849412202835083008e-02 -1.597656309604644775e-01 2.907791435718536377e-01 -7.410159707069396973e-02 -3.280038014054298401e-02 -2.608129680156707764e-01 -8.195259422063827515e-02 2.334442883729934692e-01 -2.120817750692367554e-01 -1.397967040538787842e-01 7.055241614580154419e-02 1.074334159493446350e-01 -9.476308524608612061e-02 -8.670959621667861938e-02 -8.887383341789245605e-02 -2.508035898208618164e-01 -1.098203565925359726e-02 -2.292583584785461426e-01 -1.651339419186115265e-02 9.748774766921997070e-02 1.407262086868286133e-01 2.073108702898025513e-01 -1.138168871402740479e-01 -7.765968888998031616e-02 -2.209429591894149780e-01 -1.955251544713973999e-01 -1.703350841999053955e-01 -2.101448923349380493e-02 -5.951876565814018250e-02 -6.868980079889297485e-02 1.323942989110946655e-01 -1.121281981468200684e-01 -1.484923064708709717e-01 -1.832572072744369507e-01 2.651159763336181641e-01 9.382838010787963867e-02 -1.585989892482757568e-01 5.077828466892242432e-02 2.311417460441589355e-01 2.264367789030075073e-01 -1.740177273750305176e-01 1.324638426303863525e-01 1.289746910333633423e-01 1.741585433483123779e-01 -6.504970788955688477e-02 -1.702296137809753418e-01 2.051438391208648682e-01 -4.042723774909973145e-02
-2.338573634624481201e-01 1.564328074455261230e-01 -1.045652031898498535e-01 4.970385506749153137e-02 -2.051381394267082214e-02 -1.014570817351341248e-01 3.633927181363105774e-02 -2.056637257337570190e-01 -1.532354503870010376e-01 2.048745006322860718e-02 -1.099926754832267761e-01 -1.602262705564498901e-01 -3.472487628459930420e-02 6.597491353750228882e-02 -3.112632036209106445e-02 -2.412009090185165405e-01 1.349018663167953491e-01 -2.593409419059753418e-01 -2.972509898245334625e-02 -2.152626663446426392e-01 -1.086120381951332092e-01 -2.200280427932739258e-01 -1.912827193737030029e-01 -1.209458336234092712e-01 1.156153976917266846e-01 -5.297496542334556580e-02 1.748263686895370483e-01 -6.659152358770370483e-02 -1.725546866655349731e-01 -6.716577708721160889e-02 -2.353254407644271851e-01 -3.074441477656364441e-02 1.905307173728942871e-02 -6.766382604837417603e-03 1.214999407529830933e-01 -1.825858056545257568e-01 -9.509333223104476929e-02 2.053727358579635620e-01 8.997176587581634521e-02 -2.322777956724166870e-01 1.923583447933197021e-01 1.021495275199413300e-02 6.238267943263053894e-02 -2.083840966224670410e-01 8.373579382896423340e-02 1.295083165168762207e-01 -1.739570796489715576e-01 -1.977707743644714355e-01 2.415703684091567993e-01 2.298318594694137573e-01
-1.871582120656967163e-01 -1.340406201779842377e-02 -1.339066587388515472e-02 2.079082876443862915e-01 6.942774355411529541e-02 -3.568433225154876709e-02 1.717904359102249146e-01 -1.821136921644210815e-01 9.839468449354171753e-02 1.716661900281906128e-01 -1.795935258269309998e-02 -1.447762101888656616e-01 -1.889270246028900146e-01 1.649762690067291260e-01 1.258776187896728516e-01 -1.416119635105133057e-01 -1.536567807197570801e-01 -2.014987021684646606e-01 1.415752917528152466e-01 1.331066936254501343e-01 -1.255207657814025879e-01 -1.385359615087509155e-01 -2.119779735803604126e-01 6.176627799868583679e-02 2.312353253364562988e-01 -8.000834286212921143e-02 -1.192408651113510132e-01 -2.808823883533477783e-01 -1.581891626119613647e-01 -8.854747563600540161e-02 1.661504507064819336e-01 3.748620674014091492e-02 2.041811943054199219e-01 -1.979610323905944824e-01 -1.332679092884063721e-01 -1.749278455972671509e-01 1.737227737903594971e-01 -9.822315536439418793e-03 1.475681513547897339e-01 -3.117923438549041748e-01 -2.007869780063629150e-01 5.465155839920043945e-02 -1.638523787260055542e-01 2.768869884312152863e-02 -1.156293898820877075e-01 3.821859881281852722e-02 1.371723860502243042e-01 7.739619165658950806e-02 2.411200553178787231e-01 -7.538330554962158203e-02
7.798816263675689697e-02 6.280845403671264648e-02 -2.539401650428771973e-01 -4.488772153854370117e-02 2.020129114389419556e-01 2.219052463769912720e-01 -1.434324234724044800e-01 -3.234480740502476692e-03 -1.011276319622993469e-01 -3.318173438310623169e-02 1.609408408403396606e-01 -8.578606694936752319e-02 1.374842077493667603e-01 -3.302948921918869019e-02 -2.044193297624588013e-01 -2.351284772157669067e-01 -1.376074403524398804e-01 9.987584501504898071e-02 -6.375757604837417603e-02 -5.464795976877212524e-02 -2.406652718782424927e-01 1.772977113723754883e-01 8.252006769180297852e-02 1.923379749059677124e-01 -5.074304714798927307e-02 9.139832854270935059e-02 -1.838304251432418823e-01 2.065930217504501343e-01 1.662473976612091064e-01 2.526718378067016602e-01 -1.589338183403015137e-01 1.344459801912307739e-01 -1.635227650403976440e-01 -1.114425510168075562e-01 7.380332797765731812e-02 -1.786538362503051758e-01 -2.495304197072982788e-01 1.993197798728942871e-01 -1.357420533895492554e-01 -7.602437585592269897e-02 1.042642220854759216e-01 2.310223430395126343e-01 1.645899564027786255e-01 -8.024011552333831787e-02 -1.672998070716857910e-01 6.355778872966766357e-02 -1.934112459421157837e-01 -1.813963353633880615e-01 5.052895098924636841e-02 -5.709768831729888916e-02
1.807033419609069824e-01 2.459305375814437866e-01 8.595293015241622925e-02 -1.213160753250122070e-01 -7.464954257011413574e-02 -7.213900238275527954e-02 1.589452475309371948e-01 2.408303320407867432e-01 1.189299896359443665e-01 1.387965679168701172e-01 -5.262999981641769409e-02 -6.865310668945312500e-02 2.085021138191223145e-02 -3.375692963600158691e-01 -1.267930772155523300e-02 -1.957703232765197754e-01 -2.714366316795349121e-01 -1.376191526651382446e-01 2.774066030979156494e-01 -1.455565821379423141e-02 6.587447971105575562e-02 -6.723350286483764648e-02 -1.073359474539756775e-01 -1.960977464914321899e-01 -3.647837787866592407e-02 2.065191566944122314e-01 1.659613698720932007e-01 -1.680795699357986450e-01 1.761007905006408691e-01 2.783149294555187225e-02 1.572814285755157471e-01 2.001446336507797241e-01 1.738315522670745850e-01 -4.437447339296340942e-02 2.546379528939723969e-02 8.333104103803634644e-02 -1.167819276452064514e-01 2.389381974935531616e-01 5.804849788546562195e-02 1.518331170082092285e-01 2.856117859482765198e-02 -7.792945206165313721e-02 -1.259308904409408569e-01 -1.756162643432617188e-01 7.923556864261627197e-02 -2.232301533222198486e-01 -6.080812588334083557e-02 1.834355145692825317e-01 -1.160727515816688538e-01 1.013395786285400391e-01
-9.033684432506561279e-02 -2.099992185831069946e-01 -2.431340217590332031e-01 1.167458593845367432e-01 -1.732813715934753418e-01 -5.067169293761253357e-02 -2.632133662700653076e-01 2.116464674472808838e-01 8.208086341619491577e-02 1.783102750778198242e-01 1.504984647035598755e-01 -1.173769310116767883e-01 -1.635377556085586548e-01 1.145652681589126587e-01 8.727751672267913818e-02 2.149256169795989990e-01 -1.073413193225860596e-01 3.657004982233047485e-02 2.298594266176223755e-01 9.652830194681882858e-04 1.954372674226760864e-01 1.001954302191734314e-01 -1.071919873356819153e-01 -7.035698741674423218e-02 -2.096144706010818481e-01 6.064890883862972260e-03 2.176937162876129150e-01 1.970108747482299805e-01 2.570270895957946777e-01 2.399904578924179077e-01 -8.356656879186630249e-02 -2.549658417701721191e-01 2.675687335431575775e-02 2.600210905075073242e-01 -2.750746309757232666e-01 -6.759411841630935669e-02 -1.618092507123947144e-01 -5.814522504806518555e-02 1.600533723831176758e-01 -2.697657644748687744e-01 -8.881418965756893158e-03 3.899435326457023621e-02 3.181865811347961426e-01 1.651518344879150391e-01 -7.351065427064895630e-02 2.411310374736785889e-01 3.482949733734130859e-02 -9.624069929122924805e-02 -1.243572905659675598e-01 2.964357435703277588e-01
-1.134851500391960144e-01 -1.338721364736557007e-01 -5.103572271764278412e-03 1.068096831440925598e-01 -1.324371099472045898e-01 2.236337587237358093e-02 4.639372974634170532e-02 -1.165646910667419434e-01 -6.294223666191101074e-02 -4.225452244281768799e-02 -8.337074518203735352e-02 1.985407173633575439e-01 2.156104594469070435e-01 -1.937568038702011108e-01 4.050110280513763428e-02 3.463623672723770142e-02 -2.386011481285095215e-01 2.811509184539318085e-02 9.088169038295745850e-02 -1.250825226306915283e-01 -1.857553720474243164e-01 -8.632889389991760254e-02 1.041064187884330750e-01 -3.130755573511123657e-02 2.981452085077762604e-02 1.748898178339004517e-01 1.328817903995513916e-01 7.269822061061859131e-02 -7.852548360824584961e-02 4.460959136486053467e-02 -1.950526237487792969e-01 -1.311026364564895630e-01 1.850862205028533936e-01 -9.220127761363983154e-02 1.808574497699737549e-01 -1.115270182490348816e-01 9.407354146242141724e-02 1.691095344722270966e-02 4.463852941989898682e-02 -7.218132913112640381e-02 1.880693137645721436e-01 -3.902636095881462097e-02 -5.462959781289100647e-02 -8.067385852336883545e-02 3.810552507638931274e-02 9.898197650909423828e-02 1.394523233175277710e-01 -8.365283906459808350e-02 1.825064867734909058e-01 -9.290120750665664673e-02
1.504519432783126831e-01 3.644689172506332397e-02 -1.577790081501007080e-01 -3.244074434041976929e-02 5.134075507521629333e-02 1.497059911489486694e-01 -1.418810486793518066e-01 -1.469754874706268311e-01 2.270115017890930176e-01 -1.272552758455276489e-01 1.270331740379333496e-01 1.066547408699989319e-01 -1.214327439665794373e-01 -3.298393636941909790e-02 1.652141958475112915e-01 -4.934711009263992310e-02 1.411880701780319214e-01 2.286689355969429016e-02 3.125234693288803101e-02 -5.403828993439674377e-02 -1.471716612577438354e-01 -1.512320805341005325e-02 -2.261182665824890137e-01 2.793741226196289062e-01 -1.901139020919799805e-01 8.480449020862579346e-02 2.406486868858337402e-01 1.630429029464721680e-01 2.039068192243576050e-01 -9.210815280675888062e-02 1.356099098920822144e-01 -1.413609981536865234e-01 7.951550185680389404e-02 1.659033447504043579e-01 -1.024875491857528687e-01 -2.441357821226119995e-01 -8.302833139896392822e-02 -1.307216584682464600e-01 -1.371442247182130814e-02 1.008488982915878296e-01 -2.950290441513061523e-01 -3.033086657524108887e-01 2.166204601526260376e-01 7.603700272738933563e-03 -1.586626470088958740e-01 2.310525327920913696e-01 -1.701557338237762451e-01 -1.136375516653060913e-01 1.433122605085372925e-01 -1.323916465044021606e-01
8.220705389976501465e-02 8.180315792560577393e-02 -1.958500742912292480e-01 1.676965057849884033e-01 2.399877831339836121e-02 -9.435135126113891602e-02 -1.948802024126052856e-01 -2.689632177352905273e-01 1.436341851949691772e-01 3.172943294048309326e-01 2.555232346057891846e-01 -3.818313404917716980e-02 1.222495660185813904e-01 -6.095720082521438599e-02 2.217792421579360962e-01 -3.385475277900695801e-01 -1.294567286968231201e-01 6.566342711448669434e-02 1.568655669689178467e-02 -2.260080724954605103e-01 -6.618935614824295044e-02 2.229083329439163208e-01 1.342265456914901733e-01 2.490795999765396118e-01 -1.146338209509849548e-01 2.896321415901184082e-01 -1.444418132305145264e-01 -2.430396527051925659e-01 1.023204326629638672e-01 -1.754148453474044800e-01 1.011632904410362244e-01 9.225081303156912327e-04 -1.896913796663284302e-01 3.361022099852561951e-02 1.143101379275321960e-01 -5.807541683316230774e-02 1.799694448709487915e-01 2.992580235004425049e-01 -6.191268563270568848e-02 8.035736531019210815e-02 2.068061828613281250e-01 1.746165901422500610e-01 2.340607941150665283e-01 -9.023196995258331299e-02 9.824018925428390503e-02 9.031598269939422607e-02 -1.826243847608566284e-01 -4.138450324535369873e-02 -2.144735455513000488e-01 -1.752308011054992676e-01
2.323408722877502441e-01 -1.347144413739442825e-02 6.838093698024749756e-02 -2.040924131870269775e-01 1.037841215729713440e-01 8.188345283269882202e-02 1.233805529773235321e-02 6.159166991710662842e-02 -2.620463669300079346e-01 -7.384805381298065186e-02 -1.302623599767684937e-01 1.851243227720260620e-01 -7.595012336969375610e-02 2.816418409347534180e-01 -5.363566428422927856e-02 -4.138868674635887146e-02 -9.397271275520324707e-02 -2.336838543415069580e-01 -4.016072303056716919e-02 1.040804758667945862e-01 -1.467288136482238770e-01 8.829838037490844727e-02 -3.624718189239501953e-01 1.220656931400299072e-02 -4.758965224027633667e-03 -1.243392229080200195e-01 1.502157449722290039e-01 -2.114986181259155273e-01 2.030213624238967896e-01 -1.515280455350875854e-01 1.358680427074432373e-01 -1.107247695326805115e-01 1.853962242603302002e-01 -2.324638068675994873e-01 8.304294943809509277e-02 -2.208960801362991333e-01 2.369875013828277588e-01 1.418777704238891602e-01 -1.329036653041839600e-01 1.278985887765884399e-01 -2.068452090024948120e-01 1.741386651992797852e-01 -1.660874038934707642e-01 9.267110377550125122e-02 -1.717725545167922974e-01 -9.102516807615756989e-03 -1.294659823179244995e-01 -8.668084442615509033e-02 2.272337526082992554e-01 2.945856889709830284e-03
-1.331220716238021851e-01 -7.771746814250946045e-02 -1.889317631721496582e-01 -8.220737427473068237e-02 2.840162813663482666e-01 8.446124941110610962e-02 -2.669626101851463318e-02 2.244402766227722168e-01 -4.595046117901802063e-02 -2.646054029464721680e-01 1.929443478584289551e-01 -1.478008180856704712e-01 -8.307952433824539185e-02 2.350198626518249512e-01 -2.350784540176391602e-01 1.014663279056549072e-01 5.398581176996231079e-02 2.312970347702503204e-02 2.663609981536865234e-01 -1.866579800844192505e-01 -1.448085308074951172e-01 -1.363572031259536743e-01 3.967308998107910156e-02 -2.312207035720348358e-02 -1.860900670289993286e-01 1.771782934665679932e-01 -7.076597958803176880e-02 1.094179525971412659e-01 -1.317509710788726807e-01 9.673824161291122437e-02 1.656052283942699432e-02 -9.279222786426544189e-02 -2.124372720718383789e-01 1.152861639857292175e-01 1.524310708045959473e-01 -4.004743695259094238e-02 -2.484592981636524200e-02 -2.399796992540359497e-02 -7.965087145566940308e-02 1.008636057376861572e-01 -2.419928014278411865e-01 -2.920965254306793213e-01 -9.763970226049423218e-02 -1.818122565746307373e-01 1.275129467248916626e-01 -1.108660548925399780e-01 -1.707526147365570068e-01 7.590977847576141357e-02 -1.778615117073059082e-01 3.387384116649627686e-03
2.423921525478363037e-01 -1.198064908385276794e-01 -2.023428827524185181e-01 2.678117156028747559e-01 -2.840437293052673340e-01 1.354248970746994019e-01 1.116755418479442596e-02 -2.788414359092712402e-01 1.962747126817703247e-01 1.797246336936950684e-01 -1.818516403436660767e-01 1.302218288183212280e-01 -9.028913080692291260e-02 2.305033355951309204e-01 1.896483302116394043e-01 1.776547282934188843e-01 -2.447629123926162720e-01 -2.679269313812255859e-01 8.874306082725524902e-02 -1.889327764511108398e-01 -2.350913733243942261e-01 -2.261749207973480225e-01 7.939677685499191284e-02 1.986708790063858032e-01 -7.131901104003190994e-03 -8.661419898271560669e-02 2.331421822309494019e-01 1.600730270147323608e-01 2.206665277481079102e-01 -1.939271688461303711e-01 2.519861795008182526e-02 -7.199381291866302490e-02 -8.670435845851898193e-02 -1.144387871026992798e-01 -2.583707571029663086e-01 -9.260109812021255493e-02 -8.766598999500274658e-02 1.005805507302284241e-01 -9.087406098842620850e-02 1.613248288631439209e-01 -5.224664136767387390e-02 1.552849262952804565e-01 -1.219456419348716736e-01 1.438773870468139648e-01 1.254140958189964294e-02 -1.988247968256473541e-02 -2.172712683677673340e-01 -2.553965151309967041e-02 -1.758890748023986816e-01 3.179677128791809082e-01
-2.020018845796585083e-01 1.117521077394485474e-01 3.417251573409885168e-04 -3.109987676143646240e-01 -2.992462813854217529e-01 2.159658670425415039e-01 6.280411779880523682e-02 -2.392056286334991455e-01 1.372788548469543457e-01 -1.048428490757942200e-01 -1.763646602630615234e-01 1.006773412227630615e-01 -1.004926860332489014e-01 -3.252736330032348633e-01 -1.810183823108673096e-01 -1.222277730703353882e-01 -1.482052057981491089e-01 -2.210817337036132812e-01 -9.652568399906158447e-02 -3.522841632366180420e-02 -9.819483011960983276e-02 6.175519153475761414e-02 -2.912524044513702393e-01 -1.758310794830322266e-01 -1.229141801595687866e-01 1.551071256399154663e-01 1.613857746124267578e-01 7.872179895639419556e-02 4.670052975416183472e-02 2.274749726057052612e-01 -1.549297869205474854e-01 2.692683041095733643e-01 2.252703905105590820e-01 1.319828182458877563e-01 1.459795087575912476e-01 -1.312832385301589966e-01 1.833539009094238281e-01 2.435026913881301880e-01 -6.946371868252754211e-03 8.453859388828277588e-02 2.292636930942535400e-01 1.977247893810272217e-01 -5.523863062262535095e-02 6.377183645963668823e-02 2.440678775310516357e-01 -1.126972120255231857e-02 -1.073039025068283081e-01 -1.687521189451217651e-01 2.014572471380233765e-01 1.817753612995147705e-01
-1.932754367589950562e-01 -2.444453388452529907e-01 5.847838148474693298e-02 2.838339507579803467e-01 -2.336649298667907715e-01 1.431226264685392380e-02 6.163206696510314941e-02 -1.658322215080261230e-01 -4.929666221141815186e-02 -2.839895784854888916e-01 -1.891497969627380371e-01 1.714622229337692261e-01 -1.884320378303527832e-01 2.085583508014678955e-01 2.367065995931625366e-01 2.534065246582031250e-01 -2.847205102443695068e-01 1.184292584657669067e-01 1.797609478235244751e-01 -3.429681807756423950e-02 -1.002502739429473877e-01 -2.891063988208770752e-01 -1.970766782760620117e-01 2.481115311384201050e-01 3.047006577253341675e-02 -1.430281698703765869e-01 -7.696580141782760620e-02 4.767529293894767761e-02 2.701479494571685791e-01 -8.981052041053771973e-02 2.125477045774459839e-01 2.828496992588043213e-01 -2.488280413672327995e-03 9.620478749275207520e-02 -5.369600653648376465e-02 -2.560642659664154053e-01 -2.222664356231689453e-01 2.568124234676361084e-01 -2.852244079113006592e-01 -8.775643259286880493e-02 -2.906652353703975677e-02 -4.381676763296127319e-02 -1.663374602794647217e-01 1.216937322169542313e-02 2.427003681659698486e-01 -6.242287927307188511e-04 -1.924043148756027222e-01 -2.326176017522811890e-01 4.345779120922088623e-02 2.084089666604995728e-01
2.032819986343383789e-01 -2.632194757461547852e-01 -1.453242748975753784e-01 2.216327488422393799e-01 -3.000088222324848175e-02 1.736561805009841919e-01 1.680282317101955414e-02 -1.492688208818435669e-01 5.155713111162185669e-02 -9.986055642366409302e-02 1.962288618087768555e-01 2.447516024112701416e-01 -1.304079443216323853e-01 1.222119331359863281e-01 -1.228566765785217285e-01 -1.645076274871826172e-01 1.465895492583513260e-02 -9.950610995292663574e-02 -1.804569959640502930e-01 -1.721559613943099976e-01 1.933119595050811768e-01 6.342162936925888062e-02 -8.779993653297424316e-02 -2.528251409530639648e-01 1.422663629055023193e-01 -1.249648034572601318e-01 2.352015078067779541e-01 2.767688333988189697e-01 -2.256617099046707153e-01 -1.427269130945205688e-01 4.503748845309019089e-03 1.966872252523899078e-02 -1.167194694280624390e-01 1.618083566427230835e-01 1.414414197206497192e-01 -7.823101431131362915e-02 -1.282196342945098877e-01 1.088472735136747360e-02 2.702654711902141571e-02 1.362920701503753662e-01 -1.652731597423553467e-01 -1.146187931299209595e-01 6.817395985126495361e-02 6.329868733882904053e-02 -8.100526034832000732e-02 -9.656847268342971802e-02 5.199316516518592834e-02 2.014042735099792480e-01 2.336972504854202271e-01 1.909017446450889111e-04
4.024806618690490723e-02 -3.551037609577178955e-02 -1.075367629528045654e-02 -2.739484608173370361e-01 -2.735702879726886749e-02 1.695825308561325073e-01 2.106689661741256714e-01 -1.921811848878860474e-01 -2.127780169248580933e-01 -2.195912003517150879e-01 -8.656658232212066650e-02 5.780466645956039429e-02 -2.469748407602310181e-01 -1.945161968469619751e-01 1.361068934202194214e-01 7.025026530027389526e-02 -9.319777041673660278e-02 1.312699913978576660e-01 1.476182639598846436e-01 -1.022190134972333908e-02 -2.606492042541503906e-01 2.627553045749664307e-01 -8.560319989919662476e-02 1.258347183465957642e-01 -6.152513995766639709e-02 3.582640364766120911e-02 1.109632626175880432e-01 1.981675773859024048e-01 1.076554507017135620e-01 -1.578710526227951050e-01 -7.764744013547897339e-02 1.381174325942993164e-01 1.470084637403488159e-01 2.088968902826309204e-01 9.834529459476470947e-02 -2.543430216610431671e-02 2.114599794149398804e-01 -7.014131546020507812e-02 2.538531720638275146e-01 -4.059128835797309875e-02 1.752307564020156860e-01 2.880823910236358643e-01 -1.911876946687698364e-01 1.516320407390594482e-01 -7.313067466020584106e-02 -9.523939341306686401e-02 -1.874336004257202148e-01 9.234268963336944580e-02 1.085046455264091492e-01 4.666739702224731445e-02
-6.689598411321640015e-02 1.235397011041641235e-01 1.425087451934814453e-01 -1.520998775959014893e-02 1.173369064927101135e-01 2.266676127910614014e-01 -1.990434527397155762e-01 3.305501639842987061e-01 -7.190950959920883179e-02 1.408749818801879883e-01 1.293538510799407959e-01 2.215193361043930054e-01 6.593764573335647583e-02 -1.849154084920883179e-01 1.821771711111068726e-01 -1.864646673202514648e-01 -1.164302974939346313e-01 2.371162176132202148e-01 7.911276817321777344e-02 -1.883429437875747681e-01 1.480619609355926514e-01 -1.809027642011642456e-01 -1.599566452205181122e-02 2.137608453631401062e-02 -1.419391389936208725e-02 -7.827369123697280884e-02 -8.394674956798553467e-02 -1.277600526809692383e-01 -5.310013517737388611e-02 -2.430956065654754639e-01 -6.310334801673889160e-02 9.386610984802246094e-02 -1.595104038715362549e-01 -2.063981294631958008e-01 1.206953264772891998e-02 -1.864791065454483032e-01 -1.960271000862121582e-01 -2.591164410114288330e-01 1.900251507759094238e-01 -9.461792558431625366e-02 -1.710042655467987061e-01 -5.489252507686614990e-02 2.558364868164062500e-01 8.025603368878364563e-03 -1.062690988183021545e-01 2.209654748439788818e-01 2.678741216659545898e-01 2.510873675346374512e-01 -9.169804304838180542e-02 -1.946740038692951202e-02
-7.561349123716354370e-02 1.863961219787597656e-01 -4.322328045964241028e-02 -2.334838956594467163e-01 -1.895522177219390869e-01 6.277485936880111694e-02 -1.467984169721603394e-01 3.963343799114227295e-02 1.901006400585174561e-01 7.040369510650634766e-02 4.007925093173980713e-02 -2.234679087996482849e-02 2.304762750864028931e-01 4.461966454982757568e-02 -1.494331955909729004e-01 -2.320517450571060181e-01 -9.957493096590042114e-02 -1.557349860668182373e-01 -3.607040271162986755e-03 -1.670386493206024170e-01 1.612499654293060303e-01 -1.889739632606506348e-01 -7.852295041084289551e-02 2.585403919219970703e-01 -2.453048974275588989e-01 1.659212261438369751e-01 -2.245051264762878418e-01 -5.439490452408790588e-02 1.953000724315643311e-01 6.120709702372550964e-02 5.001382902264595032e-03 -1.657905429601669312e-01 2.644810378551483154e-01 -2.057315409183502197e-01 1.834162473678588867e-01 -7.801542431116104126e-02 -2.897047996520996094e-02 -1.500419806689023972e-02 2.478769049048423767e-02 -7.733114063739776611e-02 -1.091703325510025024e-01 6.340571492910385132e-02 -2.109080739319324493e-02 2.375662773847579956e-01 1.393997967243194580e-01 7.509216666221618652e-02 9.724955260753631592e-02 6.298779696226119995e-02 1.578226126730442047e-02 -1.749423742294311523e-01
1.837131530046463013e-01 1.729750186204910278e-01 1.642913818359375000e-01 1.823118925094604492e-01 3.145990371704101562e-01 1.608384549617767334e-01 -2.934843674302101135e-02 7.898459583520889282e-02 -3.486742824316024780e-02 -1.330073922872543335e-01 8.131936937570571899e-02 1.154948249459266663e-01 2.593015432357788086e-01 7.033395022153854370e-02 1.490942835807800293e-01 1.537894308567047119e-01 8.267551660537719727e-03 2.393487840890884399e-01 6.562213599681854248e-02 -1.325867921113967896e-01 4.210401698946952820e-02 5.779856815934181213e-02 2.361584603786468506e-01 -5.112898349761962891e-02 -6.134529411792755127e-02 -2.144894450902938843e-01 -2.078602463006973267e-01 -2.957242541015148163e-03 -1.858034580945968628e-01 -5.435917060822248459e-03 -2.124436348676681519e-01 -2.039260864257812500e-01 -2.602652907371520996e-01 2.428002506494522095e-01 1.298506855964660645e-01 2.029280066490173340e-01 -1.871431991457939148e-02 -3.809384629130363464e-02 1.299282461404800415e-01 4.742056503891944885e-02 -5.027976352721452713e-03 1.510592252016067505e-01 -1.813102811574935913e-01 9.292223304510116577e-02 -6.507221609354019165e-02 -1.526212096214294434e-01 7.549668103456497192e-02 6.338480114936828613e-02 -1.699262857437133789e-01 9.912250563502311707e-03
-6.054598838090896606e-02 -2.238537073135375977e-01 1.742249578237533569e-01 2.797685749828815460e-02 -1.440091431140899658e-01 -4.546943306922912598e-02 1.967296451330184937e-01 3.989766165614128113e-02 1.436832249164581299e-01 -2.475913017988204956e-01 -1.464403718709945679e-01 2.218532934784889221e-02 -1.595869809389114380e-01 -2.688114941120147705e-01 1.398871988058090210e-01 2.939147651195526123e-01 1.109492033720016479e-02 8.922319114208221436e-02 1.817457750439643860e-02 -5.515738739632070065e-04 1.793056428432464600e-01 1.630343496799468994e-01 6.875648628920316696e-03 -3.171389177441596985e-02 -2.054859846830368042e-01 -8.477567881345748901e-02 1.158007308840751648e-01 -7.870867848396301270e-03 1.456532329320907593e-01 -6.407385319471359253e-02 -8.785977959632873535e-02 2.378357052803039551e-01 1.956983804702758789e-01 6.921294331550598145e-02 -2.732568383216857910e-01 -1.903279870748519897e-01 1.024328544735908508e-01 -1.630639433860778809e-01 -1.180955246090888977e-01 1.713251769542694092e-01 5.176260694861412048e-02 -1.069682091474533081e-02 7.068016380071640015e-02 -4.757250472903251648e-02 -1.022961586713790894e-01 1.996413320302963257e-01 2.402835935354232788e-01 -2.321588099002838135e-01 -2.135460376739501953e-01 -2.473576180636882782e-02
-1.644259691238403320e-01 2.324759811162948608e-01 -1.170864254236221313e-01 2.111797481775283813e-01 4.972245171666145325e-02 2.151784300804138184e-01 -5.056859925389289856e-02 -1.836759895086288452e-01 -2.099163681268692017e-01 2.353158965706825256e-02 -1.616938114166259766e-01 2.068600058555603027e-02 1.872755587100982666e-01 -8.586516231298446655e-02 -7.519087195396423340e-02 -1.048841327428817749e-01 4.566040262579917908e-02 -1.885983496904373169e-01 8.647964149713516235e-02 -1.767414212226867676e-01 4.161331802606582642e-02 2.589311003684997559e-01 3.451408818364143372e-02 1.430536210536956787e-01 4.808711633086204529e-02 3.587926924228668213e-02 5.228859186172485352e-02 5.977896973490715027e-02 -2.226765453815460205e-01 -1.945223212242126465e-01 -2.191061377525329590e-01 1.980685740709304810e-01 1.158047914505004883e-01 -1.079952530562877655e-02 -2.230050787329673767e-02 -2.945040911436080933e-02 -9.196781367063522339e-02 2.003192007541656494e-01 2.021339535713195801e-01 -3.048732280731201172e-01 6.532092392444610596e-02 -1.568448245525360107e-01 2.482519149780273438e-01 -2.132267877459526062e-02 5.225976929068565369e-02 -1.873251348733901978e-01 1.188972294330596924e-01 -3.340210299938917160e-03 9.534033387899398804e-02 2.399765253067016602e-01
