50
5
-2.266982495784759521e-01 2.024574279785156250e-01 4.120445251464843750e-01 -8.058370649814605713e-02 -4.197747707366943359e-01
2.894282937049865723e-01 -3.638729751110076904e-01 2.894956469535827637e-01 1.662208288908004761e-01 -2.005886733531951904e-01
1.663227379322052002e-01 4.902918040752410889e-01 -5.637547969818115234e-01 9.397962689399719238e-02 -3.586104512214660645e-01
5.166773796081542969e-01 -1.636982411146163940e-01 8.542089164257049561e-02 1.472411304712295532e-01 -3.901028931140899658e-01
5.975313782691955566e-01 -3.447277545928955078e-01 -2.718553841114044189e-01 -2.543940842151641846e-01 -9.686297923326492310e-02
5.730580687522888184e-01 -2.898969352245330811e-01 -1.712440848350524902e-01 -8.943863213062286377e-02 -4.237912893295288086e-01
-3.760642111301422119e-01 1.463119685649871826e-01 -6.061443090438842773e-01 7.049195468425750732e-02 4.104220867156982422e-01
-1.910216808319091797e-01 -3.740179166197776794e-02 -4.825435280799865723e-01 3.046545982360839844e-01 -3.692012429237365723e-01
-1.734211295843124390e-01 -3.802767693996429443e-01 2.306426167488098145e-01 -1.368615496903657913e-02 4.669550061225891113e-01
4.663496911525726318e-01 4.074945151805877686e-01 -1.265101134777069092e-01 -1.870918869972229004e-01 -4.131416678428649902e-01
-2.450122386217117310e-01 2.473056465387344360e-01 3.859886229038238525e-01 1.061007305979728699e-01 -2.026688754558563232e-01
-1.808111518621444702e-01 1.995540112257003784e-01 1.363426744937896729e-01 2.418116629123687744e-01 -4.541922509670257568e-01
3.938538730144500732e-01 5.099786818027496338e-02 1.877972930669784546e-01 1.418649852275848389e-01 -2.237929999828338623e-01
-6.345100402832031250e-01 3.873759806156158447e-01 2.369814366102218628e-01 3.726309239864349365e-01 4.551929235458374023e-02
6.188438087701797485e-02 3.548122942447662354e-01 1.580066978931427002e-01 -2.040652185678482056e-01 -1.463322490453720093e-01
3.171925544738769531e-01 1.794682592153549194e-01 -4.881730768829584122e-03 2.634124457836151123e-01 -2.279231846332550049e-01
-2.764219641685485840e-01 2.256733924150466919e-01 4.618023633956909180e-01 -2.293135039508342743e-02 4.087331891059875488e-01
-4.821987822651863098e-02 -9.130450338125228882e-02 -4.556511938571929932e-01 2.065602988004684448e-01 3.893879354000091553e-01
-8.625347167253494263e-02 -2.762907445430755615e-01 3.461446762084960938e-01 2.075619697570800781e-01 -1.892098784446716309e-01
3.537522852420806885e-01 -2.604154944419860840e-01 -9.079997986555099487e-02 1.523650586605072021e-01 -1.332520544528961182e-01
6.973422765731811523e-01 -1.839134097099304199e-01 -3.368020355701446533e-01 5.314041301608085632e-02 2.700204774737358093e-02
-1.153972521424293518e-01 -2.317489683628082275e-01 2.286887913942337036e-02 2.842488288879394531e-01 -2.507842481136322021e-01
3.462234735488891602e-01 1.919825971126556396e-01 -3.011846542358398438e-01 6.680572032928466797e-02 -2.411824613809585571e-01
1.840253919363021851e-02 2.601400017738342285e-01 2.187710255384445190e-01 -4.347106516361236572e-01 3.920806348323822021e-01
5.294681191444396973e-01 -1.159902065992355347e-01 -4.172734320163726807e-01 -2.656365334987640381e-01 1.264354437589645386e-01
-4.006703197956085205e-01 3.089628219604492188e-01 -3.313186168670654297e-01 7.038038969039916992e-02 3.969859778881072998e-01
3.398311734199523926e-01 -3.804625272750854492e-01 2.128349840641021729e-01 4.218817129731178284e-02 -2.860086858272552490e-01
-4.249510765075683594e-01 3.880656063556671143e-01 3.688618242740631104e-01 6.061046198010444641e-02 1.155454199761152267e-02
3.332871794700622559e-01 -3.943890035152435303e-01 2.174064815044403076e-01 3.934143185615539551e-01 -2.244760245084762573e-01
3.458810746669769287e-01 -6.935992091894149780e-02 3.105359710752964020e-02 1.397371143102645874e-01 -6.392481923103332520e-01
1.926250308752059937e-01 -5.726326256990432739e-02 1.706864833831787109e-01 4.077202826738357544e-02 -4.964965879917144775e-01
6.696770787239074707e-01 3.884851932525634766e-01 -7.996528744697570801e-01 -1.661400198936462402e-01 2.743743658065795898e-01
-2.911275625228881836e-01 1.509429663419723511e-01 -1.956184059381484985e-01 -2.575933337211608887e-01 -1.496213953942060471e-02
-2.128487378358840942e-01 -2.892944812774658203e-01 -7.410582154989242554e-02 -1.120082512497901917e-01 1.986561268568038940e-01
-7.010506093502044678e-02 4.239028785377740860e-03 3.820157945156097412e-01 -2.925080358982086182e-01 2.279894351959228516e-01
-2.931918799877166748e-01 2.586198449134826660e-01 -2.078625559806823730e-01 -3.129411637783050537e-01 3.367820978164672852e-01
-1.653545051813125610e-01 -4.857905209064483643e-01 2.804221585392951965e-02 -2.046598345041275024e-01 -5.182484537363052368e-02
-2.036510854959487915e-01 -7.057173550128936768e-02 -8.816310763359069824e-02 4.314048290252685547e-01 -3.872148990631103516e-01
5.218545794486999512e-01 -1.023356318473815918e-01 -5.217410326004028320e-01 -3.139833211898803711e-01 9.749572724103927612e-02
6.892008334398269653e-02 1.661681383848190308e-02 5.475158095359802246e-01 2.890370786190032959e-01 -9.029366075992584229e-02
8.162014931440353394e-02 1.854457259178161621e-01 -4.571806788444519043e-01 -3.181785047054290771e-01 3.466158509254455566e-01
1.614449173212051392e-01 -3.173848614096641541e-02 -2.069479078054428101e-01 1.838001161813735962e-01 3.631118237972259521e-01
4.851609468460083008e-02 4.429028183221817017e-02 2.078690826892852783e-01 1.663345843553543091e-01 3.087583482265472412e-01
-5.326415598392486572e-02 2.873036861419677734e-01 -3.488121926784515381e-02 4.116772115230560303e-01 -4.346650242805480957e-01
4.553277194499969482e-01 4.050242304801940918e-01 2.188628315925598145e-01 -2.628462016582489014e-01 -3.861834406852722168e-01
6.355242133140563965e-01 3.057265579700469971e-01 2.946223020553588867e-01 -2.256177216768264771e-01 -7.496207952499389648e-01
-1.064834073185920715e-01 1.505676507949829102e-01 -8.209775388240814209e-02 -3.647023141384124756e-01 2.775363624095916748e-02
4.309349358081817627e-01 -1.028433442115783691e-01 -3.470355272293090820e-01 -2.574105560779571533e-01 -2.077167481184005737e-01
9.704031981527805328e-03 -2.710005640983581543e-01 5.976285785436630249e-02 -3.373469114303588867e-01 -1.025124341249465942e-01
1.035687848925590515e-01 1.544086933135986328e-01 -1.133696660399436951e-01 -3.455763757228851318e-01 2.317170649766921997e-01
