50
50
-9.494037367403507233e-03 -1.051150709390640259e-01 -1.822340190410614014e-01 -3.054858744144439697e-01 -1.218121033161878586e-02 2.237387448549270630e-01 -1.325022280216217041e-01 -1.080249920487403870e-01 2.063956558704376221e-01 2.088132053613662720e-01 -6.049394607543945312e-02 -2.034156769514083862e-01 1.605854332447052002e-01 4.963847994804382324e-02 1.231225207448005676e-01 -5.062116682529449463e-02 1.365048140287399292e-01 -1.975128352642059326e-01 -1.828332841396331787e-01 2.564838528633117676e-01 -1.067119091749191284e-01 -3.155019283294677734e-01 -6.016873568296432495e-02 3.721797466278076172e-01 1.216365373693406582e-03 -2.070820331573486328e-02 -2.134734988212585449e-01 7.954283058643341064e-02 2.357359230518341064e-01 1.704933941364288330e-01 -2.712898254394531250e-01 7.379650324583053589e-02 2.216274589300155640e-01 1.719694286584854126e-01 1.299083083868026733e-01 -3.789851665496826172e-01 1.269557476043701172e-01 1.799076646566390991e-01 1.250531971454620361e-01 8.697204291820526123e-02 -1.372297406196594238e-01 -7.181396335363388062e-02 1.345077008008956909e-01 5.674684047698974609e-02 -1.496656835079193115e-01 7.617906481027603149e-02 -6.048456300050020218e-03 8.630926907062530518e-02 -2.487281858921051025e-01 -2.021186351776123047e-01
-7.589567452669143677e-02 -6.828092038631439209e-02 2.639075219631195068e-01 2.199569344520568848e-01 4.807031247764825821e-03 -1.062747314572334290e-01 -1.437395364046096802e-01 3.504590131342411041e-03 -9.213744848966598511e-02 -2.039674967527389526e-01 -1.963683217763900757e-01 1.794009804725646973e-01 -4.508676379919052124e-02 2.023427374660968781e-02 1.062633767724037170e-01 8.159009367227554321e-02 -2.186626344919204712e-01 -3.252067044377326965e-02 1.359135955572128296e-01 1.605867445468902588e-01 -4.243359714746475220e-02 1.929111927747726440e-01 -8.603857830166816711e-03 2.438611835241317749e-01 -1.238498166203498840e-01 -2.374555319547653198e-01 -9.017015248537063599e-02 -1.662168353796005249e-01 -2.380700036883354187e-02 6.198360025882720947e-02 2.027939073741436005e-02 -1.314129531383514404e-01 3.440670073032379150e-01 -3.020826578140258789e-01 -2.046583294868469238e-01 -9.875730425119400024e-02 5.962159484624862671e-02 -1.588777005672454834e-01 -1.572711169719696045e-01 2.778941094875335693e-01 -1.352387964725494385e-01 -5.848897993564605713e-02 1.460569947957992554e-01 -2.322273999452590942e-01 1.437555700540542603e-01 2.246036827564239502e-01 -1.363032907247543335e-01 6.740021635778248310e-04 1.900119632482528687e-01 -5.235509946942329407e-02
-3.737326338887214661e-02 5.942411720752716064e-02 -8.233153074979782104e-02 1.674408167600631714e-01 -1.016756966710090637e-01 -5.820410326123237610e-02 6.204491853713989258e-02 1.804862469434738159e-01 1.326306015253067017e-01 -8.110766857862472534e-02 5.867153033614158630e-02 1.401320472359657288e-02 1.770636141300201416e-01 9.242557734251022339e-02 -6.573894619941711426e-02 2.090525031089782715e-01 5.184414610266685486e-02 2.183690816164016724e-01 -7.470393925905227661e-02 4.382002633064985275e-03 2.105521708726882935e-01 8.632399141788482666e-02 -7.341502606868743896e-02 -1.337026059627532959e-01 -8.092751353979110718e-02 2.632996998727321625e-02 -1.768141090869903564e-01 -1.782310307025909424e-01 1.180097535252571106e-01 7.083871215581893921e-02 2.321504056453704834e-01 -1.916620880365371704e-01 -9.870932251214981079e-02 -2.161958068609237671e-01 -4.128937143832445145e-04 5.478446930646896362e-02 1.428423076868057251e-01 1.185999587178230286e-01 3.711956366896629333e-02 -1.958232074975967407e-01 -1.388305276632308960e-01 -1.911571025848388672e-01 -2.207696586847305298e-01 1.189206242561340332e-01 2.452036738395690918e-01 1.525704413652420044e-01 1.846198551356792450e-02 1.087141931056976318e-01 -1.134055852890014648e-01 8.912207186222076416e-02
1.783878356218338013e-01 1.360923349857330322e-01 -1.739432066679000854e-01 1.163048297166824341e-01 3.711496293544769287e-01 -2.886763215065002441e-01 -5.422038491815328598e-03 -2.218664735555648804e-01 -1.614993214607238770e-01 2.649407684803009033e-01 -1.764997094869613647e-02 6.452283263206481934e-02 -1.158270910382270813e-01 8.638679981231689453e-02 -1.766254752874374390e-01 -4.795988276600837708e-02 1.317847520112991333e-01 -1.189988330006599426e-01 -9.049025177955627441e-02 -1.868941187858581543e-01 -1.173368170857429504e-01 1.416656672954559326e-01 -6.573409587144851685e-02 2.882521599531173706e-02 1.681893914937973022e-01 2.300064265727996826e-01 1.203000247478485107e-01 8.978171646595001221e-02 -8.543115109205245972e-02 2.707113027572631836e-01 1.572003364562988281e-01 3.106626272201538086e-01 6.691358238458633423e-02 -2.872045040130615234e-01 7.623682171106338501e-02 3.292388617992401123e-01 -1.199152320623397827e-01 -2.110534720122814178e-02 -1.588954627513885498e-01 -1.474795192480087280e-01 9.101704508066177368e-02 8.111284114420413971e-03 1.597156077623367310e-01 5.601342394948005676e-02 -2.935162186622619629e-02 -1.683173924684524536e-01 1.897298693656921387e-01 -1.018001735210418701e-01 7.765861600637435913e-02 2.166731953620910645e-01
8.782885223627090454e-02 -3.955858200788497925e-02 2.353865653276443481e-01 -7.016128301620483398e-02 -1.622296571731567383e-01 7.314218580722808838e-02 -1.534108072519302368e-01 2.884991466999053955e-01 -1.766858994960784912e-02 2.611451745033264160e-01 -2.829312980175018311e-01 -1.892039924860000610e-01 2.353518009185791016e-01 1.590650230646133423e-01 4.223933815956115723e-02 -3.504744172096252441e-02 7.512271404266357422e-02 -5.276687070727348328e-02 3.627320826053619385e-01 1.465022563934326172e-01 1.023536026477813721e-01 -4.356674477458000183e-02 2.247186154127120972e-01 1.890092343091964722e-01 -1.758844107389450073e-01 -2.041691988706588745e-01 5.740330368280410767e-02 -2.064424902200698853e-01 -1.149734258651733398e-01 -7.700169831514358521e-02 1.150816902518272400e-01 -2.296153455972671509e-03 2.631576657295227051e-01 8.883998543024063110e-02 -1.648457944393157959e-01 4.828552901744842529e-02 1.680013239383697510e-01 2.522585391998291016e-01 2.036172896623611450e-01 3.742906451225280762e-02 7.989145070314407349e-02 -5.763052776455879211e-02 -2.263114899396896362e-01 1.290780901908874512e-01 -1.499557644128799438e-01 -4.377178102731704712e-02 -1.869350671768188477e-01 1.620017141103744507e-01 1.001812145113945007e-01 1.894723996520042419e-02
-8.694142848253250122e-02 -2.289143502712249756e-01 -9.461200237274169922e-02 -7.251273095607757568e-02 -1.555661112070083618e-01 3.335677459836006165e-02 -2.234543114900588989e-01 -1.367576569318771362e-01 2.355423122644424438e-01 -1.181020140647888184e-01 7.754281163215637207e-02 2.354671508073806763e-01 2.104627788066864014e-01 1.078964248299598694e-01 -2.211255431175231934e-01 -2.014381885528564453e-01 1.912652701139450073e-01 -3.400797024369239807e-02 2.518155798316001892e-02 1.384907215833663940e-01 -7.362765818834304810e-02 -2.056583911180496216e-01 2.071450352668762207e-01 1.837426871061325073e-01 1.698353327810764313e-02 -1.558027118444442749e-01 2.076847851276397705e-01 -8.311016857624053955e-02 2.243915200233459473e-01 1.649744063615798950e-01 1.842679232358932495e-01 1.048191338777542114e-01 -8.831334114074707031e-02 1.326559334993362427e-01 1.906564086675643921e-01 3.132961690425872803e-02 -1.102633178234100342e-01 1.212114542722702026e-01 -1.609376072883605957e-01 1.964010298252105713e-03 -1.151525042951107025e-02 -4.474132880568504333e-02 2.232460081577301025e-01 2.378818392753601074e-01 2.296954989433288574e-01 -3.627151250839233398e-02 1.859249323606491089e-01 2.383999973535537720e-01 -2.436010986566543579e-01 1.045206412672996521e-01
1.301524639129638672e-01 1.282672584056854248e-01 1.955729275941848755e-01 -1.475460976362228394e-01 -1.021292284131050110e-01 -9.984111040830612183e-02 5.070218443870544434e-02 1.654956117272377014e-02 -1.736199259757995605e-01 1.977627538144588470e-02 -4.036894068121910095e-02 5.320327728986740112e-02 1.563129723072052002e-01 -1.476098746061325073e-01 5.714206770062446594e-02 -7.729751616716384888e-02 2.785478234291076660e-01 -1.782233715057373047e-01 -3.243362605571746826e-01 3.214769363403320312e-01 -1.763764210045337677e-02 1.782069504261016846e-01 8.316258341073989868e-02 2.613144218921661377e-01 -3.142009675502777100e-01 1.268135309219360352e-01 2.076042629778385162e-02 8.899813890457153320e-02 -9.314301609992980957e-02 -7.912749797105789185e-02 -1.418770402669906616e-01 -2.252501249313354492e-02 -1.633376330137252808e-01 2.073906958103179932e-01 2.243810333311557770e-02 -9.703807532787322998e-03 1.909231692552566528e-01 3.978890925645828247e-02 -2.064367383718490601e-01 -2.226867526769638062e-01 1.422256510704755783e-02 7.811120152473449707e-02 2.110571563243865967e-01 -7.938565313816070557e-02 4.617344215512275696e-02 8.463405817747116089e-02 3.787156194448471069e-02 -2.812420725822448730e-01 2.053119689226150513e-01 -2.342275977134704590e-01
1.318257898092269897e-01 9.676611423492431641e-02 3.968526721000671387e-01 2.671062052249908447e-01 -2.889886498451232910e-03 -1.670351624488830566e-02 -6.750960648059844971e-02 1.814646180719137192e-03 3.010964579880237579e-02 -3.043130636215209961e-01 -9.957906603813171387e-02 -1.473680287599563599e-01 -6.924384087324142456e-02 -1.040196567773818970e-01 2.969371974468231201e-01 1.792916655540466309e-01 -7.216645870357751846e-03 -2.582805752754211426e-01 2.136294730007648468e-02 -2.635933458805084229e-03 -1.493760794401168823e-01 -2.236268371343612671e-01 1.111877858638763428e-01 -1.782563030719757080e-01 -7.920021191239356995e-03 -1.262965798377990723e-01 1.121386215090751648e-01 -9.142678231000900269e-02 1.922721713781356812e-01 4.391163215041160583e-02 -1.807124465703964233e-01 2.635872960090637207e-01 2.621534764766693115e-01 -1.792762875556945801e-01 -8.791725337505340576e-02 -2.959765195846557617e-01 -1.695195436477661133e-01 1.881783157587051392e-01 8.110277354717254639e-02 2.329376637935638428e-01 3.956913203001022339e-02 7.535026967525482178e-02 1.912747472524642944e-01 2.064100205898284912e-01 -1.252975165843963623e-01 5.191804096102714539e-02 -1.163258403539657593e-01 1.236984133720397949e-01 -1.088993772864341736e-01 3.210477158427238464e-02
1.253919005393981934e-01 1.740060932934284210e-02 1.706067472696304321e-01 2.621933817863464355e-01 -5.093545839190483093e-02 1.475654542446136475e-01 -1.020128652453422546e-01 -2.081343829631805420e-01 -1.386779546737670898e-01 -1.223741993308067322e-01 -1.624931395053863525e-02 1.056670397520065308e-01 1.949764490127563477e-01 1.275991499423980713e-01 1.225269064307212830e-01 -2.138126939535140991e-01 -1.719384193420410156e-01 9.743217378854751587e-02 -3.279395103454589844e-01 4.704247787594795227e-02 -3.023804426193237305e-01 8.524158596992492676e-02 2.418282330036163330e-01 -1.952703446149826050e-01 5.189031735062599182e-02 -2.125506848096847534e-01 -7.589333504438400269e-02 -1.309202611446380615e-02 -1.364040374755859375e-01 5.742194876074790955e-02 6.151723861694335938e-02 1.391054689884185791e-01 -2.481765151023864746e-01 1.606089770793914795e-01 -1.281502544879913330e-01 9.426037222146987915e-02 7.501040399074554443e-02 -1.944496482610702515e-01 -1.327676326036453247e-01 -1.618240475654602051e-01 -9.368352591991424561e-02 -1.780075877904891968e-01 -3.939889743924140930e-02 -2.659830749034881592e-01 -9.596047550439834595e-02 2.274276316165924072e-01 -1.383496373891830444e-01 -1.379836648702621460e-01 8.164571970701217651e-02 -2.349703460931777954e-01
5.323245003819465637e-02 1.471380144357681274e-01 2.948718070983886719e-01 1.865798979997634888e-01 1.182083189487457275e-01 -2.375897914171218872e-01 2.263967841863632202e-01 1.158468276262283325e-01 -1.117408927530050278e-02 1.526688337326049805e-01 4.002880305051803589e-02 1.358260959386825562e-01 2.291932702064514160e-01 9.955402463674545288e-02 9.396340698003768921e-02 -3.027276322245597839e-02 -2.293539345264434814e-01 -2.188514471054077148e-01 2.841230332851409912e-01 -2.558382749557495117e-01 4.915901925414800644e-03 2.115049064159393311e-01 -4.129556193947792053e-02 7.143044471740722656e-02 -2.826477028429508209e-02 2.389260940253734589e-02 -1.004248559474945068e-01 -5.173158273100852966e-02 -9.006251394748687744e-02 -3.426898643374443054e-02 4.093613922595977783e-01 1.712668687105178833e-01 9.997364878654479980e-02 -1.638221740722656250e-01 -1.260087490081787109e-01 -3.807422146201133728e-02 -1.025331839919090271e-01 -2.489341199398040771e-01 2.238778769969940186e-01 1.609508693218231201e-01 -5.047653242945671082e-02 1.971535384654998779e-01 2.783346734941005707e-02 2.508815228939056396e-01 1.340872943401336670e-01 2.447075396776199341e-02 -1.407281160354614258e-01 -6.139425188302993774e-02 -1.617411673069000244e-01 4.454212635755538940e-02
-8.419103920459747314e-02 -9.913092106580734253e-02 2.274850159883499146e-01 2.232670187950134277e-01 -2.405414581298828125e-01 2.466867566108703613e-01 3.276118636131286621e-02 -1.337284892797470093e-01 1.255993545055389404e-01 -5.970286205410957336e-02 -2.809167206287384033e-01 -2.930732630193233490e-02 -3.156153261661529541e-01 2.283708155155181885e-01 1.663861870765686035e-01 -1.421093940734863281e-01 -4.743158817291259766e-02 1.299766004085540771e-01 -8.738899230957031250e-02 -2.785021997988224030e-02 -6.524499505758285522e-02 -1.406233608722686768e-01 -1.948787868022918701e-01 -4.681064281612634659e-03 -1.726553887128829956e-01 2.647596299648284912e-01 8.968581259250640869e-02 -2.203876525163650513e-01 -8.583614975214004517e-02 5.126038193702697754e-02 -1.134390458464622498e-01 -1.974347829818725586e-01 1.938066929578781128e-01 -4.952963069081306458e-02 2.054094821214675903e-01 1.547765880823135376e-01 1.020050868391990662e-01 1.355629861354827881e-01 -1.272367089986801147e-01 -7.677575945854187012e-02 2.285207659006118774e-01 -3.550938889384269714e-02 3.373113647103309631e-02 6.505213677883148193e-02 2.227192074060440063e-01 2.251475900411605835e-01 3.417019173502922058e-02 -1.034773886203765869e-01 1.389803737401962280e-01 2.053047418594360352e-01
1.692291945219039917e-01 -1.224186643958091736e-01 -1.078641489148139954e-01 2.393424212932586670e-01 -2.333197742700576782e-01 1.438654214143753052e-01 1.058686524629592896e-01 1.525662690401077271e-01 -1.140720844268798828e-01 1.212919726967811584e-01 4.064911231398582458e-02 -6.041183322668075562e-02 -3.807044401764869690e-02 2.486793100833892822e-01 6.051079370081424713e-03 -1.207925193011760712e-02 1.284987926483154297e-01 -4.930072650313377380e-02 -1.989756077527999878e-01 5.230925604701042175e-02 1.056983396410942078e-01 1.571301370859146118e-01 -2.387049049139022827e-01 -6.350997835397720337e-02 1.003547981381416321e-01 2.116419747471809387e-02 1.154114827513694763e-01 1.149438321590423584e-02 2.533161342144012451e-01 -1.678721308708190918e-01 7.312694191932678223e-02 -1.986210048198699951e-01 3.624105080962181091e-02 7.988686859607696533e-02 -2.139676511287689209e-01 1.089355498552322388e-01 -7.168500870466232300e-02 -1.518485695123672485e-01 1.639593839645385742e-01 5.801815167069435120e-02 -7.047455757856369019e-02 1.363408714532852173e-01 2.411818951368331909e-01 7.242693006992340088e-02 -5.267236009240150452e-02 2.348860055208206177e-01 2.939512580633163452e-02 -1.391774266958236694e-01 1.017134487628936768e-01 1.370341181755065918e-01
1.974881142377853394e-01 1.342797577381134033e-01 1.786468476057052612e-01 -1.411795914173126221e-01 2.570271305739879608e-02 1.394459754228591919e-01 3.707158565521240234e-02 -8.327018469572067261e-02 -2.379383444786071777e-01 -1.621148884296417236e-01 -2.634963691234588623e-01 -5.470519885420799255e-02 -8.748917281627655029e-02 2.427821904420852661e-01 1.739445626735687256e-01 -2.954580076038837433e-02 -1.395967788994312286e-02 -1.751887798309326172e-02 3.690852820873260498e-01 -7.128816097974777222e-02 9.302096813917160034e-02 2.447945922613143921e-01 -1.756050288677215576e-01 -2.360078133642673492e-02 2.445414662361145020e-01 -1.611972898244857788e-01 -2.381647974252700806e-01 7.912462949752807617e-02 4.346127808094024658e-02 1.544810980558395386e-01 -4.806992411613464355e-02 2.844337224960327148e-01 1.790696568787097931e-02 -1.538577675819396973e-01 1.109135821461677551e-01 3.010385632514953613e-01 -3.393511101603507996e-02 1.577387750148773193e-01 1.573646627366542816e-02 2.110146433115005493e-01 -3.578419610857963562e-02 3.306176140904426575e-02 -8.908760547637939453e-02 1.115242466330528259e-01 -2.542142570018768311e-01 -2.167777344584465027e-02 -8.906754106283187866e-02 -1.479971706867218018e-01 2.073335200548171997e-01 8.538099378347396851e-02
1.883362084627151489e-01 1.578343808650970459e-01 3.119648993015289307e-01 1.295419335365295410e-01 2.461824417114257812e-01 -9.081637114286422729e-02 2.593961656093597412e-01 2.709046564996242523e-02 1.320018768310546875e-01 -3.193088248372077942e-02 1.407626271247863770e-01 2.499403655529022217e-01 6.357872486114501953e-02 -1.092033684253692627e-01 -2.051750719547271729e-01 -2.481772899627685547e-01 -1.408051997423171997e-01 1.142593100666999817e-01 -1.652418375015258789e-01 7.727296906523406506e-04 -4.881537333130836487e-02 2.408842593431472778e-01 -1.770009994506835938e-01 1.844908595085144043e-01 -3.757927939295768738e-02 1.621878007426857948e-03 3.161253407597541809e-02 -9.571083635091781616e-02 1.783057302236557007e-02 4.163874685764312744e-02 -5.564292520284652710e-02 3.084694147109985352e-01 1.371493637561798096e-01 -7.432772964239120483e-02 -1.990130096673965454e-01 -1.301370710134506226e-01 2.987773716449737549e-02 -1.486828327178955078e-01 2.196841090917587280e-01 6.443304568529129028e-02 -8.021165430545806885e-02 -1.976066678762435913e-01 -2.725299894809722900e-01 -1.180850192904472351e-01 5.038326978683471680e-02 -2.210241556167602539e-01 -3.848699107766151428e-02 -1.003864184021949768e-01 -1.564774289727210999e-02 1.556021422147750854e-01
-4.493137449026107788e-02 4.048847407102584839e-02 2.367970347404479980e-01 4.050416499376296997e-02 -2.194040641188621521e-02 1.820212113671004772e-03 1.408468931913375854e-01 1.189332827925682068e-01 1.411373913288116455e-01 -1.990078948438167572e-02 2.311957031488418579e-01 -1.651050299406051636e-01 -1.794538795948028564e-01 -1.310272961854934692e-01 9.550753235816955566e-02 2.088574171066284180e-01 -5.478493869304656982e-02 -2.216306701302528381e-02 -1.141055747866630554e-01 -1.187270730733871460e-01 -2.952814102172851562e-02 1.939448267221450806e-01 2.431412190198898315e-01 -1.790284216403961182e-01 1.878523826599121094e-01 2.495996505022048950e-01 4.286315757781267166e-03 1.976971626281738281e-01 9.293839335441589355e-02 -1.444603949785232544e-01 1.793932467699050903e-01 1.964223235845565796e-01 -1.395486444234848022e-01 -1.821607537567615509e-02 1.871363818645477295e-01 8.242901414632797241e-02 -2.053025513887405396e-01 -3.506886959075927734e-02 -4.287055507302284241e-02 1.957281976938247681e-01 1.813204735517501831e-01 4.705163836479187012e-02 -2.224464863538742065e-01 1.062937825918197632e-01 -2.349036484956741333e-01 6.236920133233070374e-02 7.302387803792953491e-02 -1.508622765541076660e-01 -8.350614458322525024e-02 -1.438096314668655396e-01
-1.686865687370300293e-01 -3.742805123329162598e-02 1.583773083984851837e-02 2.013994306325912476e-01 -4.559540376067161560e-02 -5.899422988295555115e-02 8.388312160968780518e-02 9.963057935237884521e-02 -2.935485914349555969e-02 1.153463125228881836e-01 7.286260835826396942e-03 3.065904043614864349e-02 -1.328577846288681030e-01 4.387869313359260559e-02 1.164798513054847717e-01 7.136051356792449951e-02 3.263350576162338257e-02 -1.389723736792802811e-02 4.486075937747955322e-01 -3.024302721023559570e-01 1.657693982124328613e-01 -3.072767555713653564e-01 -2.870155870914459229e-01 -3.979059681296348572e-02 6.274159997701644897e-02 -1.692346781492233276e-01 -9.931586682796478271e-02 -3.314676508307456970e-02 -8.863428235054016113e-02 -8.555139601230621338e-02 -2.487873136997222900e-01 -1.922754049301147461e-01 2.401605844497680664e-01 -1.201706156134605408e-01 2.138222455978393555e-01 -2.996605038642883301e-01 1.695359498262405396e-02 -7.529645413160324097e-02 4.297563061118125916e-02 1.876085549592971802e-01 2.852226234972476959e-02 -1.081272661685943604e-01 -2.466953843832015991e-01 -3.889489546418190002e-02 1.974001079797744751e-01 -5.903751403093338013e-02 -7.222385704517364502e-02 4.110633581876754761e-02 9.634276479482650757e-02 -5.371655523777008057e-02
-5.763225629925727844e-02 -1.463600527495145798e-02 2.466022819280624390e-01 -1.694580614566802979e-01 1.969994455575942993e-01 -1.337843239307403564e-01 -8.597390353679656982e-02 -1.882716417312622070e-01 9.759663045406341553e-02 -3.915480524301528931e-02 2.058337628841400146e-01 3.429162800312042236e-01 3.023215532302856445e-01 1.588121652603149414e-01 1.174591388553380966e-02 -9.980226308107376099e-02 -2.134058475494384766e-01 -2.389001287519931793e-02 -1.832982897758483887e-01 9.991295635700225830e-02 -3.316690921783447266e-01 7.945601642131805420e-02 2.215221375226974487e-01 1.570414751768112183e-01 -3.518641889095306396e-01 -1.065374538302421570e-01 -4.952898994088172913e-02 -3.944422304630279541e-02 1.790300905704498291e-01 2.767015695571899414e-01 -1.234992370009422302e-01 -1.427433341741561890e-01 -8.513557165861129761e-02 -2.309726476669311523e-01 -1.681242138147354126e-01 -8.306192606687545776e-02 -1.335482448339462280e-01 -1.747643053531646729e-01 2.978813461959362030e-02 -1.271693855524063110e-01 1.636007875204086304e-01 1.794272363185882568e-01 -1.778291761875152588e-01 -2.460445910692214966e-01 -3.092099167406558990e-02 5.688573047518730164e-02 1.793147474527359009e-01 -2.006318122148513794e-01 -5.618159472942352295e-02 -1.631281375885009766e-01
-2.319489419460296631e-01 -1.996744126081466675e-01 2.016241848468780518e-02 -1.058921497315168381e-02 -1.283365041017532349e-01 2.283537834882736206e-01 -1.239352896809577942e-01 -5.820995941758155823e-02 1.237281709909439087e-01 -8.047848939895629883e-02 -3.182315733283758163e-03 -1.245824769139289856e-01 8.764302730560302734e-02 -1.141528338193893433e-01 -3.994964957237243652e-01 3.432871028780937195e-02 1.233476549386978149e-01 -2.014860063791275024e-01 3.922699987888336182e-01 -1.421091407537460327e-01 1.896502524614334106e-01 -1.968689113855361938e-01 -2.113028615713119507e-01 -2.350728027522563934e-02 1.408550702035427094e-02 6.794098764657974243e-02 -1.136028468608856201e-01 -5.700584128499031067e-02 2.502095401287078857e-01 3.622808456420898438e-01 1.626391112804412842e-01 1.663024574518203735e-01 -9.234431385993957520e-02 6.524187326431274414e-02 1.894468665122985840e-01 -3.219733834266662598e-01 -1.018771678209304810e-01 -2.282311171293258667e-01 -6.927444785833358765e-02 -3.416394069790840149e-02 -1.221562176942825317e-01 -6.018893793225288391e-02 -7.619629055261611938e-02 1.666255593299865723e-01 1.634097695350646973e-01 -1.017993912100791931e-01 -2.463584840297698975e-01 -1.319534629583358765e-01 -2.223232090473175049e-01 1.561211943626403809e-01
-2.407901361584663391e-02 -2.360494285821914673e-01 1.111841425299644470e-01 1.665079593658447266e-02 2.076832503080368042e-01 2.943346649408340454e-02 -4.315651953220367432e-02 9.571322053670883179e-02 1.560191661119461060e-01 7.229489833116531372e-02 9.804057329893112183e-02 -1.677385866641998291e-01 1.112063527107238770e-01 1.730323582887649536e-01 1.253839954733848572e-02 1.895750872790813446e-02 -9.434919059276580811e-02 -1.495293229818344116e-01 -6.233507394790649414e-02 -1.018801108002662659e-01 -2.183540612459182739e-01 7.530872523784637451e-02 5.311427637934684753e-03 -1.674451865255832672e-02 -3.212800323963165283e-01 -1.127234175801277161e-01 2.334229350090026855e-01 -1.292378157377243042e-01 2.675946652889251709e-01 -2.938560545444488525e-01 3.926583826541900635e-01 3.020150959491729736e-01 1.403362005949020386e-01 1.904157400131225586e-01 -1.134673599153757095e-02 7.612546533346176147e-02 7.196071743965148926e-02 -5.604550987482070923e-02 -5.818449705839157104e-02 1.024978980422019958e-01 -2.329354733228683472e-01 -6.340146530419588089e-03 1.592116653919219971e-01 -6.837767362594604492e-02 2.397047579288482666e-01 -1.095036715269088745e-01 -2.113068997859954834e-01 -7.243254035711288452e-02 2.135225534439086914e-01 -1.209807172417640686e-01
1.048869863152503967e-01 -1.327484846115112305e-01 2.164508998394012451e-01 1.479929387569427490e-01 -8.153223246335983276e-02 -9.367198497056961060e-02 -2.173104435205459595e-01 -1.218289211392402649e-01 1.124007813632488251e-02 -2.113112360239028931e-01 3.271627053618431091e-02 2.758557498455047607e-01 2.629017531871795654e-01 5.510083585977554321e-02 5.975074600428342819e-03 -1.822264939546585083e-01 3.880306184291839600e-01 -2.436108142137527466e-01 -7.870699465274810791e-02 2.709645926952362061e-01 2.172216773033142090e-01 -1.502808034420013428e-01 2.630220949649810791e-01 4.951190203428268433e-03 -7.799873501062393188e-02 1.813758164644241333e-01 -1.300432085990905762e-01 -2.258854359388351440e-01 -6.002431362867355347e-02 1.962255686521530151e-01 5.804775282740592957e-02 -1.643013805150985718e-01 1.947724521160125732e-01 -6.562011688947677612e-02 3.925082832574844360e-02 2.357708103954792023e-02 -1.387540400028228760e-01 -1.528069227933883667e-01 -1.267831772565841675e-01 1.068656668066978455e-01 -1.275295466184616089e-01 1.619121059775352478e-02 -2.333674281835556030e-01 -1.413954347372055054e-01 1.587833315134048462e-01 -2.851126715540885925e-03 2.396123558282852173e-01 -3.163094818592071533e-02 -1.866606026887893677e-01 -1.064758896827697754e-01
2.580479085445404053e-01 -1.906071603298187256e-01 2.430473864078521729e-01 2.328698337078094482e-01 -3.328804159536957741e-03 3.265686798840761185e-03 -2.771987617015838623e-01 2.425510995090007782e-02 4.405157268047332764e-02 8.254288882017135620e-02 -3.379458189010620117e-01 -1.980233490467071533e-01 2.021108753979206085e-02 -1.250602602958679199e-01 -6.142125930637121201e-03 -9.248021990060806274e-02 1.448187232017517090e-01 -1.607286334037780762e-01 2.901108004152774811e-02 1.602235995233058929e-02 8.761759102344512939e-02 1.362632364034652710e-01 1.085263937711715698e-01 -1.701879501342773438e-01 -1.499657481908798218e-01 3.344459235668182373e-01 -1.636226326227188110e-01 1.343434303998947144e-01 3.234823793172836304e-02 3.032633103430271149e-04 2.271711230278015137e-01 9.284528344869613647e-02 -1.699993908405303955e-01 -3.419956564903259277e-02 1.670907586812973022e-01 -3.254764899611473083e-02 7.495999336242675781e-02 -4.000614583492279053e-02 -2.230958342552185059e-01 1.899025440216064453e-01 6.460166722536087036e-02 -1.310128420591354370e-01 -8.648440986871719360e-02 -7.554686814546585083e-02 -5.660728365182876587e-02 3.398202732205390930e-02 -1.068607270717620850e-01 1.463643461465835571e-01 -2.068828344345092773e-01 3.619212806224822998e-01
5.403713881969451904e-02 -1.147804930806159973e-01 -1.960444003343582153e-01 1.914558708667755127e-01 -1.677883975207805634e-02 1.151350662112236023e-01 6.830052286386489868e-02 8.942474424839019775e-02 1.331373453140258789e-01 1.186180189251899719e-01 -1.564715206623077393e-01 3.432926163077354431e-02 -2.270143032073974609e-01 -6.108659133315086365e-02 1.655001342296600342e-01 -1.502552032470703125e-01 -2.082739956676959991e-02 -1.780384778976440430e-01 -1.690272125415503979e-03 1.622289270162582397e-01 1.253170371055603027e-01 -1.293369531631469727e-01 1.639856696128845215e-01 -2.240186929702758789e-01 -1.407992541790008545e-01 -5.915292352437973022e-02 -3.790114820003509521e-02 -6.531253457069396973e-02 2.832432650029659271e-02 -4.490348696708679199e-02 -1.228571087121963501e-01 -8.198772370815277100e-02 1.026311591267585754e-01 2.362921088933944702e-01 2.258610874414443970e-01 1.175980083644390106e-02 4.347844421863555908e-02 1.512066274881362915e-01 1.075417995452880859e-01 2.329183071851730347e-01 3.794423863291740417e-02 -2.215106189250946045e-01 1.222097277641296387e-01 -1.666115522384643555e-01 -2.920093201100826263e-02 -6.815728545188903809e-02 6.614439189434051514e-02 1.716905683279037476e-01 3.095335885882377625e-02 -3.103091567754745483e-02
3.949622809886932373e-02 -1.943081989884376526e-02 2.778196632862091064e-01 2.314234673976898193e-01 3.279177248477935791e-01 2.511138282716274261e-02 -1.379342526197433472e-01 -1.556736379861831665e-01 5.374877154827117920e-02 -5.832340195775032043e-02 1.578609049320220947e-01 1.630610674619674683e-01 1.378456652164459229e-01 -1.873439997434616089e-01 2.667897939682006836e-01 8.046245574951171875e-02 5.461885780096054077e-02 7.998864352703094482e-02 -1.414060145616531372e-01 -1.718663424253463745e-01 -9.737720340490341187e-02 -2.202168852090835571e-02 -1.742458045482635498e-01 -3.189050257205963135e-01 -2.581600658595561981e-02 -2.868822216987609863e-01 -1.411260366439819336e-01 -1.665310263633728027e-01 1.618048846721649170e-01 -2.130492776632308960e-01 1.988738477230072021e-01 -1.424449086189270020e-01 2.038064226508140564e-02 7.366117089986801147e-02 -1.363852620124816895e-01 2.389363944530487061e-01 -7.662611454725265503e-02 5.204814672470092773e-02 -1.866238564252853394e-01 -2.432702668011188507e-02 1.954103708267211914e-01 -1.429614052176475525e-02 -5.308628454804420471e-02 -1.205582618713378906e-01 -8.607470244169235229e-02 2.162183970212936401e-01 -1.469574868679046631e-01 1.550425142049789429e-01 -4.876125603914260864e-02 -1.963337659835815430e-01
2.993621528148651123e-01 1.124543398618698120e-01 1.386417597532272339e-01 2.010789364576339722e-01 2.946733832359313965e-01 2.679997384548187256e-01 1.685664504766464233e-01 -2.582602798938751221e-01 -1.550154387950897217e-02 2.444095462560653687e-01 1.344940811395645142e-01 -4.843242000788450241e-03 -1.607059836387634277e-01 8.144847303628921509e-02 4.678129255771636963e-01 1.129527390003204346e-01 7.022737711668014526e-02 -2.239158935844898224e-02 -3.160263597965240479e-01 4.074611142277717590e-02 -2.592473626136779785e-01 -1.068996861577033997e-01 1.391410976648330688e-01 9.598758816719055176e-02 -2.910161018371582031e-01 7.763074338436126709e-02 -3.583090752363204956e-02 -4.381527379155158997e-02 -1.108645834028720856e-02 6.153553724288940430e-02 -7.921855151653289795e-02 9.045740962028503418e-02 -1.363378167152404785e-01 2.227487713098526001e-01 5.169283598661422729e-02 3.970061987638473511e-02 -2.007984668016433716e-01 -1.426209360361099243e-01 -1.082343310117721558e-01 3.303646743297576904e-01 -9.101516753435134888e-02 8.435647189617156982e-02 -2.283335924148559570e-01 2.823123633861541748e-01 8.751836419105529785e-02 4.376551508903503418e-02 -1.233645994216203690e-02 2.105587273836135864e-01 1.658615022897720337e-01 -1.467777695506811142e-02
1.634608656167984009e-01 -2.000563293695449829e-01 4.405667260289192200e-02 1.826363205909729004e-01 -9.859772026538848877e-02 -3.704164177179336548e-02 2.082155793905258179e-01 -1.486818343400955200e-01 3.244748339056968689e-02 -2.649405300617218018e-01 3.412629663944244385e-02 -1.975198509171605110e-03 1.446085274219512939e-01 2.675700485706329346e-01 -1.823852211236953735e-02 -9.765210002660751343e-02 -2.551492154598236084e-01 -8.988922834396362305e-02 -1.494414657354354858e-01 -7.933104038238525391e-02 -9.869429282844066620e-03 8.337261527776718140e-02 -1.623563915491104126e-01 -2.370647937059402466e-01 1.429565548896789551e-01 -6.481777131557464600e-02 -1.921723783016204834e-01 1.382590383291244507e-01 1.563834100961685181e-01 1.892630904912948608e-01 1.434779614210128784e-01 -6.356457620859146118e-02 -2.036242187023162842e-01 -1.717347353696823120e-01 3.972103353589773178e-03 1.517635583877563477e-01 1.263689547777175903e-01 1.109321117401123047e-01 -2.005989849567413330e-01 -1.691101491451263428e-01 1.806349903345108032e-01 -2.441959381103515625e-01 -1.971898227930068970e-01 -7.394816726446151733e-02 -2.236268669366836548e-01 3.771084919571876526e-02 1.313818991184234619e-01 6.175011396408081055e-02 5.570980161428451538e-02 4.127107933163642883e-02
3.397634252905845642e-02 9.065110236406326294e-02 1.818014830350875854e-01 1.306871324777603149e-01 -6.830543279647827148e-02 -1.598486900329589844e-01 -1.794834882020950317e-01 -2.682756781578063965e-01 2.381816506385803223e-01 1.468233019113540649e-01 -1.603548377752304077e-01 2.545760869979858398e-01 -3.980189189314842224e-02 9.981492906808853149e-02 2.673339545726776123e-01 2.160196304321289062e-01 9.556141495704650879e-02 2.203046344220638275e-02 -1.138398349285125732e-01 -1.682147979736328125e-01 -1.503157168626785278e-01 2.696486189961433411e-02 1.879024952650070190e-01 -4.338987544178962708e-02 -7.321483641862869263e-02 2.326924353837966919e-01 -7.147531211376190186e-02 -1.650465577840805054e-01 -1.047266870737075806e-01 -7.555314898490905762e-02 -1.127528697252273560e-01 2.003221064805984497e-01 1.416905038058757782e-02 1.066949367523193359e-01 6.387452781200408936e-02 1.799433380365371704e-01 -1.222973242402076721e-01 -1.751771122217178345e-01 2.504306100308895111e-02 2.577818930149078369e-01 -3.613820299506187439e-02 2.323431707918643951e-02 9.239438921213150024e-02 2.326398640871047974e-01 -2.312617152929306030e-01 -1.118578091263771057e-01 -3.343950957059860229e-02 -1.706208139657974243e-01 1.080490499734878540e-01 -2.359575480222702026e-01
-2.150331437587738037e-01 -1.391078829765319824e-01 -1.094676367938518524e-02 -7.065100967884063721e-02 2.466924302279949188e-02 1.049818396568298340e-01 -2.548028826713562012e-01 -1.051075831055641174e-01 -5.341821163892745972e-02 -8.433813601732254028e-02 -1.033979933708906174e-02 -3.306350708007812500e-01 -1.544513851404190063e-01 -1.341716051101684570e-01 1.864861845970153809e-01 8.161200582981109619e-02 5.621903389692306519e-02 -3.974473848938941956e-02 1.826146990060806274e-01 2.285679429769515991e-01 2.186123132705688477e-01 2.754495739936828613e-01 1.849252134561538696e-01 -1.825509667396545410e-01 -2.845860123634338379e-01 4.073640406131744385e-01 -2.156806290149688721e-01 -1.209664940834045410e-01 -3.864157199859619141e-02 8.979543298482894897e-02 2.581884525716304779e-02 -2.098864763975143433e-01 -8.619696646928787231e-02 -2.159991711378097534e-01 2.016588002443313599e-01 1.417487561702728271e-01 1.583482176065444946e-01 6.806171685457229614e-02 8.283940702676773071e-02 1.085077747702598572e-01 -6.870362162590026855e-02 -8.146812766790390015e-02 -1.078166067600250244e-01 -1.936524212360382080e-01 2.686095051467418671e-02 -1.698971986770629883e-01 1.138673648238182068e-01 1.962222158908843994e-01 1.136052608489990234e-01 6.627067923545837402e-02
2.031867504119873047e-01 -8.911836147308349609e-02 5.422051250934600830e-02 4.447636753320693970e-02 2.948659956455230713e-01 -1.843487024307250977e-01 1.841281652450561523e-01 5.647297576069831848e-02 1.130783483386039734e-01 1.712099015712738037e-01 9.987589437514543533e-04 2.962418831884860992e-03 -5.279395729303359985e-02 7.576207816600799561e-02 1.841625422239303589e-01 2.116914987564086914e-01 1.934488117694854736e-01 1.343719065189361572e-01 -1.729187071323394775e-01 -6.097682192921638489e-02 1.653286665678024292e-01 -8.943281322717666626e-02 -7.350075244903564453e-02 1.264337450265884399e-01 1.467223167419433594e-01 3.274908661842346191e-01 -2.487669698894023895e-02 5.689354240894317627e-02 2.785574197769165039e-01 2.100861221551895142e-01 6.873385980725288391e-03 2.774918377399444580e-01 -3.630033731460571289e-01 1.268138140439987183e-01 -8.151670545339584351e-02 -1.228698939085006714e-01 -2.124479785561561584e-02 -2.358589172363281250e-01 -1.943469643592834473e-01 -2.428736723959445953e-02 -1.289178058505058289e-02 1.642923504114151001e-01 -1.023299396038055420e-01 9.961640834808349609e-02 -1.285983473062515259e-01 1.219333037734031677e-01 -1.367869824171066284e-01 3.095183707773685455e-02 -1.407093852758407593e-01 -9.291297942399978638e-02
-2.253299206495285034e-01 1.260339319705963135e-01 -5.088914651423692703e-03 1.241998467594385147e-02 -3.049124777317047119e-01 -1.944110691547393799e-01 -7.055860757827758789e-02 1.893205940723419189e-02 -2.220658659934997559e-01 -1.691814661026000977e-01 -3.058416843414306641e-01 2.048689126968383789e-02 -2.521787956357002258e-02 1.729791462421417236e-01 -1.023168340325355530e-01 -8.168994635343551636e-02 1.432404969818890095e-03 1.400829553604125977e-01 4.122636914253234863e-01 5.901446565985679626e-02 2.022329568862915039e-01 2.388494610786437988e-01 1.089751422405242920e-01 7.414221018552780151e-02 2.077282816171646118e-01 1.643341332674026489e-01 1.992682069540023804e-01 -3.318050131201744080e-02 -1.557522714138031006e-01 -1.373671889305114746e-01 -1.017205193638801575e-01 -5.772392265498638153e-03 2.210754007101058960e-01 -3.097087740898132324e-01 8.969087153673171997e-02 -1.719819158315658569e-01 1.897454559803009033e-01 1.490814089775085449e-01 -8.271276950836181641e-02 -2.802961170673370361e-01 5.003203637897968292e-03 -8.022500574588775635e-02 -2.683301568031311035e-01 -2.611125633120536804e-02 1.053808555006980896e-01 8.087815716862678528e-03 -1.792608648538589478e-01 -5.544809624552726746e-02 -1.342659443616867065e-01 -1.206618919968605042e-01
9.072645008563995361e-02 -1.773003637790679932e-01 -1.916097104549407959e-01 -3.222052752971649170e-01 1.253500133752822876e-01 -2.622086107730865479e-01 5.962922051548957825e-02 -1.424579620361328125e-01 -3.304537013173103333e-02 -2.145288139581680298e-01 1.430160850286483765e-01 9.188987314701080322e-02 1.837741136550903320e-01 5.097233504056930542e-02 -1.397214457392692566e-02 -9.804590791463851929e-02 3.083963096141815186e-01 2.082628607749938965e-01 1.989719271659851074e-01 1.742286235094070435e-01 -8.936993777751922607e-02 -2.413235008716583252e-01 4.155035316944122314e-02 3.181218504905700684e-01 -2.426117472350597382e-02 -2.000649422407150269e-01 -1.717077791690826416e-01 -9.689310193061828613e-02 -1.895380467176437378e-01 -2.828071117401123047e-01 6.273089349269866943e-02 -1.064550951123237610e-01 9.280903637409210205e-02 3.061664104461669922e-01 -6.884942948818206787e-02 1.406760811805725098e-01 6.934554129838943481e-02 1.781717985868453979e-01 1.595014184713363647e-01 -3.000018894672393799e-01 -1.990904100239276886e-02 -1.120853126049041748e-01 1.272365450859069824e-01 -9.508591145277023315e-02 -6.135133281350135803e-02 1.878688335418701172e-01 3.917847946286201477e-02 -1.052161119878292084e-02 -3.400241723284125328e-03 -5.014606751501560211e-03
2.113691121339797974e-01 -1.887984424829483032e-01 6.779856234788894653e-02 2.102423906326293945e-01 1.877654045820236206e-01 -1.512744724750518799e-01 -8.611354231834411621e-02 -1.056220307946205139e-01 2.074804529547691345e-02 2.426986098289489746e-01 4.797939211130142212e-03 -1.765184104442596436e-01 1.167249530553817749e-01 1.543952673673629761e-01 -1.787955872714519501e-02 -1.633357554674148560e-01 -1.658866703510284424e-01 1.043710261583328247e-01 -2.794379889965057373e-01 1.871095746755599976e-01 7.321527600288391113e-02 2.963637113571166992e-01 1.414580345153808594e-01 1.297031044960021973e-01 -1.677305847406387329e-01 1.846343576908111572e-01 -3.633716329932212830e-02 -1.343915313482284546e-01 -1.743209958076477051e-01 1.859957277774810791e-01 2.544767260551452637e-01 -1.615191996097564697e-01 -2.633572220802307129e-01 -1.678713597357273102e-02 2.524710893630981445e-01 6.974789500236511230e-02 3.135365620255470276e-02 -1.754863709211349487e-01 8.371692150831222534e-03 7.793404906988143921e-02 3.990938141942024231e-02 -1.149678677320480347e-01 -6.378805637359619141e-02 -3.286388143897056580e-02 -2.335036396980285645e-01 -1.790127456188201904e-01 1.156005728989839554e-02 1.456421464681625366e-01 -9.922719746828079224e-02 6.702413409948348999e-02
3.747907280921936035e-01 -1.793310940265655518e-01 -7.216944545507431030e-02 3.043729066848754883e-01 -1.843923889100551605e-02 2.147590070962905884e-01 5.787087231874465942e-02 -1.707318238914012909e-02 1.785903871059417725e-01 1.356302052736282349e-01 -1.511328760534524918e-02 3.046878874301910400e-01 1.477851569652557373e-01 1.016639173030853271e-01 -1.121691241860389709e-02 8.439117670059204102e-02 2.393664233386516571e-02 -2.150137126445770264e-01 -5.946928858757019043e-01 -1.396905928850173950e-01 1.048710420727729797e-01 -9.971729665994644165e-02 -1.227133050560951233e-01 -2.709151208400726318e-01 -1.294674277305603027e-01 -2.327822297811508179e-01 -8.944290131330490112e-02 6.524252891540527344e-02 2.267415970563888550e-01 1.376057565212249756e-01 2.662312388420104980e-01 -4.801876842975616455e-03 -2.993343770503997803e-01 9.210596978664398193e-02 -2.202881872653961182e-02 1.931041628122329712e-01 -4.833570681512355804e-03 1.732687503099441528e-01 4.112415760755538940e-02 1.187492758035659790e-01 -1.877412945032119751e-01 -7.577250152826309204e-02 2.007661759853363037e-01 -2.063584029674530029e-01 1.169399023056030273e-01 -2.068285495042800903e-01 -8.900467306375503540e-02 -2.849353104829788208e-02 1.785108447074890137e-01 1.383869349956512451e-01
1.663323193788528442e-01 -2.320178151130676270e-01 -2.634548395872116089e-02 -2.522286474704742432e-01 2.451489865779876709e-01 6.159730255603790283e-02 -5.965465679764747620e-02 -8.049705624580383301e-02 1.281287968158721924e-01 7.054223865270614624e-02 -1.375375390052795410e-01 1.171833202242851257e-01 1.479139924049377441e-01 -2.707268893718719482e-01 6.408835947513580322e-02 7.292544096708297729e-02 -1.349470168352127075e-01 -8.620997890830039978e-03 2.426304668188095093e-01 3.118256330490112305e-01 -2.466883696615695953e-02 -6.276830285787582397e-02 2.323857396841049194e-01 4.389688372611999512e-02 2.646875083446502686e-01 -1.090133562684059143e-01 1.873341798782348633e-01 2.240369766950607300e-01 2.703080512583255768e-02 5.114153772592544556e-02 -1.688165813684463501e-01 -1.785602569580078125e-01 -2.810987234115600586e-01 2.822655811905860901e-02 -6.643787026405334473e-02 -2.400317341089248657e-01 -1.637776494026184082e-01 3.323915600776672363e-02 2.933752238750457764e-01 -3.548690080642700195e-01 7.716740667819976807e-02 1.391534060239791870e-01 1.306228935718536377e-01 -4.435526952147483826e-02 2.367194741964340210e-01 1.155265420675277710e-01 -1.625474542379379272e-01 2.464960217475891113e-01 -6.694954633712768555e-02 1.239281445741653442e-01
-1.570916734635829926e-02 4.107300192117691040e-02 -1.646917313337326050e-01 -1.468791216611862183e-01 8.101984113454818726e-02 5.587101355195045471e-02 -2.069938629865646362e-01 2.541912496089935303e-01 -1.054363548755645752e-01 2.611911594867706299e-01 -4.213273152709007263e-02 2.076102644205093384e-01 2.347430437803268433e-01 -2.725127935409545898e-01 2.651819288730621338e-01 -1.921334713697433472e-01 8.830685913562774658e-02 1.490775197744369507e-01 -2.526487708091735840e-01 3.073198795318603516e-01 2.225635349750518799e-01 2.315746098756790161e-01 1.483464390039443970e-01 -1.517183184623718262e-01 -1.333775222301483154e-01 2.083633393049240112e-01 -1.066772341728210449e-01 8.551156520843505859e-02 -2.040926814079284668e-01 8.361309021711349487e-02 -1.183228790760040283e-01 1.740656346082687378e-01 -1.678103357553482056e-01 1.657687872648239136e-01 -8.705082535743713379e-02 1.142564713954925537e-01 -2.121861129999160767e-01 -2.030655294656753540e-01 1.173836365342140198e-01 -1.568869948387145996e-01 2.161936163902282715e-01 -2.523980103433132172e-02 3.346328139305114746e-01 1.042517572641372681e-01 -7.083988189697265625e-02 -1.050341203808784485e-01 1.308403760194778442e-01 -2.294699400663375854e-01 -1.061360687017440796e-01 1.056283190846443176e-01
-1.552328169345855713e-01 -1.847428381443023682e-01 1.643411349505186081e-03 9.931581467390060425e-02 1.475532352924346924e-01 -2.636167965829372406e-02 1.714094877243041992e-01 7.126703113317489624e-02 -3.069922095164656639e-03 1.899786889553070068e-01 2.826150655746459961e-01 -2.451031655073165894e-01 -2.285800427198410034e-01 3.032836690545082092e-02 1.478697508573532104e-01 2.049612402915954590e-01 -8.364148437976837158e-02 1.661074012517929077e-01 2.121789157390594482e-01 -1.143039762973785400e-01 -1.861931383609771729e-01 -1.697524785995483398e-01 -3.968561068177223206e-02 -1.649000495672225952e-01 1.933100968599319458e-01 2.548037469387054443e-01 1.611742377281188965e-02 1.625594496726989746e-01 2.759542763233184814e-01 -2.444921527057886124e-03 -3.883866369724273682e-01 9.081029891967773438e-02 -1.528929173946380615e-01 5.915737524628639221e-02 1.434683203697204590e-01 7.707124948501586914e-02 -2.321523129940032959e-01 -1.336127817630767822e-01 4.751473292708396912e-02 -1.619380563497543335e-01 -6.073674559593200684e-02 -6.843005865812301636e-02 1.362649947404861450e-01 -5.727519467473030090e-02 -5.263826623558998108e-02 -7.616533339023590088e-02 8.747116476297378540e-02 7.074924558401107788e-02 -8.796053379774093628e-02 -1.906333714723587036e-01
-1.276699453592300415e-01 -3.336957097053527832e-02 -2.151462733745574951e-01 2.606711089611053467e-01 -3.310131132602691650e-01 1.842663735151290894e-01 1.854275912046432495e-01 2.146434187889099121e-01 -2.291345596313476562e-01 -1.247334331274032593e-01 -9.724738448858261108e-02 -8.988989889621734619e-02 1.116333529353141785e-01 -2.727292664349079132e-02 -1.805953234434127808e-01 -1.236844882369041443e-01 2.513526938855648041e-03 5.571825429797172546e-02 -1.941214501857757568e-02 2.017933130264282227e-01 2.618639469146728516e-01 2.560105919837951660e-01 1.339760124683380127e-01 -1.185903996229171753e-01 9.998741000890731812e-02 -2.869416177272796631e-01 -7.916896790266036987e-02 -2.819162420928478241e-02 1.181145980954170227e-01 -2.101066708564758301e-01 -1.832732558250427246e-01 -2.181330025196075439e-01 5.342775583267211914e-02 2.487654387950897217e-01 -1.619081497192382812e-01 -7.017312198877334595e-02 -8.211968094110488892e-02 -1.695064306259155273e-01 -4.996488988399505615e-02 -1.703903973102569580e-01 -1.120194867253303528e-01 2.152265459299087524e-01 3.029220402240753174e-01 3.470329046249389648e-01 1.739945113658905029e-01 2.103363275527954102e-01 -2.186900526285171509e-01 -2.011268883943557739e-01 -1.105040311813354492e-01 2.473243772983551025e-01
-1.440504491329193115e-01 -1.613207608461380005e-01 1.163428649306297302e-01 -3.467864915728569031e-02 -1.424299329519271851e-01 -2.519434690475463867e-01 1.477879136800765991e-01 1.488836407661437988e-01 -1.318808645009994507e-01 8.602228015661239624e-03 1.764501444995403290e-02 1.866037249565124512e-01 2.292073071002960205e-01 2.071867287158966064e-01 -1.593546569347381592e-01 1.578032225370407104e-01 2.798454165458679199e-01 -2.535113133490085602e-02 1.658704876899719238e-01 -8.750429004430770874e-02 1.532593220472335815e-01 2.283978462219238281e-01 3.456207215785980225e-01 -9.396491944789886475e-02 -6.655723601579666138e-02 9.550337493419647217e-02 -1.854617446660995483e-01 -2.257299572229385376e-01 -1.300400495529174805e-01 -8.495773375034332275e-02 2.401569038629531860e-01 8.688192069530487061e-02 -1.777072809636592865e-02 -9.166048467159271240e-02 1.787685304880142212e-01 3.614772558212280273e-01 -1.605063229799270630e-01 1.683316826820373535e-01 -1.402976214885711670e-01 -1.422686781734228134e-02 1.883258521556854248e-01 -4.087679088115692139e-02 -2.208546362817287445e-02 -1.808634549379348755e-01 5.938113480806350708e-02 -2.311286181211471558e-01 -1.943967938423156738e-01 -6.086972355842590332e-02 -1.427288204431533813e-01 -2.317987084388732910e-01
-2.294379472732543945e-01 -6.609128415584564209e-02 4.552186280488967896e-02 1.294312626123428345e-02 -2.345031797885894775e-01 1.125617921352386475e-01 1.173562407493591309e-01 -6.387301534414291382e-02 1.037235409021377563e-01 -1.537462025880813599e-01 6.388463079929351807e-02 -1.079445630311965942e-01 7.373871654272079468e-02 -1.784560978412628174e-01 -1.524833589792251587e-01 -1.626124978065490723e-01 -1.370534449815750122e-01 -1.270610988140106201e-01 -2.420316636562347412e-02 2.491228133440017700e-01 -2.540307641029357910e-01 -3.577252849936485291e-02 -2.102901786565780640e-02 9.876184910535812378e-02 -1.255718320608139038e-01 5.250119045376777649e-02 2.331430464982986450e-01 5.693697929382324219e-02 -6.922073662281036377e-02 2.482377439737319946e-01 7.135821133852005005e-02 2.493680268526077271e-02 -2.125602513551712036e-01 -2.158275991678237915e-01 -4.712454974651336670e-02 -1.740449965000152588e-01 2.127636820077896118e-01 8.654398471117019653e-02 3.523447085171937943e-03 2.181664109230041504e-01 -2.556397765874862671e-02 7.679958641529083252e-02 -1.713416874408721924e-01 -1.699350327253341675e-01 7.045870274305343628e-02 1.420117914676666260e-01 4.595147445797920227e-02 -2.039406597614288330e-01 1.778120696544647217e-01 2.115296274423599243e-01
8.235573768615722656e-02 -9.701113402843475342e-02 2.818081378936767578e-01 -5.291192978620529175e-02 1.960038393735885620e-01 -8.138570934534072876e-02 -1.446214169263839722e-01 1.582521498203277588e-01 -2.193629741668701172e-01 -1.524190604686737061e-01 5.315495282411575317e-02 2.934316992759704590e-01 -1.961450874805450439e-01 -2.042266428470611572e-01 4.638203233480453491e-02 -6.121795997023582458e-02 -1.276253461837768555e-01 1.778171397745609283e-03 1.645447164773941040e-01 -1.057694926857948303e-01 1.239148676395416260e-01 2.634853124618530273e-01 -1.846656762063503265e-02 -3.844090104103088379e-01 6.385918706655502319e-02 4.367397725582122803e-01 -1.154482290148735046e-01 -1.863892376422882080e-01 -2.628653049468994141e-01 -1.265536397695541382e-01 -1.113348230719566345e-01 5.156496539711952209e-02 -2.628011405467987061e-01 1.648203842341899872e-02 -2.480124682188034058e-01 1.327941417694091797e-01 3.160432353615760803e-02 1.038165986537933350e-01 1.452315598726272583e-01 1.157398968935012817e-01 -5.021893978118896484e-02 -1.425734013319015503e-01 -2.037984877824783325e-01 -4.169244319200515747e-02 -1.786530315876007080e-01 -1.416810899972915649e-01 -2.125083357095718384e-01 -6.416189670562744141e-02 -2.500111982226371765e-02 2.789171040058135986e-01
1.878330707550048828e-01 -2.446758747100830078e-01 1.559043377637863159e-01 -6.504818797111511230e-02 -9.635648876428604126e-02 6.519684568047523499e-03 5.944250151515007019e-02 -8.835583925247192383e-02 1.050437986850738525e-01 -1.418340355157852173e-01 8.939426392316818237e-02 4.213299602270126343e-02 2.818305492401123047e-01 -1.401452720165252686e-01 -2.066264674067497253e-02 -2.211630791425704956e-01 3.036202788352966309e-01 -1.024083420634269714e-01 -2.231076806783676147e-01 -9.010788053274154663e-02 -3.067479729652404785e-01 -2.790613770484924316e-01 1.970074623823165894e-01 1.065521463751792908e-01 -2.250326722860336304e-01 3.731324151158332825e-02 -1.219553574919700623e-01 -1.864214390516281128e-01 8.415859192609786987e-02 -2.846753299236297607e-01 -9.039247781038284302e-02 1.474955081939697266e-01 -1.532777398824691772e-01 2.979151010513305664e-01 1.406807005405426025e-01 -9.313618391752243042e-02 -1.118862554430961609e-01 -9.822784364223480225e-02 1.340094357728958130e-01 5.614075064659118652e-02 -6.608383357524871826e-02 -2.381053864955902100e-01 1.338105201721191406e-01 -1.182696819305419922e-01 -2.412620782852172852e-01 -9.329015761613845825e-02 -1.081986203789710999e-01 -7.001756876707077026e-02 -7.740355283021926880e-02 -2.367714047431945801e-01
-4.716368392109870911e-02 1.541347354650497437e-01 -1.276428997516632080e-01 3.393090143799781799e-02 2.118412107229232788e-01 -7.096937298774719238e-02 -1.789917498826980591e-01 -1.755593270063400269e-01 9.443607181310653687e-03 2.042378932237625122e-01 4.075622558593750000e-02 -2.470782697200775146e-01 -4.734362289309501648e-02 -3.846881389617919922e-01 -1.448171958327293396e-02 -1.631163060665130615e-01 8.748878538608551025e-02 1.850309073925018311e-01 1.298306882381439209e-01 -2.255612052977085114e-02 -1.343814581632614136e-01 8.606051094830036163e-03 7.028353959321975708e-02 -1.964360773563385010e-01 1.880270540714263916e-01 -1.473534852266311646e-01 -1.843155920505523682e-01 7.081911712884902954e-02 -4.567303694784641266e-03 1.154428720474243164e-01 9.752286225557327271e-02 -1.932430565357208252e-01 -5.272389948368072510e-02 -1.962078064680099487e-01 -7.726244628429412842e-02 -1.977984607219696045e-01 9.405073523521423340e-02 1.109669581055641174e-01 2.010269016027450562e-01 -1.594596803188323975e-01 -2.481413036584854126e-01 -1.636536866426467896e-01 -1.875874847173690796e-01 -4.442182555794715881e-02 2.320853620767593384e-01 -6.972378492355346680e-02 -9.746882319450378418e-02 1.387757994234561920e-02 4.966051131486892700e-02 -1.879470944404602051e-01
-1.450996994972229004e-01 -1.072329431772232056e-01 6.511916220188140869e-02 -2.411841601133346558e-01 -3.190232217311859131e-01 -3.627330530434846878e-03 7.122562825679779053e-02 1.665154844522476196e-01 -4.979361966252326965e-02 2.360598593950271606e-01 3.358244001865386963e-01 9.022124856710433960e-02 3.238701820373535156e-01 -2.187224626541137695e-01 -8.846065402030944824e-02 -9.666194021701812744e-02 2.625934546813368797e-03 1.513566076755523682e-01 2.160876616835594177e-02 -1.656750291585922241e-01 1.048485189676284790e-02 -2.789400815963745117e-01 -3.469274565577507019e-02 4.044027030467987061e-01 -2.438716143369674683e-01 2.702951990067958832e-02 -2.309902906417846680e-01 -2.008812278509140015e-01 -7.950866222381591797e-02 2.699011564254760742e-01 1.256821006536483765e-01 3.485016152262687683e-02 -1.765676885843276978e-01 3.655639290809631348e-02 -4.196821525692939758e-02 -3.265091478824615479e-01 -9.234104305505752563e-02 -2.099054157733917236e-01 2.828055024147033691e-01 -9.174981713294982910e-02 -1.303234994411468506e-01 1.946382522583007812e-01 8.151132613420486450e-02 -2.057089656591415405e-01 -2.198911458253860474e-01 -9.815408289432525635e-02 -1.157613918185234070e-01 1.577587574720382690e-01 -3.089439682662487030e-02 -3.048095107078552246e-01
2.564952075481414795e-01 -2.263619154691696167e-01 1.914396733045578003e-01 9.476017951965332031e-02 -2.090114951133728027e-01 9.768191725015640259e-02 -1.310048252344131470e-02 -4.121920838952064514e-02 -2.337476238608360291e-02 9.671097248792648315e-02 1.518678367137908936e-01 -1.381559222936630249e-01 1.821265965700149536e-01 2.510696947574615479e-01 -4.679814577102661133e-01 9.731387346982955933e-02 -2.859754562377929688e-01 1.502053886651992798e-01 1.479537636041641235e-01 1.912603378295898438e-01 2.811419665813446045e-01 -9.956802427768707275e-02 -1.537598669528961182e-01 2.179073244333267212e-01 2.586377263069152832e-01 -1.388766169548034668e-01 6.516406685113906860e-02 1.472981460392475128e-02 -3.555780276656150818e-02 -1.840263158082962036e-01 5.011482909321784973e-02 1.788422465324401855e-01 2.010620236396789551e-01 -1.229941025376319885e-01 -4.157800227403640747e-02 3.181877136230468750e-01 4.974271729588508606e-02 -3.008154034614562988e-02 -2.039197534322738647e-01 -3.182212412357330322e-01 -1.958241462707519531e-01 -7.891057431697845459e-02 1.986349970102310181e-01 1.648193001747131348e-01 -1.958723366260528564e-01 -1.759180724620819092e-01 -2.036776691675186157e-01 2.412742702290415764e-03 -1.328513026237487793e-02 3.563092947006225586e-01
-1.720313578844070435e-01 1.890655420720577240e-02 1.305888593196868896e-01 -1.543316692113876343e-01 -2.267192304134368896e-01 5.945626646280288696e-02 2.510663494467735291e-02 2.120516747236251831e-01 5.228172242641448975e-02 1.479482203722000122e-01 7.539581507444381714e-02 1.135361641645431519e-01 2.874610722064971924e-01 2.186898887157440186e-01 -1.449155807495117188e-01 1.712196320295333862e-01 -1.660576313734054565e-01 -8.458075672388076782e-02 -2.676903009414672852e-01 8.126159012317657471e-02 9.489729255437850952e-02 -1.243291497230529785e-01 1.610937267541885376e-01 3.762030899524688721e-01 2.619442343711853027e-01 -5.575961247086524963e-02 2.058092355728149414e-01 6.749024987220764160e-02 -2.354247868061065674e-02 -1.318398863077163696e-01 -1.954631954431533813e-01 5.754556134343147278e-02 -7.288938760757446289e-02 -2.202001810073852539e-01 2.517972588539123535e-01 1.277699172496795654e-01 -9.259174764156341553e-02 -5.676174163818359375e-02 -8.275231719017028809e-02 -2.723849005997180939e-02 -1.459918618202209473e-01 -1.524442285299301147e-01 -2.138570249080657959e-01 -5.193606019020080566e-02 1.510998457670211792e-01 1.130904257297515869e-01 5.530392006039619446e-02 1.100039109587669373e-01 -1.183652505278587341e-01 -5.502157658338546753e-02
-2.162065207958221436e-01 -4.330344498157501221e-02 -1.729681789875030518e-01 5.674773082137107849e-02 -2.289922535419464111e-01 -1.839849948883056641e-01 2.053114771842956543e-01 2.309859246015548706e-01 -2.472017258405685425e-01 -8.130601793527603149e-02 -1.336755752563476562e-01 1.862722039222717285e-01 -3.736801678314805031e-03 -1.726575940847396851e-01 -3.486551344394683838e-02 1.904917359352111816e-01 -8.772630989551544189e-02 1.302778571844100952e-01 -1.049275398254394531e-01 -1.292149871587753296e-01 1.178036555647850037e-01 -1.102269291877746582e-01 -8.743965625762939453e-02 3.353611230850219727e-01 -4.273505508899688721e-02 -3.619436919689178467e-01 6.009516492486000061e-02 7.421181350946426392e-02 2.307025790214538574e-01 6.867980957031250000e-02 3.694466054439544678e-01 -2.049265354871749878e-01 -2.643584907054901123e-01 2.421570867300033569e-01 2.616704106330871582e-01 6.271114945411682129e-02 -1.665400117635726929e-01 -3.219958744011819363e-04 -3.946525976061820984e-02 8.214028924703598022e-02 -1.205812394618988037e-01 -8.253313601016998291e-02 8.799958229064941406e-02 -1.725513041019439697e-01 -1.743622720241546631e-01 -1.636152565479278564e-01 1.252203881740570068e-01 9.416410326957702637e-02 -1.470333039760589600e-01 -2.597818672657012939e-01
8.550569415092468262e-02 1.254324167966842651e-01 1.412525922060012817e-01 2.115443199872970581e-01 2.443816810846328735e-01 -2.439830452203750610e-01 -1.802158504724502563e-01 -1.915112584829330444e-01 -1.307183653116226196e-01 -9.074322134256362915e-02 -9.461759030818939209e-02 1.098859608173370361e-01 1.991634517908096313e-01 2.738540172576904297e-01 -7.654683291912078857e-02 1.561949998140335083e-01 -1.853206008672714233e-01 -1.768345832824707031e-01 -3.769089579582214355e-01 1.737780570983886719e-01 3.948342800140380859e-02 1.054517701268196106e-01 1.947590708732604980e-01 -2.130200266838073730e-01 -1.969881355762481689e-01 9.420185536146163940e-02 4.936818778514862061e-02 3.360879793763160706e-02 -5.634782463312149048e-02 -2.220755666494369507e-01 2.494462132453918457e-01 1.527330130338668823e-01 -7.402216643095016479e-02 4.080979526042938232e-02 2.148121595382690430e-01 1.126412749290466309e-01 6.114299967885017395e-02 -2.837589010596275330e-02 1.416794061660766602e-01 4.793818667531013489e-02 -3.480053693056106567e-02 -7.420920580625534058e-02 -1.483894437551498413e-01 -2.291712313890457153e-01 2.131243348121643066e-01 -1.016907840967178345e-01 -6.705359369516372681e-02 -9.175713360309600830e-02 -9.357600472867488861e-03 1.411121431738138199e-02
-2.454754710197448730e-01 -6.977626681327819824e-02 -5.001989752054214478e-02 1.380282640457153320e-01 -2.908035553991794586e-02 -1.780444532632827759e-01 -8.698583394289016724e-02 1.494678705930709839e-01 -1.556076556444168091e-01 -1.225435361266136169e-01 1.483643054962158203e-01 -1.378064602613449097e-02 2.849315106868743896e-01 2.579113245010375977e-01 -1.489946544170379639e-01 -2.396751940250396729e-01 -2.374116480350494385e-01 -2.409269362688064575e-01 -1.458298712968826294e-01 -2.870742380619049072e-01 -7.950198836624622345e-03 6.595478951930999756e-02 -1.868041455745697021e-01 8.503992855548858643e-02 2.216529101133346558e-02 1.512103825807571411e-01 -2.235914170742034912e-01 -2.136213891208171844e-02 -1.340393871068954468e-01 1.813471317291259766e-01 3.065859675407409668e-01 5.140628665685653687e-03 3.314356803894042969e-01 -2.205491065979003906e-01 -2.239280045032501221e-01 2.756254971027374268e-01 5.092041566967964172e-02 -2.343518137931823730e-01 5.104366317391395569e-02 3.028658032417297363e-01 -2.999808266758918762e-02 1.309084743261337280e-01 4.375957325100898743e-02 4.576982930302619934e-02 -8.105263859033584595e-02 -2.085532248020172119e-01 -2.211846262216567993e-01 -1.813741773366928101e-01 -1.474202573299407959e-01 -1.700420528650283813e-01
1.660561561584472656e-01 -5.995111539959907532e-02 -8.891072124242782593e-02 -1.017941087484359741e-01 4.760259389877319336e-02 -1.103947386145591736e-01 6.058964133262634277e-02 -1.451818048954010010e-01 1.240952238440513611e-01 1.151891350746154785e-01 -2.025535106658935547e-01 -2.007246613502502441e-01 -7.243212312459945679e-02 5.206619948148727417e-02 1.999432146549224854e-01 -1.518804281949996948e-01 1.989329606294631958e-01 -1.196125224232673645e-01 -2.273794561624526978e-01 -2.305330187082290649e-01 -8.448622375726699829e-02 2.005020678043365479e-01 -2.170394212007522583e-01 -1.999386847019195557e-01 -3.601371869444847107e-02 -1.639434136450290680e-02 -1.856630742549896240e-01 1.544634699821472168e-01 2.422122955322265625e-01 -2.344185113906860352e-01 3.250351250171661377e-01 3.382542729377746582e-01 8.711783587932586670e-02 8.501368574798107147e-03 -1.832429766654968262e-01 2.484969794750213623e-01 -6.362235546112060547e-02 -2.410179190337657928e-02 2.284562289714813232e-01 1.773594617843627930e-01 1.620730459690093994e-01 1.640605479478836060e-01 8.956716954708099365e-02 1.421506702899932861e-01 -5.850600078701972961e-02 7.909678667783737183e-02 8.122113347053527832e-02 -9.359190240502357483e-03 -2.281086444854736328e-01 -1.063205599784851074e-01
2.900857031345367432e-01 -1.138986367732286453e-02 -6.751827150583267212e-02 2.122302204370498657e-01 -9.670977294445037842e-02 -6.188631802797317505e-02 -4.067154601216316223e-02 1.823951452970504761e-01 1.566321402788162231e-01 -1.117335185408592224e-01 3.449294865131378174e-01 2.195772379636764526e-01 7.750312238931655884e-02 9.570981562137603760e-02 2.279417514801025391e-01 -1.505561470985412598e-01 -1.757894903421401978e-01 2.902195788919925690e-02 2.022088915109634399e-01 2.777631580829620361e-01 8.148465305566787720e-02 -2.912589721381664276e-02 2.837097346782684326e-01 -9.195850789546966553e-02 2.090884894132614136e-01 -1.857366412878036499e-01 1.775616556406021118e-01 -5.025702342391014099e-02 1.258998662233352661e-01 1.060029342770576477e-01 -2.119328379631042480e-01 -1.791021823883056641e-01 3.159699440002441406e-01 1.672900319099426270e-01 -2.029194086790084839e-01 2.913214862346649170e-01 -2.468722164630889893e-01 1.567984670400619507e-01 1.152835339307785034e-01 6.298672407865524292e-02 1.881510019302368164e-01 -1.187542080879211426e-01 -2.585262358188629150e-01 -1.642705500125885010e-01 -2.352169007062911987e-01 -1.612772643566131592e-01 1.149893403053283691e-01 5.305565893650054932e-02 1.703979820013046265e-01 -1.484235823154449463e-01
2.476770877838134766e-01 8.167735487222671509e-02 -2.349451929330825806e-02 -1.717409491539001465e-01 3.126985728740692139e-01 1.429511159658432007e-01 2.859948948025703430e-02 1.481520086526870728e-01 -6.948103010654449463e-02 -2.170619666576385498e-01 2.310557216405868530e-01 2.307462543249130249e-01 8.143760263919830322e-02 -2.984505295753479004e-01 -2.120033949613571167e-01 -2.377220690250396729e-01 -2.140612155199050903e-01 -8.214019984006881714e-02 5.508345738053321838e-02 2.242187112569808960e-01 -1.204298958182334900e-01 3.068414330482482910e-01 2.823493480682373047e-01 1.965550035238265991e-01 2.236271947622299194e-01 2.657929956912994385e-01 -1.637164652347564697e-01 4.422247782349586487e-02 2.853636443614959717e-01 -4.351115971803665161e-02 6.624712795019149780e-02 -3.892108500003814697e-01 -3.611072525382041931e-02 -1.455425024032592773e-01 -2.298657745122909546e-01 1.607872396707534790e-01 -1.520749926567077637e-01 -1.794373840093612671e-01 3.136357963085174561e-01 -1.265121996402740479e-01 -1.738916039466857910e-01 -2.226406186819076538e-01 2.535191476345062256e-01 -1.934129297733306885e-01 -1.451163589954376221e-01 -1.414100527763366699e-01 5.660449340939521790e-02 -2.232887297868728638e-01 -2.111883014440536499e-01 2.165493965148925781e-01
