187
50
4.198396578431129456e-02 2.804827131330966949e-02 3.577270805835723877e-01 2.981220781803131104e-01 -6.063626706600189209e-02 -9.335843473672866821e-02 3.289262652397155762e-01 3.045762330293655396e-02 4.197993129491806030e-02 4.208816587924957275e-01 -9.583281725645065308e-02 -2.499971985816955566e-01 1.904067024588584900e-02 6.593339145183563232e-02 1.294909268617630005e-01 -7.548983395099639893e-02 -8.037057518959045410e-02 -1.363299340009689331e-01 -1.982361674308776855e-01 1.819730252027511597e-01 -2.180749922990798950e-02 1.227485854178667068e-02 1.398545652627944946e-01 9.265772998332977295e-02 1.336734592914581299e-01 9.704925864934921265e-02 -4.171570241451263428e-01 9.111687541007995605e-02 1.131664142012596130e-01 -1.744860857725143433e-01 -3.312271833419799805e-01 1.710750907659530640e-01 -2.281307242810726166e-02 -1.102288886904716492e-01 9.463883936405181885e-02 -4.510417953133583069e-02 1.764919459819793701e-01 2.319006472826004028e-01 8.463634550571441650e-02 -4.697269573807716370e-02 -1.636044979095458984e-01 -7.316947728395462036e-02 -1.252252310514450073e-01 1.377516686916351318e-01 3.701699152588844299e-02 -1.913216859102249146e-01 -1.573092639446258545e-01 -1.406219601631164551e-01 -4.384954869747161865e-01 -3.897202312946319580e-01
-1.322070807218551636e-01 8.088991045951843262e-02 -4.449327662587165833e-02 1.529982779175043106e-02 -2.305492758750915527e-01 -5.990559607744216919e-02 -1.751561909914016724e-01 1.420264691114425659e-01 1.029459163546562195e-01 1.830527484416961670e-01 1.870444267988204956e-01 4.246923699975013733e-02 1.307220458984375000e-01 -3.279391527175903320e-01 5.259104371070861816e-01 4.388415515422821045e-01 -3.692619875073432922e-02 -9.674278646707534790e-02 -2.912740968167781830e-02 -7.363620400428771973e-02 -2.363044768571853638e-01 -7.244022935628890991e-02 3.181581571698188782e-02 -1.836812123656272888e-02 -2.807775735855102539e-01 -1.550255864858627319e-01 1.102774813771247864e-01 1.418105661869049072e-01 -2.584354877471923828e-01 1.209824904799461365e-01 -1.560755968093872070e-01 -2.237659096717834473e-01 -3.259619176387786865e-01 1.621641777455806732e-02 -7.826612889766693115e-02 3.623653650283813477e-01 3.247340619564056396e-01 4.065548479557037354e-01 1.832733452320098877e-01 -2.672425657510757446e-02 -2.556222081184387207e-01 -2.200307697057723999e-01 2.319434285163879395e-01 1.873866096138954163e-02 1.378813832998275757e-01 -3.144309222698211670e-01 1.862931400537490845e-01 -4.948829114437103271e-02 -1.865573525428771973e-01 2.383547723293304443e-01
-2.073682546615600586e-01 2.616154849529266357e-01 2.175230681896209717e-01 2.260219305753707886e-01 2.979651987552642822e-01 2.293489687144756317e-02 -1.489720344543457031e-01 -2.253433763980865479e-01 2.406610250473022461e-01 -4.618106186389923096e-01 2.056422382593154907e-01 -7.161241024732589722e-02 1.400466659106314182e-03 1.877667605876922607e-01 2.564208023250102997e-02 7.414921373128890991e-02 2.470287084579467773e-01 5.304659903049468994e-02 -1.970260143280029297e-01 1.602528393268585205e-01 1.813215911388397217e-01 -7.453265041112899780e-02 1.753863543272018433e-01 -1.738259345293045044e-01 1.960034221410751343e-01 -3.397663310170173645e-02 3.820592761039733887e-01 -1.975787580013275146e-01 3.120169639587402344e-01 2.578597366809844971e-01 2.491013854742050171e-01 1.530166417360305786e-01 1.380110979080200195e-01 -2.997516095638275146e-01 1.311566233634948730e-01 -2.147547155618667603e-01 2.011722624301910400e-01 -3.233313858509063721e-01 -1.650098264217376709e-01 1.945610195398330688e-01 2.486635595560073853e-01 2.401758581399917603e-01 -1.980210468173027039e-02 1.383144706487655640e-01 2.474132031202316284e-01 -1.346125602722167969e-01 7.288360595703125000e-02 -2.353355437517166138e-01 2.525223493576049805e-01 1.007075980305671692e-01
-2.105579674243927002e-01 1.772024780511856079e-01 5.788546428084373474e-02 3.590956628322601318e-01 3.191322386264801025e-01 5.178723931312561035e-01 -9.749826788902282715e-02 -7.766036689281463623e-02 -1.220063492655754089e-01 -3.255084156990051270e-01 1.455570310354232788e-01 -1.182071566581726074e-01 -2.234963029623031616e-01 3.563531488180160522e-02 -7.647055201232433319e-03 -1.254470348358154297e-01 1.317968964576721191e-01 8.372018486261367798e-02 -3.071006238460540771e-01 1.143949925899505615e-01 2.057336270809173584e-02 -1.318739354610443115e-01 1.036875098943710327e-01 -1.658898591995239258e-01 8.033463358879089355e-02 -1.736235171556472778e-01 2.161545902490615845e-01 -5.592796579003334045e-02 3.965938091278076172e-01 7.910940051078796387e-02 9.823089838027954102e-02 -7.894501835107803345e-02 3.278608024120330811e-01 -1.477569900453090668e-02 1.529990583658218384e-01 -1.974621973931789398e-02 3.704188168048858643e-01 -5.949059873819351196e-02 -1.655001938343048096e-01 1.702839881181716919e-01 1.783208698034286499e-01 2.158789485692977905e-01 -2.030204236507415771e-01 1.168152838945388794e-01 2.756503783166408539e-02 7.982046902179718018e-02 -1.421004235744476318e-01 -1.246998682618141174e-01 3.561950847506523132e-02 -1.406194567680358887e-01
1.535813659429550171e-01 -1.237448211759328842e-02 2.795995026826858521e-02 -7.096109539270401001e-02 -8.507186919450759888e-02 -7.853208482265472412e-02 -1.332943886518478394e-01 -1.973987817764282227e-01 1.306749433279037476e-01 -7.185882329940795898e-02 -2.327202111482620239e-01 -2.275520190596580505e-02 4.039302095770835876e-02 -1.031015217304229736e-01 -6.690846383571624756e-02 -3.455476462841033936e-02 3.911576047539710999e-02 2.131783813238143921e-01 8.775372058153152466e-02 1.041725650429725647e-01 -6.127856299281120300e-02 -2.723028510808944702e-02 -1.624809652566909790e-01 1.507305447012186050e-02 -1.604227721691131592e-01 -7.268729805946350098e-02 -1.555678527802228928e-02 -8.381210267543792725e-02 1.116383746266365051e-01 9.345492720603942871e-02 -1.359588801860809326e-01 2.127490937709808350e-01 -1.211168393492698669e-01 -2.293422371149063110e-01 1.338116079568862915e-01 1.176139637827873230e-01 2.027417719364166260e-01 -7.317023724317550659e-02 -1.258553713560104370e-01 -1.075191572308540344e-01 6.116404756903648376e-02 -8.817086368799209595e-02 1.780500076711177826e-02 3.188707232475280762e-01 -1.427254527807235718e-01 -3.735181316733360291e-02 7.489865273237228394e-02 3.260815283283591270e-03 -3.107667267322540283e-01 -2.830122709274291992e-01
3.307596445083618164e-01 6.873547285795211792e-02 1.839701384305953979e-01 1.190199255943298340e-01 -3.004411756992340088e-01 -9.689966589212417603e-02 -4.214157536625862122e-02 -2.510977387428283691e-01 -1.378449350595474243e-01 -1.063450276851654053e-01 -2.608565092086791992e-01 -1.650313585996627808e-01 1.565626114606857300e-01 -9.720742702484130859e-02 -2.782708406448364258e-01 6.766687333583831787e-02 2.041941583156585693e-01 1.658960133790969849e-01 -1.550849974155426025e-01 1.043355315923690796e-01 -1.817079186439514160e-01 2.953583747148513794e-02 -5.136823281645774841e-03 -5.327449180185794830e-03 2.508236765861511230e-01 3.146721050143241882e-02 -1.142795234918594360e-01 -7.833398878574371338e-02 1.007677242159843445e-01 -9.502503275871276855e-02 -2.829765677452087402e-01 1.949666440486907959e-01 -2.206707149744033813e-01 -1.190361753106117249e-02 1.449185907840728760e-01 -7.009906321763992310e-02 1.132781431078910828e-02 -4.648423939943313599e-02 -1.914810538291931152e-01 -2.244203239679336548e-01 -1.972376555204391479e-01 -1.441373024135828018e-02 5.338414385914802551e-02 3.131473809480667114e-02 1.038130968809127808e-01 1.482481658458709717e-01 -9.936762042343616486e-03 1.651073694229125977e-01 -2.501644939184188843e-02 -3.395855426788330078e-01
1.632594764232635498e-01 -1.803406397812068462e-03 7.587897777557373047e-02 1.957833021879196167e-01 3.925212658941745758e-03 3.634279593825340271e-02 1.575376987457275391e-01 3.937199711799621582e-02 8.551281690597534180e-02 1.043158322572708130e-01 -1.801493912935256958e-01 5.006888508796691895e-02 2.028596401214599609e-01 -9.286851435899734497e-02 -1.805029809474945068e-01 -1.236450746655464172e-01 2.191506326198577881e-01 1.438898127526044846e-02 -3.333953917026519775e-01 1.023133546113967896e-01 1.050286591053009033e-01 -2.291041612625122070e-01 -1.253108978271484375e-01 -1.262198090553283691e-01 3.902857303619384766e-01 -5.012172088027000427e-02 7.308018952608108521e-02 -1.655723154544830322e-01 1.756341457366943359e-01 1.939298510551452637e-01 1.284859776496887207e-01 2.900116145610809326e-01 -1.448107808828353882e-01 8.919487148523330688e-02 -3.687633667141199112e-03 -1.629255414009094238e-01 -1.237971857190132141e-01 1.897957623004913330e-01 -2.922055125236511230e-02 -2.111028134822845459e-01 -7.546076178550720215e-02 1.429809182882308960e-01 -1.390875577926635742e-01 7.158880680799484253e-02 8.934867219068109989e-04 3.135483562946319580e-01 1.939094215631484985e-01 -9.274864196777343750e-02 -8.998245000839233398e-02 -1.105101332068443298e-01
8.505357801914215088e-02 1.719281673431396484e-01 1.872627884149551392e-01 1.237044110894203186e-01 1.062804237008094788e-01 4.957620427012443542e-02 5.189233645796775818e-02 -1.136531382799148560e-01 -3.839777037501335144e-02 -5.769423767924308777e-02 -1.098797656595706940e-02 -1.455638259649276733e-01 -3.013439290225505829e-02 -1.168721541762351990e-01 2.314386144280433655e-02 5.338919535279273987e-02 1.134673878550529480e-01 2.948361337184906006e-01 -2.585587501525878906e-01 1.808131784200668335e-01 -1.583186537027359009e-02 -2.604334950447082520e-01 -4.045496508479118347e-02 -3.993011638522148132e-02 2.375520169734954834e-01 2.120345681905746460e-01 -1.419746130704879761e-01 -1.375613510608673096e-01 -1.907746493816375732e-01 1.259171497076749802e-02 4.835098225157707930e-04 6.566602736711502075e-02 -1.384124904870986938e-01 1.549726724624633789e-01 2.097051590681076050e-01 -1.501541435718536377e-01 -2.752383649349212646e-01 -1.334866043180227280e-02 -1.897393912076950073e-01 -2.523180097341537476e-02 5.404488183557987213e-03 1.148998960852622986e-01 -2.113250494003295898e-01 -2.061986774206161499e-01 5.695755407214164734e-02 2.009968459606170654e-01 2.162796705961227417e-01 -1.055145412683486938e-01 7.068783789873123169e-02 9.496085345745086670e-02
4.608007520437240601e-02 -1.233032122254371643e-01 -6.379552930593490601e-02 2.400153130292892456e-02 2.434114553034305573e-02 2.014816254377365112e-01 -3.917904198169708252e-02 1.428118795156478882e-01 -6.726324558258056641e-02 -2.988248169422149658e-01 -6.973897665739059448e-02 1.526423841714859009e-01 1.104459241032600403e-01 -4.973733425140380859e-02 6.833330541849136353e-02 -3.927319310605525970e-03 -1.405627131462097168e-01 2.413902580738067627e-01 -1.978244632482528687e-01 2.028281334787607193e-03 -9.930678788805380464e-05 -1.682757139205932617e-01 -2.049049437046051025e-01 -1.165959164500236511e-01 1.087672784924507141e-01 -3.427573665976524353e-02 3.278654068708419800e-02 -1.122429817914962769e-01 -2.928577065467834473e-01 1.426886618137359619e-01 1.295145694166421890e-02 -5.434245616197586060e-02 -6.095356866717338562e-02 2.116275951266288757e-02 -6.920950114727020264e-02 -1.725181192159652710e-01 -3.515183925628662109e-01 5.757928825914859772e-03 -2.872597575187683105e-01 -1.192779913544654846e-01 1.631352305412292480e-01 2.931378483772277832e-01 -4.404170811176300049e-02 -1.775367110967636108e-01 1.766046285629272461e-01 2.189550250768661499e-01 7.292307168245315552e-02 -1.005847379565238953e-01 4.014735575765371323e-03 8.115310966968536377e-02
7.441015541553497314e-02 8.339963108301162720e-02 -1.009835749864578247e-01 5.705999583005905151e-02 -5.700663477182388306e-02 1.596908569335937500e-01 8.203497529029846191e-02 6.192867457866668701e-02 8.900634944438934326e-02 -2.027336806058883667e-01 -9.356430917978286743e-02 1.691403388977050781e-01 2.492243610322475433e-02 -1.045351624488830566e-01 1.333057284355163574e-01 8.602010458707809448e-02 -2.944824984297156334e-03 1.253999769687652588e-01 -1.220331564545631409e-01 1.565099656581878662e-01 1.411456912755966187e-01 4.786417260766029358e-02 7.747873663902282715e-02 -1.520956754684448242e-01 1.063186600804328918e-01 -1.027356460690498352e-01 3.765104338526725769e-02 2.107845991849899292e-02 -2.130849957466125488e-01 2.757332324981689453e-01 1.099508628249168396e-01 9.466658532619476318e-02 -7.337962090969085693e-02 1.537420898675918579e-01 6.467919051647186279e-02 2.819421514868736267e-02 -1.340653002262115479e-01 1.553021371364593506e-01 -1.237803995609283447e-01 1.077904645353555679e-02 -1.394812949001789093e-02 2.142871320247650146e-01 -1.194766610860824585e-01 -1.775656938552856445e-01 1.701707392930984497e-01 3.051054775714874268e-01 -5.129722878336906433e-02 1.165705099701881409e-01 2.776726782321929932e-01 2.243264019489288330e-02
4.734666272997856140e-02 2.082559019327163696e-01 -1.914145946502685547e-01 -1.034259237349033356e-02 -8.296906948089599609e-02 2.762038707733154297e-01 5.246477574110031128e-02 9.082575887441635132e-02 -3.020345978438854218e-02 7.354354113340377808e-02 1.409740000963211060e-01 5.967109650373458862e-02 1.916370987892150879e-01 3.958472236990928650e-02 -2.196265570819377899e-02 2.641370296478271484e-01 9.378887712955474854e-02 2.324931919574737549e-01 -1.268580108880996704e-01 -3.229390457272529602e-02 -2.810248732566833496e-02 -1.230664253234863281e-01 -7.730237208306789398e-03 -4.839566349983215332e-02 -8.662022650241851807e-02 -8.570567518472671509e-02 1.922543048858642578e-01 -1.253487616777420044e-01 -2.366205304861068726e-02 2.169961929321289062e-01 -4.423381760716438293e-02 1.532828658819198608e-01 1.056616380810737610e-01 -9.554341435432434082e-02 2.440567463636398315e-01 6.984636932611465454e-02 -6.162610650062561035e-02 -1.363489497452974319e-02 -3.508822992444038391e-02 -1.703703552484512329e-01 -4.063102602958679199e-02 1.928281635046005249e-01 9.614893794059753418e-02 -2.858705520629882812e-01 -1.136060580611228943e-01 2.017695903778076172e-01 -8.174563199281692505e-02 1.593005657196044922e-02 8.846323192119598389e-02 2.257864326238632202e-01
1.666495949029922485e-01 -7.601338624954223633e-02 -8.357502520084381104e-02 -1.485599726438522339e-01 -9.756525605916976929e-02 7.953309267759323120e-02 -1.238494068384170532e-01 1.295716911554336548e-01 -1.319883614778518677e-01 1.960087716579437256e-01 1.171426847577095032e-01 7.244174182415008545e-02 1.319756954908370972e-01 1.243264302611351013e-01 2.822494879364967346e-02 2.234232127666473389e-01 -9.428892284631729126e-02 2.199520468711853027e-01 -6.894721835851669312e-02 -3.640748187899589539e-02 -1.783031783998012543e-02 -1.925013810396194458e-01 5.029220506548881531e-02 -1.560006756335496902e-02 -1.227164119482040405e-01 -6.696061789989471436e-02 -5.482375621795654297e-02 -1.987567991018295288e-01 -9.049243479967117310e-02 2.674272358417510986e-01 -1.682011634111404419e-01 3.368318080902099609e-02 -2.637463063001632690e-02 1.292401701211929321e-01 1.936676055192947388e-01 -2.483787573873996735e-02 -1.146931797266006470e-01 2.014251798391342163e-01 4.328758269548416138e-02 -1.832248419523239136e-01 9.381051175296306610e-03 2.684824354946613312e-02 -6.131616979837417603e-02 -1.600565761327743530e-01 -1.063998043537139893e-02 7.519773393869400024e-02 1.452664583921432495e-01 -1.747932583093643188e-01 2.330927550792694092e-01 2.013704180717468262e-01
-9.387829154729843140e-02 -9.591325372457504272e-02 -1.879892498254776001e-01 -6.181661039590835571e-02 3.446685150265693665e-02 2.167409509420394897e-01 -4.150671139359474182e-02 -4.429424926638603210e-02 6.049334630370140076e-02 -3.989903628826141357e-02 -7.643607258796691895e-02 2.336292564868927002e-01 1.869661791715770960e-04 -3.004543250426650047e-03 7.476648688316345215e-02 -6.988689303398132324e-02 2.269581519067287445e-02 5.600231140851974487e-02 1.439007669687271118e-01 -8.051276206970214844e-02 9.964491426944732666e-02 5.195796489715576172e-02 4.249700531363487244e-02 1.829128339886665344e-02 4.060807824134826660e-02 2.837328426539897919e-02 7.673303037881851196e-02 -3.440519794821739197e-02 -1.446104943752288818e-01 1.308048814535140991e-01 4.305962473154067993e-02 7.269208785146474838e-03 1.648154668509960175e-02 4.129378125071525574e-02 9.333898872137069702e-02 -6.618386507034301758e-02 -3.759904997423291206e-03 1.711604148149490356e-01 -6.413529813289642334e-02 -1.140561997890472412e-01 -1.451910287141799927e-01 -1.157458312809467316e-02 -1.190091073513031006e-01 -2.183742821216583252e-01 -1.756128482520580292e-02 1.472431868314743042e-01 1.158991735428571701e-02 5.679540336132049561e-02 1.875761747360229492e-01 -1.476972270756959915e-02
-3.009615465998649597e-04 -1.706976443529129028e-01 -1.037618219852447510e-01 -9.431301057338714600e-02 7.919922471046447754e-02 -3.462136164307594299e-02 1.708795875310897827e-01 9.138854593038558960e-02 4.992460459470748901e-02 -9.190040081739425659e-02 8.520536869764328003e-02 4.172655567526817322e-02 -1.700598746538162231e-01 -9.984357655048370361e-02 1.092678830027580261e-01 -4.736050218343734741e-02 -1.270060390233993530e-01 -8.512920886278152466e-02 6.017084419727325439e-02 -1.104107424616813660e-01 -3.478687256574630737e-02 1.439758390188217163e-01 3.293300047516822815e-02 1.314569171518087387e-02 -1.181629970669746399e-01 -4.817993566393852234e-02 -9.751465916633605957e-02 -1.864165961742401123e-01 -1.371367275714874268e-01 -1.288903504610061646e-01 -8.061731606721878052e-02 -1.722683608531951904e-01 2.565266750752925873e-02 1.712550073862075806e-01 1.290026307106018066e-01 -7.089651376008987427e-02 3.555470705032348633e-02 1.008975803852081299e-01 -4.835141077637672424e-02 -1.197625324130058289e-01 -1.113584041595458984e-01 3.928070422261953354e-03 -1.313207149505615234e-01 -1.442971080541610718e-01 -2.202396094799041748e-01 8.189482986927032471e-02 -1.580917648971080780e-02 -2.361842058598995209e-02 8.243791759014129639e-02 1.602997332811355591e-01
-6.803999841213226318e-02 3.083540126681327820e-02 -1.981266289949417114e-01 -1.605835705995559692e-01 -9.006220847368240356e-02 -1.458179950714111328e-01 1.184400394558906555e-01 4.611928015947341919e-02 -8.881267160177230835e-02 -1.230644211173057556e-01 3.584416210651397705e-02 5.306345596909523010e-02 -9.231055155396461487e-03 1.679898351430892944e-01 1.844750791788101196e-01 -5.624104663729667664e-02 -2.257571816444396973e-01 -1.102775335311889648e-02 1.861616969108581543e-01 -2.426285296678543091e-01 9.255452454090118408e-02 2.467450313270092010e-02 -1.320257782936096191e-01 -1.091654077172279358e-01 -2.232431769371032715e-01 -1.227121949195861816e-01 -1.685050129890441895e-01 2.075319923460483551e-02 5.617159232497215271e-02 -1.564322263002395630e-01 -1.293480843305587769e-01 -1.270339190959930420e-01 -1.061828713864088058e-02 4.988511651754379272e-02 8.218602091073989868e-02 -7.464034855365753174e-02 -1.864362806081771851e-01 3.466953337192535400e-02 -9.090877324342727661e-02 -8.005289733409881592e-02 7.159236818552017212e-02 -1.688355654478073120e-01 3.156819194555282593e-02 1.072659343481063843e-01 9.604264050722122192e-02 1.270775645971298218e-01 -1.682545691728591919e-01 1.025280915200710297e-02 -1.260058134794235229e-01 2.988619729876518250e-02
1.086110174655914307e-01 -1.915918476879596710e-02 -1.723583191633224487e-01 -1.516485959291458130e-01 7.791081070899963379e-02 -8.131070435047149658e-02 -3.645848855376243591e-02 6.334210932254791260e-02 8.287858217954635620e-02 -1.257867366075515747e-02 -5.888440832495689392e-02 -1.253148466348648071e-01 -7.986834645271301270e-02 8.020412176847457886e-02 -4.505711793899536133e-02 -1.423623859882354736e-01 -1.243500337004661560e-01 1.091981232166290283e-01 -1.571632362902164459e-02 -2.133245319128036499e-01 -4.705153778195381165e-02 2.052552998065948486e-01 1.176825910806655884e-01 -1.290066987276077271e-01 7.199523597955703735e-02 -1.193681284785270691e-01 9.305887669324874878e-02 -8.297941833734512329e-02 -1.256150901317596436e-01 7.920134067535400391e-02 -4.331728443503379822e-02 -1.143770366907119751e-01 -9.167703241109848022e-02 1.363929063081741333e-01 -1.458587050437927246e-01 -5.887352675199508667e-02 -1.682488322257995605e-01 1.221860870718955994e-01 5.597083829343318939e-03 -1.022974699735641479e-01 -1.282759010791778564e-01 8.525189012289047241e-02 7.479951530694961548e-02 -1.120682954788208008e-01 -4.821056500077247620e-02 -4.166257381439208984e-02 -1.775672286748886108e-01 -6.379643082618713379e-02 2.214039908722043037e-03 -1.079294383525848389e-01
-1.126791462302207947e-01 -4.051553830504417419e-02 -6.716012489050626755e-03 -2.569534182548522949e-01 1.017838716506958008e-01 -2.446148842573165894e-01 3.201973810791969299e-02 5.742991715669631958e-02 -1.747781783342361450e-02 -4.878466576337814331e-02 -3.714411705732345581e-02 8.242764323949813843e-02 -1.468621939420700073e-01 1.952936053276062012e-01 -7.706204056739807129e-02 5.848011374473571777e-02 -6.913883984088897705e-02 -8.245453238487243652e-02 3.968011215329170227e-02 -2.088222950696945190e-01 1.777944862842559814e-01 2.220499664545059204e-01 7.100003212690353394e-02 -6.061565130949020386e-02 -5.691570416092872620e-02 -6.073680147528648376e-02 -1.266348361968994141e-01 1.215927973389625549e-01 -1.560685187578201294e-01 6.893931329250335693e-02 -1.867020875215530396e-02 -2.353088743984699249e-02 -6.464517116546630859e-02 1.081301122903823853e-01 6.689667701721191406e-02 -4.601451382040977478e-02 1.109321638941764832e-01 -1.087051630020141602e-01 3.798085823655128479e-02 1.419496685266494751e-01 1.641404181718826294e-01 -1.454880833625793457e-01 -1.680664420127868652e-01 4.871820658445358276e-02 -1.456742584705352783e-01 1.779214479029178619e-03 -6.394655257463455200e-02 1.150018125772476196e-01 -3.971102088689804077e-02 -1.793422847986221313e-01
1.001054644584655762e-01 9.309004992246627808e-02 -8.545198291540145874e-02 -8.306942880153656006e-02 1.923738420009613037e-01 -1.679271757602691650e-01 1.112571824342012405e-02 -1.158768907189369202e-01 -1.770463585853576660e-01 -2.961663529276847839e-02 -1.580423861742019653e-01 -1.743023693561553955e-01 -7.226742804050445557e-02 1.876049190759658813e-01 8.317907154560089111e-02 -1.806266456842422485e-01 -2.299668788909912109e-01 -1.326953172683715820e-01 2.277973592281341553e-01 -1.314160376787185669e-01 1.492637991905212402e-01 1.510879099369049072e-01 -7.545132189989089966e-02 -5.618797615170478821e-02 7.122291624546051025e-02 -1.181927174329757690e-01 -1.369365490972995758e-02 7.697223126888275146e-02 -1.115687116980552673e-01 -8.269840478897094727e-02 -1.231566518545150757e-01 -1.993901133537292480e-01 2.053598761558532715e-01 1.840201467275619507e-01 -1.560919433832168579e-01 8.842828683555126190e-03 -1.646402478218078613e-01 9.800466895103454590e-02 8.842629939317703247e-02 -2.108208835124969482e-02 4.970113188028335571e-02 5.844688788056373596e-02 5.679417401552200317e-02 7.428901642560958862e-02 9.823784232139587402e-02 -5.864632502198219299e-02 9.211108088493347168e-03 1.328462064266204834e-01 5.438782647252082825e-02 -1.348436437547206879e-02
1.231706738471984863e-01 -1.707634478807449341e-01 1.176781654357910156e-01 3.520635142922401428e-02 1.981277614831924438e-01 -1.516936868429183960e-01 8.039350062608718872e-02 1.055303215980529785e-01 -1.872729659080505371e-01 1.779268831014633179e-01 -1.641401201486587524e-01 4.679648578166961670e-02 -1.002521067857742310e-01 -1.046041212975978851e-02 -7.053162157535552979e-02 -1.882261931896209717e-01 -7.430606335401535034e-02 -4.462889209389686584e-02 1.057327464222908020e-01 -2.558660134673118591e-02 1.550138443708419800e-01 1.669510453939437866e-01 -1.358935981988906860e-02 -2.592309750616550446e-02 2.438715286552906036e-02 -6.112253665924072266e-02 3.298859670758247375e-02 5.560202896595001221e-02 -2.399466745555400848e-02 -6.388603895902633667e-02 -1.540731489658355713e-01 -1.307305544614791870e-01 1.589333564043045044e-01 1.468709856271743774e-01 -1.384013146162033081e-01 -1.535002142190933228e-03 7.466244697570800781e-02 -1.706867963075637817e-01 -6.032954528927803040e-02 1.031160205602645874e-01 1.590395867824554443e-01 7.370332628488540649e-02 -1.241535320878028870e-01 -7.070327550172805786e-02 1.027154922485351562e-01 -2.482843771576881409e-02 -7.773096859455108643e-02 4.348285123705863953e-02 1.174028143286705017e-01 -1.517066359519958496e-01
-1.703092828392982483e-02 1.090905666351318359e-01 -4.775812849402427673e-02 -2.621081769466400146e-01 -8.044142276048660278e-02 -1.272036433219909668e-01 -5.033415555953979492e-02 -1.222144439816474915e-01 -2.864140085875988007e-02 3.753838315606117249e-02 -2.084961980581283569e-01 -1.494833827018737793e-01 -4.215591470710933208e-04 1.030717566609382629e-01 -1.777822375297546387e-01 -8.949954994022846222e-03 4.575759917497634888e-02 -1.556176990270614624e-01 7.031329721212387085e-02 2.537650987505912781e-02 1.162754446268081665e-01 8.484446257352828979e-02 -4.656668007373809814e-02 -9.329339116811752319e-02 3.015274181962013245e-02 3.767593204975128174e-02 -1.600133329629898071e-01 -2.100025489926338196e-02 1.010936051607131958e-01 -4.527190234512090683e-03 -1.502865366637706757e-02 -5.453403666615486145e-02 -7.598244398832321167e-02 4.966161400079727173e-02 7.685916498303413391e-03 1.296655833721160889e-01 1.499512940645217896e-01 -1.318229883909225464e-01 -2.031562924385070801e-01 8.048207312822341919e-02 1.671121269464492798e-01 6.579634547233581543e-02 3.070768900215625763e-02 -1.317640095949172974e-01 6.861267238855361938e-02 -1.811269670724868774e-01 -1.355574280023574829e-01 -3.516890481114387512e-02 -6.347297877073287964e-02 -1.621561944484710693e-01
-2.800585329532623291e-02 -6.401284784078598022e-02 1.497491598129272461e-01 -2.675463855266571045e-01 -5.846075713634490967e-02 -1.801971197128295898e-01 1.389721781015396118e-01 -1.394833326339721680e-01 -1.010327860713005066e-01 -4.311127215623855591e-02 -4.311110824346542358e-02 3.856567665934562683e-02 -5.028743669390678406e-02 -5.649479106068611145e-02 3.145339339971542358e-02 -1.099222600460052490e-01 -1.092680245637893677e-01 -1.842888891696929932e-01 -1.063242554664611816e-01 9.571200236678123474e-03 1.675547957420349121e-01 2.159053534269332886e-01 5.144563689827919006e-02 4.280990362167358398e-02 -1.128052473068237305e-01 -9.571466594934463501e-02 1.022787690162658691e-01 -2.135920710861682892e-02 -1.280309557914733887e-01 -7.307551801204681396e-02 -9.482359141111373901e-02 -1.878858804702758789e-01 -1.177057102322578430e-01 1.674266755580902100e-01 -1.301029175519943237e-01 -1.291123311966657639e-02 6.694409251213073730e-02 -7.102341204881668091e-02 -1.967463642358779907e-01 3.506789728999137878e-02 -9.694782644510269165e-02 -5.612777173519134521e-02 -1.046420261263847351e-01 6.863009184598922729e-02 -3.712049871683120728e-02 3.331346064805984497e-02 -1.392446011304855347e-01 -6.772777438163757324e-02 -4.647173732519149780e-02 -3.183045983314514160e-02
1.191897913813591003e-01 4.829202964901924133e-02 -1.293717510998249054e-02 -1.591102182865142822e-01 8.342238515615463257e-02 -4.091807082295417786e-02 -1.516062915325164795e-01 -1.288518607616424561e-01 1.822176203131675720e-02 2.328397892415523529e-02 -1.762785762548446655e-01 -1.353354603052139282e-01 -3.366238996386528015e-02 1.028944775462150574e-01 1.336533278226852417e-01 1.896792836487293243e-02 2.491790056228637695e-02 -9.350372850894927979e-02 1.702965497970581055e-01 -2.346506342291831970e-02 1.890040189027786255e-01 -8.028315380215644836e-03 1.600997149944305420e-01 -2.310927212238311768e-02 -5.237250775098800659e-02 5.710503086447715759e-02 7.984265685081481934e-02 -7.937784492969512939e-02 5.978687480092048645e-02 -2.251787632703781128e-01 -1.980550736188888550e-01 6.814690772444009781e-03 1.805706322193145752e-01 2.168634533882141113e-01 -1.707928478717803955e-01 -7.260825484991073608e-03 6.972312927246093750e-02 -9.386150538921356201e-02 4.611986875534057617e-02 -1.596743706613779068e-03 1.030182987451553345e-01 1.069365069270133972e-01 -1.783168464899063110e-01 -1.698665618896484375e-01 -4.344997555017471313e-02 -1.053874269127845764e-01 -1.575296670198440552e-01 3.169988514855504036e-03 1.185303553938865662e-01 2.627687342464923859e-02
-1.287537962198257446e-01 -8.426221460103988647e-02 1.041332185268402100e-01 -3.085335791110992432e-01 -4.504372179508209229e-02 -1.863526403903961182e-01 -1.176604628562927246e-01 7.783447951078414917e-02 -5.244318861514329910e-03 7.382702082395553589e-02 -8.567077666521072388e-02 -6.314390152692794800e-02 7.522624731063842773e-02 1.810165792703628540e-01 4.424588754773139954e-02 -1.827722489833831787e-01 -1.733472496271133423e-01 -1.435628086328506470e-01 -1.058607995510101318e-01 7.269866764545440674e-02 1.211562901735305786e-01 2.466427534818649292e-02 6.555298715829849243e-02 4.416291788220405579e-02 -5.842658504843711853e-02 -3.155899047851562500e-02 1.381131112575531006e-01 -6.120975315570831299e-02 8.696829900145530701e-03 -1.976901143789291382e-01 -4.336339980363845825e-02 -3.553992137312889099e-02 -6.643322855234146118e-02 1.446506232023239136e-01 4.652461782097816467e-02 1.513215005397796631e-01 -1.011793240904808044e-01 -1.381261497735977173e-01 -8.242583274841308594e-02 -7.562108337879180908e-02 3.990875557065010071e-02 -1.868166029453277588e-02 -2.076976597309112549e-01 -7.261218875646591187e-02 1.374150812625885010e-01 -6.026295572519302368e-02 1.105466764420270920e-02 -9.522040933370590210e-02 1.018653661012649536e-01 -5.358554050326347351e-02
1.135791316628456116e-01 -1.369954794645309448e-01 6.981202214956283569e-02 -3.153147995471954346e-01 3.958442807197570801e-02 -1.554676294326782227e-01 7.378172129392623901e-02 -4.491156339645385742e-02 -3.183421492576599121e-02 -3.431427478790283203e-02 -1.001371890306472778e-01 -5.457679182291030884e-02 -8.635976165533065796e-02 1.273370087146759033e-01 -9.138692915439605713e-02 7.671418786048889160e-02 -6.533256918191909790e-02 -1.362458765506744385e-01 -1.058894619345664978e-01 -8.754193782806396484e-02 1.454926729202270508e-01 -2.147463522851467133e-02 -7.550548762083053589e-02 -1.000489220023155212e-01 5.560538545250892639e-02 -2.213192917406558990e-02 1.903222687542438507e-02 8.831696212291717529e-02 7.858733087778091431e-02 -1.788118928670883179e-01 -9.022202342748641968e-03 6.751776486635208130e-02 8.940024673938751221e-02 1.487555056810379028e-01 -1.652544550597667694e-02 -7.559406757354736328e-02 1.490241009742021561e-02 -4.356847144663333893e-03 -1.788650751113891602e-01 1.696098595857620239e-02 4.303974285721778870e-02 -1.041388362646102905e-01 -5.569927394390106201e-02 -9.195515513420104980e-02 -6.239911913871765137e-02 -5.769978091120719910e-02 -1.362305879592895508e-01 -8.404436707496643066e-02 1.617895662784576416e-01 1.711522042751312256e-01
8.730225265026092529e-02 1.447442919015884399e-01 -6.742582470178604126e-02 -3.633942902088165283e-01 -7.622082717716693878e-03 -1.333648115396499634e-01 -1.209625788033008575e-02 -9.950049966573715210e-02 5.040872842073440552e-02 1.691072285175323486e-01 -1.664571464061737061e-02 8.214714378118515015e-02 -1.016503795981407166e-01 1.213738694787025452e-03 1.825603693723678589e-01 1.164148673415184021e-01 -1.024161428213119507e-01 -3.651274740695953369e-02 1.245518773794174194e-02 -1.343329697847366333e-01 -5.880122631788253784e-02 5.551007762551307678e-02 -6.713269650936126709e-02 -1.534861326217651367e-01 6.112360954284667969e-02 7.160166651010513306e-02 6.129954382777214050e-02 3.083327040076255798e-02 1.892290860414505005e-01 5.993071943521499634e-03 2.971709705889225006e-02 -1.784569770097732544e-01 2.099549174308776855e-01 1.217214837670326233e-01 -1.314167976379394531e-01 -5.874695628881454468e-02 1.764740794897079468e-02 -5.448860302567481995e-02 -1.052817627787590027e-01 1.217763125896453857e-01 -4.177355021238327026e-02 -3.501547873020172119e-02 8.784513920545578003e-03 -1.875861734151840210e-01 8.896628394722938538e-03 1.226557269692420959e-01 -9.650656580924987793e-02 7.917121052742004395e-03 -1.200153082609176636e-01 4.792789742350578308e-02
1.549905538558959961e-01 -6.155999004840850830e-02 -7.337108999490737915e-02 -6.117886677384376526e-02 7.881538569927215576e-02 -1.972111314535140991e-01 -2.428467124700546265e-01 8.486634492874145508e-02 -1.098297014832496643e-01 -2.886654622852802277e-02 1.416128501296043396e-02 1.094048190861940384e-02 1.170831844210624695e-01 5.946752429008483887e-02 -7.717105746269226074e-02 1.433067172765731812e-01 -1.565254926681518555e-01 -6.675134878605604172e-03 -1.228890717029571533e-01 4.178354516625404358e-02 -5.981331318616867065e-02 1.833318322896957397e-01 -2.276870049536228180e-02 -1.583149470388889313e-02 8.698780834674835205e-02 -4.860664904117584229e-02 7.610251754522323608e-02 2.241529822349548340e-01 2.412745505571365356e-01 -1.900080442428588867e-01 1.173282507807016373e-02 5.923082679510116577e-02 -5.899741128087043762e-02 1.988310366868972778e-01 1.322035491466522217e-01 -4.808230698108673096e-02 -5.580966826528310776e-03 -1.627002209424972534e-01 -8.083919435739517212e-02 -1.269376575946807861e-01 -7.812784612178802490e-02 -1.297595072537660599e-02 -4.820458218455314636e-02 -1.576592326164245605e-01 -1.756820827722549438e-01 -1.631879359483718872e-01 1.415239125490188599e-01 1.260796934366226196e-01 1.080388575792312622e-01 -5.831086263060569763e-02
8.833755552768707275e-02 1.170372813940048218e-01 1.938437670469284058e-02 -2.375531494617462158e-01 -1.106587797403335571e-01 -2.305987030267715454e-01 -1.694697588682174683e-01 1.901407539844512939e-01 -1.194821000099182129e-01 1.937755197286605835e-01 -1.091454774141311646e-01 1.434506773948669434e-01 -3.695559874176979065e-02 1.932834833860397339e-01 1.270813643932342529e-01 -6.330072134733200073e-02 -1.132790651172399521e-02 1.108298450708389282e-02 -3.768721595406532288e-03 1.271280348300933838e-01 1.066402792930603027e-01 5.142741277813911438e-02 1.630151420831680298e-01 -9.651616215705871582e-02 -2.095772773027420044e-01 -8.343757688999176025e-02 1.692021191120147705e-01 -6.392022222280502319e-02 1.874891817569732666e-01 -8.656172454357147217e-02 -3.868541866540908813e-02 -1.235783994197845459e-01 1.896953433752059937e-01 2.321991920471191406e-01 1.500041969120502472e-02 1.290934085845947266e-01 1.907962709665298462e-01 -6.755413487553596497e-03 -1.156723499298095703e-01 -9.729833155870437622e-02 6.194861233234405518e-02 -1.078215464949607849e-01 1.156465057283639908e-02 -1.470555067062377930e-01 -4.097559675574302673e-02 1.289892792701721191e-01 4.520650953054428101e-02 3.911675885319709778e-02 1.958612911403179169e-02 2.222425639629364014e-01
-6.098131462931632996e-02 2.737962827086448669e-02 -7.268785685300827026e-02 -2.022089660167694092e-01 1.383112929761409760e-02 -2.172050476074218750e-01 -1.780700087547302246e-01 1.376440823078155518e-01 6.044025067239999771e-04 5.330412462353706360e-02 8.172962069511413574e-02 1.930758506059646606e-01 -1.297248303890228271e-01 2.964651957154273987e-02 -6.298781931400299072e-02 4.433826729655265808e-02 7.895049452781677246e-02 3.616213798522949219e-02 -8.964127302169799805e-02 8.625555783510208130e-02 8.801532536745071411e-02 8.926511555910110474e-02 7.021818310022354126e-02 -9.074317663908004761e-02 7.872645556926727295e-02 2.861618064343929291e-03 -9.167798608541488647e-02 1.511486992239952087e-02 2.153836786746978760e-01 -1.921495981514453888e-02 7.055222988128662109e-02 -1.330178380012512207e-01 2.137530148029327393e-01 3.259542584419250488e-02 1.314349099993705750e-02 1.635232381522655487e-02 1.659636050462722778e-01 8.321989327669143677e-03 -3.106565587222576141e-02 1.228273287415504456e-01 -7.462996989488601685e-02 -5.263567343354225159e-02 6.956417858600616455e-02 1.093926727771759033e-01 -1.987707801163196564e-02 1.228731125593185425e-01 -5.191088467836380005e-02 -1.096065118908882141e-01 -5.187796056270599365e-02 3.313812613487243652e-02
-8.434907346963882446e-02 1.068806052207946777e-01 9.127219766378402710e-02 -5.072328727692365646e-03 -1.139974519610404968e-01 -1.497431192547082901e-02 -1.828302443027496338e-01 1.514664590358734131e-01 -1.592352092266082764e-01 -1.140466257929801941e-01 2.263450436294078827e-02 4.603566974401473999e-02 5.738909542560577393e-02 1.601475477218627930e-01 -1.316329985857009888e-01 1.348339021205902100e-01 9.419222176074981689e-02 -1.542918533086776733e-01 8.758515119552612305e-02 1.994782835245132446e-01 -1.164040043950080872e-01 8.791218698024749756e-02 -1.213076636195182800e-01 -6.581904739141464233e-02 -1.884335726499557495e-01 -7.715239375829696655e-02 5.496261268854141235e-02 1.429319530725479126e-01 6.124889478087425232e-02 -1.138361692428588867e-01 6.897576898336410522e-02 -9.619449079036712646e-02 2.052476704120635986e-01 -1.043292954564094543e-01 -1.528206747025251389e-02 -6.246707215905189514e-02 5.384312197566032410e-02 -2.204348295927047729e-01 -5.797573551535606384e-02 -4.463774710893630981e-02 4.161792621016502380e-02 6.130009889602661133e-02 -1.882670372724533081e-01 -6.838590651750564575e-02 9.963258355855941772e-02 6.425043195486068726e-02 -1.464540697634220123e-02 1.695487201213836670e-01 3.901341557502746582e-02 9.105014055967330933e-02
8.271065354347229004e-02 1.909435242414474487e-01 -3.298393636941909790e-02 -8.062210679054260254e-02 4.965066164731979370e-02 -1.680839806795120239e-01 -2.764426469802856445e-01 9.867735207080841064e-03 9.426871687173843384e-02 -1.211338341236114502e-01 6.877030432224273682e-02 -2.518443949520587921e-02 -1.979852020740509033e-01 -1.769943907856941223e-02 7.990120351314544678e-02 4.035905003547668457e-02 8.149588853120803833e-02 1.506894733756780624e-02 7.691325992345809937e-02 -3.835340216755867004e-02 -1.463163495063781738e-01 1.626905985176563263e-02 -1.107353940606117249e-01 -1.161689832806587219e-01 -2.009143382310867310e-01 5.748569499701261520e-03 8.389896899461746216e-02 -1.034411489963531494e-01 9.517780691385269165e-02 1.188740581274032593e-01 -7.091953605413436890e-02 -7.272323593497276306e-03 8.467005938291549683e-02 1.168870553374290466e-01 -3.252452239394187927e-02 1.506066918373107910e-01 1.738824844360351562e-01 -2.423412948846817017e-01 -3.265072777867317200e-02 -1.321495622396469116e-01 5.674846842885017395e-02 -3.956532105803489685e-02 -3.626966848969459534e-03 2.468041377142071724e-03 9.511328488588333130e-02 1.146130934357643127e-01 1.506307870149612427e-01 -3.637184947729110718e-02 1.630177944898605347e-01 2.246447503566741943e-01
-6.030590832233428955e-02 1.860175579786300659e-01 7.497292757034301758e-02 -2.398607134819030762e-01 -7.496847212314605713e-02 -9.697555750608444214e-02 -3.313792049884796143e-01 -4.464973509311676025e-02 -4.686475265771150589e-03 -7.638297230005264282e-02 1.244566962122917175e-01 4.409915953874588013e-02 -6.079091504216194153e-02 2.621900755912065506e-03 9.483204782009124756e-02 1.232689768075942993e-01 1.571778394281864166e-02 -1.801534891128540039e-01 -1.055823862552642822e-01 7.084099203348159790e-02 7.356731593608856201e-02 -1.337663531303405762e-01 -2.129363454878330231e-02 -1.991114392876625061e-02 -9.065493196249008179e-02 1.149397864937782288e-01 -6.560107693076133728e-03 3.751974180340766907e-02 9.015255421400070190e-02 1.161608994007110596e-01 3.416274115443229675e-02 6.716832518577575684e-02 -1.083283722400665283e-01 1.687767207622528076e-01 1.451589167118072510e-01 -8.328640460968017578e-02 1.127488836646080017e-01 -2.304645478725433350e-01 -4.980745911598205566e-02 -6.212341040372848511e-02 7.952770590782165527e-02 -3.603254258632659912e-02 -7.617417722940444946e-02 -3.569088876247406006e-02 -4.622977972030639648e-02 -3.966520726680755615e-02 6.440232694149017334e-02 6.643997877836227417e-02 1.911223679780960083e-02 1.003046259284019470e-01
-4.546444118022918701e-02 -1.195881888270378113e-01 -1.188559308648109436e-01 7.380799856036901474e-03 -1.711451709270477295e-01 -1.883809417486190796e-01 -9.242280572652816772e-02 -3.958502039313316345e-02 1.041483730077743530e-01 -3.617199882864952087e-02 1.479838341474533081e-01 -6.685423105955123901e-02 -1.773119159042835236e-02 -1.772586256265640259e-01 6.446451693773269653e-02 -8.153921953635290265e-05 -3.249115869402885437e-02 1.611975766718387604e-02 1.726927608251571655e-02 -2.494453266263008118e-02 4.519287869334220886e-02 -6.821811944246292114e-02 8.576917648315429688e-02 6.484089046716690063e-02 1.422478556632995605e-01 8.888981491327285767e-02 -1.629948467016220093e-01 1.311151683330535889e-01 -6.022385880351066589e-02 -6.315521895885467529e-02 3.841385245323181152e-02 -2.308045141398906708e-02 3.382873488590121269e-03 1.718671172857284546e-01 6.250052899122238159e-02 3.335614129900932312e-02 -2.851391583681106567e-02 -2.026119977235794067e-01 -3.435334889218211174e-03 -9.098135679960250854e-02 8.062899112701416016e-02 -1.223496273159980774e-01 -4.260965809226036072e-02 -7.909447699785232544e-02 6.187697499990463257e-02 -1.387073099613189697e-01 1.854284107685089111e-01 2.187290936708450317e-01 7.297267019748687744e-02 2.435977570712566376e-02
-2.744444087147712708e-02 8.921127766370773315e-02 -7.127330452203750610e-02 -1.945037096738815308e-01 -4.088241979479789734e-02 -1.106019988656044006e-01 -2.613028287887573242e-01 1.380067467689514160e-01 1.451230049133300781e-01 -9.948034584522247314e-02 1.757057309150695801e-01 -3.950634971261024475e-02 3.764773160219192505e-02 9.190537035465240479e-02 1.774816401302814484e-02 1.365402489900588989e-01 4.197132959961891174e-02 -1.066056415438652039e-01 -1.590965837240219116e-01 -1.353897303342819214e-01 -2.215658575296401978e-01 -1.958949267864227295e-01 8.610013872385025024e-02 7.760647684335708618e-02 9.780178219079971313e-02 -1.130423918366432190e-01 -1.559869945049285889e-01 -1.398188322782516479e-01 -4.631572403013706207e-03 4.494574293494224548e-02 -6.094379723072052002e-02 -3.673803433775901794e-02 4.950762540102005005e-02 1.454127579927444458e-01 -8.638735860586166382e-02 -1.059222733601927757e-03 1.541104912757873535e-01 -5.823123455047607422e-02 -4.991776123642921448e-02 4.653608053922653198e-02 -5.735219642519950867e-02 1.444186419248580933e-01 -6.846386939287185669e-02 1.267527043819427490e-01 1.702482104301452637e-01 6.167202815413475037e-02 7.699844241142272949e-02 2.120891958475112915e-01 1.379857212305068970e-01 -9.487849473953247070e-02
-8.465804159641265869e-02 2.126302570104598999e-02 -5.443824455142021179e-02 -1.331242769956588745e-01 -1.650324463844299316e-01 4.506999626755714417e-02 -8.992116153240203857e-02 7.790578156709671021e-02 -6.479938328266143799e-02 -2.267406582832336426e-01 1.314175687730312347e-02 -5.819852650165557861e-02 1.054920554161071777e-01 7.938273251056671143e-02 -1.041752099990844727e-01 1.795161701738834381e-02 8.995246887207031250e-02 -6.740488857030868530e-02 -1.134559586644172668e-01 6.388004124164581299e-02 -1.652236133813858032e-01 5.372758954763412476e-02 -3.433641046285629272e-02 -1.876101456582546234e-02 9.865753352642059326e-03 -1.635679751634597778e-01 -3.491666913032531738e-02 -9.552535414695739746e-02 -2.104590982198715210e-01 -1.592012196779251099e-01 -1.312878727912902832e-01 -4.544745385646820068e-02 9.352385252714157104e-02 1.924132928252220154e-02 -9.945816546678543091e-02 6.576190888881683350e-02 -2.338226139545440674e-02 -1.407582759857177734e-01 8.761242032051086426e-03 2.077213525772094727e-01 -7.036714255809783936e-02 -1.264899075031280518e-01 -2.289864933118224144e-03 1.461518257856369019e-01 -4.425856843590736389e-02 5.428925529122352600e-02 1.498954892158508301e-01 1.174193322658538818e-01 3.355538938194513321e-03 -9.805894643068313599e-02
-2.877040300518274307e-03 -1.658936962485313416e-02 -7.542072981595993042e-02 -3.874264284968376160e-02 1.407540887594223022e-01 -8.592400699853897095e-02 -2.107220292091369629e-01 5.636686086654663086e-02 1.036447882652282715e-01 -3.658732175827026367e-01 -1.117404177784919739e-01 -2.017190456390380859e-01 9.418188035488128662e-02 -9.034487605094909668e-02 -1.350133717060089111e-01 8.881831914186477661e-02 -1.177501529455184937e-01 -9.472954273223876953e-02 9.469878673553466797e-02 -8.737459778785705566e-02 -2.058649063110351562e-01 -1.267863363027572632e-01 -1.344505697488784790e-01 9.720586985349655151e-02 9.861367940902709961e-02 -1.272610872983932495e-01 7.072589546442031860e-02 6.521213054656982422e-02 -1.120156198740005493e-01 4.631096869707107544e-02 2.280275709927082062e-02 1.303472518920898438e-01 5.613794922828674316e-02 1.233552694320678711e-01 -1.464741826057434082e-01 -1.036870703101158142e-01 -1.494563221931457520e-01 -3.487895056605339050e-02 -8.245659619569778442e-02 1.267696619033813477e-01 -9.577664732933044434e-02 1.343244910240173340e-01 -4.169971868395805359e-02 -6.323570013046264648e-02 1.030170992016792297e-01 -1.057250797748565674e-01 1.708395481109619141e-01 2.431132942438125610e-01 2.047169394791126251e-02 6.821874529123306274e-02
-1.265676170587539673e-01 1.052935346961021423e-01 -4.940643906593322754e-02 -8.784995973110198975e-02 1.511356234550476074e-01 -3.941352665424346924e-02 -1.938407719135284424e-01 -4.127670079469680786e-02 -1.401835959404706955e-02 -2.193047702312469482e-01 -1.897593610920011997e-03 -9.449207782745361328e-02 6.202180683612823486e-02 -1.238079443573951721e-01 -1.091172695159912109e-01 2.491404116153717041e-02 -8.636247366666793823e-02 -9.626703709363937378e-02 -3.115896321833133698e-02 -2.704879641532897949e-01 -4.719284549355506897e-02 -2.060433663427829742e-02 -1.055897474288940430e-01 7.944160699844360352e-02 1.817234791815280914e-02 -4.082025960087776184e-02 7.346941530704498291e-02 -1.158543974161148071e-01 -3.094905614852905273e-01 -6.730126682668924332e-03 1.040760874748229980e-01 1.580464392900466919e-01 1.378936916589736938e-01 8.241556584835052490e-02 -9.098821133375167847e-02 -9.478779137134552002e-02 1.134326979517936707e-01 -2.284410595893859863e-01 -3.728962689638137817e-02 6.863681226968765259e-02 1.452103555202484131e-01 -2.071680687367916107e-02 7.725917547941207886e-02 1.837199628353118896e-01 -4.134764894843101501e-02 9.021764993667602539e-02 1.501057744026184082e-01 2.284639626741409302e-01 1.469112187623977661e-01 1.495181489735841751e-02
-8.206345140933990479e-03 6.894092261791229248e-02 1.085942313075065613e-01 -1.602071225643157959e-01 -1.621378958225250244e-02 -1.423230618238449097e-01 -3.433367311954498291e-01 -3.964076563715934753e-02 1.363798677921295166e-01 -1.192265897989273071e-01 -7.451008260250091553e-02 -1.733191162347793579e-01 1.098920255899429321e-01 -1.140599548816680908e-01 4.164433106780052185e-02 5.057599022984504700e-02 1.129065379500389099e-01 -1.482585370540618896e-01 6.302578002214431763e-02 -5.551427602767944336e-02 -8.521887660026550293e-02 1.295667290687561035e-01 -6.201478093862533569e-02 -8.241646736860275269e-02 2.325258404016494751e-01 -9.080993384122848511e-02 2.522850222885608673e-02 -7.989969104528427124e-02 -1.425281018018722534e-01 1.207506060600280762e-01 1.256237030029296875e-01 1.758081093430519104e-02 -1.773983798921108246e-02 9.289835579693317413e-03 8.353223651647567749e-02 4.165175557136535645e-02 -1.438869386911392212e-01 1.669580466113984585e-03 1.003041118383407593e-01 2.114019989967346191e-01 -8.970070630311965942e-02 4.823637008666992188e-02 -1.311992406845092773e-01 1.126117780804634094e-01 1.747097223997116089e-01 -1.211030855774879456e-01 1.029289215803146362e-01 2.516111433506011963e-01 -1.153578162193298340e-01 -1.593517959117889404e-01
-5.117245763540267944e-02 -1.300148069858551025e-01 9.569081664085388184e-02 -1.020229700952768326e-02 1.115060746669769287e-01 -6.384824216365814209e-02 -1.970501244068145752e-01 -4.289558902382850647e-02 1.522797495126724243e-01 -2.336956262588500977e-01 -1.448990702629089355e-01 -4.054906591773033142e-02 4.397087171673774719e-02 -9.071869403123855591e-02 1.336186975240707397e-01 1.138481870293617249e-01 8.340500295162200928e-02 -1.709440164268016815e-02 9.691293537616729736e-02 -1.370430290699005127e-01 -5.364369973540306091e-02 5.960872396826744080e-02 -1.378109157085418701e-01 -8.885961025953292847e-02 3.054150566458702087e-02 8.972185105085372925e-02 -9.830840677022933960e-02 -6.103711947798728943e-02 -2.035086005926132202e-01 -5.922357086092233658e-04 1.548328846693038940e-01 1.600135862827301025e-01 -2.436201646924018860e-02 6.108037382364273071e-02 -1.664129458367824554e-02 -1.383887138217687607e-02 -1.981058344244956970e-02 -6.766691803932189941e-02 -5.843937397003173828e-02 2.581015527248382568e-01 -1.075542252510786057e-02 1.637883931398391724e-01 6.613664329051971436e-02 9.013368934392929077e-02 7.756452262401580811e-02 -3.639269992709159851e-02 -2.353101596236228943e-02 2.295452356338500977e-01 7.608757913112640381e-02 -1.179394274950027466e-01
-1.040433347225189209e-01 -4.590390250086784363e-02 1.397053003311157227e-01 3.591675683856010437e-02 6.041840836405754089e-02 -1.736038029193878174e-01 -1.022378802299499512e-01 4.251970723271369934e-02 -1.284122914075851440e-01 5.994746927171945572e-03 2.812237245962023735e-03 4.967065528035163879e-02 1.642918288707733154e-01 4.376965761184692383e-02 4.221354424953460693e-02 -2.673220448195934296e-02 9.682106971740722656e-02 -1.549178063869476318e-01 1.133739128708839417e-01 -2.197477519512176514e-01 2.299547381699085236e-02 -6.560204178094863892e-02 -2.712272340431809425e-03 -1.247417405247688293e-01 1.236286014318466187e-01 -7.633934728801250458e-03 5.905891954898834229e-02 -1.444541066884994507e-01 -2.058836668729782104e-01 -1.387677043676376343e-01 1.406664103269577026e-01 1.962976306676864624e-01 6.369596719741821289e-02 -1.887206733226776123e-01 -6.702364236116409302e-02 -8.723080903291702271e-02 8.361228555440902710e-02 7.183639705181121826e-02 2.747558988630771637e-02 2.582038044929504395e-01 1.745879650115966797e-01 -1.246611848473548889e-01 -1.239953264594078064e-01 1.465136855840682983e-01 2.730650082230567932e-02 -6.787913292646408081e-02 1.467227637767791748e-01 1.504597812891006470e-01 6.289874762296676636e-02 -2.038915008306503296e-01
-8.258231729269027710e-02 1.592157334089279175e-01 2.167320623993873596e-02 -8.805033564567565918e-02 7.059697806835174561e-02 -1.409954875707626343e-01 -1.102817282080650330e-01 -1.796015799045562744e-01 -3.643327951431274414e-02 1.153982505202293396e-01 7.805517874658107758e-03 -2.729126811027526855e-02 -3.508387133479118347e-02 -1.181039065122604370e-01 1.720833480358123779e-01 -1.679522395133972168e-01 1.670946478843688965e-01 6.501848250627517700e-02 -1.765893585979938507e-02 -1.376531720161437988e-01 1.013033464550971985e-01 3.884506877511739731e-04 1.214718297123908997e-01 -7.020778954029083252e-02 1.373872607946395874e-01 1.377039700746536255e-01 -3.488005697727203369e-02 -1.727639138698577881e-01 -1.557295769453048706e-01 5.105596035718917847e-02 2.397090010344982147e-02 8.675695955753326416e-02 1.565949618816375732e-01 -1.298091709613800049e-01 6.499760597944259644e-02 -1.403831392526626587e-01 7.690893858671188354e-02 4.895786568522453308e-02 -1.245754808187484741e-01 1.292530260980129242e-02 5.550202727317810059e-02 7.622902840375900269e-02 -9.125067852437496185e-03 -2.090930938720703125e-02 3.034151392057538033e-03 6.687881052494049072e-02 -1.148675978183746338e-01 -1.873184740543365479e-02 3.008893504738807678e-02 3.118755109608173370e-02
-1.613171026110649109e-02 1.890424191951751709e-01 1.498353481292724609e-01 -7.618184387683868408e-02 9.563495963811874390e-02 -1.872555613517761230e-01 -2.791958749294281006e-01 -4.674679785966873169e-02 -3.413459658622741699e-02 -6.583422422409057617e-02 1.336178928613662720e-01 -7.701807655394077301e-03 9.408925473690032959e-02 -8.650410920381546021e-02 3.969928994774818420e-02 -2.092885784804821014e-02 -5.720315501093864441e-02 -4.131133854389190674e-02 1.364809740334749222e-02 1.110353022813796997e-01 -5.270362645387649536e-02 -4.382060468196868896e-02 -1.040990054607391357e-01 4.871257767081260681e-02 -9.134081006050109863e-02 -1.035914272069931030e-01 -2.014159038662910461e-02 -1.194771975278854370e-01 1.518751531839370728e-01 -1.180045157670974731e-01 -1.702651977539062500e-01 9.684812277555465698e-02 -8.951900899410247803e-02 5.418949760496616364e-03 9.695028886198997498e-03 -1.145100146532058716e-01 -1.738375276327133179e-01 -1.296890228986740112e-01 -1.260147690773010254e-01 1.146833822131156921e-01 1.431879252195358276e-01 1.312056332826614380e-01 7.750703394412994385e-02 -6.882823258638381958e-02 -9.744136780500411987e-02 -1.008019596338272095e-01 1.353747397661209106e-01 -6.063448265194892883e-02 -1.698915958404541016e-01 -1.325137615203857422e-01
1.274810880422592163e-01 6.105953454971313477e-02 9.974363446235656738e-02 -1.543732881546020508e-01 1.785599589347839355e-01 -1.902379542589187622e-01 -8.326019346714019775e-02 -3.334625065326690674e-02 2.067859657108783722e-02 -6.964155286550521851e-02 1.090514063835144043e-01 -9.796551614999771118e-02 3.027884475886821747e-02 -2.351553877815604210e-03 1.711899936199188232e-01 -9.320632368326187134e-02 4.276516381651163101e-03 -4.398858919739723206e-02 -2.156701683998107910e-02 1.681362465023994446e-02 -8.997064828872680664e-02 1.000815555453300476e-01 -6.705926265567541122e-03 -6.068890914320945740e-02 -1.603495888411998749e-02 1.005826294422149658e-01 -3.333510085940361023e-02 -1.752796918153762817e-01 -8.939050883054733276e-02 -1.057389006018638611e-01 1.322042644023895264e-01 2.448763325810432434e-02 1.447660028934478760e-01 -2.156767696142196655e-01 8.948446065187454224e-02 -3.537110239267349243e-02 2.975407615303993225e-02 5.694125778973102570e-03 1.080812066793441772e-01 1.086287274956703186e-01 7.357738167047500610e-02 -1.321592479944229126e-01 6.294839549809694290e-03 -1.163019537925720215e-01 5.409612786024808884e-03 5.689837038516998291e-02 4.374869912862777710e-02 -1.455644369125366211e-01 -1.489559859037399292e-01 -1.534499675035476685e-01
-1.226886957883834839e-01 1.092594675719738007e-02 7.633936405181884766e-02 -7.005926966667175293e-02 1.663936078548431396e-01 3.596116602420806885e-02 1.694496534764766693e-02 -3.076008334755897522e-02 -1.566365063190460205e-01 9.909675270318984985e-02 -3.715119557455182076e-03 -6.635034084320068359e-02 1.841666996479034424e-01 -5.893767625093460083e-02 -6.162519752979278564e-02 1.103248260915279388e-02 1.475167721509933472e-01 2.475803485140204430e-03 -2.686640918254852295e-01 6.142733246088027954e-02 -7.326381653547286987e-02 7.137710601091384888e-02 1.140083894133567810e-01 -2.064050137996673584e-01 8.869413286447525024e-02 -2.467191778123378754e-03 -1.326593011617660522e-01 -1.708444021642208099e-02 -1.934532076120376587e-02 -9.533652663230895996e-02 -1.057422459125518799e-01 1.703743189573287964e-01 1.481381505727767944e-01 -1.485568881034851074e-01 -3.009978868067264557e-02 5.238125845789909363e-02 -1.952147334814071655e-01 -4.883029311895370483e-02 -5.018444359302520752e-02 2.202186919748783112e-02 1.119570732116699219e-01 -1.529620215296745300e-02 -8.960399776697158813e-02 3.072344325482845306e-02 3.739515319466590881e-02 -1.256189048290252686e-01 -5.516851320862770081e-02 -1.026290729641914368e-01 7.646276056766510010e-02 1.730106584727764130e-02
-2.262321300804615021e-02 1.983468383550643921e-01 9.987336397171020508e-02 -7.696674019098281860e-02 -5.818732827901840210e-02 -1.890336275100708008e-01 1.697214879095554352e-02 1.126963123679161072e-01 -8.095324784517288208e-02 1.021780744194984436e-01 6.585895270109176636e-02 -7.161322236061096191e-02 -2.057443000376224518e-02 -7.738815993070602417e-02 1.360914111137390137e-01 -1.454915199428796768e-02 -5.944099277257919312e-02 1.056379377841949463e-01 4.047637060284614563e-02 1.404023170471191406e-01 -6.719449162483215332e-02 3.061045333743095398e-02 1.570191681385040283e-01 -1.575519740581512451e-01 6.781283766031265259e-02 1.148983761668205261e-01 2.982441522181034088e-02 1.442513465881347656e-01 -2.117417380213737488e-02 -8.857748657464981079e-02 1.859744936227798462e-01 -1.082727983593940735e-01 9.238479286432266235e-02 -2.281546741724014282e-01 -8.444412052631378174e-02 -9.158472716808319092e-02 -7.223632931709289551e-02 8.338626474142074585e-02 -2.077147215604782104e-01 5.882197991013526917e-02 -1.105151623487472534e-01 -1.879745125770568848e-01 1.176498383283615112e-01 1.467273384332656860e-01 -1.933848299086093903e-02 -1.045449376106262207e-01 -8.784848451614379883e-02 -1.083700656890869141e-01 1.044033840298652649e-01 -8.621976012364029884e-04
1.009576395153999329e-01 1.488591581583023071e-01 1.515724211931228638e-01 -8.926355093717575073e-02 1.089949999004602432e-02 5.833985656499862671e-02 -6.971991062164306641e-02 9.053078293800354004e-02 -2.082017809152603149e-01 -1.736146770417690277e-02 1.663948297500610352e-01 3.147380799055099487e-02 -1.353592518717050552e-02 -1.110370364040136337e-02 1.323487162590026855e-01 9.375236183404922485e-02 -1.593076735734939575e-01 1.560903936624526978e-01 -7.941123098134994507e-02 -2.441170811653137207e-02 -6.799243390560150146e-02 8.722919039428234100e-03 3.068564087152481079e-02 3.693152964115142822e-02 -1.755892187356948853e-01 -2.722478285431861877e-02 6.275206059217453003e-02 1.364085674285888672e-01 1.708459667861461639e-02 -1.283054947853088379e-01 -7.775866240262985229e-02 -8.702443540096282959e-02 6.307856738567352295e-02 -1.402572989463806152e-01 -1.886071078479290009e-02 -3.799910470843315125e-02 2.668617479503154755e-02 -2.637633297126740217e-04 -2.093570977449417114e-01 -8.438041806221008301e-02 6.129981204867362976e-02 8.546397835016250610e-02 1.995406299829483032e-02 -1.319251507520675659e-01 -9.964176267385482788e-02 -1.328116208314895630e-01 -9.577908553183078766e-03 -1.815599761903285980e-02 -1.083342474885284901e-03 -9.558810293674468994e-02
-6.173249334096908569e-02 -1.983333006501197815e-02 3.162651881575584412e-02 1.068456396460533142e-01 -1.525932103395462036e-01 -2.318734675645828247e-01 -1.933081299066543579e-01 7.429163157939910889e-02 -2.883957885205745697e-02 4.594619944691658020e-02 -1.048074513673782349e-01 -1.069703921675682068e-01 -6.889073550701141357e-02 -4.986459761857986450e-02 5.018041282892227173e-02 -3.257953003048896790e-02 -5.142270121723413467e-03 4.226243123412132263e-02 -1.335473507642745972e-01 1.814232468605041504e-01 -8.599788695573806763e-02 4.005263373255729675e-02 -3.195954114198684692e-02 -1.052866801619529724e-01 8.639399707317352295e-02 1.090462803840637207e-01 -8.303474634885787964e-02 3.238046169281005859e-02 1.394068598747253418e-01 1.456045806407928467e-01 1.490788161754608154e-01 -9.991391003131866455e-02 1.739614084362983704e-02 2.404196653515100479e-03 1.417095065116882324e-01 -8.188925683498382568e-02 -2.038662135601043701e-01 -6.019770726561546326e-02 -1.419234424829483032e-01 3.927901759743690491e-02 1.437105238437652588e-01 -1.060122773051261902e-01 3.253405168652534485e-02 1.269727349281311035e-01 -1.426618546247482300e-01 1.123920828104019165e-01 5.582522600889205933e-02 6.870910525321960449e-02 1.172512620687484741e-01 1.164450719952583313e-01
1.575734019279479980e-01 6.427866220474243164e-02 -4.777851700782775879e-02 -3.525455668568611145e-02 -4.240853711962699890e-02 -8.648820221424102783e-02 -1.457896828651428223e-01 1.512370854616165161e-01 -1.133404299616813660e-01 1.420900374650955200e-01 8.883377909660339355e-02 1.153164729475975037e-01 1.288618594408035278e-01 -3.332366468384861946e-03 -6.789106875658035278e-02 -4.422736167907714844e-02 4.925270751118659973e-02 1.936233229935169220e-02 -2.350845374166965485e-02 4.971823841333389282e-02 -3.457169979810714722e-02 4.035108163952827454e-02 1.543122977018356323e-01 8.363392204046249390e-03 2.804114297032356262e-02 8.871583640575408936e-02 -4.468913748860359192e-02 -2.650074288249015808e-02 -1.427037268877029419e-01 8.292961865663528442e-02 1.842723339796066284e-01 -1.080690771341323853e-01 -6.605396419763565063e-02 -2.077856957912445068e-01 3.524270723573863506e-04 -6.199431419372558594e-02 -2.335964888334274292e-01 8.615166693925857544e-02 2.806598693132400513e-02 2.957190573215484619e-02 3.303288295865058899e-02 -2.208089977502822876e-01 4.307651147246360779e-02 1.472890377044677734e-01 -1.649476140737533569e-01 -5.637265276163816452e-03 -1.127010285854339600e-01 -5.097087100148200989e-02 -7.698076218366622925e-02 -1.277754753828048706e-01
1.317541599273681641e-01 -5.053531378507614136e-02 1.362366974353790283e-01 -7.243324816226959229e-02 1.313231736421585083e-01 -1.432929337024688721e-01 -1.883477717638015747e-01 -2.186574973165988922e-02 -2.409252896904945374e-02 8.398289233446121216e-02 -1.107921153306961060e-01 1.031183600425720215e-01 9.368351101875305176e-02 9.727957658469676971e-03 -3.515172051265835762e-03 -9.437707252800464630e-03 -1.907313019037246704e-01 1.910332292318344116e-01 6.728018075227737427e-02 -8.920106291770935059e-02 -7.330419868230819702e-02 -1.050169095396995544e-01 1.333788186311721802e-01 7.243363652378320694e-03 -6.064155697822570801e-02 -3.409587591886520386e-02 -5.360371433198451996e-04 8.268133550882339478e-02 -4.350225254893302917e-02 -7.391053251922130585e-03 1.831416040658950806e-02 6.432338804006576538e-02 -1.049987450242042542e-01 4.019807651638984680e-02 -1.217614710330963135e-01 -4.620029032230377197e-02 -2.270411103963851929e-01 -9.482052922248840332e-02 7.411388307809829712e-02 1.252866089344024658e-01 5.854681134223937988e-02 1.536974962800741196e-02 -3.128664800897240639e-03 3.922787960618734360e-03 -1.766135990619659424e-01 -1.275682449340820312e-01 6.996979564428329468e-02 -1.145408526062965393e-01 3.365250676870346069e-02 -6.000183150172233582e-02
1.196198686957359314e-01 1.412679255008697510e-01 -5.468279495835304260e-02 -9.132602810859680176e-02 -1.600309647619724274e-02 5.420621484518051147e-02 -1.727435737848281860e-01 4.676324874162673950e-02 5.118438228964805603e-02 -2.782171126455068588e-03 1.653104871511459351e-01 1.781954765319824219e-01 4.920304939150810242e-02 4.174585267901420593e-02 5.074370652437210083e-02 -9.297805279493331909e-02 1.041758209466934204e-01 1.013554558157920837e-01 -2.289516106247901917e-02 1.540265381336212158e-01 -8.681634813547134399e-02 -7.718742638826370239e-02 6.330126523971557617e-02 1.500826627016067505e-01 5.123619735240936279e-02 1.078181192278862000e-01 -2.096809446811676025e-02 -2.215123176574707031e-02 5.169782415032386780e-02 -1.826008036732673645e-02 4.001008346676826477e-03 -2.264166437089443207e-02 -6.333812326192855835e-02 -2.542118541896343231e-02 -5.087950080633163452e-02 -1.434306651353836060e-01 -2.794003346934914589e-03 6.997264921665191650e-02 -1.653460115194320679e-01 -4.931141436100006104e-02 -3.999169915914535522e-02 6.043925136327743530e-02 -1.533710360527038574e-01 1.787769049406051636e-02 -4.071748629212379456e-02 -1.151050254702568054e-01 3.960395604372024536e-02 -6.059291213750839233e-02 -1.689156591892242432e-01 4.526806622743606567e-02
1.756052225828170776e-01 -1.362261027097702026e-01 1.524181291460990906e-02 1.166604645550251007e-02 -1.749054044485092163e-01 1.323885768651962280e-01 6.688995659351348877e-02 -6.644307821989059448e-02 9.645383059978485107e-02 -5.397683754563331604e-02 7.459358870983123779e-02 -9.040392190217971802e-02 -9.723752737045288086e-03 -4.518566187471151352e-03 -9.546491503715515137e-02 -9.885520674288272858e-03 -1.412552129477262497e-02 -7.701293379068374634e-02 -1.110540106892585754e-01 1.302196383476257324e-01 -1.449374388903379440e-02 -1.455245316028594971e-01 -1.144130751490592957e-01 -4.759078845381736755e-02 -7.917382568120956421e-02 2.875734679400920868e-02 -6.272090971469879150e-02 -3.588110581040382385e-02 8.396563678979873657e-02 1.083048358559608459e-01 4.640087485313415527e-02 1.457295864820480347e-01 9.778849035501480103e-02 1.275653690099716187e-01 9.238887578248977661e-02 5.673854798078536987e-02 5.069170892238616943e-02 6.485068053007125854e-02 4.410707578063011169e-02 1.491446495056152344e-01 1.495538204908370972e-01 1.013493165373802185e-01 -2.165925130248069763e-02 1.179999411106109619e-01 -4.131145309656858444e-03 -8.636852353811264038e-02 3.376007080078125000e-02 -2.143175341188907623e-03 1.250469386577606201e-01 1.242044493556022644e-01
-9.537324309349060059e-03 9.220317006111145020e-02 1.135666947811841965e-02 -1.396937668323516846e-01 -7.287270575761795044e-02 -1.480860114097595215e-01 8.374038338661193848e-02 1.119531020522117615e-01 1.311334501951932907e-02 -1.251564770936965942e-01 -1.151265054941177368e-01 3.834176808595657349e-02 -8.707392960786819458e-02 8.128129877150058746e-03 -1.849105805158615112e-01 -1.115043908357620239e-01 3.035177849233150482e-02 1.203401982784271240e-01 -1.809773594141006470e-01 -4.519386962056159973e-02 -1.273612584918737411e-02 -1.680791974067687988e-01 1.324732601642608643e-01 -1.120830401778221130e-01 -3.874488174915313721e-02 1.115268021821975708e-01 1.497677266597747803e-01 -2.082680314779281616e-01 -1.452366262674331665e-02 4.291158169507980347e-02 8.762561529874801636e-02 -4.035773128271102905e-02 -8.257799595594406128e-02 7.473630458116531372e-02 1.314792931079864502e-01 -8.381345868110656738e-02 2.573843300342559814e-02 1.069078817963600159e-01 3.482447937130928040e-02 1.917953975498676300e-02 -1.093460991978645325e-02 -1.753010414540767670e-02 -1.549527198076248169e-01 -2.781934477388858795e-02 5.128942802548408508e-02 5.592823028564453125e-02 1.624620556831359863e-01 -1.367925554513931274e-01 5.032493174076080322e-02 5.361118167638778687e-02
-8.293744921684265137e-02 -1.100008040666580200e-01 5.455935001373291016e-02 7.882850617170333862e-02 -1.186963096261024475e-01 -6.465696729719638824e-03 -1.014786884188652039e-01 4.272095113992691040e-02 -1.197270303964614868e-02 -2.394515089690685272e-02 1.155668217688798904e-02 1.142774820327758789e-01 -8.347110450267791748e-02 -1.270447820425033569e-01 -1.495557278394699097e-01 9.522226452827453613e-02 -7.802166044712066650e-02 -9.808120876550674438e-02 9.214841574430465698e-02 -1.208137497305870056e-01 5.250457208603620529e-03 -7.646817713975906372e-03 -1.013726461678743362e-02 7.270812988281250000e-02 1.008398383855819702e-01 -9.420845657587051392e-02 -3.377393586561083794e-03 7.449055463075637817e-02 7.298694550991058350e-02 1.431106477975845337e-01 -1.160791665315628052e-01 1.055702194571495056e-01 -1.280141770839691162e-01 -1.311614066362380981e-01 5.359283462166786194e-02 -4.109139367938041687e-02 -7.021829485893249512e-02 -1.908428221940994263e-01 3.821026161313056946e-02 -1.686184555292129517e-01 -1.439244151115417480e-01 2.390486747026443481e-02 -2.219726890325546265e-01 -9.653182327747344971e-02 -6.707283109426498413e-02 1.115757450461387634e-01 1.481937617063522339e-01 -1.119973883032798767e-02 -1.417092978954315186e-01 3.131349757313728333e-02
-4.825789108872413635e-02 1.449287235736846924e-01 -1.140604764223098755e-01 1.522581279277801514e-01 7.100354880094528198e-02 -2.740078978240489960e-02 -7.738741487264633179e-02 1.277017742395401001e-01 -6.441047042608261108e-02 -1.381060034036636353e-01 -8.864056318998336792e-02 -1.510493159294128418e-01 -1.145950630307197571e-01 -3.325110673904418945e-02 5.953450873494148254e-02 1.543456781655550003e-02 -2.812961488962173462e-02 8.446776121854782104e-02 -1.044591739773750305e-01 1.267658472061157227e-01 6.736250966787338257e-02 6.012598052620887756e-02 1.351521015167236328e-01 -1.186215318739414215e-02 4.858731850981712341e-02 -6.238562613725662231e-02 1.156488582491874695e-01 4.999478161334991455e-02 -1.035941913723945618e-01 -2.644756808876991272e-03 -1.877584457397460938e-01 -1.370903570204973221e-02 -1.220575720071792603e-01 -1.591594368219375610e-01 9.286662936210632324e-02 1.275355219841003418e-01 -1.841492503881454468e-01 3.627007454633712769e-02 4.673083126544952393e-02 3.952850028872489929e-02 -1.019816771149635315e-01 5.269633140414953232e-03 -4.655304178595542908e-02 -3.284021839499473572e-02 7.970277220010757446e-02 6.654132157564163208e-02 -1.357138007879257202e-01 2.996061462908983231e-03 1.321959197521209717e-01 2.004310302436351776e-02
1.659639775753021240e-01 -4.611238837242126465e-02 1.906565390527248383e-02 -1.202211976051330566e-01 -6.675521377474069595e-03 -4.030362889170646667e-02 1.739725470542907715e-03 4.860347881913185120e-02 -8.094622194766998291e-02 -5.644622817635536194e-02 -4.581215605139732361e-02 -1.040001399815082550e-02 -1.263039112091064453e-01 1.174358725547790527e-01 -1.143305152654647827e-01 -8.636196702718734741e-02 1.990473829209804535e-02 1.050301864743232727e-01 4.523062705993652344e-02 -7.156518846750259399e-02 -1.018449813127517700e-01 9.413142688572406769e-03 -2.377560921013355255e-02 -1.549859438091516495e-02 1.170367822051048279e-01 1.413014084100723267e-01 1.206723824143409729e-01 -1.938682794570922852e-01 -1.324995458126068115e-01 -3.813401563093066216e-03 3.153897821903228760e-03 9.276271611452102661e-02 -4.203989729285240173e-02 3.723388537764549255e-02 9.088864922523498535e-02 1.409262269735336304e-01 -1.567463278770446777e-01 1.006427854299545288e-01 1.313794702291488647e-01 1.490588039159774780e-01 -5.453304946422576904e-02 -1.347443014383316040e-01 1.055971682071685791e-01 1.235165446996688843e-01 1.915607228875160217e-02 -3.773181512951850891e-02 -1.318118125200271606e-01 1.050548106431961060e-01 1.403072327375411987e-01 1.617776416242122650e-02
-8.429247140884399414e-02 1.601234972476959229e-01 9.048657119274139404e-02 2.166242524981498718e-02 -1.914665997028350830e-01 -3.879665955901145935e-02 -1.545469164848327637e-01 1.650424152612686157e-01 -1.629486829042434692e-01 -1.118047907948493958e-02 -4.020526632666587830e-02 6.834489759057760239e-03 6.283783912658691406e-02 6.596761941909790039e-02 9.133428335189819336e-02 9.570661187171936035e-02 -3.470473363995552063e-02 -1.882956922054290771e-02 3.385240212082862854e-02 1.443482637405395508e-01 3.548334538936614990e-02 -3.840328007936477661e-02 -1.333117038011550903e-01 -1.004841327667236328e-01 -8.663029968738555908e-02 -1.077421754598617554e-01 9.315109997987747192e-02 -6.756464391946792603e-02 -1.461752504110336304e-01 -5.465354025363922119e-02 -5.855235829949378967e-02 -5.589976906776428223e-02 4.348292574286460876e-02 1.636589504778385162e-02 5.075079947710037231e-02 1.252006590366363525e-01 -1.754237860441207886e-01 -1.348704844713211060e-01 9.594337642192840576e-02 1.601021885871887207e-01 -1.017075404524803162e-01 -6.677222996950149536e-02 -1.951597332954406738e-01 1.477845609188079834e-01 1.587347127497196198e-02 -1.461742967367172241e-01 9.685537219047546387e-02 1.682745069265365601e-01 -1.558644324541091919e-01 -1.275113672018051147e-01
2.845890633761882782e-02 -4.111934453248977661e-03 2.291247807443141937e-02 -1.026227027177810669e-01 -5.010513216257095337e-02 1.676901131868362427e-01 -2.869971469044685364e-02 1.268512476235628128e-02 -4.273821786046028137e-02 -1.393294706940650940e-02 1.025130599737167358e-01 9.882591664791107178e-02 -2.361690625548362732e-02 -3.695692634209990501e-03 -1.757211051881313324e-02 -1.007936000823974609e-01 8.871293067932128906e-02 -1.108446717262268066e-01 8.350105583667755127e-02 -2.588400989770889282e-02 8.005794882774353027e-02 -2.117151767015457153e-01 -1.223853379487991333e-01 7.230571657419204712e-02 2.281793020665645599e-02 -7.238857448101043701e-02 -6.117137894034385681e-02 -8.648795634508132935e-02 2.441396191716194153e-02 9.365633875131607056e-02 -1.837364733219146729e-01 -1.175315529108047485e-01 -2.030501514673233032e-02 -1.369793266057968140e-01 9.155142307281494141e-02 1.281230449676513672e-01 1.426559239625930786e-01 -3.738596290349960327e-02 1.325348913669586182e-01 8.726982772350311279e-02 -9.650643169879913330e-02 2.250869758427143097e-02 -1.325538307428359985e-01 1.006261780858039856e-01 1.115975305438041687e-01 -4.796999692916870117e-02 -1.825369335711002350e-02 -1.148621141910552979e-01 -1.170059219002723694e-01 -9.955994784832000732e-03
3.518486395478248596e-02 1.221710443496704102e-02 1.386996731162071228e-02 6.302002072334289551e-02 -1.342038363218307495e-01 1.487951725721359253e-01 -1.247318834066390991e-01 8.756319433450698853e-02 -2.559389686211943626e-03 -9.001366794109344482e-02 -8.373364061117172241e-02 6.269405037164688110e-02 -9.981147944927215576e-02 6.152847036719322205e-02 -1.146388947963714600e-01 1.693124137818813324e-02 1.111933365464210510e-01 6.832734495401382446e-02 -1.260831393301486969e-02 -1.417974531650543213e-01 1.247498318552970886e-01 8.085630089044570923e-02 4.715163260698318481e-03 6.953188031911849976e-02 -1.088778972625732422e-01 -1.039668470621109009e-01 7.131667435169219971e-02 -8.878475986421108246e-03 1.372014582157135010e-01 -5.319886282086372375e-02 -1.323030591011047363e-01 -2.957521006464958191e-02 3.418380394577980042e-02 -9.353896230459213257e-02 -1.017064452171325684e-01 -8.413807302713394165e-02 -3.996042907238006592e-02 1.090460922569036484e-02 -6.309399753808975220e-02 4.321936890482902527e-02 -1.168170124292373657e-01 9.906105697154998779e-02 7.538854330778121948e-02 1.175218746066093445e-01 1.094785034656524658e-01 -8.271490223705768585e-03 -1.676884889602661133e-01 -2.625268697738647461e-02 -2.477336861193180084e-02 -1.102197468280792236e-01
-3.481499850749969482e-02 -8.196326345205307007e-02 -1.717585027217864990e-01 9.429766982793807983e-02 1.646215468645095825e-02 -2.530325949192047119e-02 -1.396306511014699936e-02 -3.858254849910736084e-02 -8.323889970779418945e-02 1.674267500638961792e-01 -1.246738582849502563e-01 1.464351564645767212e-01 -7.384247332811355591e-02 1.154984459280967712e-01 -1.008510664105415344e-01 -1.423793192952871323e-02 1.904852390289306641e-01 1.758449822664260864e-01 1.633076369762420654e-01 6.388656795024871826e-02 1.454957574605941772e-01 -1.209127306938171387e-01 -7.560861110687255859e-02 -1.208652183413505554e-01 -3.252426907420158386e-02 -1.570154875516891479e-01 -9.622285515069961548e-02 -1.084166206419467926e-02 -1.236448362469673157e-01 -9.364013373851776123e-02 -1.897488385438919067e-01 1.410900950431823730e-01 6.292147561907768250e-03 1.085048392415046692e-01 -9.374796412885189056e-03 1.521492898464202881e-01 -5.886454135179519653e-02 -5.772460252046585083e-02 7.493013143539428711e-02 -1.394020318984985352e-01 1.015561297535896301e-01 -1.244642212986946106e-01 6.025751680135726929e-02 9.135323017835617065e-02 2.837906777858734131e-02 -1.122584287077188492e-02 -2.056629955768585205e-02 1.588540375232696533e-01 -1.668534427881240845e-02 -1.276153046637773514e-02
-4.649449139833450317e-02 -5.356445908546447754e-03 4.596257209777832031e-02 -4.427369683980941772e-02 -1.063128113746643066e-01 2.425232902169227600e-02 -9.062135219573974609e-02 -9.204189479351043701e-02 8.100339025259017944e-02 6.681574881076812744e-02 7.179790735244750977e-02 1.632083207368850708e-01 4.660445451736450195e-02 9.576743096113204956e-02 -3.403928875923156738e-02 -4.903438314795494080e-02 -9.809376299381256104e-02 -5.429493635892868042e-02 -3.596446663141250610e-02 3.927390277385711670e-02 3.152931481599807739e-02 -1.782361716032028198e-01 -1.358541995286941528e-01 -5.067997798323631287e-02 4.583130776882171631e-02 -1.001896858215332031e-01 7.939078658819198608e-02 1.391482725739479065e-02 3.231130540370941162e-02 5.880506709218025208e-02 1.008348017930984497e-01 1.433733291923999786e-02 2.504736557602882385e-02 8.037712424993515015e-02 6.634785979986190796e-02 9.970825165510177612e-02 1.156254322268068790e-03 3.202290832996368408e-02 1.449189186096191406e-01 7.123642414808273315e-02 1.219011768698692322e-01 -1.942753642797470093e-01 -1.454634368419647217e-01 1.991712749004364014e-01 4.228875041007995605e-02 7.210829854011535645e-02 1.182685792446136475e-01 1.813758164644241333e-01 1.357419043779373169e-01 -6.401286274194717407e-02
-1.257065534591674805e-01 -7.542554289102554321e-03 -6.723240017890930176e-02 5.678544193506240845e-02 1.210271641612052917e-01 1.369864912703633308e-05 -2.226293683052062988e-01 1.631825044751167297e-02 5.121294781565666199e-02 1.334988474845886230e-01 -1.198199391365051270e-01 9.017543494701385498e-02 5.395982414484024048e-02 1.527015864849090576e-01 -1.831386983394622803e-01 1.085290610790252686e-01 -1.256003677845001221e-01 1.878697723150253296e-01 -5.231140553951263428e-02 1.363070756196975708e-01 1.721469759941101074e-01 -1.641548573970794678e-01 6.214911118149757385e-02 8.619608730077743530e-02 7.764242589473724365e-02 -1.345125734806060791e-01 6.065308675169944763e-02 -2.115279287099838257e-01 3.238087147474288940e-02 3.432799503207206726e-02 -1.596685796976089478e-01 6.049178540706634521e-02 -1.511187553405761719e-01 -6.290614604949951172e-02 -2.577172964811325073e-02 -1.208656504750251770e-01 2.606508508324623108e-02 1.348293502815067768e-03 2.073322236537933350e-01 5.002495646476745605e-02 1.874158680438995361e-01 -1.006274446845054626e-01 -2.525164978578686714e-03 1.266956776380538940e-01 -9.786879271268844604e-02 -1.466030925512313843e-01 -1.453662514686584473e-01 6.445900350809097290e-02 -3.967456519603729248e-02 -8.593764156103134155e-02
1.052591111510992050e-02 -4.512287676334381104e-02 1.412276029586791992e-01 3.353969077579677105e-04 -5.280396714806556702e-02 -1.215852238237857819e-02 7.068241387605667114e-02 -1.038608327507972717e-01 -8.575902879238128662e-02 1.538628190755844116e-01 1.537473201751708984e-01 8.838034421205520630e-02 -4.152413457632064819e-02 1.677611321210861206e-01 -1.883242577314376831e-01 -1.341661661863327026e-01 1.287618726491928101e-01 -2.926491573452949524e-02 1.915228366851806641e-01 -1.156167834997177124e-01 5.968464165925979614e-02 -1.134859696030616760e-01 5.220112949609756470e-02 7.056347280740737915e-02 -2.836337871849536896e-02 -7.858018577098846436e-02 -6.776983290910720825e-02 -1.836484521627426147e-01 -2.159453369677066803e-02 7.250944525003433228e-02 -1.318665891885757446e-01 7.652868330478668213e-02 -1.693537682294845581e-01 5.488716065883636475e-02 6.596322357654571533e-02 7.605403661727905273e-02 3.978608921170234680e-02 1.302592754364013672e-01 1.817684918642044067e-01 8.950421959161758423e-02 1.076293736696243286e-01 -1.232138946652412415e-01 -2.032273709774017334e-01 -2.689365297555923462e-02 1.475947201251983643e-01 8.751500397920608521e-02 9.098721295595169067e-02 -1.564857363700866699e-01 1.568053811788558960e-01 1.151705458760261536e-01
-6.777559965848922729e-02 1.896989941596984863e-01 -3.419410064816474915e-02 -4.494062438607215881e-02 -3.594409301877021790e-02 -1.382872611284255981e-01 -7.377988845109939575e-02 -9.975691884756088257e-02 1.341400593519210815e-01 -5.180264706723392010e-04 -8.828494697809219360e-02 1.475123465061187744e-01 1.361868679523468018e-01 -2.725636586546897888e-04 -1.517274975776672363e-01 -1.516151532996445894e-04 -3.714191541075706482e-02 -6.141141802072525024e-02 -2.974224463105201721e-02 -1.272888737730681896e-03 -4.034318029880523682e-02 -4.026787728071212769e-02 -1.037968695163726807e-01 -9.885510802268981934e-02 2.413538657128810883e-02 6.087928265333175659e-02 -4.068155586719512939e-02 -2.179163098335266113e-01 1.228680536150932312e-01 1.711120009422302246e-01 -1.324705481529235840e-01 -3.913099691271781921e-02 -1.266013532876968384e-01 -1.078249886631965637e-01 -9.931261092424392700e-02 1.298827081918716431e-01 -2.030343413352966309e-01 -8.891532570123672485e-02 -3.675528243184089661e-02 -1.402021348476409912e-01 -1.860527880489826202e-02 -9.859979897737503052e-02 -1.308036744594573975e-01 9.315878152847290039e-02 -7.495918124914169312e-02 -7.237443327903747559e-02 -1.039077118039131165e-01 1.941929943859577179e-02 1.242502704262733459e-01 1.206725314259529114e-01
-8.770897239446640015e-02 -1.282792836427688599e-01 8.689883351325988770e-02 8.736387826502323151e-03 3.877050057053565979e-02 8.949398994445800781e-02 -4.320670291781425476e-02 -1.068563088774681091e-01 -5.819992348551750183e-02 -6.387439090758562088e-03 -1.417611539363861084e-02 1.044021844863891602e-01 -8.759155869483947754e-02 3.333434835076332092e-02 -8.386209607124328613e-02 -1.394910365343093872e-01 4.239740595221519470e-02 -8.081527799367904663e-02 -5.590525269508361816e-02 9.872295893728733063e-03 -2.901492267847061157e-02 1.208040937781333923e-01 1.091869026422500610e-01 7.124492526054382324e-02 4.801223427057266235e-02 9.774392098188400269e-02 1.433186084032058716e-01 -3.390652835369110107e-01 6.961220875382423401e-03 1.793491542339324951e-01 1.560320425778627396e-02 1.222073659300804138e-01 -2.110186964273452759e-01 -6.177693232893943787e-02 6.049546971917152405e-02 -8.519391715526580811e-02 -1.898407191038131714e-01 1.283879112452268600e-02 1.066335737705230713e-01 -1.944424659013748169e-01 -2.381952479481697083e-02 -9.030423313379287720e-02 1.418928205966949463e-01 4.479611292481422424e-02 -7.750026136636734009e-02 -1.569248586893081665e-01 4.784598574042320251e-02 -4.433244094252586365e-02 1.048108115792274475e-01 -1.007950901985168457e-01
3.749290108680725098e-02 -3.488894924521446228e-02 9.853375144302845001e-03 -1.123534590005874634e-01 -1.051686480641365051e-01 -2.734518051147460938e-02 -4.396461695432662964e-02 5.411766096949577332e-02 -2.539691887795925140e-02 -7.859423756599426270e-02 -2.714261412620544434e-03 -7.005910575389862061e-02 -1.071012206375598907e-02 -4.707001522183418274e-02 -8.334197103977203369e-02 -9.115903824567794800e-02 3.528212383389472961e-02 6.239102780818939209e-02 -5.145061388611793518e-02 2.834014594554901123e-03 1.285136193037033081e-01 -1.508440077304840088e-01 -2.717158943414688110e-02 -7.279676385223865509e-03 -8.492081612348556519e-02 -5.592368170619010925e-02 5.464844033122062683e-02 -1.814686655998229980e-01 -1.442779414355754852e-02 -2.037159726023674011e-02 -1.651270687580108643e-01 -1.067476794123649597e-01 -1.400842219591140747e-01 3.432842344045639038e-02 9.524317830801010132e-02 1.473610252141952515e-01 -1.097621209919452667e-02 -3.351634368300437927e-02 1.531918942928314209e-01 -1.397525817155838013e-01 -1.278715878725051880e-01 1.199627295136451721e-02 -6.032924726605415344e-02 5.066231638193130493e-02 1.726697385311126709e-01 -5.517154186964035034e-02 -2.861996553838253021e-02 -1.217793300747871399e-01 9.452527016401290894e-02 1.216732412576675415e-01
-7.560435682535171509e-02 9.447717666625976562e-02 3.477368876338005066e-02 -5.948318541049957275e-02 1.284064948558807373e-01 1.797804981470108032e-02 -7.951682060956954956e-02 2.913013845682144165e-02 4.712568968534469604e-02 3.506498783826828003e-02 -2.359797619283199310e-02 -8.824503049254417419e-03 1.275308728218078613e-01 1.244493294507265091e-02 -1.363807022571563721e-01 1.102215377613902092e-03 -1.243758127093315125e-01 1.292208731174468994e-01 4.203926306217908859e-03 1.585812121629714966e-01 -7.585113495588302612e-02 1.038419306278228760e-01 -1.039337366819381714e-01 -4.973013326525688171e-02 3.176825866103172302e-02 5.885779485106468201e-02 -1.247810497879981995e-01 -2.827951908111572266e-01 -5.707553029060363770e-02 -8.414578437805175781e-02 -5.596770718693733215e-02 -1.554165631532669067e-01 -1.876190155744552612e-01 9.367399848997592926e-03 1.472046226263046265e-01 1.369481235742568970e-01 -8.719173073768615723e-02 8.032204210758209229e-02 9.267587959766387939e-02 -6.549223791807889938e-03 -8.853807300329208374e-02 -1.048664301633834839e-01 8.359331637620925903e-02 -7.757086306810379028e-02 1.522096842527389526e-01 1.055140569806098938e-01 3.872459754347801208e-02 3.957130759954452515e-02 -3.671124111860990524e-03 -2.421182207763195038e-02
8.905133605003356934e-02 -4.450042545795440674e-02 -4.773236066102981567e-02 5.049029365181922913e-02 -4.730170592665672302e-02 7.556420564651489258e-02 2.233198285102844238e-02 7.014165073633193970e-02 -1.490068882703781128e-01 1.099743023514747620e-01 5.624048039317131042e-02 -1.508384793996810913e-01 -1.336975097656250000e-01 -8.478185534477233887e-02 3.274909220635890961e-03 3.414444625377655029e-02 -7.109634578227996826e-02 1.546982824802398682e-01 8.098542690277099609e-02 1.906116902828216553e-01 1.951370202004909515e-02 1.308363825082778931e-01 1.165659874677658081e-01 1.559266597032546997e-01 -2.126736007630825043e-02 6.785490363836288452e-02 4.278360307216644287e-02 -3.692591488361358643e-01 -3.354604542255401611e-02 -5.009628832340240479e-03 -1.307787746191024780e-01 -7.450925558805465698e-02 -7.481206208467483521e-02 -2.497722953557968140e-02 -8.547045290470123291e-02 -3.417271748185157776e-02 -1.171590685844421387e-01 6.897100806236267090e-02 2.017468214035034180e-01 -1.330832988023757935e-01 1.559465676546096802e-01 -1.852629147469997406e-02 2.323926426470279694e-02 -1.395312100648880005e-01 -1.825243234634399414e-02 -5.849783122539520264e-02 9.288091212511062622e-02 -1.537725329399108887e-01 -1.321003437042236328e-01 8.982443809509277344e-02
9.127132594585418701e-02 5.641905963420867920e-02 -9.934780746698379517e-02 -3.916815295815467834e-02 5.865453928709030151e-02 2.049018628895282745e-02 1.256403475999832153e-01 -3.814091160893440247e-02 2.459529601037502289e-02 -6.760077923536300659e-02 -4.920334089547395706e-03 2.565646171569824219e-02 1.418825685977935791e-01 -7.334560155868530273e-02 -4.518918320536613464e-02 4.464300721883773804e-02 1.619237363338470459e-01 8.447963744401931763e-02 -1.319985538721084595e-01 1.724177896976470947e-01 -1.248164698481559753e-01 -2.856721356511116028e-02 1.204657368361949921e-02 1.433977484703063965e-01 -6.633229553699493408e-02 9.785787016153335571e-02 8.600677549839019775e-02 -2.532734274864196777e-01 1.590281538665294647e-02 -4.301718622446060181e-02 4.406541958451271057e-02 -1.098756343126296997e-01 6.244409084320068359e-02 3.437879681587219238e-02 -1.861666329205036163e-02 1.609795261174440384e-03 -2.152456790208816528e-01 -9.814346209168434143e-03 2.639358043670654297e-01 -2.672406844794750214e-02 7.665513455867767334e-02 2.914299629628658295e-02 -5.516860634088516235e-02 -5.485821980983018875e-03 3.399714827537536621e-02 -4.433328285813331604e-02 1.046201735734939575e-01 9.416857361793518066e-02 1.081876177340745926e-02 1.390699669718742371e-02
1.332540065050125122e-01 -2.742856275290250778e-03 -2.428367361426353455e-02 -1.105781123042106628e-01 1.151099503040313721e-01 -5.271854996681213379e-02 1.027279570698738098e-01 1.283192783594131470e-01 -9.161142259836196899e-02 1.221546530723571777e-01 6.082166917622089386e-03 8.941192179918289185e-02 -4.102229140698909760e-03 8.068265765905380249e-02 -1.575295329093933105e-01 1.009651422500610352e-01 -2.573540434241294861e-02 7.320318836718797684e-03 -9.462805092334747314e-02 1.821215301752090454e-01 -1.109828129410743713e-01 7.350209355354309082e-02 6.467603892087936401e-02 5.568740889430046082e-02 1.340924799442291260e-01 -8.552269078791141510e-03 -1.304773986339569092e-02 -3.388750553131103516e-01 4.271022044122219086e-03 -1.272495090961456299e-01 -4.161651059985160828e-02 -8.006151765584945679e-02 -1.616893857717514038e-01 -1.178954690694808960e-01 -8.826702833175659180e-02 7.283010333776473999e-02 -1.676001846790313721e-01 -1.422941237688064575e-01 1.789591908454895020e-01 -1.723677515983581543e-01 -1.779398769140243530e-01 5.292455852031707764e-02 -1.464280784130096436e-01 -1.908730715513229370e-01 1.590360254049301147e-01 7.614672183990478516e-02 4.070392623543739319e-02 -1.065283194184303284e-01 6.610349565744400024e-02 -4.295032098889350891e-02
7.179903984069824219e-02 -1.287536770105361938e-01 -1.030006781220436096e-01 9.279712289571762085e-02 1.463036686182022095e-01 8.251095563173294067e-02 5.262814834713935852e-02 -8.848549425601959229e-02 1.231406927108764648e-01 -4.806321486830711365e-02 -9.086923301219940186e-02 3.053074469789862633e-03 1.370586454868316650e-01 -1.227808296680450439e-01 -1.550058871507644653e-01 1.017231792211532593e-01 1.288924366235733032e-01 1.650766283273696899e-01 -1.020228117704391479e-01 1.567271165549755096e-02 -5.614500120282173157e-02 -1.453308463096618652e-01 1.353033483028411865e-01 -1.353300809860229492e-01 8.597441762685775757e-02 -8.891271054744720459e-02 1.097966283559799194e-01 -3.610683381557464600e-01 1.848025321960449219e-01 1.221060846000909805e-02 5.833522975444793701e-02 8.285800926387310028e-03 -1.523375213146209717e-01 2.645987644791603088e-02 3.438194841146469116e-02 1.103126183152198792e-01 -1.439379900693893433e-01 -6.918697059154510498e-02 2.554228603839874268e-01 1.061582285910844803e-02 -1.739208847284317017e-01 1.172168850898742676e-01 1.529238671064376831e-01 -4.133285582065582275e-02 5.111570935696363449e-03 1.350975632667541504e-01 -1.234820205718278885e-02 1.209938451647758484e-01 -3.459661453962326050e-02 -5.935408920049667358e-02
7.399298250675201416e-02 -5.737096816301345825e-02 -7.133114337921142578e-02 1.473840624094009399e-01 8.493974804878234863e-02 -6.071351096034049988e-02 1.283322572708129883e-01 1.291652917861938477e-01 -8.772089332342147827e-02 6.583875510841608047e-04 2.810493297874927521e-02 8.523996919393539429e-02 -6.799293309450149536e-02 -1.192892491817474365e-01 -2.115384936332702637e-01 -1.095605175942182541e-02 -8.205090463161468506e-02 -3.803296759724617004e-02 5.570705235004425049e-02 1.837589442729949951e-01 -8.403369784355163574e-02 1.029729247093200684e-01 1.363559067249298096e-01 8.703394979238510132e-02 4.982339451089501381e-04 1.737809181213378906e-01 -6.201790273189544678e-02 -2.304324805736541748e-01 -8.183117210865020752e-02 7.409640587866306305e-03 6.246663257479667664e-02 4.958654940128326416e-02 6.766349077224731445e-02 2.644897252321243286e-02 1.022391244769096375e-01 6.209581345319747925e-02 -1.852658540010452271e-01 -3.320105373859405518e-02 1.007201150059700012e-01 -1.512311846017837524e-01 -9.854432940483093262e-02 -2.079987339675426483e-02 3.316973149776458740e-02 -8.474817872047424316e-02 -1.351379603147506714e-01 -3.982500731945037842e-02 6.970468163490295410e-02 2.344061620533466339e-02 5.912500619888305664e-02 1.643110513687133789e-01
1.240262985229492188e-01 -9.875413775444030762e-02 -1.155397444963455200e-01 1.251983642578125000e-01 9.366536140441894531e-02 -6.744762510061264038e-02 1.399363726377487183e-01 3.260685876011848450e-02 9.706319123506546021e-02 -9.571667015552520752e-02 -4.948462173342704773e-02 -2.171912975609302521e-02 -1.145579814910888672e-01 -1.769197136163711548e-01 6.454475224018096924e-02 6.931467354297637939e-02 4.993866011500358582e-02 1.614962965250015259e-01 1.001085042953491211e-01 -9.790402650833129883e-02 -1.043535470962524414e-01 6.166917458176612854e-02 -1.220728904008865356e-01 -1.374104171991348267e-01 -3.910968080163002014e-02 7.586506009101867676e-02 1.403554528951644897e-01 -1.959687471389770508e-01 1.188178360462188721e-01 -1.153267100453376770e-01 -1.498856991529464722e-01 1.202435269951820374e-01 4.381442070007324219e-02 -6.580988317728042603e-02 -7.930839806795120239e-02 1.778558641672134399e-01 -8.574612438678741455e-02 1.420438736677169800e-01 1.568972915410995483e-01 -1.851221919059753418e-01 -2.205334790050983429e-02 6.019490212202072144e-02 -6.899162544868886471e-04 -1.823248118162155151e-01 -4.791465029120445251e-02 9.708645939826965332e-02 -2.632069773972034454e-02 1.178873181343078613e-01 9.493035823106765747e-02 -7.057768106460571289e-02
-6.948494911193847656e-02 9.296148270368576050e-02 1.557495258748531342e-02 1.417177319526672363e-01 2.564727142453193665e-02 1.469096839427947998e-01 2.624693885445594788e-02 3.915943205356597900e-02 -1.300034075975418091e-01 9.111318737268447876e-02 3.433298319578170776e-02 -1.650591194629669189e-01 3.554941341280937195e-02 1.107177436351776123e-01 -1.547862738370895386e-01 -8.701720833778381348e-02 2.894644252955913544e-02 -6.050818786025047302e-02 -1.053382083773612976e-01 -1.142943277955055237e-01 1.934664696455001831e-02 -1.368711888790130615e-01 6.871399283409118652e-02 -5.560011416673660278e-02 3.121675550937652588e-02 9.529120475053787231e-02 -1.256246417760848999e-01 -2.295947968959808350e-01 6.977615505456924438e-02 4.611378908157348633e-02 1.271551698446273804e-01 1.289221737533807755e-02 -1.956079006195068359e-01 -6.035587936639785767e-02 -2.201803028583526611e-02 -3.845487162470817566e-02 -1.828920096158981323e-02 -5.501475557684898376e-02 2.097306847572326660e-01 -5.767312273383140564e-02 -3.054513595998287201e-02 7.414563000202178955e-02 -4.898532480001449585e-02 6.605412811040878296e-02 3.060994297266006470e-02 -1.165909394621849060e-01 5.231853947043418884e-02 6.913606077432632446e-02 -1.602535545825958252e-01 2.157413773238658905e-02
-2.384576760232448578e-02 -9.983212500810623169e-02 1.029245741665363312e-02 -1.072320193052291870e-01 -1.262561678886413574e-01 -5.060791969299316406e-02 1.220434829592704773e-01 -1.411891728639602661e-01 1.212451234459877014e-01 -7.483899593353271484e-02 5.307199805974960327e-02 6.903166323900222778e-02 1.657440662384033203e-01 -7.371345907449722290e-02 -1.002848148345947266e-02 -1.085562631487846375e-01 1.584923267364501953e-01 -4.449931159615516663e-02 -5.289719998836517334e-02 6.998927146196365356e-02 -3.344009444117546082e-02 -1.348795145750045776e-01 4.669664427638053894e-02 1.797906868159770966e-02 -5.101292952895164490e-02 1.783285439014434814e-01 2.479644678533077240e-02 -2.199307084083557129e-01 1.242853924632072449e-01 5.632548034191131592e-02 1.199737116694450378e-01 4.608967155218124390e-02 -4.322446137666702271e-02 7.814804464578628540e-02 -5.589137226343154907e-02 1.650077998638153076e-01 -1.316815316677093506e-01 5.190835148096084595e-02 1.426150500774383545e-01 -1.529397070407867432e-01 -1.240165308117866516e-01 -1.556804031133651733e-01 -2.498869970440864563e-02 1.310127973556518555e-01 -1.040056422352790833e-01 -1.262962073087692261e-01 5.316492542624473572e-02 -1.325480788946151733e-01 -1.013260334730148315e-01 5.931414663791656494e-02
1.490959674119949341e-01 -3.543586283922195435e-02 -1.330468505620956421e-01 -9.568807482719421387e-02 3.774688765406608582e-02 6.180028244853019714e-02 2.764302678406238556e-02 -3.172077238559722900e-02 1.573754996061325073e-01 -6.896388530731201172e-02 4.417992010712623596e-02 -3.354376554489135742e-02 -4.491542279720306396e-02 2.575553767383098602e-02 1.084143295884132385e-01 -7.569244503974914551e-02 4.254128783941268921e-02 1.977104246616363525e-01 -1.228931825608015060e-02 -4.260699078440666199e-02 5.929594114422798157e-02 1.409728378057479858e-01 -1.052784547209739685e-01 -1.615394800901412964e-01 1.442425325512886047e-02 5.762974545359611511e-02 1.507955938577651978e-01 4.048061743378639221e-02 1.275678128004074097e-01 -8.998376876115798950e-02 -8.553211390972137451e-02 9.090813994407653809e-02 5.514980852603912354e-02 -8.353137969970703125e-02 -6.982645392417907715e-02 2.364707179367542267e-02 -1.883169263601303101e-01 1.248069107532501221e-01 4.805907979607582092e-02 1.391822695732116699e-01 1.149395555257797241e-01 7.707501202821731567e-02 8.463889360427856445e-02 8.501125872135162354e-02 -1.190874278545379639e-01 2.376912720501422882e-02 -1.396376192569732666e-01 5.652269814163446426e-03 -3.237306326627731323e-02 2.880827896296977997e-02
1.796733886003494263e-01 -1.683070659637451172e-01 1.688477545976638794e-01 1.205452755093574524e-01 -9.170476347208023071e-02 1.339216828346252441e-01 1.128509789705276489e-01 -1.010580435395240784e-01 -1.180892810225486755e-02 -6.109250243753194809e-03 3.598702698945999146e-02 6.004874035716056824e-02 1.415665000677108765e-01 -1.756415665149688721e-01 6.052897498011589050e-02 3.415429592132568359e-02 1.186662688851356506e-01 -1.056631281971931458e-01 -9.475899487733840942e-02 -1.488639414310455322e-01 -2.156760916113853455e-02 4.678735136985778809e-02 7.821111381053924561e-02 3.149802237749099731e-02 1.404241770505905151e-01 2.849980816245079041e-02 1.378480494022369385e-01 3.914182260632514954e-02 -1.355383098125457764e-01 1.329976469278335571e-01 1.374796479940414429e-01 -1.354136019945144653e-01 5.038493126630783081e-02 -4.484950006008148193e-02 2.530024014413356781e-02 1.085112318396568298e-01 6.688965857028961182e-02 -3.335676342248916626e-02 8.177965134382247925e-02 -1.488937288522720337e-01 1.052077393978834152e-03 6.330749392509460449e-02 -8.632946759462356567e-02 1.708538234233856201e-01 1.337000131607055664e-01 6.016422063112258911e-02 -4.030570853501558304e-03 1.251029372215270996e-01 -9.908337891101837158e-02 -3.599315183237195015e-03
7.565965503454208374e-02 -2.028154954314231873e-02 -6.952212005853652954e-02 1.929623447358608246e-02 -5.526813864707946777e-02 1.624490320682525635e-01 -3.258256986737251282e-02 -1.710249036550521851e-01 -4.113173112273216248e-02 -1.125568598508834839e-01 -1.469396799802780151e-01 6.173274666070938110e-02 -4.632623121142387390e-02 -1.067005842924118042e-01 -1.269971132278442383e-01 -1.877509206533432007e-01 -5.722976848483085632e-02 -1.147976517677307129e-01 -6.806560605764389038e-02 1.307756751775741577e-01 -6.994225084781646729e-02 1.541983634233474731e-01 -3.453682363033294678e-02 -7.171489298343658447e-02 1.147348284721374512e-01 1.674157567322254181e-02 -9.701118618249893188e-02 -7.373259961605072021e-02 7.494761794805526733e-02 1.090867146849632263e-01 -3.889893414452672005e-03 1.793409697711467743e-02 -9.377133846282958984e-02 1.458964310586452484e-02 -9.153671562671661377e-02 2.576830796897411346e-02 2.460988797247409821e-02 -1.051901578903198242e-01 1.279454082250595093e-01 -1.137364283204078674e-01 1.050984933972358704e-01 -9.389272332191467285e-02 9.710399806499481201e-02 3.691351786255836487e-02 -1.210730522871017456e-01 -9.178334474563598633e-02 -7.206725329160690308e-02 -1.190674901008605957e-01 2.488164789974689484e-02 6.275672465562820435e-02
1.527394205331802368e-01 -4.944612085819244385e-02 1.062348335981369019e-01 1.441271752119064331e-01 -1.465470492839813232e-01 2.270117402076721191e-01 -6.540919095277786255e-02 1.196985468268394470e-01 9.573668986558914185e-02 1.418518126010894775e-01 -7.971162348985671997e-02 -1.160905212163925171e-01 7.110434770584106445e-02 -1.929416060447692871e-01 -1.393602788448333740e-01 -1.323420554399490356e-01 8.169382065534591675e-02 1.723176240921020508e-02 8.998689055442810059e-02 -9.583764523267745972e-02 8.060166239738464355e-02 -6.686896830797195435e-02 -1.504075378179550171e-01 -5.023198574781417847e-02 -1.646805405616760254e-01 7.369999587535858154e-02 8.289153873920440674e-02 1.125751435756683350e-02 1.981111429631710052e-02 1.706044375896453857e-01 7.485867291688919067e-02 -1.225938051939010620e-01 4.842920973896980286e-02 6.445001810789108276e-02 -2.763273939490318298e-02 -9.161811321973800659e-02 -1.587268859148025513e-01 1.330435276031494141e-03 1.329134404659271240e-01 -3.267373144626617432e-02 -1.454516500234603882e-01 -1.533802300691604614e-01 -5.294033512473106384e-02 -5.484676733613014221e-02 1.354954391717910767e-01 -2.342128939926624298e-02 -1.795715987682342529e-01 -7.344684749841690063e-02 4.415040090680122375e-02 1.141809895634651184e-01
-1.331706196069717407e-01 -6.861924380064010620e-02 -2.326641976833343506e-02 -7.252235431224107742e-03 -6.392858922481536865e-02 9.120292961597442627e-02 -1.177654862403869629e-01 -1.297511160373687744e-01 -9.556122124195098877e-02 -2.412503585219383240e-02 -1.110205575823783875e-01 -7.625503093004226685e-02 1.609824299812316895e-01 3.403710201382637024e-02 -2.252108976244926453e-02 -5.859550833702087402e-02 5.057348683476448059e-02 -9.263458102941513062e-02 4.858628660440444946e-02 -1.153189912438392639e-01 1.027294173836708069e-01 -1.498320233076810837e-02 -1.510950773954391479e-01 3.463079407811164856e-02 -1.550486385822296143e-01 -2.171758189797401428e-02 1.779033094644546509e-01 9.919116646051406860e-02 1.420721113681793213e-01 1.330202668905258179e-01 -2.738185692578554153e-03 -8.752235211431980133e-03 7.867661863565444946e-02 3.753614798188209534e-02 3.450010437518358231e-03 4.024400562047958374e-02 7.626396417617797852e-02 -2.276100218296051025e-02 -9.211972355842590332e-02 -1.357951611280441284e-01 -6.004869565367698669e-02 -1.499955207109451294e-01 9.236145764589309692e-02 1.361342892050743103e-02 2.692858688533306122e-02 1.194205693900585175e-02 -8.261939883232116699e-02 8.628364652395248413e-02 -1.340327709913253784e-01 -8.565622568130493164e-02
