50
50
2.476591467857360840e-01 -1.444899141788482666e-01 9.220839291810989380e-02 -2.496910691261291504e-01 -3.293501958250999451e-02 -2.635214924812316895e-01 -8.462913334369659424e-02 2.006357312202453613e-01 -6.512349843978881836e-02 3.887725993990898132e-02 1.886793226003646851e-01 6.608162075281143188e-02 -2.080790139734745026e-02 1.424006223678588867e-01 3.447395563125610352e-02 -1.031602770090103149e-01 1.635628566145896912e-02 -1.108736246824264526e-01 4.529169946908950806e-02 5.205865204334259033e-02 2.868523001670837402e-01 -1.949750632047653198e-01 -6.523711979389190674e-02 -2.685409784317016602e-01 -6.857103854417800903e-02 1.945504695177078247e-01 1.489225588738918304e-02 6.917722523212432861e-02 -3.817289695143699646e-02 -3.823646903038024902e-02 2.236302196979522705e-02 -2.782223522663116455e-01 -1.684179008007049561e-01 -1.556153297424316406e-01 -4.881550371646881104e-02 2.812279388308525085e-02 5.679639987647533417e-03 -2.995569817721843719e-02 -1.407997757196426392e-01 -5.647416412830352783e-02 -2.354454062879085541e-02 1.695258617401123047e-01 2.409389019012451172e-01 2.202454805374145508e-01 -3.163454234600067139e-01 1.412235796451568604e-01 6.619343906641006470e-02 2.216247096657752991e-02 -1.964536607265472412e-01 1.156256943941116333e-01
2.928591966629028320e-01 -4.620329663157463074e-02 3.246594965457916260e-01 -1.364413201808929443e-01 -6.855715066194534302e-02 2.090019583702087402e-01 -1.972512304782867432e-01 1.944665759801864624e-01 -7.318804413080215454e-02 2.553233206272125244e-01 -3.925042599439620972e-02 -7.887631654739379883e-02 -1.999254338443279266e-02 3.053968250751495361e-01 1.646463125944137573e-01 -9.934712201356887817e-02 -7.511196285486221313e-02 3.265937790274620056e-02 5.376458540558815002e-02 7.073432952165603638e-02 -2.068071253597736359e-02 1.278280764818191528e-01 1.059520989656448364e-01 -2.444624304771423340e-01 -2.973580956459045410e-01 2.630952894687652588e-01 -1.921445429325103760e-01 2.894525527954101562e-01 1.141495332121849060e-01 6.150139868259429932e-02 -1.156513765454292297e-01 -4.646933078765869141e-02 2.185322940349578857e-01 3.840481489896774292e-02 1.423252820968627930e-01 -2.144345641136169434e-01 1.540011726319789886e-02 6.005829945206642151e-02 4.140097275376319885e-02 -4.987862706184387207e-02 1.101166754961013794e-01 5.280341487377882004e-03 -1.052900403738021851e-01 1.403719093650579453e-02 -1.580456942319869995e-01 3.880757689476013184e-01 -2.497233152389526367e-01 -2.127238214015960693e-01 5.338718742132186890e-02 -9.150969237089157104e-02
2.895230799913406372e-02 -1.648346483707427979e-01 5.676960572600364685e-02 -1.694878041744232178e-01 9.247489273548126221e-02 -4.603084176778793335e-02 2.245434820652008057e-01 3.835645318031311035e-02 2.308540046215057373e-01 -1.653194427490234375e-01 1.167804896831512451e-01 -2.324626147747039795e-01 -4.566152580082416534e-03 -2.890875041484832764e-01 -1.665837168693542480e-01 7.968465983867645264e-02 1.947975754737854004e-01 -2.129873186349868774e-01 -2.048688530921936035e-01 7.073502242565155029e-02 -8.868154138326644897e-02 -2.615525424480438232e-01 -1.037578284740447998e-01 6.020113453269004822e-02 2.317765057086944580e-01 -1.640887111425399780e-01 -2.221183180809020996e-01 6.648569554090499878e-02 -8.126229792833328247e-02 -5.824149772524833679e-02 1.013460680842399597e-01 -1.294873747974634171e-02 5.191523581743240356e-02 -1.296170949935913086e-01 7.624285668134689331e-02 9.184143505990505219e-03 1.742047667503356934e-01 1.141934003680944443e-02 8.544944226741790771e-02 8.427971601486206055e-02 2.115436345338821411e-01 1.625592820346355438e-02 8.541805297136306763e-02 4.088718444108963013e-03 -1.130387485027313232e-01 -2.300027012825012207e-01 -9.864816814661026001e-02 1.485909074544906616e-01 2.132952362298965454e-01 1.805300414562225342e-01
-1.356184482574462891e-01 3.506289795041084290e-02 -3.604099852964282036e-03 1.558772623538970947e-01 -2.045736163854598999e-01 -3.269873559474945068e-02 -5.331550166010856628e-02 -2.009313404560089111e-01 2.028303295373916626e-01 1.943728476762771606e-01 -1.520677953958511353e-01 2.168584428727626801e-02 2.239628285169601440e-01 -2.511231303215026855e-01 5.380757525563240051e-02 -2.752786576747894287e-01 -6.193889677524566650e-02 9.521637111902236938e-02 1.290246993303298950e-01 2.402133643627166748e-01 1.057894825935363770e-01 8.444588631391525269e-02 -2.604105770587921143e-01 -5.268727615475654602e-02 -1.263274550437927246e-01 5.157780833542346954e-03 1.862392202019691467e-02 2.323375940322875977e-01 2.667807042598724365e-01 1.564529836177825928e-01 -8.265406638383865356e-02 -2.613672912120819092e-01 -1.651396155357360840e-01 -1.125245541334152222e-01 -6.623823195695877075e-02 -1.269790530204772949e-01 1.440653651952743530e-01 -5.419500917196273804e-02 2.964222729206085205e-01 -1.230258941650390625e-01 -1.510719358921051025e-01 -7.601421093568205833e-04 -1.279633194208145142e-01 -1.922424137592315674e-01 -2.052541375160217285e-01 -2.112352699041366577e-01 -2.253296524286270142e-01 1.091031804680824280e-01 6.359694153070449829e-02 5.446559563279151917e-02
4.532796144485473633e-02 1.279492229223251343e-01 2.605441212654113770e-01 -1.907467842102050781e-01 2.543560564517974854e-01 -1.442137807607650757e-01 3.027943074703216553e-01 -2.219601124525070190e-01 -1.905283480882644653e-01 -3.555965423583984375e-02 6.483890861272811890e-02 -7.641014456748962402e-02 3.099883534014225006e-02 -2.148564010858535767e-01 -1.634938269853591919e-01 2.381128519773483276e-01 4.473608732223510742e-02 1.744235754013061523e-01 2.310555428266525269e-01 9.963028877973556519e-02 -9.453697502613067627e-02 7.632821053266525269e-02 1.703523248434066772e-01 9.118314832448959351e-02 1.658312827348709106e-01 -1.813937425613403320e-01 -2.353652268648147583e-01 -1.907370537519454956e-01 -1.810544431209564209e-01 1.628919243812561035e-01 -1.376080363988876343e-01 3.083086013793945312e-01 -1.910514980554580688e-01 -2.071819305419921875e-01 -9.157514199614524841e-03 -8.410114794969558716e-03 -1.521271467208862305e-01 -9.193837642669677734e-02 2.262479811906814575e-01 2.044107466936111450e-01 8.981780707836151123e-02 2.274122238159179688e-01 1.384833455085754395e-01 -1.638131290674209595e-01 7.612249255180358887e-02 1.675231307744979858e-01 -2.206697314977645874e-01 2.310210466384887695e-01 -9.269610047340393066e-02 -1.882714033126831055e-01
7.628252357244491577e-02 2.450661808252334595e-01 9.120124578475952148e-02 -2.100031226873397827e-01 2.038100734353065491e-02 -1.580722481012344360e-01 1.839760839939117432e-01 1.737179458141326904e-01 -2.452442944049835205e-01 -1.939156204462051392e-01 -1.715635657310485840e-01 -6.974082440137863159e-02 4.151869192719459534e-02 -6.697952002286911011e-02 1.193405017256736755e-01 1.816689819097518921e-01 -1.561155319213867188e-01 -1.554343849420547485e-01 -2.941689789295196533e-01 3.926679491996765137e-02 8.306321501731872559e-02 1.690017431974411011e-01 1.728421300649642944e-01 -1.111024022102355957e-01 1.506748329848051071e-02 2.783671915531158447e-01 -1.559501737356185913e-01 1.397544294595718384e-01 7.670560386031866074e-03 -2.747989594936370850e-01 -8.231253921985626221e-02 2.140301913022994995e-01 -8.951885253190994263e-02 -1.694700419902801514e-01 -7.739250361919403076e-02 -8.040333539247512817e-02 -1.169550493359565735e-01 6.293471157550811768e-02 -1.644570678472518921e-01 -5.300845578312873840e-02 -2.645128592848777771e-02 -2.159472852945327759e-01 -2.330945283174514771e-01 1.538766622543334961e-01 1.826993823051452637e-01 9.557631611824035645e-02 -2.289625257253646851e-01 -2.561576366424560547e-01 1.675167530775070190e-01 3.207197412848472595e-02
2.036471217870712280e-01 1.428829282522201538e-01 3.682370111346244812e-02 -2.081082463264465332e-01 2.277997583150863647e-01 3.929653670638799667e-03 -3.118773177266120911e-02 -2.902565300464630127e-01 5.276696756482124329e-02 -6.206808146089315414e-03 -1.132118329405784607e-01 1.452256292104721069e-01 -1.030618101358413696e-01 -5.482266470789909363e-02 4.200253635644912720e-02 -2.046730741858482361e-02 2.388446033000946045e-01 -1.419999301433563232e-01 -1.972293555736541748e-01 4.212000966072082520e-02 -2.541859745979309082e-01 1.329840272665023804e-01 5.307587236166000366e-02 2.819711267948150635e-01 2.022087872028350830e-01 1.517709791660308838e-01 4.926814883947372437e-02 2.427894771099090576e-01 -1.364320963621139526e-01 7.559355348348617554e-02 -7.406347990036010742e-02 -1.431108862161636353e-01 7.223921269178390503e-02 -2.115150727331638336e-02 2.196245789527893066e-01 1.490907073020935059e-01 2.810670621693134308e-02 1.199234351515769958e-01 -1.701774299144744873e-01 3.418458998203277588e-02 1.841800212860107422e-01 5.892207100987434387e-02 -1.246842965483665466e-01 1.413194686174392700e-01 1.701999008655548096e-01 1.659679114818572998e-01 2.353257536888122559e-01 2.481295019388198853e-01 2.507068812847137451e-01 1.390851736068725586e-01
-1.717859804630279541e-01 7.210084050893783569e-02 6.592526286840438843e-02 2.292742254212498665e-03 9.109637886285781860e-02 1.633812636137008667e-01 5.488389357924461365e-02 8.669766783714294434e-02 9.295459091663360596e-02 -2.499668002128601074e-01 -2.061354666948318481e-01 -1.661053746938705444e-01 -1.481787413358688354e-01 -3.638251870870590210e-02 -2.415611445903778076e-01 -1.228992044925689697e-01 -2.510796487331390381e-01 -1.893721073865890503e-01 2.100238651037216187e-01 1.137247607111930847e-01 7.238645851612091064e-02 -4.978305473923683167e-02 1.569391638040542603e-01 -3.785044327378273010e-02 2.291046082973480225e-01 -1.868169605731964111e-01 2.067660680040717125e-03 1.049092262983322144e-01 1.274067014455795288e-01 1.352732628583908081e-01 -2.636414254084229469e-03 -4.773699492216110229e-02 4.881379380822181702e-02 2.140380740165710449e-01 -3.924333676695823669e-02 -2.788099944591522217e-01 2.546547167003154755e-02 1.084340587258338928e-01 -2.158814221620559692e-01 -8.713815361261367798e-02 1.392833888530731201e-01 2.321548759937286377e-01 1.330616027116775513e-01 2.019827663898468018e-01 -2.959897518157958984e-01 -2.925763726234436035e-01 -7.268792390823364258e-02 -1.613718420267105103e-01 -1.241208091378211975e-01 -1.819472461938858032e-01
3.000854328274726868e-02 7.339847087860107422e-02 -1.431026309728622437e-01 2.859752774238586426e-01 -1.267964988946914673e-01 7.842394709587097168e-02 -2.569278776645660400e-01 -1.867357939481735229e-01 -1.686589270830154419e-01 -1.536486744880676270e-01 -9.013918787240982056e-02 2.318118810653686523e-01 4.743102192878723145e-02 1.036029458045959473e-01 3.341352567076683044e-02 -4.024323076009750366e-03 1.470602750778198242e-01 8.610599488019943237e-02 1.929081231355667114e-02 -1.874883621931076050e-01 2.256806939840316772e-02 -1.249273940920829773e-01 2.134188264608383179e-01 -1.629835069179534912e-01 1.045879870653152466e-01 2.410814166069030762e-01 -1.848567426204681396e-01 -7.347433269023895264e-02 1.046523973345756531e-01 1.522587984800338745e-01 8.138965815305709839e-02 6.582881510257720947e-02 8.852779865264892578e-02 -8.539901673793792725e-02 -4.673840478062629700e-02 -2.766023278236389160e-01 -8.132795803248882294e-03 1.657883524894714355e-01 1.763916462659835815e-01 -6.503845006227493286e-02 -1.093774512410163879e-01 -2.793806232511997223e-02 2.342922985553741455e-01 -2.918618544936180115e-02 -2.401025965809822083e-02 3.025143444538116455e-01 1.074535325169563293e-01 8.675441890954971313e-02 1.863457858562469482e-01 1.470477432012557983e-01
2.910019457340240479e-02 -6.878235191106796265e-02 1.987860053777694702e-01 -1.834602952003479004e-01 -2.999781370162963867e-01 -4.474494233727455139e-02 8.904193341732025146e-02 -1.025920361280441284e-01 -1.038770154118537903e-01 2.476299256086349487e-01 -1.232694908976554871e-01 -6.653860211372375488e-02 -4.201530292630195618e-02 -7.180980592966079712e-02 1.593119949102401733e-01 -2.635508179664611816e-01 1.646513044834136963e-01 2.150551080703735352e-01 -1.168302223086357117e-01 1.558457873761653900e-02 1.563357748091220856e-02 2.082087695598602295e-01 1.882283687591552734e-01 -1.217581257224082947e-01 -1.465016156435012817e-01 8.714247494935989380e-02 -2.430048286914825439e-01 1.802734285593032837e-01 -2.590636909008026123e-01 -1.890762895345687866e-01 1.424888670444488525e-01 1.961709931492805481e-02 -1.430030614137649536e-01 -2.054511308670043945e-01 1.232758909463882446e-01 -2.416049540042877197e-01 -1.244679689407348633e-01 2.324945628643035889e-01 1.290083825588226318e-01 -2.336054444313049316e-01 -1.117415279150009155e-01 -6.460064649581909180e-02 -1.116700023412704468e-01 -1.440499871969223022e-01 -6.051504518836736679e-03 2.125740498304367065e-01 2.291083633899688721e-01 -2.901662606745958328e-03 3.280490264296531677e-02 2.020528763532638550e-01
-1.760118454694747925e-02 6.745582073926925659e-02 2.612693905830383301e-01 1.372034251689910889e-01 1.071038395166397095e-01 1.756266355514526367e-01 -1.518604457378387451e-01 -2.627074420452117920e-01 1.250736564397811890e-01 -3.825774043798446655e-02 1.393252909183502197e-01 -1.928586214780807495e-01 -2.017627656459808350e-01 2.756209969520568848e-01 1.707172989845275879e-01 -1.358109563589096069e-01 1.428432017564773560e-01 2.724103862419724464e-03 1.726211607456207275e-02 -2.516958713531494141e-01 -2.690969109535217285e-01 -7.757382094860076904e-02 2.778568305075168610e-02 -1.753135398030281067e-02 1.262374073266983032e-01 4.596330225467681885e-02 -7.704482972621917725e-02 -7.683946192264556885e-02 -1.975290924310684204e-01 -9.683927055448293686e-04 4.002737998962402344e-02 -4.478667303919792175e-02 -4.683729633688926697e-02 2.369406372308731079e-01 2.011640071868896484e-01 -9.770391136407852173e-02 9.092248976230621338e-02 -1.644914150238037109e-01 6.993455439805984497e-02 6.939601735211908817e-04 7.294619083404541016e-02 1.000559516251087189e-02 1.708013564348220825e-01 -2.012129575014114380e-01 5.523616820573806763e-02 3.368440866470336914e-01 -1.263235136866569519e-02 -3.474049642682075500e-02 2.802542038261890411e-02 -2.207579314708709717e-01
3.045369088649749756e-01 2.124598175287246704e-01 -1.713551431894302368e-01 -2.543568313121795654e-01 -1.021983027458190918e-01 -3.381270542740821838e-02 -2.048285603523254395e-01 -1.217631250619888306e-01 -1.752756834030151367e-01 -2.794657647609710693e-01 8.802606910467147827e-02 1.892960071563720703e-01 -2.214782238006591797e-01 -4.794733226299285889e-02 -1.937012076377868652e-01 1.058186441659927368e-01 1.769521832466125488e-01 1.705487072467803955e-01 -2.570672035217285156e-01 9.201519191265106201e-02 2.512917816638946533e-01 1.461521908640861511e-02 -1.168661490082740784e-01 -1.357353627681732178e-01 2.228204905986785889e-01 -1.171630099415779114e-01 2.931111864745616913e-02 -7.217543572187423706e-02 -1.807293891906738281e-01 3.601658716797828674e-02 -4.451113939285278320e-02 -4.006743803620338440e-02 -3.970707580447196960e-02 -2.398179285228252411e-02 -1.928350329399108887e-01 -2.586051588878035545e-03 6.605307757854461670e-02 -1.631033420562744141e-01 3.800272196531295776e-02 1.642020642757415771e-01 1.837750971317291260e-01 -1.992910504341125488e-01 1.650927662849426270e-01 -2.348601371049880981e-01 -5.765899643301963806e-02 -4.438588395714759827e-02 5.253762379288673401e-02 6.509939581155776978e-02 2.493373751640319824e-01 -1.363549679517745972e-01
-1.179124638438224792e-01 -1.326212435960769653e-01 7.110203057527542114e-02 8.530019223690032959e-02 6.630853563547134399e-02 1.461381465196609497e-01 3.276996016502380371e-01 1.951389759778976440e-01 1.277647316455841064e-01 1.567793637514114380e-02 2.109905326506122947e-04 -1.637983322143554688e-01 -1.765612065792083740e-01 -1.803591102361679077e-02 5.876468867063522339e-02 -4.109612479805946350e-02 6.277910619974136353e-02 -7.369469851255416870e-02 -1.443224251270294189e-01 -1.857104301452636719e-01 2.975566983222961426e-01 -1.353875249624252319e-01 -1.039505824446678162e-01 -8.743194490671157837e-02 2.333780676126480103e-01 1.553531587123870850e-01 -2.592163383960723877e-01 -3.037702441215515137e-01 -2.699668407440185547e-01 -5.439844727516174316e-02 1.995414048433303833e-01 2.577306330204010010e-01 -2.031337022781372070e-01 -1.385240536183118820e-02 -2.369004189968109131e-01 -1.855632215738296509e-01 -1.844342797994613647e-01 1.268378794193267822e-01 2.203247547149658203e-01 -3.201677501201629639e-01 -1.176927313208580017e-01 1.690435707569122314e-01 -1.221774592995643616e-01 -2.809599637985229492e-01 -1.390661299228668213e-02 -1.613389141857624054e-02 2.708906531333923340e-01 1.367611885070800781e-01 -5.073640495538711548e-02 9.006418287754058838e-02
-2.419622242450714111e-01 -2.582020163536071777e-01 -2.389139831066131592e-01 -1.145681831985712051e-02 -3.030576705932617188e-01 1.299642473459243774e-01 -9.111890196800231934e-02 1.136187650263309479e-02 3.111516870558261871e-02 -3.202120773494243622e-03 3.430984318256378174e-01 -1.544052809476852417e-01 -5.140036717057228088e-02 3.241094052791595459e-01 1.664533838629722595e-02 -3.548694774508476257e-02 3.121067583560943604e-01 1.077469289302825928e-01 2.996629476547241211e-01 -1.991621702909469604e-01 -1.128374114632606506e-01 -1.033538505434989929e-01 -1.077157258987426758e-01 8.629721403121948242e-02 -2.347373366355895996e-01 2.588003277778625488e-01 1.772256009280681610e-02 2.655934989452362061e-01 4.076449200510978699e-02 -2.370152026414871216e-01 2.870444059371948242e-01 -3.052964806556701660e-01 -1.057750284671783447e-01 -1.358876526355743408e-01 -5.156560242176055908e-02 -1.160755902528762817e-01 1.191356107592582703e-01 -1.693752557039260864e-01 -8.800486475229263306e-02 1.404003649950027466e-01 -3.087307512760162354e-01 -1.086884438991546631e-01 -2.330178618431091309e-01 2.962420880794525146e-02 4.187961574643850327e-03 -4.841487109661102295e-01 1.612631529569625854e-01 -2.185771614313125610e-01 1.264148950576782227e-02 2.869510278105735779e-02
-2.029157280921936035e-01 -1.180229410529136658e-01 -1.870660185813903809e-01 1.645589172840118408e-01 -4.368695244193077087e-02 3.166966438293457031e-01 8.535131812095642090e-02 1.162855550646781921e-01 -1.715349555015563965e-01 8.875970542430877686e-02 -4.475073888897895813e-03 -1.617825329303741455e-01 -2.068517059087753296e-01 -3.187967538833618164e-01 1.957081556320190430e-01 -7.677931338548660278e-02 -1.513884514570236206e-01 2.978778481483459473e-01 1.622116863727569580e-01 7.524154335260391235e-02 1.398350745439529419e-01 1.917541623115539551e-01 -1.206918880343437195e-01 -2.447497844696044922e-02 -5.874781310558319092e-02 -6.160773709416389465e-02 -3.831621631979942322e-02 -1.329782009124755859e-01 2.700210781767964363e-03 -2.932606637477874756e-02 8.083178848028182983e-02 2.185198962688446045e-01 -2.454433739185333252e-01 7.087072357535362244e-03 -1.565189212560653687e-01 -1.495454907417297363e-01 7.019033282995223999e-02 -1.144178435206413269e-01 -3.739198669791221619e-02 -1.976337432861328125e-01 -1.269672214984893799e-01 2.260809242725372314e-01 -1.754283457994461060e-01 1.397705078125000000e-01 1.736357510089874268e-01 -6.006126105785369873e-02 -1.407769769430160522e-01 -8.407931029796600342e-02 -1.382867842912673950e-01 1.338035315275192261e-01
-1.337883919477462769e-01 -1.771641075611114502e-01 -3.186461627483367920e-01 2.235576808452606201e-01 3.078628182411193848e-01 1.560657173395156860e-01 -3.424627780914306641e-01 -1.087975576519966125e-01 3.580493852496147156e-02 -2.984997332096099854e-01 -2.092486470937728882e-01 -2.432837039232254028e-01 1.367435604333877563e-01 -2.912020385265350342e-01 -2.236674278974533081e-01 1.528935283422470093e-01 -2.211384475231170654e-01 -2.738782465457916260e-01 -1.954338252544403076e-01 -8.336271345615386963e-02 3.026183545589447021e-01 2.470705956220626831e-01 1.263739261776208878e-02 -5.289148911833763123e-02 2.411319315433502197e-01 -2.932723760604858398e-01 2.371024787425994873e-01 -1.483060717582702637e-01 1.842967718839645386e-01 -2.572216987609863281e-01 6.335686147212982178e-02 1.595858484506607056e-01 -2.643521316349506378e-02 -9.826214052736759186e-03 -4.994659125804901123e-02 -2.281665243208408356e-02 1.225854754447937012e-01 -2.379182167351245880e-02 -9.612662717700004578e-03 2.558437585830688477e-01 -5.638175085186958313e-02 -3.908450528979301453e-02 1.197886466979980469e-01 -1.015654131770133972e-01 1.412009745836257935e-01 -3.882609605789184570e-01 -1.815159022808074951e-01 -2.329186201095581055e-01 7.524590939283370972e-02 -1.866084784269332886e-01
-2.509464025497436523e-01 -1.424847245216369629e-01 3.392394632101058960e-02 9.612134657800197601e-03 4.618189856410026550e-02 1.394598782062530518e-01 5.996855720877647400e-02 -8.161258883774280548e-03 2.328121215105056763e-01 1.632308065891265869e-01 1.973968297243118286e-01 -5.348222702741622925e-02 -1.390190236270427704e-02 2.065810859203338623e-01 5.055576562881469727e-02 -2.245513908565044403e-02 9.858048707246780396e-02 1.241091042757034302e-01 2.259890139102935791e-01 -1.460250765085220337e-01 -2.546795904636383057e-01 -2.254535704851150513e-01 1.402944177389144897e-01 -1.384166534990072250e-02 1.835340708494186401e-01 -1.802041381597518921e-01 1.083540767431259155e-01 7.633547484874725342e-02 -1.389262825250625610e-01 1.732818484306335449e-01 1.631749793887138367e-02 2.581146061420440674e-01 1.738844513893127441e-01 -4.642214626073837280e-03 1.681603193283081055e-01 4.530616849660873413e-02 1.633903831243515015e-01 1.441229879856109619e-01 1.763417273759841919e-01 7.294557988643646240e-03 1.159511134028434753e-01 4.531963542103767395e-02 -1.576816290616989136e-02 -1.699773520231246948e-01 -1.979743838310241699e-01 -1.944993138313293457e-01 -1.035876721143722534e-01 5.878914147615432739e-02 1.867186278104782104e-01 2.025009542703628540e-01
2.848244607448577881e-01 -4.269951209425926208e-02 6.573983281850814819e-02 -1.989695429801940918e-01 -2.302735894918441772e-01 -2.315222769975662231e-01 2.967384755611419678e-01 -2.623860538005828857e-01 2.956396639347076416e-01 -7.460988312959671021e-02 -6.151769310235977173e-02 4.932927340269088745e-02 1.591308563947677612e-01 9.605051018297672272e-04 -2.424806915223598480e-02 -1.331690698862075806e-01 -1.592516154050827026e-01 2.024024426937103271e-01 -1.859359256923198700e-02 -2.314717620611190796e-01 3.654908537864685059e-01 5.151864513754844666e-02 -2.445919513702392578e-01 2.306499034166336060e-01 -5.993830785155296326e-02 -1.799524128437042236e-01 5.105360224843025208e-02 6.635492201894521713e-03 1.653453260660171509e-01 -2.910616099834442139e-01 -2.641355097293853760e-01 -3.775418549776077271e-02 1.087201982736587524e-01 -1.780238188803195953e-02 6.319424510002136230e-02 2.164497599005699158e-02 7.613473385572433472e-02 -4.471778124570846558e-02 1.062065269798040390e-02 -1.458935737609863281e-01 -1.590433567762374878e-01 2.606206573545932770e-02 6.592721492052078247e-02 -9.714828804135322571e-03 -3.456873074173927307e-02 -3.306138888001441956e-02 1.366666406393051147e-01 -8.648478239774703979e-02 1.241770684719085693e-01 5.563377216458320618e-02
-9.475041180849075317e-02 2.036425024271011353e-01 7.468229532241821289e-02 5.009139701724052429e-02 -1.490178517997264862e-02 1.481221318244934082e-01 -2.340686768293380737e-01 -1.533497571945190430e-01 2.942521125078201294e-03 -2.119799852371215820e-01 1.388163566589355469e-01 -6.121848151087760925e-02 9.204395860433578491e-02 1.019861623644828796e-01 -2.814370393753051758e-01 1.315056979656219482e-01 -1.287186592817306519e-01 2.177603095769882202e-01 9.712525457143783569e-02 7.759644184261560440e-03 -3.735691681504249573e-02 5.525323376059532166e-02 -4.334561899304389954e-02 -3.181636631488800049e-01 -2.008484899997711182e-01 -1.858363300561904907e-01 2.649163603782653809e-01 -2.495074868202209473e-01 3.403683304786682129e-01 -1.734880730509757996e-02 1.536123454570770264e-01 -1.676897704601287842e-01 -7.339658588171005249e-02 -1.584610193967819214e-01 1.100976914167404175e-01 -2.168790698051452637e-01 1.079048439860343933e-01 6.310822069644927979e-02 -1.226979568600654602e-01 1.712885499000549316e-01 3.501062095165252686e-02 -2.161618471145629883e-01 1.832052916288375854e-01 -1.582659035921096802e-02 1.855651140213012695e-01 1.072455048561096191e-01 -2.928362488746643066e-01 5.509905982762575150e-03 -5.979314446449279785e-02 -3.880715742707252502e-02
1.170992478728294373e-01 -1.134334038943052292e-02 3.666139906272292137e-03 -8.534590899944305420e-02 1.265202015638351440e-01 8.396598277613520622e-04 -3.876901045441627502e-02 -1.113664135336875916e-01 1.987525075674057007e-02 -1.871512830257415771e-01 1.827361881732940674e-01 7.731865346431732178e-02 3.163496404886245728e-02 -1.142658367753028870e-01 1.826865822076797485e-01 -1.874182373285293579e-01 2.419924885034561157e-01 -2.276031374931335449e-01 -1.239208206534385681e-01 -1.662008464336395264e-02 1.127045825123786926e-01 -1.852171123027801514e-01 1.857168078422546387e-01 -1.662569344043731689e-01 1.344495415687561035e-01 -8.748683333396911621e-02 -9.509802609682083130e-02 1.507242470979690552e-01 -1.514595896005630493e-01 8.958900719881057739e-02 -7.897013425827026367e-02 -3.015462756156921387e-01 1.163566559553146362e-01 5.706380680203437805e-02 1.740381121635437012e-01 -1.271022707223892212e-01 4.657197371125221252e-02 -6.237573549151420593e-02 1.725085973739624023e-01 2.040869742631912231e-01 2.090589553117752075e-01 4.707948118448257446e-02 -7.431145291775465012e-03 2.191566377878189087e-01 -1.919088959693908691e-01 3.131787106394767761e-02 2.121687978506088257e-01 -1.884965747594833374e-01 -7.328376639634370804e-03 -2.548254728317260742e-01
-2.227773666381835938e-01 9.504811465740203857e-02 -2.756111323833465576e-02 1.373557187616825104e-02 1.633468270301818848e-02 -8.590104430913925171e-02 2.149060666561126709e-01 -1.888667792081832886e-01 1.378209739923477173e-01 1.660362631082534790e-01 -1.628707200288772583e-01 -2.418655902147293091e-01 -5.701308697462081909e-02 -5.100772902369499207e-02 -6.374638527631759644e-02 -2.143946886062622070e-01 1.301565617322921753e-01 1.256088465452194214e-01 1.756595224142074585e-01 3.956837952136993408e-02 8.423515409231185913e-02 -1.836957186460494995e-01 8.271136321127414703e-03 1.724457144737243652e-01 -7.260256260633468628e-02 -1.699572354555130005e-01 -9.772963821887969971e-03 -1.242762282490730286e-01 -5.635415762662887573e-02 -1.787402778863906860e-01 -1.343874931335449219e-01 -6.036997213959693909e-02 -4.758306592702865601e-02 -2.233504801988601685e-01 -1.612154394388198853e-01 -1.333847939968109131e-01 2.013264000415802002e-01 -1.703717857599258423e-01 1.445145905017852783e-01 1.376225501298904419e-01 2.519029080867767334e-01 1.379487365484237671e-01 7.023737579584121704e-02 -2.441386729478836060e-01 -6.936018168926239014e-02 -1.275348961353302002e-01 -1.096652299165725708e-01 2.192294001579284668e-01 9.318023920059204102e-02 -1.156169101595878601e-01
2.814217470586299896e-02 1.127345636487007141e-01 -3.224976127967238426e-03 1.626152247190475464e-01 2.552121579647064209e-01 -8.731355890631675720e-03 -6.126601714640855789e-03 -1.187326610088348389e-01 -1.221358403563499451e-01 2.766074836254119873e-01 -1.730463951826095581e-01 1.638143211603164673e-01 -2.470015734434127808e-01 2.478634864091873169e-01 -1.574327349662780762e-01 -1.820640116930007935e-01 1.784707754850387573e-01 -1.092631593346595764e-01 1.579813808202743530e-01 -1.206358000636100769e-01 7.383254915475845337e-02 -9.417463839054107666e-02 -9.570690244436264038e-02 -7.193049043416976929e-02 9.594345465302467346e-03 6.531946361064910889e-02 -1.883234642446041107e-02 -3.102576173841953278e-02 -1.195600777864456177e-01 -2.207439243793487549e-01 1.184081435203552246e-01 6.105498597025871277e-02 1.491269469261169434e-01 -1.392335444688796997e-01 -7.053460925817489624e-02 5.232660844922065735e-02 2.384479641914367676e-01 -1.750378124415874481e-02 -4.864505305886268616e-02 -3.244090592488646507e-03 2.623148858547210693e-01 1.705113649368286133e-01 5.298245698213577271e-03 1.690120548009872437e-01 -1.683268509805202484e-02 2.690160572528839111e-01 -7.541479170322418213e-02 -8.585865050554275513e-02 -8.140341937541961670e-02 -3.075731545686721802e-02
1.282602101564407349e-01 -3.397898375988006592e-02 2.344343662261962891e-01 3.091282248497009277e-01 1.824580430984497070e-01 2.647267282009124756e-01 -1.630171090364456177e-01 1.174747869372367859e-01 -3.099399805068969727e-01 2.523299455642700195e-01 1.379398722201585770e-02 -2.234658449888229370e-01 7.939244806766510010e-02 9.698401391506195068e-02 -1.933853924274444580e-01 2.687845379114151001e-02 -2.732431292533874512e-01 2.180289626121520996e-01 -2.437462359666824341e-01 -6.157907098531723022e-02 2.054592370986938477e-01 -7.549844449386000633e-04 2.893671989440917969e-01 8.965486288070678711e-02 3.265686705708503723e-02 2.119534909725189209e-01 -1.430716738104820251e-02 -1.558575034141540527e-01 1.835376322269439697e-01 -1.126862317323684692e-01 -1.791694760322570801e-01 3.210046887397766113e-01 -1.193993017077445984e-01 -2.622058093547821045e-01 1.119302436709403992e-01 -1.717417091131210327e-01 1.457784324884414673e-01 -2.051977962255477905e-01 2.592947781085968018e-01 1.892716288566589355e-01 -1.712685376405715942e-01 1.423121709376573563e-02 -6.616105139255523682e-02 -5.298882350325584412e-02 -3.717317804694175720e-02 1.441863924264907837e-01 -6.333755701780319214e-02 3.195076882839202881e-01 -6.348026543855667114e-02 6.766941398382186890e-02
1.242360547184944153e-01 1.251940876245498657e-01 -1.725063621997833252e-01 -3.474332094192504883e-01 -9.516838937997817993e-02 -3.887257725000381470e-02 2.098662257194519043e-01 -1.852286309003829956e-01 2.996351718902587891e-01 -2.645517885684967041e-01 -1.133157610893249512e-01 1.050281524658203125e-01 -2.215199917554855347e-01 5.122193694114685059e-02 -1.714976727962493896e-01 -8.503260463476181030e-02 8.941554278135299683e-02 1.043012440204620361e-01 -6.066184490919113159e-02 -1.909604668617248535e-01 -2.094258666038513184e-01 -2.645325362682342529e-01 8.283353596925735474e-02 -1.643296033143997192e-01 2.111816108226776123e-01 2.933548390865325928e-01 -1.762515157461166382e-01 1.792482435703277588e-01 -9.277511388063430786e-02 2.228378690779209137e-02 -2.945618629455566406e-01 -2.303111739456653595e-02 1.868173032999038696e-01 1.653906852006912231e-01 4.766606166958808899e-02 5.665833503007888794e-02 1.215165480971336365e-01 2.181555479764938354e-01 5.676055327057838440e-02 1.337775290012359619e-01 1.461369991302490234e-01 1.541168540716171265e-01 1.293230801820755005e-01 2.272100150585174561e-01 -3.022651970386505127e-01 -1.075726598501205444e-01 -1.909396201372146606e-01 -2.339197993278503418e-01 -1.289757341146469116e-01 1.702475994825363159e-01
-2.039198577404022217e-01 -1.354964375495910645e-01 4.838771000504493713e-02 -9.975751489400863647e-02 -1.570073962211608887e-01 -7.760513573884963989e-02 9.687217883765697479e-03 1.444365084171295166e-01 -2.266348898410797119e-01 -1.048544049263000488e-01 -7.425665110349655151e-02 1.023665443062782288e-02 -2.280496209859848022e-01 1.615045219659805298e-01 4.811232537031173706e-02 -1.546840667724609375e-01 1.289448738098144531e-01 -1.046729162335395813e-01 1.423558336682617664e-03 -2.880078256130218506e-01 1.128550805151462555e-02 1.951543092727661133e-01 1.808742433786392212e-02 1.996771097183227539e-01 -2.529454231262207031e-01 -2.566238343715667725e-01 -1.588025093078613281e-01 2.030433267354965210e-01 -7.932089269161224365e-02 -2.574195563793182373e-01 1.221379861235618591e-01 -1.858081519603729248e-01 -1.359915919601917267e-02 1.277661472558975220e-01 1.430636495351791382e-01 4.323009774088859558e-02 5.942866206169128418e-02 5.295017734169960022e-02 5.442992225289344788e-02 1.100193057209253311e-02 1.225762367248535156e-01 -8.956240862607955933e-02 -1.669546514749526978e-01 -9.833086282014846802e-02 1.320651080459356308e-02 -8.744125068187713623e-02 -7.032623142004013062e-02 -1.876350119709968567e-02 1.801362931728363037e-01 -2.298272214829921722e-02
2.067547477781772614e-02 1.777105182409286499e-01 -1.014559939503669739e-01 -2.337085902690887451e-01 -1.747156977653503418e-01 2.865291200578212738e-02 -6.314171105623245239e-02 -1.405591070652008057e-01 9.508696943521499634e-02 -1.869042813777923584e-01 2.712620794773101807e-01 2.656551301479339600e-01 5.242573469877243042e-02 -1.440784782171249390e-01 8.565449714660644531e-02 9.291765093803405762e-02 2.319947928190231323e-01 2.417097836732864380e-01 -2.077392861247062683e-02 -1.194011494517326355e-01 -8.051732182502746582e-02 2.293603420257568359e-01 3.975998237729072571e-02 1.604547649621963501e-01 -3.375709056854248047e-01 1.574019491672515869e-01 -1.520363092422485352e-01 2.914629280567169189e-01 -1.026746779680252075e-01 -1.666754335165023804e-01 7.592198997735977173e-02 -1.667134165763854980e-01 1.191559880971908569e-01 -1.103341579437255859e-02 -8.319494873285293579e-02 -1.282351016998291016e-01 -1.286879274994134903e-02 9.558917582035064697e-02 4.821888729929924011e-02 -7.695523649454116821e-02 7.819063961505889893e-02 -2.193413525819778442e-01 -1.600714027881622314e-01 -3.144827112555503845e-02 -5.979056283831596375e-02 1.317814737558364868e-01 -2.333138734102249146e-01 -2.438409179449081421e-01 -8.174359053373336792e-02 -1.148419901728630066e-01
-5.905767530202865601e-02 1.785611920058727264e-02 -4.809799790382385254e-02 -1.827611625194549561e-01 2.141857147216796875e-01 2.179189212620258331e-02 7.125228643417358398e-02 9.598655253648757935e-02 2.329950928688049316e-01 -2.443528175354003906e-01 -3.648422658443450928e-02 -1.273116916418075562e-01 3.563561185728758574e-04 -3.072541356086730957e-01 2.112128734588623047e-01 -3.700192645192146301e-02 1.040379628539085388e-01 8.836078457534313202e-03 1.997929364442825317e-01 -4.029940813779830933e-02 -3.062734305858612061e-01 -8.934065699577331543e-02 1.476714760065078735e-01 2.224804908037185669e-01 -2.497943192720413208e-01 -7.881823927164077759e-03 3.411509841680526733e-02 -1.702848938293755054e-03 3.940797469113022089e-04 -1.717614233493804932e-01 5.641072988510131836e-02 -1.884662806987762451e-01 5.996789783239364624e-02 -1.930899173021316528e-01 6.073305383324623108e-02 -9.527114033699035645e-02 -1.839425712823867798e-01 -2.365164160728454590e-01 -3.077403903007507324e-01 -8.428265899419784546e-02 -2.323293238878250122e-01 5.641135200858116150e-02 4.639080911874771118e-02 1.255683749914169312e-01 1.001536846160888672e-01 1.254228800535202026e-01 4.952302575111389160e-02 5.859513580799102783e-02 5.843885987997055054e-02 -1.381507962942123413e-01
2.003004401922225952e-01 5.628215149044990540e-02 -6.685946881771087646e-02 2.957321517169475555e-02 1.182600930333137512e-01 2.791049182415008545e-01 -2.586201131343841553e-01 1.334787458181381226e-01 1.651233434677124023e-01 1.331523954868316650e-01 -6.603536754846572876e-02 -2.767094671726226807e-01 -1.312745660543441772e-01 2.016927748918533325e-01 -1.366414725780487061e-01 -1.888650208711624146e-01 1.070344448089599609e-01 7.122220005840063095e-03 2.195426449179649353e-02 3.069714829325675964e-02 9.930068999528884888e-02 -2.253586500883102417e-01 -2.425263375043869019e-01 2.025031149387359619e-01 2.653019130229949951e-01 1.935186237096786499e-01 6.278318166732788086e-02 -7.610513828694820404e-03 1.913955658674240112e-01 -2.559323906898498535e-01 2.168496698141098022e-01 1.986095756292343140e-01 4.668964073061943054e-02 -6.449574604630470276e-03 1.736423373222351074e-01 -8.709840476512908936e-02 7.866511493921279907e-02 2.016856968402862549e-01 -1.178116425871849060e-01 1.398801431059837341e-02 -2.132800221443176270e-01 9.098608791828155518e-02 -4.871905595064163208e-02 -1.006849557161331177e-01 -6.400533020496368408e-02 1.129959896206855774e-01 3.287124633789062500e-02 -1.450600624084472656e-01 1.817821115255355835e-01 1.397745609283447266e-01
-1.951462477445602417e-01 1.361051499843597412e-01 -2.908628284931182861e-01 1.595090627670288086e-01 -4.379330575466156006e-02 -9.038145653903484344e-03 1.415189541876316071e-02 1.267350465059280396e-01 -1.744062006473541260e-01 -1.978384107351303101e-01 -1.180607825517654419e-01 9.547021239995956421e-03 4.476730898022651672e-02 3.934367746114730835e-02 -2.098637819290161133e-01 1.437003761529922485e-01 -1.714475303888320923e-01 2.974947392940521240e-01 -1.787918508052825928e-01 1.175197437405586243e-01 1.509761214256286621e-01 2.903846204280853271e-01 -4.761067777872085571e-02 -6.871221214532852173e-02 -5.474006384611129761e-02 9.150761365890502930e-02 4.603587836027145386e-02 -1.461633890867233276e-01 1.812132149934768677e-01 1.552695184946060181e-01 1.167838945984840393e-01 -2.415268868207931519e-01 -7.322070747613906860e-02 5.223906412720680237e-02 6.599576026201248169e-02 -1.109700649976730347e-01 -1.368873119354248047e-01 2.514953613281250000e-01 -2.703818678855895996e-01 1.298701763153076172e-01 -1.335032582283020020e-01 -1.494163274765014648e-01 -8.109648525714874268e-02 2.480040490627288818e-01 -1.855574995279312134e-01 1.461559236049652100e-01 5.932922475039958954e-03 -2.285632044076919556e-01 -1.295845806598663330e-01 -1.504250913858413696e-01
6.378860771656036377e-02 2.084060013294219971e-01 -1.685645133256912231e-01 3.872587159276008606e-02 -1.661376282572746277e-02 1.256966441869735718e-01 2.636492066085338593e-02 -1.509828120470046997e-01 -2.264297306537628174e-01 -9.761754423379898071e-02 1.434679180383682251e-01 -2.082432508468627930e-01 4.210496321320533752e-03 2.092956751585006714e-01 1.311117857694625854e-01 -2.230560779571533203e-01 1.937333941459655762e-01 -1.509889215230941772e-01 -1.487393490970134735e-02 1.972242742776870728e-01 -2.290302962064743042e-01 1.268896162509918213e-01 -1.407996565103530884e-02 -2.172105312347412109e-01 1.802234500646591187e-01 -1.512646824121475220e-01 -1.326713562011718750e-01 2.160935252904891968e-01 1.679056733846664429e-01 2.460962720215320587e-02 2.320151329040527344e-01 -2.504495978355407715e-01 -1.286902129650115967e-01 7.256843894720077515e-02 3.013136796653270721e-02 -1.152930185198783875e-01 1.869199573993682861e-01 -2.470404803752899170e-01 2.645279765129089355e-01 -2.190027236938476562e-01 2.453420162200927734e-01 -1.845060735940933228e-01 2.205131351947784424e-01 1.262689530849456787e-01 6.188837066292762756e-02 1.394127607345581055e-01 1.073545590043067932e-01 -6.393542140722274780e-02 -1.057849079370498657e-01 9.540884196758270264e-02
8.333536982536315918e-02 1.266217678785324097e-01 4.338081460446119308e-03 2.367605119943618774e-01 1.635879427194595337e-01 1.291675269603729248e-01 -1.399007290601730347e-01 3.050104016438126564e-03 4.073755070567131042e-02 -7.693349570035934448e-02 2.383946627378463745e-01 2.819678485393524170e-01 9.704939275979995728e-02 -5.532715469598770142e-02 2.655017971992492676e-01 2.503971159458160400e-01 1.750169247388839722e-01 -1.418029982596635818e-02 -1.973510161042213440e-02 -2.100966125726699829e-01 2.339434111490845680e-03 1.136353090405464172e-01 1.804514825344085693e-01 1.855487525463104248e-01 -2.563796639442443848e-01 1.150138378143310547e-01 -2.162321805953979492e-01 -1.198461651802062988e-01 -1.475572437047958374e-01 -8.898327499628067017e-02 1.672949641942977905e-01 -2.126232534646987915e-01 -1.201240122318267822e-01 -1.359084397554397583e-01 -7.160618901252746582e-02 2.081368863582611084e-02 -1.957575976848602295e-01 -9.080907329916954041e-03 4.965716227889060974e-02 1.284232083708047867e-02 -2.442126423120498657e-01 -1.035770028829574585e-01 1.986904442310333252e-01 2.069828510284423828e-01 -1.113801375031471252e-01 1.720488220453262329e-01 8.121269196271896362e-02 -1.314513236284255981e-01 -1.905149966478347778e-01 -6.535117328166961670e-02
-4.788524657487869263e-02 -3.115458227694034576e-02 2.519904971122741699e-01 1.870093494653701782e-01 7.347058504819869995e-02 3.251232206821441650e-01 -1.730480939149856567e-01 1.210625842213630676e-01 -2.973865568637847900e-01 1.586458235979080200e-01 -1.098790913820266724e-01 -5.675151944160461426e-02 3.450522571802139282e-02 -5.702271312475204468e-02 -4.869869351387023926e-02 1.981870085000991821e-01 -2.078406512737274170e-01 6.403108593076467514e-03 1.747602373361587524e-01 -5.329034104943275452e-02 -1.528501603752374649e-02 -1.441666632890701294e-01 2.605611383914947510e-01 -5.092719569802284241e-02 2.207927778363227844e-02 8.685276657342910767e-02 7.890809327363967896e-02 1.841535866260528564e-01 9.616947174072265625e-02 2.636393308639526367e-01 2.005944699048995972e-01 -2.513690590858459473e-01 -2.466740645468235016e-02 1.752928644418716431e-01 -2.332857847213745117e-01 -8.062180131673812866e-03 6.848866492509841919e-02 2.604421675205230713e-01 -2.940245866775512695e-01 3.527995198965072632e-02 1.506942510604858398e-01 -1.319069135934114456e-02 -1.848071664571762085e-01 2.026496231555938721e-01 -4.453204572200775146e-02 2.115786373615264893e-01 -1.053866818547248840e-01 1.370499581098556519e-01 2.339075952768325806e-01 -2.047202922403812408e-02
1.462028473615646362e-01 -2.005942761898040771e-01 1.488603949546813965e-01 -2.709196507930755615e-02 8.874706923961639404e-02 -1.903917789459228516e-01 -3.302801251411437988e-01 -9.498924016952514648e-02 -3.775171190500259399e-02 1.491037895902991295e-03 2.099453210830688477e-01 -2.832879684865474701e-02 -1.967002749443054199e-01 1.761206686496734619e-01 -2.093787938356399536e-01 -6.372459977865219116e-02 -5.130659043788909912e-02 -3.503878787159919739e-02 1.350779533386230469e-01 1.124072223901748657e-01 -1.959819048643112183e-01 1.036759912967681885e-01 8.210822939872741699e-03 9.057527035474777222e-02 7.489629089832305908e-02 1.239897683262825012e-03 3.027943521738052368e-02 2.036298066377639771e-01 1.313108112663030624e-02 -6.594108790159225464e-02 3.840852528810501099e-02 1.449014246463775635e-01 -2.326446026563644409e-02 1.348554491996765137e-01 2.047646641731262207e-01 5.126532167196273804e-02 2.139181196689605713e-01 5.420109629631042480e-02 -3.315539062023162842e-01 5.886749923229217529e-02 1.320213973522186279e-01 1.324109882116317749e-01 -1.119010802358388901e-02 1.342697590589523315e-01 1.966062337160110474e-01 -2.615781128406524658e-01 1.701404601335525513e-01 -2.659423276782035828e-03 1.226291358470916748e-01 1.016277372837066650e-01
-1.585543006658554077e-01 2.245028764009475708e-01 -2.325821667909622192e-02 -1.119814217090606689e-01 1.878262907266616821e-01 -1.069931685924530029e-02 1.061363071203231812e-01 1.057311594486236572e-01 2.589074075222015381e-01 -1.712913364171981812e-01 1.110380887985229492e-01 -4.297161067370325327e-04 2.105082422494888306e-01 -1.180543154478073120e-01 -5.149583145976066589e-02 2.350639700889587402e-01 -8.781631290912628174e-02 -9.002705663442611694e-02 -6.953521817922592163e-02 -2.211578190326690674e-02 7.489657402038574219e-02 -1.717863231897354126e-02 3.665050864219665527e-02 1.886503249406814575e-01 -1.265752464532852173e-01 -5.832950046169571579e-05 2.720434032380580902e-02 -8.299838006496429443e-02 1.476742625236511230e-01 -1.499946415424346924e-01 8.995933830738067627e-02 9.162601828575134277e-02 -1.574544906616210938e-01 8.387728780508041382e-02 2.158930599689483643e-01 1.628689765930175781e-01 -1.671894639730453491e-02 -2.914743423461914062e-01 -1.283233165740966797e-01 -2.395797222852706909e-01 1.303853392601013184e-01 6.008807569742202759e-02 -1.999047547578811646e-01 -5.776898562908172607e-02 5.041715921834111214e-04 3.197591900825500488e-01 -1.965775489807128906e-01 -2.047784440219402313e-02 -2.745890058577060699e-02 2.535747289657592773e-01
-2.146642655134201050e-03 -1.483523845672607422e-01 5.277650197967886925e-04 -1.367109566926956177e-01 -5.244835838675498962e-02 -2.686323598027229309e-02 1.434849798679351807e-01 8.787368983030319214e-02 1.774173788726329803e-02 -3.389119356870651245e-02 1.853331029415130615e-01 9.391225874423980713e-02 -1.258303076028823853e-01 2.586011886596679688e-01 9.487766772508621216e-02 6.697589159011840820e-02 3.430651128292083740e-02 1.073437854647636414e-01 1.538540124893188477e-01 -2.752380967140197754e-01 1.390349417924880981e-01 8.662893623113632202e-02 -3.080525994300842285e-01 8.800821006298065186e-02 -2.572548687458038330e-01 1.398170590400695801e-01 -1.228250637650489807e-01 1.333464980125427246e-01 6.868384033441543579e-02 1.779798418283462524e-01 6.741500645875930786e-02 -1.980276405811309814e-01 -3.618301451206207275e-02 1.053948104381561279e-01 2.649751259014010429e-03 2.484685033559799194e-01 -1.188780665397644043e-01 -1.175409331917762756e-01 2.180902212858200073e-01 -7.449350506067276001e-02 1.818959414958953857e-01 -2.601844966411590576e-01 2.672328650951385498e-01 -1.114366054534912109e-01 -1.465723663568496704e-01 -1.354223769158124924e-02 -1.696980446577072144e-01 3.538497909903526306e-02 5.309939756989479065e-02 3.091598674654960632e-02
-1.188257709145545959e-01 -1.415532231330871582e-01 -1.352304965257644653e-01 -2.833282575011253357e-02 -5.455998703837394714e-03 2.151463031768798828e-01 2.134000062942504883e-01 -1.040375828742980957e-01 3.296261653304100037e-02 1.508960686624050140e-02 2.179114520549774170e-01 5.548053607344627380e-02 -1.824067719280719757e-02 2.647271752357482910e-01 7.806953787803649902e-02 -2.468467652797698975e-01 1.170869469642639160e-01 -1.564423143863677979e-01 -6.423003226518630981e-02 -5.097665823996067047e-03 -1.018863990902900696e-01 4.760758578777313232e-02 -1.261967327445745468e-02 7.743109762668609619e-02 -1.716064661741256714e-01 1.975121796131134033e-01 -1.994175165891647339e-01 3.757371380925178528e-02 -5.339426919817924500e-02 -2.650114893913269043e-01 1.124696880578994751e-01 -1.548414230346679688e-01 9.411699324846267700e-02 1.078761890530586243e-01 -3.919873759150505066e-02 1.638708263635635376e-01 3.805959597229957581e-02 1.360427141189575195e-01 1.212689429521560669e-01 -3.718648850917816162e-02 2.139339596033096313e-01 2.334470897912979126e-01 -1.842878311872482300e-01 -1.226672306656837463e-01 -2.437532506883144379e-02 -1.128993034362792969e-01 2.022966742515563965e-01 1.527361869812011719e-01 6.349965929985046387e-02 9.703303873538970947e-02
-2.144958674907684326e-01 4.261733964085578918e-02 4.613106325268745422e-02 -1.942140609025955200e-01 -1.436250954866409302e-01 9.526870399713516235e-02 1.395962536334991455e-01 1.493199169635772705e-01 1.806556433439254761e-01 -7.410984486341476440e-02 -6.432347465306520462e-03 1.459312736988067627e-01 1.328995674848556519e-01 1.041927635669708252e-01 2.058879584074020386e-01 2.112219631671905518e-01 7.016493380069732666e-02 -1.619901210069656372e-01 6.133090704679489136e-02 -5.879799649119377136e-02 -2.332282513380050659e-01 -2.002417892217636108e-01 1.977137476205825806e-01 1.192495450377464294e-01 6.028044968843460083e-02 -1.255288422107696533e-01 -2.510358113795518875e-03 3.773295506834983826e-02 1.247674375772476196e-01 -2.979047410190105438e-02 3.623769432306289673e-02 1.807185411453247070e-01 -2.017890363931655884e-01 9.155543148517608643e-02 3.155792132019996643e-02 -1.960023939609527588e-01 -2.004480659961700439e-01 1.597675085067749023e-01 -2.165117859840393066e-01 -1.453084051609039307e-01 7.062530517578125000e-02 1.599040627479553223e-01 -1.388958375900983810e-02 1.352374851703643799e-01 1.226157229393720627e-02 -2.166362479329109192e-02 1.955389082431793213e-01 1.320265382528305054e-01 2.548358775675296783e-02 1.237187758088111877e-01
2.653164267539978027e-01 2.480512261390686035e-01 -1.221700459718704224e-01 2.098787426948547363e-01 -1.194239854812622070e-01 -9.310190379619598389e-02 -2.666013240814208984e-01 -8.399255573749542236e-02 -9.305373579263687134e-02 1.009355783462524414e-01 -4.681392014026641846e-02 2.224485278129577637e-01 -1.423869375139474869e-02 -2.516935467720031738e-01 2.309721261262893677e-01 -5.767337605357170105e-02 6.860776245594024658e-02 -2.109743058681488037e-01 9.242875874042510986e-02 4.173431172966957092e-02 -3.834913298487663269e-02 1.965699940919876099e-01 2.417662143707275391e-01 -1.905461400747299194e-01 2.228574454784393311e-01 1.224405914545059204e-01 5.664317309856414795e-02 7.018769532442092896e-02 -4.644596949219703674e-02 1.849516034126281738e-01 2.678619027137756348e-01 1.344062089920043945e-01 1.648783981800079346e-01 -2.124937772750854492e-01 4.641079530119895935e-02 7.141911890357732773e-03 -6.872455775737762451e-02 4.438953101634979248e-02 8.084122836589813232e-02 2.310390025377273560e-01 -2.956878244876861572e-01 7.987456023693084717e-02 8.997828513383865356e-02 1.574501246213912964e-01 9.378734976053237915e-02 2.894994020462036133e-01 -3.540537506341934204e-02 -1.527026444673538208e-01 2.090986073017120361e-01 1.534187514334917068e-02
6.029421463608741760e-02 -2.731853425502777100e-01 1.201101765036582947e-01 1.538165211677551270e-01 -1.611195951700210571e-01 -2.020581066608428955e-01 -5.420681834220886230e-02 1.277833878993988037e-01 1.542748957872390747e-01 2.798402607440948486e-01 1.811881177127361298e-02 1.179981678724288940e-01 1.574387401342391968e-01 5.309559404850006104e-02 -1.918597966432571411e-01 -7.855372875928878784e-02 -8.597806841135025024e-02 -1.607160270214080811e-01 -2.395953387022018433e-01 -1.397095620632171631e-01 -2.046257853507995605e-01 -9.065861254930496216e-02 6.384486705064773560e-02 -1.037672832608222961e-01 2.140714526176452637e-01 -1.209991276264190674e-01 -9.491113945841789246e-03 -2.163545973598957062e-02 -1.000299453735351562e-01 1.908184587955474854e-01 -1.136352568864822388e-01 2.643441259860992432e-01 2.412936985492706299e-01 7.489348202943801880e-02 2.144057303667068481e-01 1.164341345429420471e-01 4.176783934235572815e-02 -2.795793414115905762e-01 1.640925407409667969e-01 1.482224906794726849e-04 -4.663921892642974854e-02 5.580540001392364502e-02 1.096543506719172001e-03 -1.840648055076599121e-01 1.961876824498176575e-02 3.281809687614440918e-01 1.795033812522888184e-01 -2.092789262533187866e-01 -1.508270651102066040e-01 1.284369640052318573e-02
3.812325373291969299e-02 6.864844355732202530e-03 -3.245072960853576660e-01 1.930470019578933716e-01 1.878989636898040771e-01 -2.009388804435729980e-01 2.474516481161117554e-01 -2.617542743682861328e-01 2.556124925613403320e-01 3.367673233151435852e-02 1.734974980354309082e-01 -1.279429942369461060e-01 1.440035402774810791e-01 2.561595663428306580e-02 -2.271668165922164917e-01 -2.783701382577419281e-02 2.063516974449157715e-01 1.994407773017883301e-01 2.039968818426132202e-01 -1.966950297355651855e-01 -2.216819822788238525e-01 -1.854798197746276855e-01 -1.049968823790550232e-01 -2.743481099605560303e-02 1.801668554544448853e-01 -1.597790569067001343e-01 2.109195888042449951e-01 -9.941591322422027588e-02 -2.045776695013046265e-01 -6.415887922048568726e-02 -3.824635595083236694e-02 -4.414613544940948486e-01 -2.163794934749603271e-01 -9.549373388290405273e-02 1.155252084136009216e-01 2.049274975433945656e-03 -2.006994783878326416e-01 -1.539438497275114059e-02 -3.069840669631958008e-01 2.035015448927879333e-02 2.873663417994976044e-02 -1.647512465715408325e-01 -6.959035247564315796e-02 1.002729162573814392e-01 -1.861255317926406860e-01 -1.137257292866706848e-01 1.401474475860595703e-01 -1.607633531093597412e-01 7.435086369514465332e-02 8.978306502103805542e-02
2.478510141372680664e-01 -4.635630548000335693e-02 2.715352475643157959e-01 -1.130621507763862610e-01 7.977366447448730469e-02 7.597166299819946289e-02 7.795576751232147217e-02 -2.061713933944702148e-01 -1.602264195680618286e-01 1.504429578781127930e-01 -8.229779452085494995e-02 1.891643255949020386e-01 -1.049602637067437172e-03 1.833300590515136719e-01 -1.093506962060928345e-01 2.323064394295215607e-02 -9.006264060735702515e-02 1.243494153022766113e-01 7.504595816135406494e-02 -1.544610857963562012e-01 1.399302482604980469e-01 -1.999782025814056396e-01 2.053005546331405640e-01 -1.435862183570861816e-01 -8.986313641071319580e-02 1.621498465538024902e-01 9.751582890748977661e-02 1.563517898321151733e-01 6.331186741590499878e-02 2.653952538967132568e-01 -3.815289214253425598e-02 2.026822417974472046e-01 2.449735254049301147e-01 5.183526501059532166e-02 -2.328506261110305786e-01 -1.971799647435545921e-03 -2.890220582485198975e-01 1.438238471746444702e-01 1.696449965238571167e-01 1.387062370777130127e-01 2.155907601118087769e-01 -1.950793415307998657e-01 1.154837906360626221e-01 -4.888096451759338379e-02 -2.357439696788787842e-02 2.483706325292587280e-01 -1.751808524131774902e-01 8.016726374626159668e-02 6.720297038555145264e-02 -5.182079225778579712e-02
5.726828798651695251e-02 -3.209634125232696533e-02 2.987282276153564453e-01 -1.609993875026702881e-01 -2.520103454589843750e-01 -2.959995269775390625e-01 2.009353041648864746e-01 -1.240904033184051514e-01 8.038695901632308960e-02 -1.245007142424583435e-01 2.692030668258666992e-01 1.772227883338928223e-01 -2.335703372955322266e-01 -6.656320393085479736e-02 7.540403306484222412e-02 -6.092511489987373352e-02 2.462114021182060242e-02 1.247295886278152466e-01 9.656337648630142212e-02 -6.013157963752746582e-02 -1.138935312628746033e-01 -2.176908850669860840e-01 -2.305294573307037354e-01 1.503265947103500366e-01 -1.910931020975112915e-01 2.574452757835388184e-01 1.267638951539993286e-01 1.719262897968292236e-01 -2.604967057704925537e-01 3.823015838861465454e-02 2.492331415414810181e-01 -1.083813011646270752e-01 2.733513116836547852e-01 1.715355813503265381e-01 6.789124757051467896e-02 2.680268585681915283e-01 -9.858707338571548462e-02 1.672639250755310059e-01 1.750844419002532959e-01 1.062433868646621704e-01 1.827494055032730103e-01 1.497717499732971191e-01 1.711092293262481689e-01 2.123444527387619019e-01 2.587669193744659424e-01 -1.289644837379455566e-01 -1.809691786766052246e-01 1.461625993251800537e-01 9.003478288650512695e-02 -2.322393506765365601e-01
3.024674057960510254e-01 -1.488088220357894897e-01 2.702358961105346680e-01 1.939228922128677368e-01 2.184553630650043488e-02 1.719435602426528931e-01 -9.347504377365112305e-02 4.193496704101562500e-02 4.456434026360511780e-02 1.020434405654668808e-02 -7.823766022920608521e-02 -1.337124705314636230e-01 8.136636018753051758e-02 7.639308273792266846e-02 -9.703483432531356812e-02 2.466957271099090576e-02 -4.659678041934967041e-02 1.997269131243228912e-02 -1.019795909523963928e-01 2.750518321990966797e-01 1.929989010095596313e-01 3.085772506892681122e-02 2.518372610211372375e-02 -1.580561697483062744e-01 1.427839845418930054e-01 -4.531115666031837463e-02 -1.027070954442024231e-01 -2.513314187526702881e-01 8.627764880657196045e-02 9.408424794673919678e-02 -6.824250519275665283e-02 2.013183981180191040e-01 9.111770242452621460e-02 -2.576996684074401855e-01 -1.744025759398937225e-02 4.000566527247428894e-02 1.216887906193733215e-01 -9.839869290590286255e-02 -6.100555136799812317e-02 -2.543674111366271973e-01 6.839454174041748047e-02 2.276158481836318970e-01 -1.777015924453735352e-01 5.850291252136230469e-02 -1.841416507959365845e-01 2.524692714214324951e-01 -1.275462061166763306e-01 1.362606585025787354e-01 -1.033288687467575073e-01 -4.463557526469230652e-02
1.285501122474670410e-01 -2.534711658954620361e-01 -8.640441298484802246e-02 1.610089242458343506e-01 1.092439442873001099e-01 9.695883095264434814e-02 -1.553047895431518555e-01 3.094075992703437805e-02 6.260003894567489624e-02 1.527678966522216797e-01 -1.090172678232192993e-01 1.422529369592666626e-01 -2.083703875541687012e-01 -1.840169429779052734e-01 2.296350300312042236e-01 -1.142317429184913635e-01 -2.152231335639953613e-01 -1.482417583465576172e-01 -4.375725984573364258e-03 1.119875311851501465e-01 8.852006494998931885e-02 9.673854708671569824e-02 5.000145733356475830e-02 7.090451568365097046e-02 5.404247716069221497e-02 2.468567341566085815e-01 -2.653274126350879669e-02 -2.096886187791824341e-01 -2.024707943201065063e-01 -2.113156616687774658e-01 -1.359492689371109009e-01 1.746076047420501709e-01 -8.583305031061172485e-02 -2.009147852659225464e-01 -3.609015420079231262e-02 -9.655810892581939697e-02 -1.846074014902114868e-01 -2.011463344097137451e-01 -9.194503724575042725e-02 1.505148946307599545e-03 -5.453146249055862427e-02 -3.771402314305305481e-02 6.057284772396087646e-02 -2.513943985104560852e-02 1.286892592906951904e-01 -2.233599275350570679e-01 4.507495090365409851e-02 -1.717797815799713135e-01 -6.665813922882080078e-02 1.407348215579986572e-01
-1.944641321897506714e-01 -9.664241224527359009e-02 -1.845169514417648315e-01 -1.093467250466346741e-01 1.136463833972811699e-03 1.137378066778182983e-01 -1.692769825458526611e-01 1.231559142470359802e-01 -2.876718901097774506e-02 1.205696091055870056e-01 -1.120369583368301392e-01 -8.495280891656875610e-02 1.564951241016387939e-01 -8.811539411544799805e-02 2.523010969161987305e-01 -1.248911395668983459e-01 -2.582612633705139160e-01 1.151271313428878784e-01 1.152788475155830383e-01 7.997697591781616211e-02 -1.863602250814437866e-01 1.919565647840499878e-01 1.702198386192321777e-01 -2.926298379898071289e-01 -1.075017973780632019e-01 1.991524547338485718e-01 2.069608271121978760e-01 3.129007667303085327e-02 4.535999521613121033e-02 -1.874175667762756348e-01 1.635806411504745483e-01 -1.994840055704116821e-01 -1.950031220912933350e-01 -2.338135540485382080e-01 -1.119746416807174683e-01 1.819349676370620728e-01 -5.428624898195266724e-02 2.256418764591217041e-01 -1.498423665761947632e-01 1.998237073421478271e-01 -1.927954703569412231e-01 -1.192295700311660767e-01 -5.026006326079368591e-02 8.887441456317901611e-02 1.220262870192527771e-01 1.914907991886138916e-01 -5.804142449051141739e-03 -1.529928594827651978e-01 -2.043494135141372681e-01 -2.639203369617462158e-01
1.261185705661773682e-01 -3.627429306507110596e-01 2.221671342849731445e-01 -1.802839189767837524e-01 -3.611387610435485840e-01 -2.968713641166687012e-01 1.370807290077209473e-01 2.309159487485885620e-01 -1.672985404729843140e-01 -3.532425686717033386e-02 9.106666594743728638e-02 -1.557438671588897705e-01 -1.958265900611877441e-01 3.831932246685028076e-01 -4.105985537171363831e-02 1.524965763092041016e-01 2.538479268550872803e-01 2.106510251760482788e-01 -6.825868040323257446e-02 -1.505404859781265259e-01 2.797055542469024658e-01 1.640984117984771729e-01 -1.111369505524635315e-01 4.579915478825569153e-02 -2.482286095619201660e-01 2.234003841876983643e-01 -2.822697162628173828e-01 3.312894999980926514e-01 -1.547403931617736816e-01 -2.483317553997039795e-01 -1.776838749647140503e-01 -2.067609876394271851e-01 1.031766086816787720e-01 -1.909680366516113281e-01 1.357037723064422607e-01 -8.965712040662765503e-02 -2.619843184947967529e-01 1.589412614703178406e-02 -1.243008077144622803e-01 -8.245498873293399811e-03 2.251369655132293701e-01 1.485104393213987350e-02 -2.762299031019210815e-02 1.119379401206970215e-01 1.148414909839630127e-01 -2.299008965492248535e-01 1.044336259365081787e-01 -1.368407160043716431e-01 -8.527661114931106567e-02 1.912635937333106995e-02
1.660373210906982422e-01 3.869928792119026184e-02 -3.404973074793815613e-02 -2.292946353554725647e-02 4.492679610848426819e-03 7.620292901992797852e-02 2.215528488159179688e-01 6.706296652555465698e-02 -7.175074517726898193e-02 -2.437972128391265869e-01 -1.767112165689468384e-01 1.925350576639175415e-01 -2.007441371679306030e-01 2.225494086742401123e-01 4.214354231953620911e-02 -5.659146979451179504e-02 -7.479717489331960678e-03 -5.714291706681251526e-02 -2.427742034196853638e-01 7.406471762806177139e-03 5.203985422849655151e-02 1.474537998437881470e-01 1.086345836520195007e-01 2.827980816364288330e-01 1.863769143819808960e-01 -4.625225812196731567e-02 -2.505472302436828613e-01 -1.079785823822021484e-01 -2.879311442375183105e-01 8.562806062400341034e-03 -3.014375865459442139e-01 -4.910079389810562134e-02 1.880625337362289429e-01 -2.212112843990325928e-01 -6.868346780538558960e-02 -1.613748520612716675e-01 1.158996112644672394e-02 -2.664465606212615967e-01 -1.897186934947967529e-01 -2.692392766475677490e-01 -5.897083505988121033e-02 2.657349109649658203e-01 1.324023455381393433e-01 -2.641749382019042969e-01 -2.451191395521163940e-01 3.291458785533905029e-01 2.603454589843750000e-01 1.562775671482086182e-01 1.408691406250000000e-01 -8.790987730026245117e-02
1.558910310268402100e-01 1.303658336400985718e-01 -3.063884973526000977e-01 -1.105974763631820679e-01 -2.723374366760253906e-01 -3.083702027797698975e-01 3.713802248239517212e-02 -2.775108814239501953e-02 1.618931889533996582e-01 -2.963912785053253174e-01 -8.030671626329421997e-02 -1.283566653728485107e-01 6.630600988864898682e-02 1.396040171384811401e-01 -2.142678052186965942e-01 1.177202016115188599e-01 1.441709548234939575e-01 1.579630933701992035e-02 1.761332899332046509e-01 -1.633680611848831177e-01 2.030319273471832275e-01 2.166660726070404053e-01 -3.144063949584960938e-01 -5.915971472859382629e-02 1.425316333770751953e-01 -2.358656972646713257e-01 8.244580030441284180e-02 1.455426514148712158e-01 -7.267186045646667480e-02 3.066411241888999939e-02 -1.153356879949569702e-01 -3.548696041107177734e-01 -7.266858965158462524e-02 -1.782588064670562744e-01 -4.905223473906517029e-02 8.730368426768109202e-05 6.944437325000762939e-02 2.603384256362915039e-01 -3.812979161739349365e-02 2.054120302200317383e-01 -2.081257402896881104e-01 2.212880253791809082e-01 1.292344778776168823e-01 1.913696825504302979e-01 -3.058654069900512695e-01 -8.504402823746204376e-03 -3.537763655185699463e-02 2.146728336811065674e-03 1.738104820251464844e-01 -1.273577567189931870e-03
-2.254136353731155396e-01 2.943975664675235748e-02 3.007057905197143555e-01 -2.288303524255752563e-02 1.346034258604049683e-01 2.286663465201854706e-02 9.702481329441070557e-02 1.818840354681015015e-01 -2.857944741845130920e-02 2.043508589267730713e-01 -3.200319036841392517e-02 2.159359119832515717e-02 2.072953879833221436e-01 -5.220787227153778076e-02 1.190732419490814209e-01 2.325528115034103394e-01 -1.740667521953582764e-01 2.152483612298965454e-01 -2.156232595443725586e-01 2.569568343460559845e-02 -7.770431786775588989e-02 2.909932984039187431e-03 7.717073708772659302e-02 2.236963212490081787e-01 2.503817081451416016e-01 1.775955110788345337e-01 3.752547875046730042e-02 4.314981400966644287e-03 -2.169995754957199097e-01 2.528986632823944092e-01 3.875353559851646423e-02 2.232664227485656738e-01 -1.876046657562255859e-01 1.800374537706375122e-01 -1.960834413766860962e-01 4.221977200359106064e-03 -1.880862861871719360e-01 5.474673211574554443e-02 1.007935404777526855e-01 1.551029086112976074e-01 1.017779037356376648e-01 1.627785414457321167e-01 -3.440368920564651489e-03 1.621948629617691040e-01 2.106873542070388794e-01 -1.064530313014984131e-01 -1.950465440750122070e-01 1.020705774426460266e-01 -1.309556812047958374e-01 -1.873859316110610962e-01
-2.854855656623840332e-01 -1.191178113222122192e-01 9.894069284200668335e-02 -2.358025638386607170e-03 3.079989254474639893e-01 3.191897571086883545e-01 -2.027996927499771118e-01 -3.382816677913069725e-03 9.904258698225021362e-02 2.409872561693191528e-01 3.907916322350502014e-02 -7.846958935260772705e-02 2.818003892898559570e-01 -3.552024364471435547e-01 -1.385476291179656982e-01 2.483359128236770630e-01 -2.834953069686889648e-01 -8.656953275203704834e-02 -9.415248036384582520e-02 9.505598992109298706e-02 1.766130775213241577e-01 -1.821807771921157837e-02 2.006373256444931030e-01 -1.083810701966285706e-01 2.234827727079391479e-01 1.954144239425659180e-02 1.893554627895355225e-01 1.795895211398601532e-02 3.496199473738670349e-02 1.562421303242444992e-02 2.959301173686981201e-01 7.516061514616012573e-02 -1.054706871509552002e-01 -2.008722275495529175e-01 -2.667029500007629395e-01 -1.817219406366348267e-01 -2.025008648633956909e-01 1.876985728740692139e-01 -3.089062571525573730e-01 2.312551997601985931e-02 1.221648082137107849e-01 -8.785336464643478394e-02 -8.299107104539871216e-02 -1.134933754801750183e-01 3.482436239719390869e-01 -1.006657481193542480e-01 2.551051080226898193e-01 5.567514151334762573e-02 1.737486422061920166e-01 2.028891742229461670e-01
